2.2604e-10,2.3542e-43,-2.9027e-08,-3.2113e-13,-4.6486e-11,-8.0305e-12,7.3244e-08,1.0493e-12,1.058e-05,-1.3867e-41,2.4539e-14,4.6652e-09,-6.1127e-12,-1.1106e-11,-3.4157e-06,-4.6862e-13,-3.2648e-10,-8.1572e-08,-1.13e-09,-3.6835e-07,5.4226e-07,5.3234e-15,-1.3207e-13,-8.9824e-16,-1.9796e-14,3.2133e-13,-9.2677e-12,3.2103e-13,1.5256e-07,5.4247e-12,9.4106e-12,8.6765e-13,4.4425e-08,2.7028e-15,-5.6893e-43,-5.8553e-10,1.8482e-09,-8.1793e-08,-6.0479e-13,7.3901e-13,1.6485e-09,2.1037e-07,2.1479e-09,-1.0841e-13,2.2075e-13,-1.0243e-06,-1.5822e-10,6.2325e-07,-1.7321e-17,-1.2091e-09,1.4304e-05,2.4033e-08,-4.1812e-06,2.899e-11,-1.2008e-20,1.946e-10,1.6026e-05,2.5208e-05,-3.2177e-08,1.852e-08,-2.9638e-10,6.0902e-33,-2.6816e-10,2.2579e-06,-2.0049e-07,0.08673,1.8261e-08,2.1096e-07,-4.2673e-30,-4.0217e-06,-2.5525e-16,-8.6416e-09,-8.8999e-31,-1.5475e-05,-1.3423e-08,6.1313e-10,2.3423e-31,-1.4041e-15,-5.463e-09,-0.00046823,-4.7104e-10,-2.7824e-05,1.4195e-07,1.0498e-18,-2.0227e-18,0.25813,2.8339e-07,-0.05541,-4.361e-06,2.68e-26,-2.2347e-08,-1.8883e-12,4.0765e-10,2.6306e-08,-0.0076472,5.5376e-10,2.1431e-18,0.10027,-0.018797,-3.7681e-11,-1.5799e-09,9.4746e-11,-9.0785e-08,1.7108e-41,-2.5098e-06,-2.3702e-09,1.5616e-10,-0.00016,1.0346e-06,3.3442e-10,-3.1604e-10,-2.8018e-14,-0.050221,-2.0645e-08,-6.2613e-12,-1.6629e-12,7.4401e-07,-1.5717e-30,-0.043446,-1.3895e-09,5.1488e-33,1.1243e-12,-1.7033e-10,-8.4102e-16,-8.9987e-18,0.12614,1.5371e-09,1.377e-06,1.2588e-07,0.033547,9.7258e-09,5.8126e-09,5.3462e-31,1.5156e-12,-3.7218e-42,-7.8689e-09,-2.5266e-32,-1.0775e-09,-2.5367e-08,-2.8447e-11,5.0553e-31,-2.9135e-37,-2.6657e-09,-0.00026627,-1.5696e-10,-4.4538e-05,1.0321e-07,-4.568e-19,-1.8377e-18,0.093572,-6.0244e-08,-0.16397,1.269e-12,1.3835e-25,-1.2375e-08,-7.8728e-13,-2.3823e-11,-2.7765e-10,-0.0004102,-9.9147e-10,-8.4291e-19,0.21194,0.037852,1.1578e-11,-1.5824e-09,1.1337e-10,-8.6498e-08,-5.2549e-43,2.9071e-05,6.1977e-09,-2.5678e-11,-5.1695e-06,-4.9235e-07,-1.3049e-09,6.0433e-10,1.2965e-14,-0.14677,1.3959e-08,8.4218e-43,-1.3773e-14,3.3066e-07,4.6221e-31,-0.12431,9.1396e-18,8.618e-43,1.6006e-13,6.1943e-13,-5.1055e-16,5.1988e-43,0.049344,-1.1836e-09,-7.7064e-07,-1.9226e-08,0.0074584,5.2637e-08,-1.3301e-07,1.5773e-33,3.2606e-14,-6.3058e-43,-1.1379e-08,-3.5328e-32,1.9653e-14,-8.8574e-09,2.1285e-10,3.4658e-32,-1.3883e-37,4.4944e-09,-1.2135e-05,-5.9929e-11,-1.0444e-06,-3.6757e-08,6.7409e-20,-3.1816e-18,0.018331,-1.513e-08,0.079412,2.7652e-14,4.2413e-26,-3.4816e-09,-4.7437e-13,-1.1871e-10,-4.6371e-09,0.00066561,-5.6199e-10,5.5868e-21,-0.066682,-0.022377,-8.3598e-11,-1.4167e-09,-2.1416e-11,-5.2922e-09,-1.2752e-43,2.5883e-07,-3.1342e-10,-5.0046e-11,-1.5298e-06,3.2024e-09,-2.6124e-10,7.8325e-11,-2.727e-15,0.06975,-1.6946e-08,3.5647e-13,1.465e-12,-7.2493e-07,1.6524e-31,0.05785,2.3314e-18,-1.0061e-42,8.0433e-13,4.03e-11,1.0352e-17,1.8498e-17,0.010171,7.4856e-10,-1.3597e-06,3.4215e-07,0.12017,-1.2524e-08,-8.0213e-07,8.8754e-32,-1.0569e-14,4.5963e-43,-1.3946e-09,7.3288e-32,-1.2156e-14,-7.3748e-09,-1.8689e-12,-1.5577e-31,-1.0811e-36,4.4796e-09,2.9532e-05,-3.5224e-10,-3.7798e-07,1.3369e-07,9.7709e-19,-1.6225e-18,0.34692,2.1829e-07,0.0041748,-1.0557e-14,8.0026e-26,-1.592e-09,-1.1184e-13,2.1019e-10,-3.7098e-10,-0.0015118,2.5152e-10,-2.2439e-18,0.013246,-0.044833,-2.8615e-11,1.755e-09,-1.4886e-11,-1.5668e-09,-6.5861e-43,6.371e-06,-1.1456e-09,-7.3788e-11,-1.4564e-06,1.0447e-06,-1.282e-09,-9.7927e-11,-5.7537e-15,0.0022961,-8.1969e-09,3.6268e-12,-2.3382e-12,-4.7157e-07,-1.0899e-30,-8.4495e-05,-2.8551e-18,6.0816e-43,3.1455e-13,7.0854e-12,-4.1791e-16,-3.8995e-17,0.17282,-1.3185e-09,1.3121e-06,-3.305e-08,0.037781,-1.8312e-08,-1.749e-07,-1.1976e-32,-2.8721e-14,9.0244e-43,-1.0484e-08,-4.7546e-32,2.6892e-14,-4.3242e-08,-4.7503e-10,1.8497e-31,-7.7843e-38,-2.5652e-09,-5.8852e-06,-6.6557e-11,1.0942e-05,1.15e-08,4.9741e-19,-9.9999e-19,0.10505,-2.4045e-07,-0.058435,-2.7524e-14,2.6996e-26,-3.802e-08,4.4344e-13,-7.9814e-11,2.6263e-09,0.0011396,6.7267e-10,-3.257e-19,0.07148,-0.0088768,-1.3088e-11,1.0278e-09,-2.2745e-11,5.4685e-08,-9.1785e-43,1.3712e-05,-2.7477e-09,-1.9993e-11,1.0181e-06,1.5337e-07,1.0985e-09,3.0997e-10,1.2499e-14,-0.051963,1.1431e-08,8.1836e-43,-6.0138e-13,-2.9429e-07,1.2005e-32,-0.043906,3.3098e-18,7.3008e-43,1.7836e-14,-5.226e-12,4.198e-16,1.0524e-42,0.054922,-8.7928e-10,1.3914e-07,-1.7236e-07,0.040654,-5.2121e-09,1.8832e-06,-6.6534e-21,-7.4675e-05,-9.8791e-13,-1.0452e-08,4.8998e-21,-0.00013083,-1.3557e-08,-7.7265e-10,-5.5682e-31,-6.5841e-10,2.7404e-09,-0.0016072,-1.5358e-10,-2.9998e-05,1.6357e-07,-1.0386e-18,1.0564e-18,0.11512,-7.0646e-07,0.25782,-7.5946e-05,1.1144e-21,3.8249e-09,-1.8217e-12,3.7803e-10,-1.5224e-08,-0.0022275,-1.2438e-10,-5.3604e-18,-0.12845,-0.044452,4.4192e-10,-3.0006e-09,9.7065e-11,-1.2281e-07,-7.5588e-23,-1.4441e-05,-8.0427e-09,-2.3641e-11,-0.0010894,1.9404e-06,9.7213e-10,-1.0161e-09,9.037e-13,0.22887,1.9623e-08,3.1019e-12,-2.33e-12,9.9603e-08,-2.6979e-23,0.19227,-9.0619e-07,-3.7544e-19,1.3512e-12,-9.8331e-11,5.5126e-16,-2.5124e-16,0.057562,-3.7752e-09,1.7779e-06,7.6263e-11,0.066632,3.1549e-08,-1.8748e-07,-1.1576e-31,6.7621e-15,-9.1365e-43,-4.8692e-09,6.4542e-32,9.0842e-15,1.0355e-09,8.8972e-11,-1.972e-31,6.2051e-38,2.6402e-09,1.1019e-05,-1.9432e-10,-5.3932e-06,1.8455e-07,-5.8318e-19,2.5638e-18,0.19976,1.3017e-07,0.02301,7.4241e-15,4.6211e-26,-2.0404e-08,6.8806e-13,5.4867e-10,-3.3884e-09,0.00085152,9.393e-10,-8.9728e-19,-0.019551,-0.02482,-1.8715e-11,2.649e-09,1.6769e-11,5.1771e-09,7.2868e-44,3.6519e-06,1.1201e-10,8.8346e-11,-2.0508e-06,-2.5003e-07,1.258e-09,1.0361e-11,5.8008e-16,0.019958,1.7597e-08,-7.5321e-13,-7.2015e-13,-5.6415e-07,6.6067e-31,0.015888,6.303e-18,-4.9886e-43,6.5094e-13,9.3064e-12,9.8251e-16,1.5165e-17,0.096376,-1.9434e-09,-9.1114e-07,-2.8883e-08,-0.083815,1.679e-07,-2.0664e-06,3.2551e-30,-3.0426e-06,-5.9732e-21,-2.8615e-08,-6.0314e-32,-9.4744e-06,-2.5222e-08,3.5406e-11,3.1515e-31,-5.6474e-16,-1.3374e-09,-0.002348,1.1901e-10,5.0431e-05,2.6544e-08,-2.4951e-21,-8.1711e-18,-0.25696,4.0046e-07,0.17711,-3.2469e-06,4.2989e-26,1.8582e-08,8.7425e-13,1.0004e-10,1.0012e-08,-8.6174e-05,5.6261e-10,7.1466e-43,-0.038528,0.062355,-2.2476e-10,-3.1723e-10,1.1172e-11,-6.4271e-08,-1.491e-36,1.7852e-05,-5.2818e-10,-3.7819e-11,-0.00044863,-2.0648e-06,-1.4244e-09,-5.4247e-10,-2.7476e-14,0.15721,-8.0589e-09,-1.9664e-12,-3.278e-12,1.7639e-06,2.3501e-31,0.13298,3.7825e-18,2.337e-29,1.9322e-13,6.5826e-12,-6.4755e-18,7.9823e-17,-0.12538,1.3779e-09,5.4646e-07,-3.9663e-08,-0.010658,-4.1253e-09,2.752e-07,-8.4438e-32,-1.2515e-14,-2.3402e-43,-1.0547e-08,1.9861e-33,7.0804e-15,-1.5643e-08,6.7111e-11,-1.1454e-31,-3.0823e-38,5.0507e-10,-1.7154e-05,-5.0724e-11,2.5611e-05,3.6434e-08,4.1725e-20,3.1356e-20,-0.026527,-1.0058e-07,-0.021942,-1.393e-14,5.6775e-27,8.5749e-09,-1.0162e-14,-3.3559e-11,5.2373e-09,0.00080946,6.5509e-10,7.5732e-28,0.041832,0.018163,2.441e-11,3.8131e-11,5.596e-12,4.1085e-09,-2.7045e-43,1.8686e-06,-1.0691e-09,5.9006e-12,5.1066e-07,4.1597e-07,-1.1433e-09,8.6411e-11,-7.3575e-15,-0.018773,-1.2017e-08,-9.8418e-13,-1.1177e-12,3.4126e-07,-1.7721e-31,-0.014956,-7.4476e-19,-1.9478e-43,2.1718e-13,-1.4318e-11,-1.8698e-19,-2.3933e-17,-0.015339,4.833e-10,-3.5332e-07,-8.4132e-09,0.023199,4.5228e-08,3.855e-07,1.8198e-31,-6.1854e-15,-3.6854e-43,-8.0428e-09,2.2268e-32,-4.3945e-15,1.5951e-09,-3.7355e-10,-1.3743e-31,-1.1931e-37,1.7072e-09,3.6354e-07,4.3419e-11,-1.6715e-05,1.2131e-07,1.4239e-20,9.1132e-19,0.070836,-5.601e-08,-0.021129,-1.7627e-15,-1.0843e-26,-2.7061e-09,-6.5079e-13,3.5011e-10,-2.7955e-09,-0.00036294,2.3354e-09,-1.9812e-19,0.016464,-0.0081477,-7.9694e-11,-6.5501e-10,1.4417e-12,2.1714e-08,8.2256e-43,-5.7955e-07,-9.7057e-11,-8.9336e-12,9.7757e-07,7.4128e-08,2.0517e-11,-6.1621e-12,2.9824e-15,-0.018875,-1.4957e-08,-8.0127e-13,-8.5556e-13,5.4208e-07,-6.9625e-31,-0.016208,-2.1604e-18,1.0888e-42,1.1221e-12,-1.1657e-10,-5.5288e-17,2.7776e-17,0.033986,1.175e-09,8.7596e-07,2.1529e-11,2.5318e-28,-3.2601e-11,-4.7709e-10,1.5442e-07,-5.0727e-11,-3.391e-11,3.8387e-14,-7.8703e-15,2.4113e-05,-1.0385e-09,4.7101e-11,1.7955e-05,1.1461e-08,-1.3288e-08,-1.9415e-08,-5.228e-13,2.054e-10,-3.0066e-06,1.0405e-09,6.8934e-12,3.7624e-10,-1.5573e-10,3.7564e-11,2.8681e-14,-4.0369e-32,9.3721e-13,7.538e-08,-4.022e-14,-1.6547e-09,-1.0745e-05,1.2315e-12,-1.6304e-11,-7.8215e-11,1.5836e-28,-3.3622e-05,-5.4268e-13,-2.2034e-05,-1.6506e-07,-9.0369e-08,5.9475e-08,8.8453e-11,3.4057e-06,-4.4042e-10,7.4998e-14,-1.1775e-10,-3.0265e-14,-2.992e-10,1.6873e-12,-1.5925e-10,-5.0644e-11,4.2391e-12,1.8006e-12,1.2254e-08,1.6615e-15,-1.3897e-07,-1.5292e-13,1.3892e-11,1.649e-15,2.1263e-15,-2.1054e-10,-1.3015e-22,-9.8975e-10,-7.888e-32,1.6589e-08,0.020406,-3.7555e-08,1.3044e-07,3.0111e-31,-1.5555e-14,-8.5059e-43,-8.7899e-09,4.231e-32,1.2014e-14,-1.2465e-08,-1.0705e-10,7.8001e-32,1.5403e-37,7.8685e-10,5.2744e-07,-1.8383e-10,2.632e-06,1.4601e-07,3.2612e-19,-2.8506e-18,0.060962,-2.52e-08,0.003503,-1.4343e-14,3.1942e-26,1.3853e-08,2.1425e-13,2.2832e-10,2.4706e-09,0.00086071,1.26e-09,7.132e-19,0.0076801,-0.0056279,1.1004e-10,-1.7952e-09,2.3012e-11,4.0743e-09,6.6281e-43,-4.2561e-06,4.0522e-10,-3.8747e-11,-2.3101e-06,4.0425e-07,-4.9667e-10,1.6894e-10,1.0296e-15,0.0033446,-6.482e-09,3.293e-12,2.1025e-13,-4.7052e-07,6.4905e-31,0.0030138,5.4254e-19,5.7593e-43,9.1317e-13,6.9699e-11,9.2952e-17,7.3794e-18,0.029726,-6.5857e-10,-8.5946e-07,6.6183e-08,-0.021469,-4.5168e-08,-1.134e-06,-3.0736e-31,6.3037e-15,-6.8103e-43,-1.8189e-08,3.6568e-32,-1.839e-14,-1.6319e-08,6.8782e-11,-3.0325e-31,-1.4833e-37,6.4217e-09,-2.2138e-05,-2.6288e-11,-3.3759e-05,1.4488e-07,-5.64e-21,2.1705e-18,-0.059604,2.1736e-07,-0.022687,-3.0206e-15,4.8408e-26,1.1547e-08,-1.0502e-12,2.838e-10,-1.0406e-08,0.000492,1.7334e-09,3.279e-43,0.065733,0.035797,1.3438e-10,7.2551e-10,2.7367e-11,-2.0094e-08,-4.7364e-43,-1.0051e-05,2.8104e-09,-2.0226e-11,1.5629e-06,-1.1756e-06,-6.0989e-10,3.4571e-10,-1.1186e-14,-0.019407,-2.7236e-08,-1.8302e-12,2.025e-12,-9.1368e-07,-1.8999e-31,-0.015472,3.3374e-18,-7.4829e-43,7.1938e-13,1.8261e-11,3.2064e-17,3.03e-17,-0.031173,2.1568e-11,3.3013e-07,2.3392e-11,-2.0053e-05,9.4878e-12,-2.9778e-11,3.7249e-06,1.5041e-09,4.0891e-12,-5.5831e-11,-2.9311e-07,-3.9185e-10,-3.7908e-06,2.2903e-07,-1.5714e-10,6.1679e-15,1.1369e-12,2.3265e-05,3.5102e-06,1.2243e-13,1.5842e-08,1.3227e-09,1.0551e-13,7.0366e-05,2.3392e-11,0.00044766,-4.936e-10,9.9149e-07,-4.8129e-14,1.4638e-11,-6.844e-10,-1.2549e-06,-9.3935e-09,-4.9434e-10,3.2896e-14,-0.00043454,-0.00015517,6.5403e-10,3.6289e-06,-1.9128e-07,2.4129e-09,6.7009e-11,5.1601e-09,-3.6127e-10,-9.5912e-12,3.3896e-11,6.7177e-13,-2.3793e-14,-6.9543e-12,-2.9196e-09,0.0004238,1.9514e-08,2.1152e-11,1.3787e-07,-3.7211e-05,-1.6491e-12,0.00038656,-1.6728e-08,-2.0191e-09,1.3718e-05,-7.2938e-14,-7.3979e-11,-1.3164e-28,1.2609e-05,5.8487e-12,6.0513e-07,6.4577e-14,8.2957e-43,-1.7829e-12,1.5203e-13,3.5958e-10,7.6217e-42,-1.8748e-21,-9.3777e-11,8.0671e-14,1.8495e-13,5.1624e-42,1.8836e-18,-6.2278e-07,2.1888e-10,-1.3419e-11,-3.3483e-11,-2.2271e-12,4.344e-42,-3.834e-42,-1.3778e-08,1.2449e-09,7.3848e-43,-1.4454e-06,-8.4078e-45,-1.5051e-07,-5.7144e-17,-8.4953e-09,-1.4608e-21,-4.8457e-14,-2.1313e-07,5.0485e-12,-4.6243e-44,-2.886e-14,-5.8714e-43,-8.2396e-43,3.3838e-08,1.2509e-11,6.0313e-10,7.0766e-43,-2.4642e-41,6.1824e-10,-8.4737e-42,1.6489e-12,-1.9669e-07,1.0224e-11,-1.4708e-08,-6.2971e-11,-5.9505e-07,7.4969e-43,-1.82e-12,-7.7497e-07,3.3743e-42,-3.0713e-12,1.7055e-14,8.604e-43,-8.7234e-15,4.8629e-06,-9.2334e-12,3.8227e-42,1.8163e-12,-1.4083e-07,5.0447e-44,-5.0811e-06,-2.3634e-14,-1.8389e-07,0.20356,-2.04e-07,1.8877e-07,-3.2665e-14,-0.00024931,-7.8223e-09,-1.1594e-08,-1.8431e-13,-0.00066135,-1.3501e-08,-1.2226e-09,5.0224e-25,-1.2896e-08,-9.513e-09,-0.00041833,-8.9955e-10,3.3287e-05,1.5335e-07,-8.6154e-15,-6.5992e-11,0.57159,6.4665e-08,-0.020389,-0.00025985,-2.0598e-16,3.3245e-08,-2.1901e-13,4.1717e-10,-2.3675e-08,-0.0085074,1.3218e-10,5.4571e-15,0.10647,-0.072126,-7.2872e-10,4.7083e-09,-6.6676e-11,-1.0717e-07,-1.1884e-17,5.7227e-06,-4.7079e-09,-3.2434e-10,-0.0013575,1.589e-06,8.3619e-10,-7.3189e-10,-1.1761e-08,-0.020578,2.7981e-08,2.6164e-11,-2.0455e-12,-1.5956e-06,-1.3176e-14,-0.021146,-1.6344e-05,-8.4045e-14,1.8185e-12,4.6306e-10,-2.6892e-17,-1.9412e-15,0.29136,4.1088e-09,2.1129e-06,2.9019e-08,-0.003755,-7.8315e-09,1.4288e-07,-3.1292e-32,-7.1805e-15,-2.7606e-43,-6.5646e-09,3.8133e-32,-5.7365e-15,-1.1921e-08,3.1138e-10,9.5153e-33,3.8765e-38,8.6177e-10,5.677e-07,-4.9431e-10,-3.9164e-05,1.0932e-07,2.657e-20,1.453e-18,-0.012632,1.339e-08,-0.11888,-9.6317e-15,-2.3115e-26,1.9112e-08,1.4128e-13,-9.4448e-43,7.1451e-09,-0.0004087,3.9484e-10,6.4438e-26,0.22241,0.084168,-1.1349e-12,-5.1489e-10,1.9814e-11,2.9364e-08,-2.0459e-43,9.0141e-06,-1.147e-10,-3.1966e-16,1.3417e-06,2.1163e-07,-7.5664e-10,3.9852e-10,5.1845e-15,-0.10485,1.4053e-09,-3.4752e-43,-1.763e-13,-2.1587e-07,-1.6089e-31,-0.088091,2.2686e-18,1.8777e-43,1.5939e-13,4.1905e-12,8.9149e-21,4.5262e-43,-0.0064199,8.3538e-11,1.3161e-07,9.6862e-16,4.2656e-13,-1.9697e-20,4.0627e-15,-8.8919e-09,5.3732e-21,2.7788e-42,-5.2339e-23,-5.3882e-15,2.9637e-20,2.3561e-23,1.3722e-22,-3.1063e-14,-4.6705e-41,5.6327e-07,3.408e-08,-5.2386e-19,-4.7409e-16,-1.8803e-18,-1.8094e-25,4.6091e-08,-1.5626e-10,-7.5664e-09,-1.3841e-11,-1.2042e-09,4.1842e-30,-3.5123e-08,9.4043e-20,-4.728e-42,-8.3251e-19,1.7136e-16,3.414e-22,-6.0956e-42,2.8038e-11,-4.3722e-13,-3.2816e-19,-3.8038e-07,1.4577e-12,6.9148e-20,-3.5032e-42,7.9818e-10,-2.5194e-20,1.6832e-07,-4.4782e-15,5.1257e-15,-1.2265e-18,-2.0886e-21,2.4206e-21,-6.8224e-12,-5.1076e-07,-7.8781e-42,-1.2201e-19,-6.4714e-20,4.3503e-35,-1.8545e-12,2.0386e-06,2.0684e-13,1.0822e-22,-1.1941e-21,4.0005e-23,2.4046e-42,6.0408e-13,-4.1364e-16,-2.0108e-06,-6.4801e-11,0.0063311,-5.712e-08,4.6355e-07,1.5023e-31,-1.0686e-15,1.1421e-42,-1.7863e-09,-2.2725e-34,1.0214e-15,-1.2794e-09,-4.019e-10,-1.458e-31,-8.802e-38,-7.9903e-09,-2.3697e-06,-8.5143e-11,-2.159e-05,7.3717e-08,-2.5177e-20,4.4417e-19,0.01226,5.0164e-08,-0.020589,-2.9899e-15,-8.1944e-27,-6.5323e-07,5.1822e-14,1.0534e-13,2.2087e-09,-0.00097223,3.6755e-09,-4.0001e-27,0.024648,0.0035402,-4.1097e-11,1.7229e-10,-2.292e-10,-4.1072e-10,-6.2638e-43,-4.6859e-06,-4.2489e-10,-4.0917e-11,-1.0137e-06,5.5655e-07,-1.1652e-09,-2.0549e-11,-3.2687e-15,-0.018227,1.4322e-09,-7.9223e-12,-1.1303e-12,6.709e-07,-3.3436e-31,-0.015333,4.2141e-19,6.5861e-44,3.3861e-13,-9.6732e-11,3.4485e-17,-2.4539e-17,0.0082444,-5.1875e-10,-4.0052e-07,2.0027e-07,0.10191,1.0701e-08,7.9637e-07,-2.6358e-31,1.1121e-14,-2.8867e-43,-3.7881e-09,-6.024e-32,-2.9135e-15,-2.5444e-09,1.5275e-10,-6.241e-33,-2.1915e-37,3.7623e-09,2.0325e-05,2.8719e-10,2.7559e-05,1.6922e-07,1.0374e-18,-1.3189e-18,0.29919,-3.2468e-07,0.0044059,1.0888e-14,1.3757e-26,2.2599e-08,1.0763e-12,5.3425e-10,-2.2771e-09,-0.00022209,4.8464e-10,2.7602e-18,-0.0017223,-0.037341,-3.7696e-11,5.5983e-10,-2.2342e-11,3.9992e-09,4.6243e-44,-4.3388e-06,-6.6196e-10,7.8451e-11,2.8069e-06,-9.0493e-07,1.3323e-09,-4.6108e-11,1.5654e-15,0.0023706,2.3482e-08,-2.6931e-12,-1.8309e-12,-2.3928e-07,-1.3506e-30,-0.00032563,-5.1499e-18,8.6881e-43,5.6241e-13,-4.9508e-11,1.0199e-15,-1.6502e-18,0.14697,-1.5865e-09,6.9353e-07,8.0588e-13,6.586e-07,-3.0688e-08,-3.6116e-15,6.0029e-09,-2.6444e-15,-6.0641e-09,4.4455e-07,-1.0597e-13,-2.3517e-15,2.9154e-10,1.7061e-06,1.5241e-13,2.8064e-07,3.0983e-09,-4.2308e-13,1.5111e-05,-3.8345e-06,-1.825e-08,-1.3808e-11,4.8935e-06,0.00039478,-7.5984e-07,-6.2264e-05,-2.8677e-15,1.2001e-11,-1.502e-07,4.3233e-12,-4.9484e-14,3.9845e-09,1.4797e-09,3.1174e-12,1.3164e-10,0.0001846,9.8387e-07,6.136e-07,6.9847e-12,-1.6468e-09,6.3113e-06,3.196e-05,2.2093e-07,1.3171e-10,-1.428e-07,4.7725e-11,1.4317e-06,3.3934e-07,6.4666e-10,1.2995e-16,-3.3347e-05,-2.002e-07,1.512e-11,4.812e-12,-3.9776e-08,4.1244e-13,-1.1412e-05,1.5858e-09,1.2705e-12,1.7907e-17,4.0001e-13,-2.0433e-13,3.2244e-42,1.9874e-05,-2.9458e-11,2.5798e-14,2.2218e-09,0.00017416,-9.4221e-10,-6.2425e-09,-1.6493e-32,8.6394e-16,1.9926e-42,7.0204e-11,-3.8949e-33,-1.3977e-15,-1.8249e-10,-8.9864e-13,3.7441e-32,-1.9224e-38,-2.5486e-07,-7.9296e-08,-1.5021e-12,-1.2177e-07,5.5036e-09,-1.1194e-21,4.4858e-19,0.00084328,1.8996e-08,-0.00036496,3.6556e-16,-1.7965e-27,1.7154e-07,9.6257e-15,-2.0175e-12,1.5912e-11,-5.9086e-06,1.4267e-12,7.9795e-20,0.00051563,2.4744e-05,-1.1353e-14,2.6174e-12,-1.4551e-06,-4.0472e-10,1.8875e-42,-8.6177e-08,2.8431e-11,-7.1997e-13,6.2768e-10,-1.3215e-09,2.3501e-11,1.3182e-12,2.865e-16,-0.00030454,4.7692e-09,1.1547e-42,1.4709e-14,3.4046e-09,7.2772e-32,-0.00022484,1.6346e-20,-2.3135e-42,3.8959e-18,8.0006e-13,-2.2884e-18,2.6204e-42,0.00030618,-2.1183e-11,2.3895e-08,-2.8228e-07,-9.0334e-15,3.8022e-06,4.8247e-11,-1.8993e-11,7.3041e-08,1.2585e-11,-2.8284e-12,2.1159e-13,-3.2272e-42,1.1804e-10,-1.9096e-06,2.6841e-05,-1.0184e-09,6.3153e-15,7.0184e-06,1.0429e-12,-2.1061e-13,-2.5668e-06,4.3986e-08,3.3276e-13,-1.2899e-14,3.4255e-06,4.5276e-14,1.7535e-07,-5.098e-10,4.3635e-13,-3.3728e-13,-1.0453e-06,1.6406e-08,-5.1206e-08,-1.1617e-10,2.3952e-09,-4.1559e-14,-1.2656e-14,1.1619e-09,1.721e-09,1.9518e-09,8.4998e-13,3.0033e-10,-1.9647e-12,3.0863e-10,1.2026e-07,6.5575e-13,-2.6737e-12,-1.1689e-09,2.9409e-09,-5.3365e-07,4.4093e-14,-2.8502e-08,-8.6857e-07,-9.1131e-10,-1.2201e-10,-2.1694e-09,4.247e-14,-1.0998e-12,-9.8456e-12,2.0339e-06,-3.1105e-07,4.308e-08,2.415e-08,-1.0384e-14,6.6097e-10,1.7688e-13,-3.8429e-08,0.019107,-6.9758e-09,-5.6192e-07,-2.7986e-32,-6.0315e-15,-8.7721e-43,6.6805e-09,-3.6769e-33,-7.8098e-15,2.0934e-08,3.9461e-11,8.7505e-32,7.8738e-38,6.2159e-09,-1.3112e-06,-1.0294e-10,-2.4924e-06,-8.4651e-08,2.7256e-21,-1.3663e-18,0.040284,2.7834e-07,0.20014,-9.3778e-15,-4.641e-26,9.0226e-07,3.9368e-13,4.781e-12,7.7165e-09,0.00069206,-2.4154e-09,-1.0673e-19,-0.16017,-0.013013,4.8043e-11,5.4666e-11,4.5458e-08,9.5268e-10,-1.4994e-42,2.9032e-06,-1.1508e-09,2.2282e-11,-1.1609e-06,4.143e-07,-1.6838e-09,-2.1217e-11,1.2296e-15,0.17894,-2.2069e-08,1.4644e-42,2.5166e-13,-3.7941e-07,6.905e-31,0.15179,2.1263e-18,1.2514e-42,2.428e-16,2.337e-11,-3.5554e-19,1.4013e-43,0.024561,2.9405e-10,-1.0138e-07,7.6741e-10,5.6893e-43,-8.3634e-14,4.0501e-13,1.936e-09,1.4594e-14,-3.0804e-12,-2.9858e-06,-4.5724e-13,-6.9099e-11,-1.8435e-08,-1.7967e-12,-1.9312e-09,3.2982e-05,1.1017e-09,1.0334e-06,3.3469e-06,3.8619e-12,1.0065e-13,-1.3407e-11,1.0813e-10,1.2612e-43,2.392e-42,-3.7415e-43,-3.6569e-08,-5.5892e-14,-1.271e-09,8.7127e-09,-9.4919e-09,-1.9642e-11,-1.6043e-12,-9.2557e-13,-9.6441e-15,-3.4667e-40,2.3822e-44,2.8554e-13,1.4203e-11,7.6511e-07,6.4918e-09,1.1742e-07,2.9581e-10,5.874e-14,1.9338e-10,1.1584e-09,-3.2571e-11,-1.3509e-42,1.2698e-14,3.3184e-05,-3.1669e-43,1.9002e-10,-1.2564e-09,-7.4178e-07,3.551e-09,-8.1039e-06,-2.2561e-43,2.2224e-13,2.6077e-06,6.3982e-11,-2.3204e-13,5.305e-11,3.1554e-06,3.3771e-43,7.5059e-10,-2.204e-09,1.2156e-06,-8.3097e-43,6.5609e-42,-1.3555e-24,8.0519e-42,-2.8205e-06,1.4728e-19,-8.1345e-13,1.0552e-08,3.2054e-13,5.9723e-42,2.9673e-32,-6.8649e-07,2.0879e-42,-2.5321e-42,7.7478e-42,1.5945e-07,2.2769e-27,-5.1946e-42,-6.9294e-42,3.1193e-42,2.0791e-19,4.9186e-43,-8.2064e-26,-2.2365e-42,-3.0051e-07,2.3206e-42,-7.5026e-42,-6.3591e-42,-4.5122e-42,-6.6209e-12,2.0865e-42,2.0109e-05,7.4661e-22,7.3288e-43,-2.131e-12,2.2659e-42,-3.4864e-42,1.1557e-41,1.1925e-42,2.804e-42,-5.5491e-42,2.671e-08,4.3645e-15,-3.7429e-42,-8.2396e-43,-1.3971e-42,-7.0471e-42,-1.0738e-31,-2.6302e-42,-1.0056e-41,-7.877e-15,-2.7567e-05,-6.2764e-42,5.7485e-37,1.2107e-42,-2.9248e-07,1.4069e-42,-1.2345e-42,-4.9718e-42,7.0345e-43,-6.4278e-42,-8.1415e-43,2.3654e-42,2.0272e-08,0.052656,-4.5241e-08,1.766e-07,2.9059e-32,2.7728e-14,9.2626e-43,-1.3169e-08,4.9989e-32,-2.4862e-14,-4.3792e-08,-1.3618e-10,-1.8123e-31,-6.7867e-38,-1.269e-09,-3.6601e-06,1.2952e-10,-2.0936e-06,5.1179e-09,-5.859e-19,2.9495e-19,0.13771,-7.2823e-07,-0.029199,2.4742e-14,2.25e-26,4.8268e-08,-3.3578e-13,-1.0272e-10,-4.938e-09,0.00037411,1.2353e-09,-1.5755e-19,0.035076,-0.024416,-3.4275e-11,-7.4873e-10,-3.1661e-11,1.5457e-08,1.0272e-42,1.2301e-05,-1.7849e-09,-4.124e-11,-1.9884e-06,-2.6863e-07,1.6687e-09,1.9415e-10,1.1553e-14,-0.026212,3.3952e-09,-7.595e-43,-5.0213e-14,1.4717e-07,2.6334e-31,-0.0226,1.0249e-19,-9.5428e-43,-8.9314e-15,-4.4093e-11,-5.3257e-16,-5.0727e-43,0.075045,-1.0567e-09,-1.1416e-08,-8.7041e-08,0.011059,-1.4437e-08,2.3852e-06,-2.7178e-16,-0.00011097,-9.5745e-12,-1.0607e-08,-1.1381e-17,-0.00016624,-1.2385e-08,-1.0969e-09,7.3088e-30,-5.2683e-09,1.3252e-08,-0.0018401,-6.981e-10,-2.5948e-05,1.5203e-07,2.8551e-18,9.2337e-19,0.025207,-7.7972e-07,0.2805,-0.00011227,4.4933e-19,1.8716e-08,2.6639e-12,4.0353e-10,-1.9718e-08,-0.0020801,-3.9511e-11,8.885e-17,-0.12808,-0.02475,5.0838e-10,7.2509e-09,4.7037e-11,-1.2673e-07,-4.9967e-20,-1.4837e-05,-9.5575e-09,-1.6044e-10,-0.0015521,2.6128e-06,9.9009e-10,-1.1599e-09,-2.7993e-11,0.24951,-4.427e-08,9.6933e-12,2.5637e-12,-2.4889e-07,1.8349e-21,0.21069,-2.1681e-06,-7.1057e-17,1.5895e-12,2.5448e-11,-6.2248e-17,-3.8321e-16,0.013663,1.1101e-09,1.7163e-06,-8.7827e-10,0.0016934,-4.6443e-08,2.0191e-08,-2.3608e-11,-7.9548e-17,-9.972e-12,6.3332e-06,2.3218e-10,-2.7255e-16,-9.87e-06,1.6377e-10,3.4202e-13,1.5355e-05,9.3846e-10,-5.8857e-07,-6.2556e-09,-2.3529e-06,3.3174e-08,-2.7182e-14,2.1646e-07,0.0064467,1.6048e-08,6.0444e-05,4.0801e-17,-5.2011e-06,-3.7873e-08,-2.2146e-11,-9.7992e-06,-1.3517e-06,2.4553e-05,1.4539e-06,-3.4891e-13,-0.00034898,-0.0010038,1.215e-07,-5.4192e-11,4.3893e-07,-1.0757e-06,-1.7689e-10,6.6684e-07,5.9015e-08,-7.0823e-08,2.0616e-07,-2.6149e-08,2.437e-07,-4.1019e-10,-1.3774e-16,0.00016654,2.4327e-09,7.9998e-08,8.5538e-12,-1.5983e-06,-4.2907e-07,0.00020531,-7.5015e-12,-5.0144e-06,-5.2324e-12,3.6774e-08,-4.0799e-11,1.5432e-07,0.0025469,1.0918e-10,-4.4033e-08,-4.565e-13,8.1836e-43,4.6497e-13,2.9739e-10,5.9895e-13,8.6499e-07,3.9477e-13,7.2933e-14,5.9545e-06,-1.8314e-06,7.5644e-09,-3.0442e-06,-1.0037e-05,1.6205e-11,-2.6758e-08,-4.2483e-10,-3.8203e-06,-2.155e-11,2.2432e-10,-9.2592e-07,-1.3147e-07,-2.5784e-43,-2.5093e-15,-5.6052e-44,-1.1229e-12,3.9327e-18,-7.7027e-08,-1.9748e-10,2.4522e-08,9.9361e-11,-7.0205e-43,-5.5904e-24,6.4036e-12,1.4013e-45,9.5428e-43,1.5106e-42,1.3124e-10,4.5786e-10,-1.8847e-05,-8.5219e-14,-9.5377e-13,5.3088e-08,-6.5592e-09,2.3654e-42,-3.7765e-42,-3.2124e-10,7.3052e-08,-9.8315e-12,9.3046e-43,5.7954e-12,-2.0931e-14,8.2221e-11,-1.4064e-06,-2.1518e-07,7.8473e-43,3.071e-12,4.3785e-11,-3.5147e-13,8.2854e-11,2.864e-13,-2.5509e-05,-5.2409e-43,5.6689e-11,1.4918e-09,-1.5676e-07,9.704e-09,1.2282e-16,-9.3402e-12,2.4915e-06,5.0055e-13,-1.0869e-09,-1.049e-08,1.8086e-11,1.8217e-12,5.9269e-09,-2.2839e-08,1.4347e-08,8.4247e-09,4.8303e-10,6.8892e-10,7.8434e-07,9.2332e-14,-2.66e-07,-1.3302e-09,1.8213e-09,1.4502e-08,4.9185e-18,9.8219e-09,1.6405e-05,-1.8645e-09,-1.1765e-06,-2.191e-10,-5.4019e-10,7.3874e-09,3.0142e-11,-5.5785e-13,-6.8358e-13,-1.0942e-08,-8.6147e-09,-8.6646e-07,1.7924e-14,-1.6584e-10,1.4288e-12,-5.7412e-06,-6.2408e-14,-6.5407e-10,-3.5054e-12,1.7292e-07,-6.8724e-14,1.3211e-20,2.506e-13,1.9906e-07,9.1276e-09,8.8103e-13,8.8067e-11,-4.0796e-14,-3.9875e-06,-7.4835e-09,8.0322e-09,5.585e-15,8.0364e-13,1.5741e-11,4.4831e-06,-9.0943e-07,-1.903e-42,1.174e-08,-5.0208e-11,-1.0991e-11,-7.1937e-08,-0.046344,-3.0971e-08,-9.4216e-07,6.5143e-32,5.6514e-16,-8.1135e-43,-2.99e-09,2.1191e-32,-2.1291e-14,-6.9468e-09,5.1689e-10,-8.2973e-32,-5.6065e-37,2.8705e-09,1.8789e-05,-4.7556e-11,-1.326e-05,5.2324e-08,7.8097e-21,6.4016e-18,-0.15447,-2.2617e-07,0.012932,2.1421e-15,-1.0989e-25,1.1472e-08,-8.1465e-13,-4.1666e-11,-1.3744e-09,-7.8564e-05,-1.1016e-09,1.5414e-44,0.037581,0.036099,2.8533e-11,-1.529e-09,-4.7024e-11,-4.5409e-09,-7.4269e-43,-8.4651e-06,-6.8412e-10,-3.347e-11,-3.5142e-06,-9.5474e-07,3.8052e-10,1.1345e-09,1.3922e-14,0.012046,-1.0531e-08,-4.272e-12,7.6712e-13,-1.3681e-07,-7.1401e-31,0.011384,-2.4119e-18,-2.8586e-43,1.3943e-12,-4.4775e-11,-5.3226e-18,-2.1119e-18,-0.070505,5.5005e-10,2.6335e-07,1.1653e-08,-0.0002801,-4.3869e-08,-7.715e-07,-3.8617e-31,5.2447e-14,1.093e-43,-8.2427e-09,6.1226e-32,1.47e-13,-2.6423e-08,6.1408e-10,1.4367e-31,-2.2695e-37,7.6005e-09,-0.0001488,5.8156e-11,-4.5408e-05,1.6904e-07,-1.0924e-19,-2.6413e-18,-0.0055146,3.5838e-07,-0.081692,6.3565e-14,-1.1559e-25,3.6371e-08,-7.8491e-13,7.3e-11,4.579e-09,-0.00031617,3.4421e-10,-3.7641e-19,0.12107,0.036821,-1.8511e-11,3.4351e-09,-8.2859e-12,5.3464e-08,3.1389e-43,2.737e-05,-1.4125e-09,-6.5001e-12,-5.1553e-06,-7.8348e-07,9.8679e-10,1.0811e-09,1.6602e-14,-0.072234,-2.0767e-08,-9.4307e-43,-1.833e-14,3.2099e-07,9.4461e-31,-0.0604,1.2136e-18,2.6625e-43,8.4805e-13,-3.2262e-11,-3.3605e-16,5.7313e-43,-0.0022411,2.7036e-09,-3.4819e-08,3.8392e-07,0.1403,-3.5492e-08,1.5659e-06,1.8818e-31,-1.1337e-14,-8.2536e-43,-1.9527e-09,6.9868e-32,1.5816e-15,-1.3922e-08,-2.609e-11,-5.2702e-32,-7.0403e-35,9.7597e-09,3.1008e-05,2.7512e-10,-2.461e-07,1.1911e-07,-1.5233e-18,3.0605e-18,0.40238,-1.4174e-08,-0.0014841,-1.1161e-14,1.1633e-25,2.2898e-08,1.3865e-12,-1.1415e-11,1.2415e-09,-0.0021657,-1.7647e-10,-9.5077e-19,0.0069738,-0.060684,2.3446e-11,1.4148e-09,1.1248e-11,4.2656e-09,-5.0307e-43,2.5065e-06,-1.0576e-09,-1.4851e-10,-6.6873e-07,-5.8845e-07,-1.3617e-09,-1.0181e-10,-5.6763e-15,-0.0022846,3.8988e-08,1.134e-12,-1.0292e-12,-5.4598e-07,-1.4932e-30,-0.0035787,5.2886e-18,-7.6511e-43,2.7963e-14,-1.0867e-11,1.218e-15,-1.7759e-17,0.2021,-2.9167e-10,1.215e-06,-2.8996e-07,0.15495,-1.2139e-07,5.4193e-07,1.528e-21,-7.4212e-05,-3.3857e-11,-9.1627e-09,-6.0366e-20,-0.00021933,-1.3032e-08,-3.2861e-10,1.2946e-30,-2.1832e-10,6.7979e-09,-0.0003834,2.7616e-10,3.3972e-06,2.0096e-07,-1.5176e-18,-2.823e-16,0.43367,-5.3728e-07,0.0058156,-7.856e-05,-5.5186e-24,2.6213e-08,-2.106e-12,4.1536e-10,-1.9487e-08,-0.0078225,1.5028e-10,-9.9643e-18,0.057602,-0.061257,4.0818e-10,-5.9253e-09,1.0627e-10,-1.0291e-07,-1.6903e-24,-6.124e-06,-4.1459e-09,-8.2303e-11,-0.00067087,-4.8899e-07,2.0462e-09,-5.9044e-10,3.2777e-13,0.0030201,-2.7788e-08,5.475e-12,6.1976e-14,-5.6805e-07,1.6317e-22,-0.00031236,-1.7703e-06,-3.8917e-19,1.4395e-12,-8.0331e-11,-9.953e-16,-7.7822e-16,0.22157,-3.0325e-09,3.4983e-06,-1.8302e-08,-3.1103e-16,1.7985e-10,-1.0369e-07,-1.3985e-06,2.7515e-16,-1.7302e-10,1.0332e-12,4.238e-08,2.6112e-16,4.423e-11,-6.0469e-08,-7.7335e-10,7.3448e-39,-1.4343e-07,-2.8162e-08,-1.362e-10,-9.4647e-08,1.0458e-10,-1.6608e-10,4.7902e-20,-1.6806e-08,-3.1585e-11,4.9329e-10,1.0273e-16,1.0709e-07,-1.7373e-10,2.8617e-13,-1.9204e-10,-1.0646e-09,-5.4477e-22,-2.8808e-28,3.2446e-14,1.7521e-08,2.6801e-15,-1.1039e-09,-2.8864e-09,-4.5316e-09,-7.5852e-11,-9.8898e-08,-1.9061e-09,-4.3139e-06,-2.5369e-18,-4.0011e-06,6.655e-13,1.6853e-10,-4.5655e-07,-4.4341e-17,8.258e-10,-1.396e-12,-8.4585e-13,4.4998e-08,-1.0723e-09,6.3955e-09,6.6856e-11,-2.1553e-20,6.9626e-12,-7.5805e-07,-4.5127e-12,2.1238e-08,-7.8206e-07,-6.38e-15,4.9183e-08,-2.0308e-18,4.3906e-12,-3.352e-39,-8.9558e-11,-3.3707e-13,4.5617e-12,4.922e-11,-3.9617e-11,-2.4443e-08,5.7568e-10,-1.7758e-07,1.1166e-08,9.1278e-08,-9.9687e-07,-9.0693e-38,9.3372e-13,1.2133e-11,2.6563e-10,-7.317e-12,-8.1642e-06,-1.2475e-11,3.5329e-08,-5.5293e-21,1.2387e-11,-3.2427e-23,3.3277e-08,-4.3598e-09,5.9478e-07,2.869e-09,-8.623e-06,-7.4135e-09,-1.2034e-08,-8.3559e-42,-6.5274e-08,-1.6074e-21,-1.2155e-37,-3.7325e-09,-1.0447e-08,5.149e-15,-1.1519e-06,3.0148e-13,-1.3909e-05,1.9202e-08,2.6971e-12,-2.3169e-08,-8.2632e-08,-8.8865e-10,-6.3345e-07,1.4545e-07,-4.1338e-27,-4.2717e-13,-7.4501e-08,6.1585e-07,1.0904e-14,8.2716e-13,3.6904e-31,-4.5977e-13,3.7809e-10,8.4961e-09,1.1531e-13,-7.9376e-13,-1.7832e-12,-1.2796e-37,-3.1484e-12,-8.6434e-08,-4.205e-08,-0.0040875,2.6734e-08,-8.3595e-07,3.7992e-31,-7.5446e-15,1.9198e-43,-5.4452e-09,5.2538e-33,-2.5606e-14,-2.2225e-08,7.7398e-10,1.4067e-31,2.8757e-37,4.8032e-09,-2.5304e-06,-1.9974e-10,-4.6373e-05,8.1804e-08,9.5426e-22,5.3885e-19,-0.015011,1.6666e-07,-0.064251,-6.387e-15,-7.2515e-26,-6.4292e-08,5.6313e-14,-1.9898e-43,7.8782e-09,-0.00043503,-2.1721e-10,1.0481e-27,0.1042,0.037505,2.6562e-11,1.3093e-09,-7.0934e-11,1.3815e-07,2.7746e-43,6.5799e-06,6.093e-09,-1.6081e-16,6.3749e-07,-8.9495e-07,-3.8137e-10,8.32e-10,-1.1707e-14,-0.05654,-2.062e-08,-1.2331e-43,-1.1162e-13,-3.7122e-07,4.8414e-31,-0.047189,3.6717e-18,-3.3631e-43,-2.8838e-13,-2.3725e-11,3.6434e-43,-7.7212e-43,-0.007146,1.3395e-09,-3.1604e-07,-1.5735e-07,-0.047399,2.4984e-07,-8.8725e-07,3.857e-26,-6.9078e-06,-1.6788e-15,-1.5043e-08,-2.5611e-29,-1.4839e-05,-1.6211e-08,-1.9601e-10,-8.2781e-31,-9.9822e-14,1.1629e-08,-0.0017176,8.1767e-11,6.0271e-05,1.8316e-07,2.6393e-19,-5.8915e-19,-0.13281,6.423e-07,-0.11268,-7.0232e-06,-1.3057e-25,-5.8126e-08,3.0915e-12,4.3353e-10,3.1015e-08,-0.0052659,1.5601e-09,5.7436e-20,0.25002,0.13716,-3.1199e-10,-1.0482e-09,-1.2404e-10,-1.2538e-07,-1.1115e-32,1.9745e-05,-4.7535e-09,1.5052e-11,-0.00068894,-1.5267e-06,-1.7393e-09,-5.8632e-10,-1.3478e-14,-0.09747,3.2101e-08,-8.5937e-12,3.6004e-12,9.1171e-07,-7.2793e-31,-0.078307,-2.9189e-10,-8.7701e-28,1.0363e-12,-2.298e-10,-6.6006e-17,2.4474e-17,-0.069468,-2.059e-09,2.5592e-07,1.0203e-07,0.12897,1.9899e-08,-8.6769e-07,2.9092e-31,-3.3562e-13,2.8026e-43,-1.7498e-08,-2.3721e-32,-3.4044e-10,-3.6978e-08,1.3432e-10,1.5994e-31,4.0727e-34,3.0522e-09,-8.2353e-05,-5.9134e-11,8.434e-06,1.6205e-08,1.07e-18,-5.6672e-19,0.32723,-3.2126e-07,0.06572,-2.9551e-13,1.0253e-26,-1.8533e-08,-2.7635e-14,-5.7061e-11,-2.5194e-09,-0.0027187,-3.3696e-10,-1.6318e-18,-0.050288,-0.072301,-6.1825e-12,-1.5721e-09,-4.5093e-11,-1.4645e-08,5.6893e-43,8.1899e-06,-1.8978e-10,5.7261e-11,-1.9389e-06,2.886e-07,-1.4057e-09,-7.8824e-11,-2.8259e-14,0.055832,1.6348e-08,-2.268e-15,7.1011e-13,2.249e-07,-1.4861e-30,0.042927,-1.1368e-18,-1.7656e-43,1.2015e-13,-3.8872e-12,-7.2554e-16,6.5581e-43,0.18135,6.4818e-10,-4.2304e-08,9.805e-08,-6.8243e-43,5.2052e-11,-4.2672e-07,2.3892e-09,-1.4165e-10,4.4918e-11,6.5349e-10,-6.0118e-09,5.2583e-09,3.2659e-14,-2.2747e-10,7.3514e-09,-1.6092e-11,4.9445e-11,1.0632e-08,-1.1604e-09,1.9159e-11,-2.1374e-13,7.9971e-13,-3.6458e-13,6.502e-43,8.5994e-09,6.034e-41,-1.5492e-10,9.5264e-16,-2.9036e-08,1.2851e-11,1.3484e-16,-8.5345e-09,-2.0758e-06,1.954e-08,-8.7145e-09,1.6918e-37,-6.9645e-43,-1.0274e-09,-5.3445e-07,-1.2112e-06,-3.8279e-14,3.9172e-14,1.7401e-06,2.7443e-10,7.2857e-09,7.5135e-09,-2.831e-12,1.0636e-42,-4.3456e-08,1.3732e-06,4.6663e-43,4.244e-09,1.4526e-06,-9.7695e-09,1.7393e-05,1.739e-11,8.1275e-43,2.8979e-06,1.6616e-12,-4.0289e-14,-1.7873e-13,2.7474e-06,-9.2075e-11,-3.0268e-43,-4.3533e-09,3.124e-09,2.166e-11,9.4588e-43,6.4824e-22,-3.7825e-11,-1.0653e-10,3.3744e-14,2.7462e-13,-1.0011e-10,-3.1163e-11,-4.672e-13,-3.5519e-06,3.8087e-07,-1.436e-13,-2.2596e-09,-1.1521e-13,8.3361e-10,4.1332e-11,-3.5671e-10,1.2914e-07,-3.8684e-09,-2.1597e-13,2.3682e-43,-1.6897e-11,6.8523e-43,3.9882e-13,1.644e-07,-9.2021e-06,8.7071e-14,-3.5216e-07,-6.0936e-07,-6.5733e-11,5.4398e-42,2.4037e-07,6.6001e-43,-8.8142e-43,1.2902e-09,-8.4708e-14,2.284e-08,1.3845e-09,-9.5894e-06,2.227e-08,-7.8465e-06,1.0926e-06,6.0002e-17,-1.6792e-11,1.5712e-06,1.7022e-07,4.0792e-42,3.265e-43,-2.721e-08,-2.0301e-22,1.5947e-09,-1.1681e-10,3.9557e-13,-8.4218e-43,1.5868e-07,7.4515e-09,1.3492e-11,-2.8503e-10,1.1209e-12,-4.8059e-25,5.381e-43,-3.4956e-12,-5.8272e-10,-2.4874e-05,8.4078e-45,1.8478e-14,-1.1497e-08,2.7351e-07,-9.7709e-09,3.0863e-09,-4.0205e-11,1.6526e-09,-5.1011e-08,7.539e-13,1.9978e-07,7.0862e-06,2.0409e-10,4.9949e-08,-5.3678e-07,2.2869e-09,5.8986e-13,-2.8021e-07,-5.3274e-14,-2.3941e-08,-7.7632e-43,4.7512e-13,-6.7543e-43,-1.0325e-13,-8.7436e-08,6.1718e-06,1.1809e-09,-5.9255e-14,-1.766e-09,-4.8115e-08,-2.5811e-13,4.135e-11,-8.5759e-43,-3.9517e-43,4.977e-09,-2.5047e-10,-1.0884e-16,-1.1779e-05,-2.8725e-07,-4.9302e-06,-1.621e-10,2.5545e-09,1.5591e-13,-1.2635e-10,6.5334e-13,-7.7125e-11,-3.1142e-15,-7.1186e-43,5.812e-10,7.8446e-08,9.3943e-13,-1.6886e-13,2.1564e-11,-6.8523e-43,1.3154e-10,-1.5609e-11,-7.0242e-24,1.1351e-06,-1.022e-10,-7.193e-20,-9.5288e-43,-2.0198e-06,5.9179e-13,3.9116e-08,0.0066899,-5.9596e-09,7.0794e-08,-4.5599e-32,4.9205e-15,1.3452e-42,-4.2942e-09,-3.225e-33,5.7376e-15,4.8615e-08,-1.1985e-10,4.6618e-32,1.5944e-38,9.9313e-10,1.7193e-07,8.2451e-11,-1.0721e-05,-6.2818e-08,2.9254e-20,3.0869e-19,0.012145,6.2127e-07,0.069992,2.1816e-15,-1.0906e-26,-1.268e-07,-4.9544e-13,-1.691e-11,4.6607e-09,-3.8676e-06,2.9091e-10,4.7294e-42,-0.055405,-0.0034534,-1.9577e-11,-3.073e-10,-1.25e-07,-5.9732e-10,5.7341e-42,5.5118e-07,1.9024e-10,-1.8057e-12,-1.9019e-07,1.6662e-07,-7.9567e-10,-4.7477e-10,-1.971e-15,0.062644,-5.8717e-09,-4.1142e-42,1.2722e-13,1.0122e-07,-1.5119e-31,0.053211,9.4457e-19,8.59e-43,-1.458e-16,3.79e-12,3.5443e-18,1.6675e-42,0.0084489,5.2285e-11,6.5081e-08,-1.3528e-07,0.015084,1.1624e-07,-7.8753e-07,1.9547e-28,-5.0196e-06,-6.1665e-19,-8.7952e-09,6.5054e-29,-1.2959e-05,-1.2158e-08,7.3747e-11,5.0884e-32,-3.4635e-14,3.8045e-09,-0.0011202,4.7547e-11,-1.5771e-06,1.2829e-07,4.6792e-19,3.6421e-18,0.030387,6.4432e-07,0.17892,-5.2893e-06,-1.001e-25,-2.1336e-08,2.0287e-12,4.1224e-10,1.3311e-08,-0.0023569,3.3997e-10,9.2581e-19,-0.07975,0.0011607,-2.5436e-10,4.2693e-09,6.1443e-11,-1.0894e-07,3.1356e-36,4.8176e-06,-4.3177e-09,1.3395e-10,-0.00018396,-6.2053e-07,2.5215e-10,-5.3319e-10,-4.3181e-14,0.15751,-4.1368e-08,-6.6912e-12,-2.5885e-12,1.0942e-06,-2.0065e-30,0.1313,-7.6926e-09,-1.3624e-31,7.3186e-13,-1.3619e-10,9.9627e-17,5.2112e-17,0.019014,-1.1543e-09,8.6546e-07,3.0829e-08,0.057561,-5.0018e-09,-6.174e-08,-1.5636e-31,-1.3367e-14,-4.2459e-43,-1.0843e-08,-1.5646e-32,-4.1953e-15,4.9011e-09,5.7389e-10,-1.726e-31,2.5449e-38,-4.1574e-10,-9.4339e-06,3.5787e-10,-7.1043e-06,2.3694e-07,4.4551e-19,1.9165e-18,0.17533,1.678e-07,0.0014545,-1.3067e-14,5.1963e-26,-5.9275e-09,-1.1054e-12,6.9606e-10,4.9358e-09,0.0016126,1.4705e-09,-1.6726e-18,-0.0041366,-0.015687,1.0129e-10,1.0943e-09,1.2872e-11,3.3151e-08,-1.0454e-42,9.249e-06,5.7066e-11,-1.447e-10,1.1114e-06,3.4967e-07,-1.3515e-09,-4.2949e-11,1.1438e-15,-0.00024576,3.685e-10,-5.1033e-12,4.5412e-13,-4.2017e-07,-1.7623e-31,-0.0023155,-9.1077e-19,-7.8613e-43,1.1073e-12,1.1324e-11,6.976e-16,4.7352e-18,0.083759,1.0402e-09,-5.9176e-07,6.4773e-08,-3.3771e-43,1.4813e-08,-9.0547e-14,1.8357e-11,1.5927e-06,-3.1719e-08,3.0017e-06,-9.626e-14,5.6736e-12,-7.969e-13,2.1393e-11,-5.9207e-10,1.2876e-11,2.6001e-05,1.1463e-10,7.0442e-14,1.832e-14,-3.437e-06,2.9364e-11,-3.5281e-06,4.6943e-43,1.5182e-09,2.9708e-43,-2.4357e-09,6.3899e-43,-8.4088e-11,2.9014e-14,-9.2141e-09,8.4545e-08,-2.1994e-12,-3.4558e-10,-6.1088e-12,-1.2191e-43,9.3186e-43,5.0931e-07,1.8703e-12,-2.0118e-08,4.0257e-12,-5.0212e-11,-4.272e-14,8.2981e-09,-2.6712e-11,2.6854e-06,-1.6199e-42,1.4212e-09,-2.0588e-05,-3.8663e-12,7.3288e-43,5.8635e-08,-6.279e-09,-4.8511e-09,2.0382e-09,-1.5624e-08,-1.0229e-43,-2.6144e-06,-1.271e-06,-4.6352e-10,-8.8344e-08,7.9429e-08,-8.5343e-07,-9.7671e-43,-1.8711e-11,-8.8254e-13,-2.5502e-10,1.0859e-31,-7.6335e-10,-3.5022e-10,1.5594e-05,8.9544e-13,2.0887e-14,-1.5791e-08,-1.2481e-12,1.0649e-06,-2.8117e-08,-4.1791e-10,1.5385e-14,6.9604e-07,-1.4813e-10,-1.9475e-10,-4.2223e-11,-6.8969e-11,-9.2508e-09,-5.3739e-11,1.0619e-10,2.9357e-31,-8.0829e-11,9.4831e-31,1.4192e-12,-6.7309e-10,9.9557e-06,-6.3391e-08,1.1596e-08,1.9105e-11,-3.1302e-13,-5.3204e-09,-2.2321e-06,-6.9242e-31,1.0991e-31,-2.1414e-13,-3.6656e-11,1.4639e-08,-2.0958e-07,-1.8838e-09,-2.1936e-13,3.8022e-05,-7.0021e-12,-6.696e-08,-3.8587e-11,1.4272e-10,1.0018e-08,4.2473e-14,-5.8543e-31,-5.9384e-13,-4.7957e-11,-2.8142e-05,-2.505e-12,7.9104e-33,1.3049e-30,5.7965e-10,1.53e-12,-3.6629e-05,1.7948e-06,1.0086e-07,-1.6155e-06,8.552e-32,-2.3419e-13,1.1393e-10,1.0489e-07,0.013053,-1.2135e-07,-2.6365e-06,-1.173e-12,-0.00025687,-7.4611e-10,-1.1237e-08,-1.5841e-13,-0.00034117,-1.223e-08,-1.7016e-09,-2.1437e-26,-1.2247e-07,-1.2502e-09,-0.0020507,-1.6329e-10,1.1933e-06,1.1034e-07,-1.6516e-15,5.5048e-15,0.030414,-3.5469e-07,0.34677,-0.00025713,-8.0846e-14,4.6158e-08,-3.8231e-12,4.1629e-10,-1.2778e-08,-0.0020058,-8.7276e-11,3.7933e-15,-0.16086,-0.041444,1.2199e-10,-1.1346e-08,-9.3562e-11,-1.3294e-07,-4.6169e-16,-6.4656e-06,-1.1756e-08,-2.0663e-10,-0.0023877,-2.6019e-06,6.9426e-10,-1.3785e-09,-1.9531e-08,0.30906,-1.4748e-08,2.655e-11,-3.5665e-12,-1.1192e-06,-1.2704e-15,0.26174,-1.4044e-05,-1.7758e-13,1.9843e-12,3.2703e-10,2.2919e-16,-7.7402e-16,0.016203,-1.7928e-09,1.1431e-06,7.3872e-07,0.0018772,-4.2869e-06,-1.3858e-09,6.8479e-07,2.8105e-10,-2.7123e-14,2.8284e-07,-1.8069e-06,3.7836e-12,6.4943e-06,3.3889e-07,-7.9332e-12,-2.5545e-14,-9.8106e-06,3.8002e-08,-6.1971e-09,1.1971e-07,-2.4069e-08,-1.0991e-07,-3.4148e-09,-0.0014776,2.3556e-08,0.00072053,8.3993e-16,8.3034e-14,3.5528e-07,1.9659e-18,2.0595e-11,-3.4639e-12,0.00051136,2.0528e-09,1.3207e-07,0.0015972,-7.5399e-05,-5.8533e-12,7.3274e-07,-2.5056e-08,1.3293e-06,-3.237e-42,-1.2015e-08,-1.0115e-06,5.6181e-13,5.1109e-06,-2.702e-11,-1.5141e-07,-2.8311e-07,6.4532e-07,0.00080726,-1.6661e-14,9.1487e-13,-2.374e-11,2.8852e-07,-2.1828e-12,0.00097229,-4.1463e-14,6.6916e-09,4.3606e-09,2.5051e-12,2.6388e-10,-1.1189e-08,0.00067634,-1.2963e-07,2.1217e-06,5.0777e-08,-0.018282,-2.3207e-08,1.2062e-08,1.0744e-31,-2.6514e-14,-7.1887e-43,-1.4681e-08,5.6338e-32,4.2385e-14,-1.4903e-08,3.9031e-10,3.2615e-31,-3.9914e-37,-2.7456e-09,-2.4298e-06,1.8556e-11,-2.4336e-05,7.3033e-08,6.8009e-23,-2.287e-18,-0.061273,-3.6888e-07,0.030245,-3.4883e-14,1.0389e-25,1.9976e-09,1.0757e-12,1.7942e-10,-8.7527e-09,-9.9609e-05,6.0191e-10,9.6409e-43,0.012199,0.026607,-7.5489e-12,-2.0503e-09,-3.2354e-11,-3.0711e-08,5.4791e-43,-4.3288e-06,3.4591e-09,-1.7769e-11,4.4997e-06,4.6087e-09,-6.0647e-11,4.4032e-10,1.8549e-14,0.026312,1.9341e-08,-1.2734e-12,-1.2011e-12,-6.6132e-07,-3.8531e-31,0.021795,-5.2242e-18,9.5288e-44,3.1446e-13,3.4656e-11,-6.4346e-18,8.7533e-18,-0.027391,4.6307e-10,5.6869e-07,-2.5329e-07,0.0037788,6.349e-08,1.7186e-06,-6.4104e-19,-3.5084e-05,-1.079e-11,-1.625e-08,-1.8463e-23,-8.298e-05,-1.8297e-08,-6.3922e-10,-5.5306e-30,-5.7736e-12,-5.0423e-10,-0.0017859,2.3059e-10,-6.7917e-05,1.9627e-07,7.4347e-19,-3.8162e-18,0.026997,-3.4799e-07,-0.17339,-3.4457e-05,4.7002e-24,-6.1578e-10,-2.5814e-12,3.5334e-10,-1.8346e-09,-0.007177,9.1202e-10,1.0991e-18,0.30194,0.11612,4.1637e-10,3.0774e-09,-1.4145e-10,-1.2029e-07,-8.9826e-24,-2.2293e-05,-5.9313e-09,-1.1389e-10,-0.001093,1.0398e-06,1.4253e-09,-7.3101e-10,8.2262e-14,-0.15488,4.7657e-08,4.6297e-13,1.6198e-12,-3.2038e-07,-5.6013e-31,-0.131,-1.576e-08,-1.1854e-19,1.4387e-12,-6.6875e-11,-2.6311e-16,-3.8673e-16,0.0073571,1.6322e-09,2.8086e-06,-3.4277e-07,0.12866,-7.1863e-08,-1.2754e-06,-3.1792e-26,-2.7818e-05,-4.972e-13,-8.5086e-09,5.9657e-25,-9.0396e-05,-1.3077e-08,1.5159e-10,-1.1465e-30,-5.5819e-12,2.3303e-09,-0.00037653,6.8832e-10,-1.5619e-05,1.9531e-07,1.0949e-18,1.0819e-17,0.36281,-4.7977e-07,-0.0068385,-2.9759e-05,6.1683e-26,1.1452e-08,9.8016e-13,4.1289e-10,3.5689e-09,-0.0076394,2.6115e-10,1.393e-18,0.061495,-0.047986,4.115e-10,4.9546e-09,-4.6815e-11,-9.6361e-08,9.2812e-32,-9.2408e-06,-3.5637e-09,1.9851e-10,-0.0003786,-1.6259e-06,2.145e-09,-4.6836e-10,-4.4138e-14,-0.0070074,1.8186e-08,-2.4864e-12,-1.663e-14,-8.2142e-09,1.3784e-26,-0.0073204,-2.2354e-07,3.2439e-25,1.2584e-12,-2.7239e-10,1.188e-15,-3.8742e-16,0.18445,2.8449e-09,3.2641e-06,1.4188e-08,0.0080659,2.9264e-08,-2.6494e-07,1.3999e-31,-4.1279e-14,2.0179e-43,-1.5716e-08,-4.2903e-32,-1.35e-14,-9.6375e-09,9.0457e-11,2.3317e-32,1.9851e-37,4.645e-09,-1.7296e-05,-1.4711e-10,-2.2836e-06,-5.5142e-08,8.6889e-20,6.7879e-18,0.017966,6.3448e-08,0.11041,-3.4059e-14,4.7848e-26,1.8708e-09,-5.0213e-13,-1.543e-10,4.8426e-09,5.428e-05,-6.2303e-10,4.5919e-26,-0.113,-0.046269,1.1471e-10,2.0771e-09,-3.0153e-11,-2.3782e-09,9.8651e-43,2.3356e-06,-1.5109e-10,2.7839e-11,2.8871e-06,-4.8322e-07,-3.8581e-10,5.801e-11,1.3066e-15,0.098509,2.167e-08,-2.3538e-12,7.1832e-13,7.9065e-07,3.1245e-31,0.083246,1.9363e-20,-8.3517e-43,7.5754e-13,6.8443e-11,8.8073e-18,-1.1799e-17,0.011166,-2.3468e-09,-9.8825e-08,3.1554e-11,5.2049e-17,-5.0904e-10,4.339e-14,2.3875e-13,-6.9123e-12,1.8413e-08,1.4969e-06,5.0613e-14,1.1767e-09,4.0296e-11,8.888e-08,1.8285e-09,-1.5134e-07,-5.8169e-13,-2.0896e-08,2.4494e-05,-8.9201e-07,1.7066e-06,-5.0851e-07,-6.7169e-11,1.2905e-16,-4.7239e-12,-5.2097e-17,1.135e-07,3.8707e-07,6.4626e-13,-5.7893e-12,1.74e-14,2.6381e-13,7.0561e-10,1.7227e-09,1.1563e-09,1.6314e-17,-1.3927e-17,1.949e-10,-6.5541e-13,-2.4319e-08,3.2332e-14,8.9761e-11,1.7324e-05,-1.4518e-12,5.2768e-07,-4.1718e-09,-1.5273e-08,-4.4272e-14,4.8772e-07,1.3695e-07,-1.9417e-19,-4.0173e-08,-7.7183e-15,-1.7869e-13,2.5149e-11,-3.0101e-11,1.5133e-17,-1.0157e-07,1.1013e-07,3.0584e-09,-6.627e-12,3.4411e-10,3.2093e-13,1.1706e-16,-3.6266e-10,-1.4212e-10,1.2771e-07,0.014729,-8.6012e-08,9.5917e-08,-2.5454e-31,2.3794e-14,-5.381e-43,-3.1988e-09,-6.8165e-32,-5.9799e-14,-8.7587e-09,-1.8066e-10,-6.0735e-32,-4.6789e-37,-7.3517e-10,1.0361e-05,-9.5188e-12,8.6609e-08,1.3529e-07,3.8667e-20,2.7457e-18,0.032577,3.077e-07,0.17596,1.6714e-14,-5.137e-26,3.889e-09,-1.5809e-12,3.0584e-10,-4.3765e-09,-0.00084279,2.3554e-09,-4.4063e-19,-0.14617,-0.020586,1.2722e-10,1.2049e-09,6.0394e-11,5.4048e-09,4.9186e-43,-8.8866e-06,2.8513e-10,1.216e-11,3.1076e-08,3.1441e-07,-4.98e-10,3.5809e-10,-1.956e-15,0.15932,-2.9124e-09,1.1659e-13,-1.0968e-12,-2.7914e-07,5.6159e-31,0.13722,-7.2552e-18,-8.3237e-43,3.4822e-13,1.8342e-11,1.6699e-16,4.0778e-43,0.01893,1.007e-09,-7.3564e-08,4.7119e-07,-9.4027e-43,4.0934e-14,3.8105e-10,-2.9515e-12,1.9917e-13,2.632e-14,-5.599e-06,1.7836e-08,4.6628e-06,3.0827e-09,1.1251e-10,-7.5184e-12,-1.3377e-12,-1.8595e-09,-6.6827e-10,-4.2417e-11,3e-13,-1.5946e-10,-1.1762e-41,6.8431e-08,-8.1976e-43,3.4643e-05,7.7492e-43,-1.0782e-12,6.4506e-11,-1.2442e-11,-2.8108e-08,-9.1168e-42,-2.7169e-12,-4.0176e-14,3.1298e-08,6.8664e-43,3.4696e-42,2.9427e-44,-1.4234e-06,2.0648e-10,-1.1875e-08,1.6287e-27,2.4491e-06,-8.0838e-13,-6.7977e-08,1.1548e-12,1.2222e-13,-2.9168e-12,4.1389e-11,2.5451e-10,-1.4022e-14,-5.3109e-43,-1.9487e-14,-4.1972e-06,-4.3042e-11,1.7313e-13,4.7554e-12,-2.3822e-44,-1.0123e-13,5.6579e-11,8.8796e-06,7.2734e-11,-3.3365e-08,-4.2473e-42,9.0244e-43,8.2494e-42,1.2158e-12,1.1994e-07,0.065038,8.2311e-08,-2.0516e-07,-3.3791e-31,-5.6228e-09,2.8958e-32,-8.3127e-09,2.6315e-32,-4.9041e-08,-1.2739e-08,6.2592e-10,-3.8112e-31,1.5733e-27,-4.5247e-09,-0.00018504,8.1365e-11,1.7791e-05,2.0576e-07,-1.6309e-19,2.5078e-18,0.18389,1.3821e-07,0.0087962,-6.6008e-09,-5.465e-26,1.4263e-10,-5.6443e-13,3.8571e-10,-1.6177e-08,-0.0050233,5.8082e-10,-8.7682e-19,0.020003,-0.025194,-7.204e-11,4.5092e-10,-8.9801e-13,-6.7998e-08,8.0715e-43,4.1886e-06,9.3922e-11,-3.8736e-11,5.1045e-06,1.9985e-07,-1.3105e-09,-4.1238e-12,-6.4118e-15,0.0075522,-1.5996e-08,4.2563e-12,-4.895e-13,1.0264e-06,-1.6865e-30,0.0061181,-3.6202e-16,7.1606e-43,9.1449e-13,6.0601e-11,-2.4226e-16,3.6861e-17,0.093549,1.9418e-09,-2.1487e-06,-4.2367e-08,0.019761,-2.803e-09,-1.4442e-07,-5.2118e-32,-1.7366e-14,-9.4728e-43,6.901e-09,1.0413e-32,8.7316e-15,2.1215e-08,3.0341e-11,-2.8108e-32,-5.9781e-38,-7.9873e-09,6.2701e-08,-2.425e-10,-2.2174e-05,-1.0005e-07,-4.7102e-21,-3.0686e-18,0.041907,4.8628e-08,0.20547,-1.7326e-14,4.6001e-26,-5.9874e-08,-3.3704e-14,4.4421e-12,3.1148e-10,0.00072786,1.5509e-10,2.3531e-21,-0.16452,-0.013445,-5.9385e-12,-4.2428e-10,-1.5928e-10,7.0553e-09,8.5479e-43,5.6498e-06,-7.0797e-10,1.0633e-11,-1.6167e-06,2.6803e-08,-1.8456e-09,-7.212e-11,-3.1553e-15,0.18371,-2.9281e-08,6.8944e-43,2.364e-13,-3.5624e-07,-7.0816e-31,0.15582,-9.9046e-19,-8.7161e-43,-2.8823e-16,2.7966e-11,-4.9996e-18,-1.5723e-42,0.025461,-2.6852e-11,-6.5289e-08,-6.3903e-09,0.0068236,-6.2524e-08,8.237e-08,2.453e-31,-4.9343e-14,8.7301e-43,-1.6398e-08,2.9172e-32,3.4505e-15,-1.8229e-09,-2.1952e-10,1.1604e-31,1.4593e-37,9.2508e-10,2.3501e-05,1.2927e-10,4.1983e-06,-6.0062e-08,-2.918e-20,8.6713e-18,0.0090865,1.484e-08,0.17983,-5.0634e-14,-4.7048e-26,1.377e-08,6.0869e-13,-1.9259e-10,1.2707e-09,-0.00060924,-4.6946e-10,-1.7656e-43,-0.13123,-0.02911,-1.0604e-10,-1.7576e-09,-1.7648e-11,-6.1219e-10,-2.8586e-43,-1.7704e-06,3.2795e-10,-4.628e-11,4.8373e-08,-1.5226e-07,2.9051e-12,1.4782e-10,2.1827e-14,0.15873,1.293e-08,-3.3988e-12,5.3777e-13,1.1727e-07,-5.3224e-31,0.13207,2.7015e-18,-8.7581e-43,7.6564e-13,4.8345e-11,-2.5569e-18,4.3165e-17,0.0081403,9.49e-10,1.1086e-06,1.1601e-10,4.6025e-08,-5.8802e-06,-5.5978e-06,1.9018e-07,2.7521e-12,-3.3782e-07,2.0117e-16,-1.1602e-06,1.7611e-08,2.109e-13,-6.8525e-07,-2.8424e-10,1.0482e-12,-3.12e-10,6.982e-11,-5.4766e-10,5.3226e-08,-5.4147e-09,-3.3806e-12,1.0447e-10,2.1435e-09,-4.5433e-11,1.0879e-08,3.0791e-11,-5.2099e-14,-1.592e-10,-2.1446e-12,-6.233e-08,-1.4086e-06,9.6147e-06,2.635e-10,2.2937e-12,3.8476e-09,5.4281e-09,1.8211e-11,2.4541e-12,-1.6601e-06,4.4078e-14,1.6102e-06,-2.8887e-10,-5.0116e-09,7.4367e-08,-7.5357e-07,2.2796e-12,-4.6166e-09,1.5857e-14,2.1328e-06,3.5031e-08,-1.6396e-09,-5.3564e-13,-1.7032e-09,-9.125e-14,1.1327e-05,4.9019e-08,8.6546e-07,-6.4049e-14,1.5841e-13,-1.9922e-12,1.3302e-08,-7.8823e-42,-1.9051e-08,1.5655e-09,1.4944e-12,4.4334e-08,-2.294e-06,2.8241e-10,2.5768e-11,1.4072e-13,-1.692e-10,-2.3036e-13,-4.3747e-09,2.0867e-06,2.676e-09,2.7883e-13,8.6129e-10,-1.4427e-11,-3.7094e-12,7.5236e-06,-1.2515e-07,-7.9609e-10,-2.0381e-06,-2.8838e-10,4.8931e-15,1.8362e-10,0.00049276,1.3186e-10,-0.00018289,4.8076e-09,-9.4322e-07,-4.5155e-06,3.5312e-12,-5.7794e-07,3.3821e-10,-2.171e-05,2.348e-09,2.1585e-08,0.00022921,1.3733e-06,-1.4294e-08,-2.1097e-10,6.8882e-06,3.392e-08,-1.0715e-10,4.0537e-08,3.815e-06,1.7117e-10,-9.9532e-12,7.2922e-07,1.3127e-05,-2.5098e-08,-6.3181e-09,-0.000116,1.5883e-08,-1.5161e-09,3.5623e-12,4.0959e-12,-1.5094e-12,-5.157e-05,8.085e-10,-3.2248e-13,-1.5104e-13,2.9223e-13,-2.1169e-10,-6.0942e-42,5.106e-07,-1.2378e-10,2.3276e-08,1.2251e-11,-1.8217e-44,-3.4517e-09,1.2133e-11,1.0087e-08,-7.7089e-09,-9.5075e-09,-2.855e-08,-7.2464e-06,-2.3493e-08,5.7584e-11,-1.5505e-05,4.745e-06,-1.1846e-11,6.8263e-12,8.4424e-07,3.4707e-15,3.8494e-42,5.1729e-06,2.6058e-10,4.9858e-10,3.4472e-43,-1.6985e-14,1.0187e-39,4.4987e-08,6.6197e-14,-1.1566e-13,1.6654e-13,5.6633e-12,4.5465e-10,8.9343e-07,1.3741e-14,-4.9766e-10,-9.5858e-38,-2.0879e-43,3.5251e-11,2.9334e-11,1.1539e-07,-2.938e-06,7.5937e-08,5.8441e-15,-3.4287e-13,9.1802e-14,-1.4847e-17,-7.3135e-14,-3.6236e-08,1.6869e-05,-7.1969e-13,-3.2314e-42,1.7283e-10,8.8384e-08,-3.9989e-10,1.5307e-05,1.4018e-07,-5.4791e-43,5.2297e-06,7.223e-08,-1.3748e-13,-1.638e-13,-3.2517e-08,-1.2212e-12,8.3798e-43,-1.0122e-14,3.4647e-08
