0.10508,-0.00014263,6.2078e-43,5.8419e-18,1.1826e-08,-5.1463e-13,-9.7286e-12,4.55e-12,3.6994e-43,-0.0088386,2.1804e-11,-5.0307e-43,-8.9838e-14,0.020029,-0.082678,-0.063607,1.0723e-19,-0.047795,-2.5975e-05,6.5496e-16,3.9857e-10,8.0855e-43,-3.7398e-23,-6.9429e-26,9.2696e-07,3.4757e-13,-5.9359e-16,-2.0887e-10,0.0084495,3.5347e-40,-6.8669e-10,7.511e-43,-2.3061e-08,8.0927e-11,-1.093e-07,-3.2207e-14,3.8322e-06,-0.0001145,9.0524e-43,0.074703,-7.1746e-43,1.7051e-21,3.8842e-14,4.6127e-09,-5.6753e-43,5.5898e-22,6.3325e-12,0.0056397,-1.7961e-23,-4.4982e-43,3.5851e-21,-0.01009,6.905e-26,-1.7376e-43,1.0183e-07,8.0905e-13,-3.7329e-10,-0.0068005,2.2579e-07,-3.8253e-15,7.0766e-43,-1.2138e-18,8.4092e-17,-1.1807e-12,0.00055322,9.8621e-12,-1.006e-41,3.5977e-19,6.9563e-09,2.959e-14,7.0135e-11,9.4467e-13,6.5581e-43,-5.0598e-05,3.3059e-13,1.2023e-42,-1.6167e-14,-0.00018731,-0.00064149,-0.00026608,-1.8617e-37,-9.2698e-05,1.6813e-06,-2.4626e-17,-1.4962e-12,1.1589e-42,9.3652e-34,7.5178e-37,6.6328e-07,-8.1015e-38,2.0148e-16,-1.2938e-11,0.0001326,2.6106e-42,-3.5447e-10,-1.9562e-42,3.4939e-10,-3.4588e-12,-2.2483e-08,7.6225e-14,-7.8461e-06,6.1306e-07,2.2841e-42,0.00020104,3.4052e-43,-4.9113e-33,-5.7029e-16,-6.137e-12,1.7684e-42,-3.7399e-31,-1.1783e-12,-0.0002875,6.8327e-42,-3.656e-42,2.1354e-33,-8.1003e-06,1.9383e-36,4.1871e-42,-2.6967e-09,1.8677e-18,-4.0568e-11,-1.8183e-05,-3.6739e-09,2.4818e-16,1.9954e-42,-1.7565e-28,6.1799e-16,3.0245e-16,0.33857,-0.0058712,-6.3164e-15,1.2484e-17,-1.6102e-07,-3.7037e-13,2.8443e-10,1.1894e-10,-5.6716e-17,-0.023741,8.19e-11,5.1454e-16,-2.2749e-13,0.05285,-0.24839,-0.19681,-9.4417e-07,-0.15545,-3.5455e-05,-1.7636e-09,-3.2072e-09,-8.1152e-30,-3.7333e-22,1.7434e-25,-0.00011284,-8.6182e-13,-9.3939e-06,9.1075e-11,0.021737,-6.8254e-09,-2.9011e-10,-3.2911e-11,5.1239e-08,2.2007e-10,-1.2748e-07,-2.3655e-12,-0.0011195,-0.0039701,-3.0911e-26,0.24622,-2.8256e-41,-1.6221e-05,-4.7612e-11,-7.8791e-09,-2.7434e-12,-1.5046e-10,3.4501e-11,0.0051617,-1.079e-06,-2.9637e-11,-1.9347e-05,-0.020979,-4.427e-06,-7.6482e-16,1.2955e-07,-4.5262e-11,7.0505e-10,-0.0055995,-5.7593e-07,-6.8198e-14,-7.0416e-24,-3.2239e-05,2.3663e-15,-1.4075e-12,3.888e-07,4.5078e-15,4.9101e-42,-6.344e-21,5.4943e-22,9.6545e-24,1.7483e-16,-8.3698e-16,-3.3099e-42,2.6091e-10,-1.7244e-18,1.4686e-42,-5.1191e-17,5.296e-08,5.2199e-08,1.3378e-07,-2.1566e-30,3.0285e-08,5.5278e-16,-4.5935e-18,-3.905e-18,2.8236e-42,-2.8965e-42,-6.7689e-32,5.573e-10,-1.0098e-30,-1.7175e-18,3.2697e-16,-3.3251e-10,-2.3009e-42,2.1163e-14,-9.8792e-43,-4.6402e-16,-3.8055e-20,-1.71e-23,-3.6357e-16,2.9198e-11,-2.3672e-10,-2.3864e-42,-1.1243e-07,-5.6823e-42,-4.2134e-35,-3.8706e-17,1.2016e-18,1.0524e-42,-1.3075e-27,2.4498e-16,9.1249e-17,-3.2959e-42,-4.2165e-42,2.6193e-37,-7.1508e-10,-1.6672e-29,2.8685e-42,4.5621e-18,1.8102e-20,9.3457e-15,1.0017e-18,7.1348e-18,3.3598e-17,-7.6553e-42,-4.0076e-25,1.2739e-18,3.7168e-19,0.0011906,1.8412e-11,6.1462e-16,-8.6043e-19,-4.1981e-11,-2.7929e-14,2.6457e-11,-3.7584e-12,-1.4882e-42,0.00038933,9.4405e-14,9.959e-42,1.239e-09,-0.00097881,-0.0018387,-0.0011705,7.6582e-29,-0.00067648,-2.1988e-12,9.9497e-17,-5.3394e-16,-2.5364e-43,1.8712e-24,3.3831e-26,-9.7433e-07,-1.6509e-26,3.2938e-17,-6.685e-11,-4.3784e-05,-3.6139e-42,-2.1778e-12,2.0659e-22,-5.0458e-06,-8.9279e-12,1.7028e-10,9.6036e-08,5.0373e-08,1.071e-06,-5.8855e-43,0.00057513,-3.1683e-42,-1.1122e-23,3.1456e-15,-1.0788e-16,2.9371e-42,2.3334e-22,2.7888e-12,5.5381e-07,4.4842e-42,1.1261e-11,5.1939e-24,0.00049362,7.1327e-27,-7.1287e-06,-7.8435e-07,6.3498e-08,-2.9454e-10,3.7788e-06,2.9209e-06,1.0497e-15,3.9557e-07,5.6725e-21,-6.6305e-13,-4.5998e-16,-0.0020798,2.3538e-10,5.5632e-43,2.0029e-17,-1.0326e-06,3.1685e-13,1.3159e-09,1.781e-09,8.646e-43,0.0046786,-1.4897e-09,1.945e-42,-2.1575e-12,0.04632,0.0093225,0.0064801,-2.4301e-27,0.0052432,-6.2086e-06,-9.7944e-16,4.2925e-10,7.0766e-43,-8.4963e-23,9.0037e-26,-5.9153e-05,-1.0766e-14,1.0935e-14,-4.6472e-10,0.015893,-1.0531e-33,-1.232e-10,-6.0536e-43,1.6267e-08,-6.9345e-12,1.2979e-06,-1.5803e-10,0.00030987,9.5679e-05,6.8103e-43,-0.0001035,-2.2855e-42,-2.5298e-22,-4.1585e-10,3.1188e-09,-1.4013e-44,-1.0727e-21,-1.3637e-11,-0.00065436,-5.0931e-16,-5.164e-11,-4.5879e-23,0.0052628,-6.3619e-21,1.03e-42,2.455e-07,5.3586e-17,-1.0245e-10,-0.0018586,-7.073e-07,-3.3637e-15,1.4994e-43,1.0489e-19,3.4879e-15,1.0744e-15,0.013652,-0.00051121,-8.1275e-43,3.0232e-18,-1.101e-06,-2.1885e-12,-3.6203e-10,1.0184e-09,-5.2249e-41,-0.014897,-5.8522e-10,-5.8434e-43,2.2916e-13,0.16409,0.021971,0.014591,-1.2193e-13,0.013158,-5.0375e-05,-6.6772e-16,-2.5453e-10,-3.4612e-43,-1.1927e-22,3.4331e-25,0.00038087,-5.2941e-14,-8.5866e-09,2.3636e-10,0.058892,-6.8074e-15,-1.497e-10,5.1664e-34,7.9808e-08,-2.1272e-11,-9.1168e-07,-3.276e-11,0.0010886,0.001464,-6.8103e-43,0.012536,4.9186e-43,-2.7618e-09,-4.698e-10,5.0774e-10,1.77e-24,5.5723e-22,3.2143e-11,0.0049454,6.2842e-10,6.5735e-11,-6.7446e-09,-0.018701,-3.4121e-08,-8.2536e-43,2.035e-07,-1.5869e-17,1.3479e-09,-0.011904,-5.0595e-07,-2.3128e-15,8.4078e-44,-6.408e-09,-4.9189e-15,5.3816e-16,1.2972e-05,1.674e-12,3.3955e-14,2.7315e-21,8.9221e-29,1.9479e-15,1.1191e-15,-3.3972e-09,-6.0578e-42,-1.4791e-05,-7.6657e-24,9.0075e-42,-8.2108e-09,-4.5887e-05,-4.1378e-05,3.1574e-05,2.0119e-29,4.3322e-05,-4.8846e-19,7.1587e-18,-3.2444e-24,6.1489e-42,8.9019e-26,6.743e-29,-4.4556e-11,-8.9733e-28,6.5278e-17,-5.2583e-24,3.9352e-05,-3.2678e-42,-1.5681e-42,-3.6529e-26,6.306e-15,-1.8395e-12,-1.1314e-23,-1.5043e-12,3.9127e-09,7.754e-09,8.7133e-42,-3.6866e-05,-6.7599e-42,-9.4019e-26,-9.526e-42,-2.6863e-15,-4.7476e-42,-1.5749e-08,-9.2995e-14,1.8629e-16,-3.499e-42,1.1337e-42,3.2447e-25,-2.7142e-05,1.2717e-28,7.8234e-42,1.0183e-18,-5.1619e-21,-3.7029e-12,-1.5775e-17,7.2579e-15,-3.2355e-17,-2.0799e-06,4.2236e-23,2.9129e-17,-4.0441e-42,0.020058,1.1947e-06,-5.0307e-43,2.8475e-18,-3.8226e-08,-4.6752e-13,-1.0963e-09,6.5359e-10,5.5912e-43,-0.022761,5.599e-10,-9.3747e-43,-1.4854e-13,0.23071,0.030127,0.016596,-5.2195e-28,0.013035,2.4804e-05,-4.3904e-15,-2.3502e-10,1.4293e-43,1.2187e-23,4.4327e-26,3.1255e-05,-1.5374e-13,2.6339e-15,-2.2047e-10,0.077254,-1.4059e-38,-2.7974e-11,6.7262e-43,-4.5227e-08,6.8039e-11,1.7954e-08,-2.7519e-11,0.0012108,0.0001963,8.5759e-43,0.023704,1.2345e-42,-2.0308e-22,-5.6496e-10,1.608e-09,-6.2078e-43,3.0386e-22,-6.7798e-12,0.0046593,-1.729e-16,-4.4116e-11,5.5849e-22,-0.027792,7.741e-15,4.1338e-43,9.3048e-08,-5.6517e-18,4.3272e-11,-0.0054933,9.8033e-08,-2.5897e-15,3.6013e-43,-6.6085e-17,-4.1181e-15,4.1612e-16,5.8665e-11,-1.9912e-42,-1.0103e-42,-1.3789e-42,2.6036e-42,2.158e-42,-1.1365e-42,1.2542e-42,-2.605e-42,-9.5316e-42,4.1198e-43,-1.9422e-42,-4.0049e-42,3.8486e-13,1.6257e-09,1.3661e-11,1.9646e-42,1.2408e-14,-5.2689e-43,-2.7129e-42,2.5672e-42,-6.1041e-42,-8.4638e-43,-1.4083e-42,-3.3365e-42,3.3071e-43,-1.0103e-42,-1.1463e-42,6.4516e-42,-3.5537e-42,1.484e-42,-1.6703e-42,9.1084e-44,4.5262e-43,2.1062e-42,-1.8581e-42,-4.4631e-42,2.5756e-42,-4.955e-42,-1.7211e-12,-1.7754e-42,2.4004e-42,-4.1338e-43,-1.3691e-42,-1.4447e-42,-4.8345e-43,1.5484e-42,-1.3495e-42,-2.3682e-42,-6.432e-43,-4.7644e-44,4.9203e-37,-2.989e-42,-1.1056e-42,-1.5723e-42,-1.0384e-42,-1.6325e-42,-3.0436e-42,2.1019e-44,-1.7012e-42,-6.4165e-42,4.288e-43,-1.2135e-42,-8.7161e-43,-0.038098,-0.00012956,-9.5232e-42,5.5586e-19,3.293e-06,-1.9543e-12,9.9985e-12,-7.2503e-11,5.353e-43,0.02446,-2.3505e-11,-5.3249e-43,-1.9443e-12,-0.022,0.04974,0.039169,-5.2562e-13,0.028913,8.816e-05,4.2583e-16,1.0053e-09,-8.6881e-43,-3.3512e-23,2.8231e-25,3.8708e-11,-5.5854e-12,4.0985e-13,1.2761e-10,-0.013748,8.8261e-37,2.3384e-09,-5.7294e-32,-4.7491e-08,-5.1374e-11,1.0228e-06,-5.6101e-14,-0.00033195,-0.0010494,5.7453e-44,-0.031543,5.9835e-43,3.7075e-20,9.0366e-13,1.0248e-08,3.2926e-35,-3.0884e-22,3.1887e-11,0.01164,-6.0466e-19,3.9096e-43,1.7458e-20,0.027938,-3.3539e-12,8.3798e-43,5.2822e-08,3.6987e-12,7.0194e-10,-0.005963,7.2367e-07,-3.1932e-15,1.5554e-43,1.5118e-16,1.4852e-16,5.572e-12,0.090341,-0.00069776,3.2812e-31,-5.3139e-18,1.3029e-06,9.4465e-13,3.8815e-12,-1.0761e-10,2.4766e-38,0.038623,2.9958e-11,-3.0015e-38,5.8538e-14,-0.1247,-0.061254,-0.047809,-6.4332e-12,-0.040309,1.49e-05,1.1259e-14,-2.9397e-11,6.8243e-43,5.5208e-24,-2.7229e-25,-4.1166e-06,3.768e-12,-5.4545e-09,5.4707e-11,-0.0432,-4.0113e-19,1.773e-09,-6.6869e-25,6.992e-08,2.253e-10,3.8536e-07,-1.5082e-13,-0.001225,-0.0027401,1.3873e-43,0.058434,-8.4078e-45,-5.5939e-09,-3.6495e-12,-2.8062e-09,-6.0434e-27,1.2319e-21,-2.8591e-11,0.010283,-1.365e-12,-6.3479e-43,-6.716e-09,0.046337,-1.2935e-08,5.7033e-43,4.3187e-08,-3.6327e-13,1.0391e-09,0.00016304,4.6562e-07,4.0354e-15,4.8205e-43,-2.2322e-08,9.7153e-17,4.0712e-12,0.0075209,-3.8363e-08,5.5912e-43,-2.6633e-18,-2.4078e-06,1.0768e-12,2.1072e-11,2.6068e-11,4.3861e-43,0.019131,2.7362e-11,0,-1.3286e-16,-0.077555,-0.019106,-0.015054,-7.8033e-28,-0.013654,0.00016978,-1.8463e-15,-3.2341e-10,1.121e-42,-1.0698e-22,9.071e-26,3.8725e-07,7.1673e-27,2.4634e-15,-4.2412e-10,-0.024868,6.9504e-43,-5.5698e-09,4.7504e-43,-4.2097e-08,-7.7639e-12,-1.3412e-06,4.3821e-14,0.00016091,1.0906e-05,-7.1746e-43,0.0041271,-8.9683e-44,4.8703e-22,1.7965e-42,-3.629e-09,-4.3721e-43,-1.8815e-22,-3.3663e-11,-0.0052402,-7.2868e-43,-9.1084e-44,-2.0508e-22,0.023013,-4.8714e-27,2.6064e-43,1.9997e-07,-2.0679e-11,-7.7825e-10,-0.0017887,4.5228e-07,-1.8605e-15,5.0587e-43,-1.9161e-20,-1.8747e-16,9.8968e-12,8.5346e-11,-2.7914e-42,1.3953e-21,-5.4174e-42,-6.7963e-42,6.0396e-43,4.1338e-43,-3.7516e-21,6.446e-44,-3.3243e-31,-5.2226e-42,4.2319e-42,1.3322e-06,4.877e-13,-1.0975e-11,-3.8924e-14,-2.3934e-42,-8.2802e-18,3.1809e-43,-7.6856e-16,1.0728e-41,2.8026e-42,7.0467e-15,-2.4985e-15,7.2391e-42,2.6579e-30,-6.6439e-19,1.7305e-21,2.7773e-37,1.987e-42,7.5208e-42,-1.8174e-21,-8.5301e-16,1.4812e-42,1.4347e-19,2.2604e-07,1.3747e-42,-1.8895e-12,-1.1547e-42,1.1036e-13,2.6358e-42,-1.3671e-16,1.2359e-42,3.1978e-42,-5.7131e-42,6.8215e-42,-1.0884e-41,4.4281e-43,-1.0803e-41,-5.7691e-42,-1.0843e-07,-6.5003e-27,-6.055e-42,4.6659e-12,-4.8947e-42,-5.3951e-15,-1.2662e-29,-3.8255e-43,-1.1655e-24,-9.3005e-06,-1.01e-07,-3.1011e-42,1.5227e-06,-8.681e-42,-0.014603,1.0098e-08,-6.7963e-43,6.1551e-19,2.6803e-07,-3.9338e-13,1.7991e-12,3.7329e-11,8.2817e-43,-0.0012694,2.0083e-11,2.0599e-43,1.461e-14,0.053917,0.030188,0.023577,-2.0847e-28,0.019795,1.4692e-06,-1.5718e-16,-8.6208e-13,-1.0846e-42,3.2824e-23,-2.5673e-26,-1.8538e-07,-5.0971e-13,-2.0056e-15,-2.0043e-11,0.012112,8.4779e-43,3.5949e-11,5.353e-43,-4.3503e-09,-2.257e-11,5.9718e-08,6.8885e-15,0.00013643,3.2598e-07,1.3901e-42,-0.011827,6.5721e-43,2.2334e-22,1.4829e-12,-1.3908e-09,-6.0816e-43,-1.3046e-23,-5.285e-12,0.0015261,-8.4078e-43,-9.6409e-43,-7.3415e-23,-0.0027929,1.8716e-26,-1.0019e-42,2.1783e-09,-1.8798e-14,6.0358e-11,0.00086775,4.516e-09,2.8813e-16,1.0538e-42,-4.848e-20,-6.1646e-17,-7.0285e-12,-0.026211,-0.0015681,-7.539e-43,-5.3555e-18,-2.0175e-06,-1.0629e-12,-2.1985e-10,9.3302e-10,-4.1108e-41,-0.0084305,-5.7526e-11,-8.1836e-43,-1.7942e-13,0.10414,0.044329,0.030008,-1.4965e-11,0.022351,-7.183e-05,-2.4883e-15,-9.0876e-10,4.5822e-43,1.9411e-22,1.9672e-25,0.00054361,3.1638e-26,-3.5687e-07,-5.0784e-10,0.046784,-4.1658e-16,-1.0944e-10,-2.6909e-36,-1.491e-07,-2.1144e-11,-2.5156e-06,-5.1597e-11,0.00048612,0.0020022,3.4332e-43,-0.013661,-1.037e-42,-1.8856e-08,-6.7896e-10,2.7741e-09,7.1567e-26,-1.3952e-22,-1.5553e-11,0.0031916,9.2336e-11,8.5991e-11,-4.3233e-08,-0.010291,-9.7492e-08,-8.2817e-43,2.1386e-07,-1.9503e-17,1.6556e-09,-0.010478,2.5939e-07,7.6468e-15,2.0879e-43,-9.4956e-08,2.4658e-15,-1.3868e-15,-0.0065241,-7.1653e-06,8.4078e-44,1.9008e-18,2.1088e-06,-6.8556e-13,-6.8505e-12,8.8425e-12,-8.1976e-43,-0.022546,-1.4705e-12,4.4281e-43,6.2347e-13,0.080868,0.020936,0.01337,-1.732e-21,0.010001,5.5427e-05,2.935e-16,3.8586e-10,6.474e-43,-3.6769e-23,1.2942e-25,-1.8212e-07,1.4142e-12,-1.1208e-14,-1.121e-11,0.032475,-6.2824e-41,-1.288e-09,7.8469e-35,1.6334e-08,-1.4695e-10,1.0381e-06,-3.8502e-14,0.00024037,-0.00012743,1.3452e-43,-0.0016826,5.1708e-43,-3.8433e-22,3.1825e-13,5.4533e-09,-9.353e-37,1.6363e-22,-1.6393e-11,0.013952,-1.9407e-19,7.0065e-44,-2.869e-22,-0.025903,1.2504e-19,8.1556e-43,1.1258e-07,-1.2062e-12,-4.9452e-10,-0.010037,-2.3407e-07,1.8449e-15,7.1186e-43,1.6214e-19,-9.5072e-21,2.6379e-12,-4.8303e-06,4.7708e-10,3.408e-42,1.4653e-07,-4.11e-42,4.7602e-42,-1.7348e-42,1.4263e-10,4.5262e-42,4.0576e-10,6.7151e-14,3.7863e-42,-5.8742e-42,-0.00011442,-4.8452e-06,-3.4092e-07,-1.2135e-42,-1.0729e-08,9.6909e-08,3.168e-10,3.1749e-12,-5.6763e-12,-3.2426e-42,1.1079e-10,-2.5313e-14,-1.5238e-08,-1.5776e-12,3.6403e-11,-1.0428e-08,1.4868e-42,4.525e-09,1.334e-42,7.1593e-12,8.5542e-14,-6.1451e-15,-2.817e-23,-8.3746e-08,-2.3876e-09,-9.2766e-43,-8.7861e-07,-2.0687e-05,-5.3436e-13,-3.2664e-42,3.2216e-15,-1.6171e-42,4.8275e-42,-2.3672e-08,-8.5199e-43,-8.3097e-43,5.6837e-42,1.5262e-08,5.0477e-09,2.5528e-07,9.5878e-13,-9.1645e-43,-3.2636e-42,1.2701e-05,-3.6039e-18,-1.0404e-08,-3.5626e-09,-3.0398e-07,-1.0944e-11,-1.9217e-05,-8.1723e-14,-0.015564,5.1436e-09,7.8052e-43,3.2632e-20,-4.4417e-09,-3.1473e-13,-3.7217e-12,-1.4209e-11,-5.367e-43,0.0064164,-1.9564e-11,-7.1746e-43,1.4199e-14,-0.0056659,0.016616,0.013513,4.7821e-28,0.010308,-6.586e-06,4.9884e-17,8.9516e-14,-3.8536e-43,-1.2714e-23,-5.8575e-27,-5.0862e-09,4.3093e-13,-5.3452e-16,1.0966e-11,-0.0044748,1.3789e-42,7.1467e-11,3.6294e-43,-2.2405e-09,3.8757e-11,-7.5722e-08,9.9162e-14,1.778e-05,-5.6693e-07,-1.7292e-42,-0.012125,-1.0958e-42,-8.7944e-23,-5.2281e-12,-7.5623e-10,-1.0538e-42,-1.908e-23,2.1341e-12,-0.00050459,-9.5008e-43,-4.8765e-43,6.1918e-23,0.0072236,1.7734e-27,-2.6344e-42,9.2194e-09,4.1856e-15,-2.5511e-11,-0.00011914,-5.6469e-08,1.4713e-16,-6.1937e-43,2.1784e-20,-1.1546e-16,1.6169e-12,-1.6457e-05,-2.0743e-14,-5.2358e-20,-3.6553e-19,2.631e-09,2.1444e-19,-3.7425e-18,1.9361e-14,5.0012e-42,6.8787e-06,-4.513e-22,2.4018e-42,2.5335e-42,-4.0663e-06,1.5579e-05,8.8833e-06,4.8401e-42,4.4462e-06,3.7398e-08,1.0169e-16,2.7914e-13,-4.8555e-42,1.6533e-25,2.4405e-36,-5.4757e-18,-4.7648e-37,-7.7524e-16,6.7573e-14,-6.2071e-06,-3.4626e-42,1.1165e-11,-2.2771e-42,2.2984e-11,-8.3346e-16,-6.19e-10,1.7299e-19,-2.8576e-07,1.0923e-08,9.5442e-42,-9.4399e-06,-4.5248e-42,7.9831e-07,8.8002e-43,-6.4639e-12,5.7341e-42,1.2612e-27,-4.0721e-19,-1.9211e-06,2.9483e-42,1.4209e-42,-4.0208e-25,6.7502e-06,-4.3578e-36,4.0708e-42,-3.9171e-11,-1.2536e-13,5.1499e-13,-6.8863e-06,3.7111e-10,6.227e-17,1.5975e-43,-8.8782e-26,4.3266e-21,6.2386e-42,0.090673,0.00031525,-1.1319e-09,-7.7396e-18,1.4696e-06,-2.9126e-12,5.1027e-11,4.8811e-11,-3.0224e-12,-0.16709,-3.5537e-10,1.629e-10,-6.0615e-12,0.6501,0.077742,0.032122,-1.8307e-05,0.017012,-6.1862e-06,-3.2074e-06,-2.4565e-09,-2.5912e-15,-4.5593e-14,-2.0643e-14,0.00081614,4.586e-12,-0.00046635,-2.0164e-10,0.24259,-3.8529e-06,-2.034e-09,1.8978e-09,-5.8991e-08,-2.1326e-07,3.5606e-07,-4.1858e-12,0.0035336,-0.0026464,-5.0772e-13,0.094236,-1.5874e-20,-0.00027346,-2.359e-11,-1.3648e-08,5.9931e-09,-8.2685e-08,-1.7035e-11,0.015331,-1.0625e-06,-1.7904e-10,-0.00029492,-0.19071,3.0559e-05,-2.2508e-11,2.4213e-07,-8.6895e-09,4.9279e-10,-0.012963,-9.7253e-07,-1.5855e-07,-1.2412e-11,-7.6683e-05,-1.8385e-14,-3.3528e-12,4.0057e-17,-3.2734e-42,6.0914e-42,2.1849e-18,-4.7557e-05,-6.4025e-42,-3.2412e-42,-1.8975e-26,-5.0739e-23,2.3019e-33,-4.791e-13,3.1627e-42,3.1375e-42,3.2872e-11,4.4086e-20,3.0528e-26,-3.9152e-42,-1.1158e-37,3.869e-14,-1.0063e-06,-2.1958e-42,-1.1673e-42,-4.863e-06,-5.0713e-42,5.7502e-09,-2.6363e-09,2.2277e-15,-6.1405e-42,2.0613e-30,-4.9045e-43,3.8676e-42,1.4334e-06,-1.391e-06,-1.9765e-06,2.392e-42,1.2483e-21,-7.8066e-42,4.4475e-20,1.1379e-42,6.9042e-22,-7.7138e-26,5.9625e-42,-6.4784e-19,-1.9394e-42,5.4392e-11,-2.2654e-35,-5.8841e-42,-7.9177e-08,7.4395e-42,4.2835e-11,-7.3927e-26,-4.5364e-27,6.7205e-10,1.0831e-21,4.8485e-42,-3.9531e-42,7.4143e-42,-4.4268e-20,8.3756e-42,-1.3424e-42,2.2085e-10,7.3097e-06,4.5556e-42,-2.2914e-41,0.054641,-0.00028096,-7.9617e-38,-4.3049e-18,2.326e-06,5.7766e-13,-3.8945e-11,2.9112e-10,-8.1556e-43,0.037054,9.6524e-11,1.5414e-43,4.7626e-15,-0.08079,-0.022323,-0.019652,-6.2146e-14,-0.01947,7.3832e-05,3.5351e-15,5.1395e-11,3.7835e-44,-8.8219e-23,2.275e-25,-5.1577e-05,3.6505e-12,-2.1498e-11,-3.3256e-11,-0.030194,-2.3525e-22,6.8311e-10,1.4275e-33,1.3924e-08,6.0434e-11,7.4999e-07,-5.4759e-12,-0.00022449,-0.00026611,-5.7733e-43,0.035567,8.2396e-43,-3.8725e-13,-1.9753e-10,-2.8633e-10,-3.4338e-32,-1.0568e-22,1.3644e-11,0.0098686,-6.12e-13,1.9695e-11,-7.6594e-13,0.044582,-6.1508e-10,-7.8613e-43,8.5677e-08,-2.5538e-14,5.0168e-10,-0.0025755,6.4741e-07,4.7265e-15,-8.1415e-43,-7.333e-11,1.7867e-15,-8.1055e-12,0.011325,9.092e-07,2.4523e-43,4.6217e-18,3.6924e-07,2.2662e-13,1.9386e-10,1.4677e-10,-2.4663e-43,-0.025668,3.7704e-10,-4.1478e-43,-2.4375e-14,0.19727,0.028285,0.016127,1.0582e-27,0.012684,3.3866e-06,2.5133e-15,-2.5547e-10,-4.4281e-43,-6.1461e-23,2.0399e-26,-8.3402e-05,-3.644e-13,-1.6788e-15,4.6957e-11,0.061947,2.8306e-43,-6.893e-10,-2.3402e-43,-6.1981e-09,1.5086e-10,1.2301e-07,-9.8921e-12,0.00071721,-3.8934e-05,4.0638e-44,0.015847,1.1238e-42,-4.5912e-22,-2.3063e-10,-4.0801e-09,-3.1249e-43,2.0208e-22,1.075e-11,0.0050344,-5.5739e-32,-2.528e-12,5.1761e-22,-0.031186,6.5387e-25,-6.0956e-43,9.1724e-08,1.4403e-19,6.8768e-10,-0.00583,-4.2311e-07,-3.1148e-15,6.2918e-43,-3.3263e-20,-2.2726e-15,-5.5207e-13,-0.00090855,-9.0903e-10,2.4745e-10,-8.5451e-42,-6.0607e-07,7.864e-20,-6.1406e-11,-2.9984e-07,-5.7173e-42,-0.0013249,9.7019e-11,-4.4211e-42,1.2645e-08,0.0074124,0.0038495,0.0031807,-4.584e-09,0.0029954,2.8492e-07,-1.36e-07,-2.8028e-11,-2.3248e-42,6.5014e-09,2.7409e-10,6.3553e-07,-2.0242e-10,1.0386e-09,-7.2323e-10,0.0033033,1.1499e-41,-5.4892e-09,1.2906e-42,-2.8252e-09,-2.8621e-17,-2.3085e-07,2.383e-10,-9.9992e-07,-9.5271e-06,-8.7991e-11,-0.00052603,8.1528e-42,6.8879e-14,5.6935e-08,-2.3383e-06,-6.6814e-42,1.9725e-34,-2.0858e-10,0.00039878,1.0953e-41,3.8045e-42,-1.5131e-07,-0.0014696,9.8781e-33,2.0739e-42,-1.0958e-06,-2.1611e-15,-5.6875e-09,-1.6092e-05,5.9613e-09,4.4284e-14,-5.1152e-07,1.3202e-05,-1.8032e-19,-5.0942e-07,0.10752,-0.00030623,9.013e-40,-5.1948e-18,2.2224e-06,-3.8914e-13,1.5564e-11,1.4828e-10,-1.0089e-43,0.014754,8.6316e-11,5.9835e-43,-6.638e-13,-0.056792,-0.091083,-0.070599,-1.8283e-14,-0.055704,5.9157e-05,4.1058e-15,5.0543e-10,-6.2078e-43,-1.1588e-22,4.7405e-26,-4.8153e-05,-2.2465e-12,-2.3765e-10,-2.3395e-12,-0.023822,-6.4859e-25,1.1084e-09,1.4975e-33,3.0751e-08,1.7566e-10,9.1844e-07,-3.8521e-12,-0.00029775,-0.00080364,-6.1237e-43,0.072211,-6.3199e-43,-2.8917e-11,-1.2876e-10,7.1641e-09,-1.9546e-32,-5.0848e-22,-1.1313e-11,0.01061,-8.8484e-14,8.4511e-12,-3.6594e-11,0.017746,-4.1113e-10,8.6881e-44,9.7276e-08,3.7276e-14,-2.8467e-11,-0.00098371,1.0021e-06,-2.8219e-15,-3.209e-43,-3.0655e-10,1.879e-15,-5.8356e-13,3.8878e-07,-2.122e-13,-2.28e-23,1.8275e-10,1.4842e-08,7.2371e-07,1.1111e-05,-3.7206e-09,2.0193e-42,-2.5981e-10,2.3996e-10,-1.3515e-15,-1.7093e-06,-3.566e-07,-5.3443e-07,-1.3804e-07,2.7232e-14,-2.156e-08,-1.3482e-09,3.304e-17,-6.6473e-11,4.4954e-42,2.5791e-11,-2.2941e-27,-1.2376e-12,-3.5121e-11,4.5349e-18,-3.1761e-07,-3.4697e-10,-1.6353e-42,-3.7183e-11,2.2841e-42,-2.6803e-06,-1.4807e-12,-1.4691e-07,1.721e-07,-1.4078e-14,-2.5722e-10,1.0599e-13,5.7129e-08,1.6299e-31,-1.1274e-08,-6.9318e-15,6.5003e-06,-3.0829e-44,1.2504e-24,-1.1963e-06,-7.154e-07,9.3887e-44,2.4939e-21,2.1878e-06,8.8088e-11,-1.0506e-29,-2.1964e-14,-3.4444e-09,-1.167e-15,-8.3571e-08,-6.3315e-17,2.6345e-10,3.7662e-18,2.7185e-42,6.7062e-23,2.0324e-05,-4.6047e-42,1.5224e-05,-1.8178e-12,3.2314e-42,-6.2262e-22,-7.5486e-14,4.2329e-15,-3.9676e-13,-5.2631e-16,-1.264e-42,7.1225e-06,3.0744e-17,1.0358e-41,4.5037e-15,0.0005652,2.2675e-05,-2.5566e-06,-2.678e-30,-2.1076e-06,2.7023e-14,-3.1683e-18,-1.2002e-18,-2.6793e-42,-7.5456e-24,2.9396e-26,6.3553e-08,8.9725e-28,6.8909e-18,4.4666e-13,4.7308e-06,-4.344e-44,-2.5726e-14,6.9785e-43,-6.562e-16,1.2358e-12,-7.109e-13,5.57e-15,2.4546e-09,1.5994e-08,5.6935e-42,1.7288e-05,-2.7998e-42,9.2599e-23,-4.4952e-16,2.5384e-17,6.2064e-42,-4.259e-24,-6.3857e-16,8.4645e-12,-4.4211e-42,1.0616e-13,3.8908e-23,7.1789e-06,7.3477e-27,8.1275e-44,-7.4267e-13,2.9671e-21,4.8875e-14,-9.3253e-08,-5.0558e-16,4.5297e-17,7.2405e-42,-2.2443e-21,-1.8536e-17,4.2075e-17,-0.0033452,-0.0020453,1.1631e-43,1.2786e-17,-1.8857e-06,1.7404e-12,-1.0238e-09,1.682e-09,9.1384e-28,-0.0096602,-8.8935e-10,-4.344e-44,1.7607e-13,0.16067,0.032436,0.024932,3.1568e-10,0.022594,-0.00010048,-5.2306e-14,-1.0292e-09,-2.7465e-43,1.8289e-22,-1.9927e-25,0.001378,1.5166e-15,-2.5781e-06,7.038e-10,0.068218,-1.9794e-12,-3.3965e-10,-2.9689e-25,1.4961e-07,1.4841e-10,-2.1197e-06,-3.9355e-11,0.0014575,0.0030456,-4.0638e-43,0.00090459,-4.9606e-43,-2.1093e-07,-8.479e-10,1.6349e-09,1.1449e-16,1.3111e-21,-1.9038e-11,0.0046862,8.9892e-08,1.4322e-10,-4.0508e-07,-0.012175,-1.3423e-06,1.6535e-43,1.85e-07,1.7541e-17,1.6153e-09,-0.012086,5.4496e-08,7.2256e-14,1.2191e-43,-3.9325e-07,1.6886e-15,1.1561e-15,-0.023042,-2.3331e-11,-3.3457e-13,8.7216e-19,4.4738e-06,4.509e-13,-5.8569e-12,3.4655e-12,-1.8805e-42,0.0028805,7.2085e-11,5.9976e-43,5.602e-12,0.00084997,0.024038,0.018949,-4.4728e-29,0.014459,0.00029492,-6.7757e-16,-1.0441e-10,2.7003e-42,1.9562e-23,2.8592e-26,3.9239e-21,-2.146e-12,1.0946e-17,1.0797e-11,0.0020586,1.4602e-42,-4.4514e-06,-1.8091e-17,2.0315e-07,2.2877e-11,1.3954e-05,-1.7447e-14,6.708e-05,-2.9221e-07,4.7602e-42,-0.017228,-6.6982e-43,5.8979e-23,-4.7508e-13,-1.8977e-08,-3.3645e-42,2.6124e-22,-1.6247e-11,0.001098,-1.3126e-41,3.897e-42,-7.2403e-23,0.0032922,1.5397e-27,2.7985e-16,8.3435e-07,-2.8518e-08,7.1421e-10,0.0014844,1.4622e-06,-6.7212e-16,-4.076e-07,-2.4315e-20,-2.3489e-13,-1.9844e-09,-0.00061865,-4.6159e-12,-6.5581e-43,1.5466e-21,-4.2128e-08,2.1086e-15,2.8344e-11,-5.4425e-11,-1.3649e-42,-4.5639e-05,-1.1667e-12,-9.6409e-43,-1.5783e-16,-0.00011673,0.00066786,0.0004775,9.6634e-29,0.00034821,2.0653e-07,-6.9024e-18,-6.067e-12,-2.8769e-42,-1.6265e-25,2.1974e-27,-1.9765e-07,-8.5298e-16,-3.0447e-17,3.9547e-13,9.8618e-05,-2.0095e-42,-6.6335e-13,5.6192e-43,4.5229e-10,4.0027e-12,-1.0276e-08,-1.5551e-12,2.5466e-07,2.0848e-07,-3.1515e-42,-0.00039336,-1.8581e-42,4.2147e-24,2.5859e-11,-1.6201e-10,2.4663e-43,1.6326e-25,-1.4612e-13,-0.00043002,1.107e-43,4.2646e-13,2.626e-24,-1.8936e-05,5.0753e-28,6.446e-44,4.3267e-09,2.2365e-16,-1.2086e-13,-2.6463e-06,-6.9012e-09,2.6512e-19,2.0207e-42,8.4763e-22,2.669e-17,6.406e-13,-3.8512e-22,4.5822e-43,-2.9259e-42,1.3593e-43,1.7194e-42,1.889e-42,6.8103e-43,-3.1543e-42,2.172e-43,7.2587e-43,3.0674e-42,-2.1356e-42,-6.6842e-43,-7.5683e-21,1.438e-22,1.3613e-30,-1.9128e-42,3.279e-43,4.2473e-42,7.595e-43,6.474e-43,-2.5251e-42,-5.608e-42,2.7073e-42,4.8625e-43,-2.9876e-42,2.144e-43,-3.8466e-42,1.4433e-43,1.6241e-42,3.4668e-42,3.4906e-42,1.3186e-42,-1.107e-42,-2.5644e-42,9.8091e-45,-1.2612e-42,6.6323e-42,-2.116e-43,-6.7897e-29,1.8217e-43,-5.9485e-42,-2.8713e-42,3.4836e-42,1.7628e-42,7.8234e-42,2.7101e-42,1.3971e-42,-2.2421e-42,4.4842e-43,9.9072e-43,4.2599e-43,8.2116e-43,-2.3374e-42,-1.5723e-42,1.6031e-42,3.691e-42,-3.3939e-42,-1.2416e-42,-3.8017e-42,6.7543e-43,2.3234e-42,1.484e-42,-1.7012e-42,0.0050076,-1.114e-07,-7.8473e-44,1.1331e-18,9.2616e-07,1.7047e-12,-3.2139e-11,6.1701e-11,2.7746e-43,-0.029066,1.4095e-10,-3.265e-43,-1.1505e-13,0.19802,0.034505,0.02186,-1.534e-27,0.017869,2.2333e-05,1.6025e-15,-7.5315e-11,7.6091e-43,-3.8469e-23,1.4042e-25,-1.5196e-05,-5.4107e-13,1.5461e-15,3.4197e-11,0.060517,2.4102e-43,3.5049e-10,8.3658e-43,1.2591e-08,-3.2605e-12,4.2035e-07,6.0806e-14,0.00050738,6.8959e-06,-1.3452e-43,0.0099022,7.2727e-43,-3.7297e-22,-7.4074e-11,-1.7018e-09,-4.7364e-43,-2.5839e-23,7.6946e-12,0.0073606,4.1843e-39,1.8357e-43,-2.4013e-23,-0.035328,2.307e-26,-4.1619e-43,2.8918e-08,1.1746e-14,2.3722e-10,-0.0031744,-2.5936e-07,-1.5797e-15,2.9287e-43,1.0238e-20,4.1115e-16,-7.2074e-12,3.0915e-06,-2.8976e-13,1.9226e-42,-8.7087e-23,-3.0944e-11,-2.1767e-15,3.0708e-13,-4.3214e-15,-1.079e-43,9.9692e-08,-2.6272e-14,5.2689e-43,1.8065e-16,-6.9035e-07,-5.2266e-06,-2.4123e-06,-3.7793e-30,-1.0683e-06,-2.9145e-07,1.9917e-17,5.3058e-07,-7.3008e-43,-4.6922e-10,-9.9457e-28,1.5017e-08,-3.7408e-11,-5.0682e-18,-8.387e-12,7.6547e-07,2.3514e-42,-2.1047e-12,-1.2738e-42,1.5524e-09,3.0184e-14,-7.2276e-11,4.0012e-06,-5.7054e-08,1.9233e-08,3.3449e-42,1.7801e-06,7.1242e-42,-2.1367e-24,-6.0614e-18,-1.6998e-10,1.5106e-42,-3.0719e-26,-2.4432e-09,-5.4168e-07,-3.7415e-43,2.4397e-42,2.0842e-24,3.6587e-07,1.9725e-28,-9.1365e-43,-3.1517e-11,1.414e-20,2.3992e-09,3.8816e-07,2.0587e-10,-9.6698e-18,3.4668e-42,3.2164e-23,2.2023e-18,4.5232e-19,0.00013793,-8.1444e-12,-1.3486e-41,-1.5551e-07,4.8042e-11,1.7524e-13,1.993e-07,5.5778e-12,-7.3568e-43,2.5492e-05,9.0942e-13,-4.6691e-42,3.7234e-09,5.3551e-05,-0.00010946,-5.2421e-05,-1.9761e-05,-1.3579e-05,2.5209e-09,1.471e-16,2.5137e-15,-3.209e-43,5.6606e-24,-1.6943e-27,4.7334e-08,-3.5834e-27,-3.8604e-17,-2.52e-11,-3.2602e-06,6.9378e-42,-5.3206e-11,-2.3836e-42,-5.1798e-13,-1.6368e-12,1.017e-07,-1.8861e-07,3.1559e-08,3.5975e-07,1.8463e-12,5.5991e-05,-1.1658e-13,1.866e-23,9.7371e-13,4.4874e-16,2.109e-42,-4.0874e-23,-5.6204e-13,-4.0374e-14,1.7096e-42,-2.6323e-15,1.5874e-23,3.6307e-05,6.8735e-27,-2.6726e-12,-1.0011e-07,-4.68e-06,-1.2214e-10,2.2134e-07,-2.1057e-07,2.1781e-16,2.0258e-13,-6.1931e-21,-1.0008e-07,5.3561e-07,-1.1578e-09,1.0667e-05,-6.8622e-42,2.9436e-13,2.8026e-45,-6.5377e-22,-1.1e-14,3.6022e-19,2.0417e-42,-2.7412e-10,-2.4863e-09,-5.8981e-42,-1.1337e-13,-5.9835e-10,1.5274e-09,7.4129e-10,4.4696e-21,2.0305e-10,-4.4101e-10,-8.0925e-09,-1.224e-14,-4.6573e-15,8.4037e-07,-3.5832e-12,6.2602e-14,-6.2198e-10,1.0244e-10,3.7478e-15,5.813e-10,-3.9601e-42,2.5265e-11,-1.0566e-42,9.132e-08,-1.5628e-05,-7.6281e-08,1.9414e-07,-3.0807e-08,-6.1128e-09,-3.6318e-07,-5.5806e-10,8.9112e-15,7.8648e-12,1.2538e-10,-1.414e-12,1.4069e-42,1.0031e-12,-5.409e-13,-2.8598e-10,-1.5246e-42,4.0932e-42,-8.961e-07,-3.6903e-10,2.3065e-09,8.356e-10,2.3805e-07,2.3473e-16,-2.3203e-10,7.5837e-09,2.6362e-13,4.7372e-13,-8.1474e-08,-4.5879e-15,1.0987e-07,-3.3307e-07,-0.0010113,-4.0045e-11,-1.1467e-16,-3.0255e-17,6.846e-07,3.8004e-13,-4.0173e-08,2.8269e-09,1.0938e-07,0.00059599,8.2373e-09,-6.3402e-06,-1.0998e-12,0.010416,0.0031952,0.0022327,-2.6666e-28,0.0016149,1.0863e-05,1.088e-16,-5.453e-11,-2.0692e-12,7.5808e-24,-3.6536e-26,1.1241e-05,-1.4642e-15,1.0427e-16,-1.0643e-10,0.0033156,4.4827e-12,-3.141e-10,4.8356e-12,3.8445e-07,8.4672e-12,-1.5352e-07,6.0815e-07,5.1238e-05,-3.6422e-06,-4.3382e-09,-0.00010337,-3.7013e-10,2.8507e-23,-2.8627e-09,-5.4328e-09,-7.163e-07,-4.1888e-22,1.5908e-11,-0.0011794,1.8617e-12,-1.6999e-06,7.6684e-23,0.00048432,-7.8739e-27,-1.6305e-09,-1.4782e-07,8.334e-18,-1.8296e-09,-0.00030838,7.9221e-08,6.2283e-16,-2.8579e-15,3.015e-20,2.6324e-08,9.0843e-12,0.0031285,-2.0176e-13,4.8905e-42,-4.8766e-18,1.3109e-06,1.5289e-13,6.0384e-09,-2.4123e-13,-1.9534e-42,-0.00072494,9.8797e-12,-1.3116e-42,-1.624e-14,-0.00087117,-0.0035403,-0.0027796,-4.4339e-09,-0.0021044,2.4341e-05,7.7089e-16,-2.9998e-06,6.4768e-42,-4.2757e-13,5.5634e-27,1.9274e-06,-4.615e-27,8.1298e-16,1.2833e-08,0.00056436,-5.2759e-42,-4.431e-10,-8.9823e-43,1.4368e-05,-9.4375e-13,-3.8361e-08,1.5425e-15,-2.833e-05,3.3103e-07,5.6324e-14,0.0023447,-3.3206e-09,2.1237e-26,-2.1598e-19,4.8098e-06,4.0175e-42,2.1144e-24,-2.0399e-12,-5.0547e-05,1.3775e-42,3.6574e-42,-1.4738e-09,-0.00069792,3.5871e-05,5.353e-43,1.1604e-09,-3.2712e-12,-1.1419e-10,-0.00015236,-1.3057e-05,-5.0051e-16,-2.8954e-41,-6.3152e-22,-1.9267e-17,-2.7567e-12,-0.0091744,-4.9194e-06,3.5832e-37,-2.6275e-19,2.4925e-06,-1.7293e-12,2.4145e-13,-1.3023e-12,9.2662e-40,-0.028098,-3.0105e-11,6.8383e-43,1.3035e-12,0.096044,0.027452,0.017205,-3.8532e-15,0.012644,7.1779e-05,-3.9159e-15,8.4944e-10,3.8956e-43,2.7291e-23,-1.5506e-25,3.6114e-07,1.0268e-12,1.6157e-14,1.7607e-10,0.039805,5.7663e-33,-6.4749e-10,1.2768e-28,-7.5146e-08,-8.4163e-11,1.174e-06,4.2493e-14,0.00032808,-0.00041443,-8.0014e-43,-0.0027572,-3.4052e-43,1.1781e-20,-1.8852e-13,1.0433e-08,6.8472e-30,3.3435e-22,1.378e-11,0.014497,-7.64e-16,7.1326e-43,1.2887e-20,-0.032197,-1.6391e-13,5.7033e-43,1.2003e-07,-3.6329e-12,1.8436e-10,-0.010336,3.4121e-07,-6.3178e-16,-3.7134e-43,4.854e-19,3.8034e-17,1.0686e-11,0.21277,-0.0024465,1.6576e-36,9.431e-18,-2.7532e-07,9.4746e-13,6.2578e-12,2.1839e-11,-4.0293e-37,-0.012189,-1.844e-11,1.8738e-29,3.7943e-13,0.0012908,-0.16368,-0.12886,-1.7693e-09,-0.10098,-3.7118e-05,-2.0018e-15,-1.8205e-09,7.595e-43,-9.8165e-23,-2.631e-25,6.4507e-06,2.0957e-12,-1.3012e-09,1.9429e-10,0.0037745,-5.0735e-17,-5.9475e-10,-3.4318e-20,3.6347e-08,1.0035e-10,-1.8464e-07,2.5941e-14,-0.00077446,-0.0027417,1.5414e-43,0.15012,-1.5134e-43,-1.1834e-08,-3.064e-14,-3.3694e-09,-1.9257e-24,1.0525e-20,-9.2261e-12,0.005135,-3.3075e-11,-4.3721e-43,-1.6791e-08,-0.010761,-1.3866e-10,5.8733e-34,9.7493e-08,-7.3931e-12,7.0903e-10,-0.0053964,-6.3638e-09,4.187e-15,6.488e-43,-1.2275e-07,-2.1292e-17,-5.2465e-12,0.16077,-3.3589e-10,4.7644e-44,1.1157e-18,-2.2645e-06,-5.5101e-13,8.5605e-11,6.6079e-12,3.6154e-43,-0.019905,-1.3103e-10,-7.553e-43,-1.8027e-13,0.071626,-0.1251,-0.097916,6.8892e-28,-0.07368,-2.8364e-05,-1.6528e-15,2.8682e-10,-2.2421e-43,5.7677e-24,-1.4496e-25,3.255e-06,1.5392e-14,1.6934e-15,9.6717e-11,0.020052,-3.8115e-43,-1.2963e-08,6.2218e-43,-2.9647e-08,-6.893e-11,-1.1897e-06,-1.1346e-12,0.00017334,2.043e-07,2.6905e-43,0.11746,8.2536e-43,-2.3062e-22,5.734e-16,-1.2708e-09,1.4994e-43,8.8626e-23,7.0828e-12,-0.0079431,-4.4421e-43,1.1449e-42,-1.4928e-22,-0.023029,7.3897e-27,-4.3861e-43,1.2856e-07,-7.297e-12,-1.02e-10,-0.00042442,-7.1281e-08,-1.9293e-15,1.0608e-42,-7.9393e-20,-2.6398e-16,6.7122e-14,9.581e-39,6.8939e-10,1.9376e-09,-1.1215e-41,-4.9354e-42,2.4519e-41,-1.5317e-09,1.2531e-10,-2.8026e-42,7.7352e-43,1.0001e-41,-4.2397e-10,-1.9864e-12,3.9289e-19,4.715e-31,-7.8192e-43,8.3721e-13,4.2039e-45,6.1538e-19,-2.5925e-32,-6.6273e-10,1.547e-42,4.2862e-07,-1.1171e-11,-5.7145e-42,3.3063e-08,-1.9394e-42,-4.7937e-13,6.5441e-43,2.4901e-20,-5.1032e-08,-2.6194e-08,-1.6357e-12,7.9986e-42,-1.1166e-23,2.07e-31,-1.548e-07,1.2768e-11,9.8535e-16,-2.6485e-43,-1.6942e-42,2.5722e-08,3.6604e-05,2.6506e-05,1.8394e-15,-1.8361e-13,7.4195e-21,1.9115e-16,6.3104e-08,1.945e-42,6.9257e-06,2.0319e-43,-6.2652e-42,-1.5076e-06,-1.8336e-15,1.4433e-42,1.6003e-14,1.995e-08,4.9656e-11,3.2088e-10,3.7626e-09,-2.6465e-07,-7.3089e-17,-4.1455e-11,-0.20616,0.0013752,-3.8097e-06,-2.1836e-10,2.0089e-06,1.244e-11,4.8834e-10,-4.5239e-09,-2.2656e-06,0.040545,-4.0565e-10,-9.2564e-08,-1.9383e-09,0.20278,0.52756,0.39574,-0.00036346,0.29247,2.6108e-05,-0.00045151,-2.0624e-09,-1.612e-08,-2.9477e-07,-1.383e-07,-0.0023929,-3.5237e-11,-0.0023697,-7.111e-10,0.086473,-1.4364e-06,-2.9091e-08,-2.8596e-05,-2.8904e-07,-9.8122e-05,5.0906e-07,-9.5913e-10,-0.0010486,-0.0058614,-3.1475e-08,-0.13767,-1.0014e-09,-0.0010154,-4.7201e-10,-2.2019e-08,-1.123e-05,-8.8454e-06,3.88e-11,0.014083,-0.00021594,-3.8886e-09,-0.0010347,0.049397,-0.0003825,-4.8514e-07,1.5395e-07,-3.8853e-07,5.3023e-09,-0.0073656,-2.4461e-06,-0.00017811,-5.4174e-07,-0.001309,-3.0926e-10,-1.4013e-10,-4.22e-06,2.3513e-15,-1.0762e-42,1.4954e-20,-2.7147e-17,-1.8879e-21,-1.3762e-17,2.2831e-39,1.2051e-43,-7.6714e-08,1.1921e-24,-1.3074e-42,-2.6396e-19,-1.941e-06,2.4922e-06,1.6714e-06,-1.5381e-30,7.2798e-07,-1.3641e-14,-1.7662e-18,2.4432e-18,1.1014e-42,-2.7282e-28,-1.3447e-28,-1.5143e-16,3.1503e-29,-8.7561e-18,7.2568e-25,1.0972e-07,1.128e-42,-8.5479e-44,5.381e-43,-1.0091e-18,2.148e-18,1.6765e-15,-3.3661e-19,-4.3782e-10,-3.0199e-13,1.264e-42,-2.1342e-06,6.9855e-42,8.3989e-27,-7.0906e-43,-1.9582e-15,-1.5162e-42,3.3846e-26,1.2624e-21,7.2246e-10,1.3396e-42,6.3619e-43,1.5171e-26,-8.3384e-08,-6.7249e-30,-1.3943e-42,2.783e-16,3.705e-17,-5.2981e-31,3.6808e-08,3.0393e-13,1.2987e-18,-1.0173e-42,-7.8702e-24,-7.4783e-24,9.5288e-43,5.7551e-19,2.8139e-17,-2.94e-16,-1.5624e-42,-3.3069e-14,-1.6483e-07,-1.3818e-41,1.6171e-42,2.8743e-17,-3.9236e-44,-3.8059e-42,-6.7262e-43,1.3298e-42,-4.6847e-17,-1.8531e-19,-5.3108e-26,-5.5034e-12,-4.8201e-37,-2.7409e-42,-6.4193e-42,-2.8951e-42,-2.7549e-10,-2.2827e-42,-1.2641e-06,1.4602e-12,1.5334e-06,1.3775e-42,1.0749e-13,4.5682e-43,-1.4009e-36,5.1344e-42,-2.8699e-42,-3.8984e-42,-1.0734e-42,-1.4574e-43,3.4346e-42,-1.1004e-06,8.0729e-42,4.9197e-08,4.8486e-26,8.0928e-12,-8.2607e-42,4.8821e-42,-4.7504e-42,4.4099e-42,2.6457e-42,3.9821e-08,-2.4369e-42,-5.8714e-42,2.8562e-12,-6.2437e-10,2.0039e-43,2.0305e-42,1.1252e-42,1.0692e-42,7.539e-43,7.6266e-07,-6.034e-42,-9.697e-43,-1.0471e-41,-4.5235e-06,1.1755e-25,9.2626e-43,-4.9898e-24,0.039167,0.00029369,-6.3759e-43,1.3828e-18,2.6545e-06,2.1212e-12,9.7886e-12,-1.8132e-10,-5.1428e-43,-0.10685,-1.5405e-10,-7.7772e-43,-3.8234e-13,0.59871,0.070459,0.043691,1.4721e-23,0.038114,6.1722e-05,4.5764e-15,-2.1048e-10,3.5593e-43,6.974e-23,-1.5951e-25,-3.6947e-05,-9.1454e-13,8.3293e-15,-2.8277e-11,0.19734,4.5193e-29,5.3576e-11,2.2561e-43,1.378e-08,-2.3959e-10,9.3842e-07,-2.1048e-13,0.0019581,-0.00039103,-4.5682e-43,0.047511,-7.0906e-43,9.7997e-20,6.1162e-11,3.6921e-09,1.0641e-41,-4.0262e-22,-1.0556e-11,0.014711,-3.9963e-15,-3.223e-44,4.0268e-20,-0.13006,1.2755e-10,-6.502e-43,1.0162e-07,3.7998e-14,-2.3913e-10,-0.0086188,3.5381e-07,3.5484e-15,-6.446e-43,6.3777e-13,7.1937e-16,-3.9964e-12,-0.00054057,1.9903e-12,-6.516e-43,2.8475e-17,-1.3834e-08,3.1905e-06,-1.3779e-11,-7.0199e-07,-1.7656e-43,7.3101e-06,8.6354e-07,2.4369e-42,-6.6321e-09,-3.3144e-05,0.00058929,0.00037896,2.5189e-29,0.00025766,2.6894e-05,6.026e-17,-1.3427e-10,-1.5695e-42,-3.7429e-24,-1.9193e-26,-1.2153e-06,-3.5764e-14,-1.4811e-16,-2.9848e-08,7.2798e-05,-1.739e-42,1.6419e-09,4.316e-43,-2.8111e-08,-6.8809e-12,2.426e-07,1.3077e-07,1.2499e-06,1.1606e-07,-1.4854e-43,-0.00031656,1.5793e-42,-4.5669e-25,5.4163e-06,5.1286e-09,7.1186e-43,-4.2077e-24,1.0573e-12,-6.8693e-05,4.8065e-43,4.0301e-13,2.4956e-25,2.2696e-05,-1.9917e-28,1.0255e-12,-1.2962e-08,-2.1695e-14,-5.758e-08,-5.4492e-05,-4.9408e-06,5.2865e-18,-2.4747e-42,3.0401e-22,4.9707e-15,-4.6907e-13,0.058736,-0.0004795,3.5063e-40,6.2313e-18,8.0019e-07,1.5122e-14,7.7413e-12,-6.4547e-11,-6.5721e-43,0.031589,1.5352e-11,2.4003e-40,1.484e-13,-0.09039,-0.020716,-0.015847,-6.1153e-15,-0.014699,4.4716e-06,-2.714e-15,-2.6037e-10,2.7886e-43,3.8737e-23,2.8106e-25,-1.2163e-07,1.9166e-12,8.7377e-14,8.7354e-11,-0.026229,-1.8168e-25,1.5859e-09,1.8615e-33,3.0708e-08,9.7595e-12,1.8825e-07,-3.9884e-14,-0.00051155,-0.0012727,-9.8091e-44,0.034929,1.5274e-43,-4.3012e-12,-1.7593e-12,-1.2908e-09,1.9293e-34,1.8367e-22,-2.0282e-11,0.0099346,-5.3463e-16,3.8956e-43,-6.8304e-12,0.0385,-6.2715e-12,-2.144e-43,4.9802e-08,-1.924e-12,2.1868e-10,-0.0038344,1.4449e-07,-5.769e-15,-7.6651e-43,-1.5949e-11,6.5033e-17,2.8702e-12,0.0093539,1.0861e-10,-1.0482e-42,-4.7115e-18,-5.1056e-07,3.0061e-13,6.4456e-11,-4.4773e-12,-1.7306e-42,0.0063212,-6.8983e-11,-1.0047e-42,3.4606e-17,-0.025023,-0.016532,-0.012509,7.1966e-28,-0.0097676,4.7972e-05,-4.2888e-16,-1.8036e-09,-1.5849e-42,1.9263e-23,3.0573e-26,5.8416e-06,-7.6489e-27,1.5838e-15,-1.4623e-10,-0.011477,-7.3989e-43,-7.7435e-09,-1.5428e-42,-4.5783e-09,5.5126e-11,-5.8303e-07,4.4542e-15,-2.4261e-05,4.3721e-06,-1.4209e-42,0.0055379,1.7222e-42,5.4188e-23,-3.0424e-17,2.0617e-09,6.0956e-43,-2.295e-23,-1.2988e-12,-0.0032286,2.9567e-43,1.6451e-42,-2.0916e-22,0.0076511,1.0762e-27,9.711e-43,5.8773e-08,1.1934e-11,1.389e-11,-0.00041898,-1.1305e-07,8.8552e-16,1.1252e-42,2.3551e-20,1.2252e-16,-2.0409e-11,-0.00085828,-1.0834e-14,7.191e-11,-4.6504e-20,-1.6182e-14,2.8946e-15,3.1633e-13,-1.1039e-15,-2.6521e-41,2.5175e-05,-9.8678e-10,-4.1583e-12,-1.4465e-08,-0.00077616,0.00061523,0.00026576,8.8032e-16,6.6549e-05,2.4625e-09,-7.9833e-17,3.0246e-10,-6.8804e-13,5.6659e-07,-7.863e-28,-5.1432e-15,-2.1985e-09,1.6313e-16,2.5849e-08,-3.8069e-05,-6.4352e-12,-2.7746e-42,-1.8632e-15,-1.7159e-08,4.6227e-06,8.7774e-12,2.1927e-08,1.067e-15,3.0082e-27,-1.6666e-14,-0.00035392,-1.5284e-25,1.543e-24,2.2951e-13,1.0061e-12,1.8618e-13,6.7602e-09,-4.1998e-10,-2.2985e-12,1.5863e-42,-1.4111e-42,1.2272e-24,6.0181e-05,2.121e-10,1.6098e-09,-7.6893e-09,-3.9721e-08,1.7346e-07,2.0147e-22,-2.0979e-12,-2.4032e-17,3.8286e-17,1.0287e-13,4.0975e-18,3.2841e-08,0.001009,7.513e-12,4.0112e-07,3.3507e-22,-4.4211e-42,1.8484e-14,-2.7227e-16,2.0721e-13,3.939e-42,0.00037908,4.2414e-12,8.7861e-43,3.4682e-08,-0.00064459,-0.0012882,-0.0010622,2.1535e-15,-0.00084457,5.3821e-13,2.1973e-17,1.3828e-09,-4.0596e-42,4.6372e-06,-6.2569e-13,3.425e-18,-1.0037e-08,5.4661e-17,-1.6322e-07,-0.00074413,-5.8666e-12,-2.5115e-05,1.0421e-07,-1.7274e-06,1.0059e-12,-7.3484e-42,9.5612e-14,8.4745e-07,2.766e-08,-9.8588e-16,0.00071435,1.1029e-32,-2.7998e-09,-1.6346e-13,6.8281e-15,-8.9406e-13,3.2551e-12,1.6363e-06,1.19e-08,1.794e-10,-2.5223e-42,-2.6199e-08,0.00043984,2.934e-33,2.1758e-11,-4.6691e-12,4.1325e-15,2.1017e-13,-2.2861e-05,6.0839e-08,-1.8942e-10,4.9016e-12,1.4733e-31,2.6289e-12,-9.7211e-12,0.0012446,1.7997e-11,2.0879e-42,6.0079e-19,7.9365e-08,1.5222e-14,1.7045e-11,2.024e-12,2.5742e-42,0.00034999,-5.0669e-13,-1.9604e-42,1.1747e-13,-0.0018801,-0.0014624,-0.00092504,1.9219e-29,-0.00047055,3.4361e-06,5.5574e-16,3.7584e-11,4.7084e-43,-1.3398e-24,-2.4456e-25,-5.9314e-07,3.1077e-26,9.5637e-17,-4.8045e-11,8.4324e-05,-3.6952e-42,-5.0839e-10,-4.4421e-42,1.4834e-09,-9.7159e-12,-3.1195e-08,1.138e-13,-3.0917e-06,-9.0443e-07,3.3351e-43,0.00066918,-5.8294e-42,-7.8926e-24,-4.2188e-15,1.8867e-10,3.9054e-42,-2.2394e-22,2.5943e-12,-0.00021185,-2.9385e-42,2.4889e-14,-1.8531e-23,0.00047344,-5.8723e-27,1.8063e-42,8.6845e-10,1.9937e-18,-4.3777e-11,2.8523e-05,4.4703e-09,-7.6982e-16,5.5323e-42,-1.4968e-20,-1.6873e-15,-6.0856e-17,-3.4215e-20,-8.9682e-18,-9.9901e-35,1.8623e-42,8.6713e-16,3.3854e-11,-2.4419e-15,1.3256e-42,2.001e-08,-3.7375e-37,-5.6304e-42,1.1869e-42,4.3791e-42,3.7088e-11,2.0538e-22,-6.0721e-31,4.9495e-15,-9.3467e-43,-3.0787e-42,3.8115e-43,2.1212e-24,1.4635e-17,1.093e-42,-9.468e-11,-1.6262e-11,-4.1307e-06,2.6672e-17,4.8913e-06,3.3484e-29,-5.218e-14,7.684e-08,2.4376e-11,3.9825e-42,1.6078e-15,6.3058e-43,-4.2193e-42,-1.0683e-09,-2.1454e-42,5.3488e-06,-1.2205e-27,2.6745e-06,-7.5068e-42,8.4218e-43,4.8765e-42,4.4505e-42,-1.6193e-07,-3.3702e-15,1.9562e-42,-2.8005e-14,2.8682e-11,-8.2364e-10,-6.7392e-31,3.6519e-11,-2.7553e-08,-1.0902e-42,-2.968e-42,-4.405e-11,-5.6122e-42,-2.2505e-42,9.0157e-11,4.9662e-13,-2.2619e-13,-4.288e-43,-3.8332e-10,0.032314,0.00087008,-7.3848e-43,-3.1625e-18,9.828e-07,1.0105e-12,-1.5448e-10,5.2651e-10,6.2918e-43,-0.096412,-3.3789e-10,-7.1746e-43,-3.28e-14,0.64551,0.08932,0.052191,3.4696e-13,0.041406,2.2499e-05,-2.1584e-15,-4.1602e-10,-3.1109e-43,1.2598e-22,-5.0169e-26,0.00047876,6.7114e-13,-6.7054e-11,-2.3311e-10,0.21641,-3.6249e-18,-1.6234e-10,5.0253e-39,1.442e-08,1.3597e-10,4.1647e-07,-1.501e-11,0.0032815,0.00030342,-1.3859e-42,0.050375,-5.7453e-44,-7.992e-11,-2.8501e-10,4.9338e-09,-3.6391e-31,-1.1664e-21,3.3349e-12,0.011151,1.1339e-10,-1.4533e-11,-2.7503e-10,-0.11765,2.3551e-07,-5.395e-43,1.8405e-07,-2.052e-17,-1.006e-09,-0.012035,4.1674e-07,5.4673e-15,-8.2256e-43,1.4792e-07,8.6256e-16,-1.6314e-14,-0.00010944,3.809e-12,-1.3046e-42,-1.6985e-19,-6.0002e-09,4.1718e-13,-1.884e-11,-1.9253e-14,-1.3452e-43,0.00043861,6.6293e-13,7.3568e-43,1.4986e-14,-5.2721e-05,-0.00025442,-0.00018982,-2.5031e-28,-7.9328e-05,1.3201e-08,4.3029e-16,1.3102e-11,-1.2472e-43,6.2733e-24,3.1767e-26,-1.4543e-06,-5.3472e-28,-5.899e-17,1.2556e-10,-0.00012842,4.4141e-43,-3.3666e-12,5.423e-43,-2.3417e-09,-1.6751e-12,-3.2797e-10,-4.1039e-13,-3.5537e-06,-7.2936e-07,-1.2149e-42,4.9238e-05,-6.0396e-43,-3.7448e-24,-8.64e-14,-4.3536e-10,4.9606e-43,-2.3692e-23,3.7579e-12,-0.0001921,-3.3631e-44,-1.9342e-12,5.9952e-23,0.00052521,7.3862e-28,-5.9835e-43,3.6731e-10,-4.6501e-19,-2.8615e-10,2.3944e-05,-1.4162e-09,-1.413e-17,-1.0243e-42,1.2032e-20,-8.2367e-16,6.8768e-17,-2.9287e-43,-1.0495e-06,-4.5108e-42,-3.7275e-43,2.9495e-10,-3.7106e-42,5.242e-08,-4.462e-07,2.8805e-07,-1.3733e-43,-6.6499e-24,2.3682e-43,-7.8618e-24,-1.2766e-18,-5.8995e-43,2.5223e-44,9.2932e-09,1.7236e-43,6.7395e-17,-4.4869e-15,1.7698e-42,-1.6937e-08,-9.7233e-07,5.6577e-13,1.086e-42,-4.0077e-42,6.1599e-13,-8.1527e-06,5.4931e-43,-4.9942e-42,8.9974e-22,-4.8205e-43,-2.612e-17,2.1846e-19,-5.8296e-16,-2.9913e-09,3.6334e-15,-1.4975e-19,9.5358e-12,-9.9492e-44,2.5554e-06,-1.659e-16,-2.1542e-25,1.9849e-06,3.0369e-11,-1.35e-41,-2.3959e-09,3.8499e-07,1.8677e-13,-7.2016e-11,3.0056e-10,-7.8052e-43,1.8866e-07,6.9829e-17,2.4697e-26,1.0517e-22,-4.6079e-14,6.5282e-11,1.826e-16,3.2893e-07,8.325e-08,-1.2578e-07,-8.6597e-17,4.294e-17,1.1065e-07,1.5258e-14,-1.051e-42,4.0019e-22,8.4919e-43,7.4901e-17,1.7628e-42,1.0241e-16,2.9357e-42,1.9941e-09,2.229e-18,3.5467e-42,-1.1801e-18,8.6954e-07,-7.3304e-08,-1.706e-08,-1.3453e-36,3.9939e-09,-2.6696e-22,-6.1402e-19,-4.6356e-17,2.0837e-42,-1.2472e-43,-2.1048e-42,-5.296e-22,-1.0442e-19,9.9241e-18,-3.434e-16,-3.8654e-09,1.3985e-42,-1.5608e-17,2.5854e-42,9.6605e-17,-1.9137e-14,-1.4503e-42,-1.4247e-18,-1.8109e-11,-1.8718e-10,5.7229e-42,2.4571e-08,-1.0846e-42,-7.4856e-41,3.2973e-42,1.9141e-22,1.889e-42,1.3044e-30,1.1744e-19,-7.5516e-42,-2.1454e-42,-6.4292e-42,4.5876e-39,1.9932e-09,4.8443e-42,5.7733e-43,-7.595e-43,1.2479e-17,4.1773e-16,-1.1728e-31,-9.6452e-18,-2.5325e-18,-5.9065e-42,5.5853e-26,-5.205e-20,-9.6582e-15,-0.1531,1.4429e-06,-6.46e-43,2.5328e-18,1.7501e-06,-7.0981e-13,4.0176e-12,-1.1807e-10,4.0498e-43,0.1262,-1.4869e-11,-4.1619e-43,-1.2001e-13,-0.2324,0.24958,0.1937,8.6724e-27,0.14219,8.5012e-05,-1.6206e-15,5.2426e-10,5.1848e-43,-5.2342e-23,8.0367e-26,-1.3785e-13,8.6402e-13,1.3269e-14,-6.2456e-12,-0.064022,-7.9874e-44,3.5379e-09,3.5549e-34,6.0387e-09,-7.9112e-11,1.102e-06,-2.6043e-14,-0.00039227,-0.00089653,9.1785e-43,-0.11656,5.3249e-44,3.5384e-22,-1.5113e-12,8.2229e-09,-1.8341e-36,4.3829e-23,2.8689e-11,0.0087908,1.1685e-26,-2.4943e-43,-6.2523e-22,0.14954,-7.2053e-23,6.8944e-43,-2.008e-08,-7.3413e-14,1.2351e-09,0.005658,9.4505e-08,2.2098e-16,-5.5211e-43,3.8629e-19,-1.219e-16,-2.3052e-11,0.16051,-0.00054792,5.2689e-43,-2.5446e-18,6.291e-07,-9.9349e-13,-2.2156e-11,-9.0181e-12,-4.0217e-43,-0.026328,3.6593e-11,6.5861e-43,-4.1173e-13,0.058557,-0.1238,-0.097555,-8.5364e-14,-0.073985,-2.5657e-05,-2.7079e-15,-1.5339e-09,3.223e-44,6.8475e-23,7.9577e-26,1.4963e-06,8.269e-13,6.2657e-15,-9.5008e-11,0.027845,4.8704e-34,-1.1148e-09,1.1151e-33,5.4786e-08,1.3129e-10,-1.9264e-08,-3.8038e-14,2.5346e-05,-0.00033599,-7.3989e-43,0.11887,5.395e-43,-1.308e-21,-8.0886e-14,6.1697e-09,7.8389e-42,4.7796e-22,-1.4307e-11,0.0076953,-4.1589e-18,7.525e-43,4.6197e-20,-0.029762,-1.8562e-21,7.8052e-43,1.4805e-07,3.6119e-13,2.5111e-10,-0.008368,3.512e-07,-2.4536e-15,7.8613e-43,-1.0431e-18,8.153e-17,3.3791e-12,0.13837,-0.0030851,-4.7922e-19,-5.5374e-18,-3.0782e-07,2.5044e-12,3.8902e-10,2.2128e-10,2.3782e-23,-0.05902,-3.9148e-11,8.0951e-21,-1.0757e-13,0.25309,-0.062135,-0.056588,-8.1887e-08,-0.045381,-5.1814e-05,2.4315e-13,-2.5363e-09,1.1117e-37,-2.3631e-22,-4.6531e-25,0.0001652,-3.8618e-13,-6.1588e-06,-1.9009e-10,0.087135,-5.7348e-10,-1.6082e-09,-3.8495e-15,3.7907e-08,3.0591e-10,-1.1166e-07,-4.9677e-12,0.0015824,-0.0015182,-4.868e-30,0.10642,5.9976e-43,-8.0122e-06,-7.6431e-11,-4.786e-09,5.7348e-16,-9.4263e-12,2.7347e-11,0.0072904,-1.1055e-08,9.1913e-12,-1.0337e-05,-0.066272,-6.5169e-07,-1.7798e-22,2.1245e-07,3.9476e-12,-1.1098e-09,-0.013056,-2.7733e-07,6.1828e-15,-1.2211e-28,-5.0086e-06,9.4754e-16,-7.5048e-13,-1.2487e-22,3.7358e-09,4.6022e-12,1.3224e-12,1.0443e-08,4.7862e-09,9.8962e-10,1.0871e-12,6.1945e-07,-2.0179e-43,9.8695e-08,6.1818e-07,-2.3332e-13,3.3931e-14,1.096e-19,3.9287e-27,-8.3518e-10,5.4156e-39,3.3693e-08,-7.9711e-10,6.629e-10,-1.1959e-06,-1.6353e-15,-6.659e-09,-1.2983e-09,2.7933e-10,-3.876e-42,1.2303e-10,3.0408e-42,-2.1329e-11,3.4192e-05,-6.921e-12,-3.4453e-12,1.8731e-15,1.2873e-10,3.0651e-31,-2.1306e-07,2.3428e-14,-7.9042e-09,6.7481e-35,-1.9696e-14,1.7604e-08,1.0356e-06,5.2911e-10,-5.0391e-09,-1.6039e-09,-2.1896e-11,-5.1995e-07,-6.7614e-08,1.6579e-06,4.4491e-12,8.1135e-43,-2.3791e-12,6.0241e-12,2.4002e-10,4.302e-43,5.8248e-08,1.3627e-10,1.1692e-10,2.3194e-13,2.4706e-12,-1.3081e-16,-8.2487e-06,-3.009e-07,-0.021129,-3.6597e-08,-1.1491e-43,-6.4733e-18,-1.8874e-06,1.4867e-13,3.8718e-11,-1.9003e-11,-2.5083e-43,0.03665,1.5519e-16,-8.2817e-43,4.7672e-17,-0.12127,0.011287,0.01,2.8494e-27,0.0052153,0.00015665,-1.8432e-15,2.4498e-09,1.065e-42,7.4292e-23,8.0352e-26,-1.378e-12,-4.2078e-13,-4.7124e-16,1.1914e-10,-0.035655,-8.2677e-44,9.8354e-10,-2.6625e-44,1.4243e-08,-8.6295e-11,-1.1878e-06,1.1325e-14,9.4871e-05,-8.4713e-07,8.9543e-43,-0.018115,-1.2934e-42,6.0047e-22,1.1505e-42,-3.9289e-09,1.2612e-43,2.5019e-22,1.7969e-11,-0.0038927,1.3593e-43,-1.8357e-43,3.0208e-22,0.043861,2.5834e-27,-9.8231e-43,5.8431e-08,-4.1067e-12,5.1971e-10,-0.00080399,2.7149e-07,3.8852e-16,-7.539e-43,2.1104e-19,-7.9444e-17,-1.291e-11,0.21806,-4.9668e-10,1.4013e-45,-8.0411e-19,-3.1953e-06,-2.3722e-13,8.0908e-11,2.0816e-12,-5.3109e-43,-0.029037,1.4424e-10,-7.4269e-43,1.6702e-14,0.10072,-0.16811,-0.13146,7.9107e-28,-0.098517,-5.8275e-05,1.2355e-15,-3.581e-09,1.0103e-42,-2.2828e-23,-1.9685e-25,7.8866e-06,1.6431e-14,-4.5975e-16,-6.304e-11,0.030315,-4.1619e-43,-1.3448e-08,-7.9874e-43,3.151e-08,7.3403e-11,-1.4014e-06,-1.4821e-12,0.00025777,2.53e-06,-1.9618e-43,0.15982,-2.5504e-43,3.1577e-22,-4.874e-12,1.1419e-09,3.7415e-43,-8.3119e-23,-1.2666e-11,-0.0090827,3.9236e-43,-9.5989e-43,3.2357e-22,-0.033724,1.8053e-26,-9.5989e-43,1.5008e-07,2.9266e-12,1.5693e-10,0.00025727,-9.519e-08,-1.5028e-15,6.0256e-44,-5.4648e-20,2.5346e-16,1.0696e-12,-0.0053874,-1.4567e-05,-8.5479e-44,1.4343e-17,-1.6218e-06,-5.6633e-13,2.9122e-10,2.659e-09,-2.9427e-44,0.0016032,6.2883e-11,6.3759e-43,-6.1277e-13,0.06697,0.018442,0.012075,4.9608e-25,0.0093131,7.0669e-06,2.558e-17,1.4095e-10,-2.4943e-43,-6.0933e-23,-1.3894e-25,8.4563e-05,-2.5934e-15,1.252e-13,-4.0556e-10,0.026546,1.5073e-25,-4.6668e-10,-8.3377e-43,1.0506e-07,5.4915e-11,-1.7467e-06,-1.06e-10,0.00033263,0.0005863,-1.8077e-43,-0.0011567,2.8026e-43,-5.7572e-22,1.0713e-09,-7.5609e-10,1.6593e-41,-9.2602e-22,-4.1695e-11,0.0012464,-1.7581e-14,-9.2315e-11,3.4679e-21,0.0013627,-7.9123e-13,3.2931e-43,1.871e-07,1.1955e-17,1.6122e-10,-0.0052714,-3.9807e-07,-4.839e-15,8.9403e-43,3.2624e-16,4.1478e-14,1.1688e-15
