0.0525926064092446,-0.813982716690141,1.50568386019083,-0.233717421125098,0.01454014903936,0.00488377757655438,-0.445866753664571,-0.74551943329786,-0.719611271325885,-0.196214680661394,-0.033237511907705,1.27419604925092,-0.395229705111079,0.686554385203718,0.540915007532897,-0.403227716850051,-0.864319413037486,0.00272385230536332,-0.655275314398065,1.26546332762357,-0.743126475539083,-0.43385300820216,-0.824267987719059,0.0187678501087638,-0.640195719550604,-1.03644487703404,0.298299430560449,-0.310495188956849,0.0706535011339823,-0.765167518808888,-0.0161007327987591,-0.812372684048189,-0.91493186145539,-0.061643508166232,0.454545183683719,-0.234774038478756,0.284673106767251,0.178207251349142,0.150989719405628,0.083870531222613,-0.622647041785748,-0.745962353271488,-0.191761529366033,-0.309734264896181,0.268256209281182,0.294976418451061,-0.755608892603132,-0.0621008292256282,-0.400197468196515,0.884514545024356,1.07080323913796,-0.942048213138747,0.730051277560704,-0.832593256847356,0.927003925370559,0.0180502895519218,-0.43649471808597,0.701121265640625,0.930096672778795,0.0737690513086323,-0.709531825438005,-0.459242325239826,-0.709252014594932,-0.93478012712425,-0.826808460395279,0.328438636550892,1.27604913170174,-0.565834072776731,-0.437923671814833,0.53129158338491,1.00494377000242,0.735154236745009,0.972682026940991,0.685653118848903,-0.318934179548934,-0.149926670144968,-0.252631488608545,-0.415171995819488,0.00390572284679572,-0.316013042466053,-0.0550514789883627,-0.207563603081951,0.429546591087154,0.353608107425954,0.236714573319086,0.366658962227775,0.251654288662079,-0.836205422769089,0.439140269718979,1.01969063853138,-0.516262644414619,1.19467992847199,-1.02457295301586,0.507026191483344,-0.0455906830409885,-0.0886194034660257,-0.543586326792643,-0.218152896439849,0.157880523107191,-0.23141242604944,0.100895922155408,0.484566965947458,-0.922988306868813,0.895303274456133,0.559400534274974,0.454096199743544,-1.31926632241632,-0.113855487076608,0.135472031007509,0.788745174457239,-0.125632271462519,0.811267130235176,0.682843269259524,-0.0592361144190307,0.690052179290012,-0.167403435192974,-0.434183648264157,0.174990555532505,0.66727920865838,0.323159209812198,-0.728008014518183,-0.977266564399899,-0.804837684663642,-0.071701026990412,-0.60759003098713,1.04967412398773,-0.657107199246386,-0.932792744948383,0.427629527072749,-0.287210799869419,-0.398688533008838,-0.887640923794508,-0.487289070786092,-0.372661662974933,-0.0865102099717572,0.276131511859496,-0.0191824780312379,-1.02316837792687,-0.218290494547291,-0.797282757561754,-0.201526142671304,-0.175109413421752,0.920694434442683,0.71338910544595,-0.0148488857126207,1.0019989167988,-0.374200256918861,-0.127250057275779,1.10547815706103,-0.0123054567523783,-0.0882982876496207,0.494393754587421,-0.145086537350184,1.24374311530214,-0.886130580459123,0.446714097295911,1.15536927699815,0.218622381897956,-0.542582041168878,-0.711750099503028,0.528442415356315,-0.218257965616388,-0.0736805584404481,0.939838409797628,0.238664807492932,0.0120418997510885,0.0573507888211401,0.0745345602894634,0.353842509233865,0.144726022635569,0.566932995639758,0.422895452094833,0.941545272473985,-0.190575413761809,0.6832736578252,1.09997592486358,0.998265026556353,-0.945718292490118,-0.536941075723681,-0.158707224144757,-0.384597525044128,-0.251729638174565,0.498964571279263,-0.0659612731947968,0.169582126562231,0.547262189110242,-0.399759569606668,-0.344524439711993,-0.0973188392885136,-0.475866398341005,0.962177711194506,0.437441728734877,-0.377695192097042,1.78671101871289,-0.632320141250329,1.06637575681639,-0.587964993341458,-0.082155604381038,0.113242649621985,-0.00965800930036431,0.283359864014553,-1.05766852490893,0.78128325398916,-0.638236747766861,-0.0201953447408083,0.987867852914565,-0.409517075671497,0.630862187634277,-1.35142458274683,0.457721943279415,0.0603246377303341,0.294643443727174,0.110077847411561,0.222136999072016,1.47651941893944,-2.50507938807648,-1.19919530534429,1.22226937176048,0.300398509051325,-0.856723283546328,-0.572885836814554,-0.462930008726117,-0.467044854891018,0.475780978590909,-0.329002230846691,-0.26048196412825,-0.0284659411591423,-0.757982451835482,0.752502837840143,-1.35218207657189,0.886079083685442,-0.69014631850167,-1.29388853921111,0.218473025462035,0.554779614142365,-0.0252478021885737,0.792598970725612,0.400011388699418,0.787265391867203,-0.884666085503796,-0.390908148028095,-0.543281429798275,-1.24155958151443,0.13097870109292,0.612984183851303,-0.00228086552537715,0.184935055243225,-0.61312050600894,1.0512207614758,1.16402559729191,-0.239864745646626,0.49749094588813,0.75889684742165,0.51669238956968,1.14912328192397,0.0954423020324336,0.858140525548457,0.490131376105117,-0.308696698116609,0.417658301860354,-0.314709208278769,0.0099183627350878,-0.44343795762553,-0.740970582913852,-0.108861771570125,0.411386186059408,0.529126673328934,0.591425129443569,0.056956980646067,-0.512832955266575,-0.495238717730172,0.167176750533705,-0.402284461546607,1.44562716785181,0.969474563761768,-0.211006162834787,0.739246878703093,0.789833851436798,0.189670129870047,1.75092452726707,1.01257312695504,0.00237305844473907,0.145420019326117,0.0274556752014091,-0.777305648861817,-0.11278551892828,0.558628206933803,0.0665053060743141,-0.255374678440976,0.884841222222128,0.496928214383258,0.326458904409134,-0.692014443960945,0.107966699486779,0.999034120284479,0.944268138111151,0.490240008591885,-0.537429717815517,0.812894765975915,-0.434420954720778,-0.236332790594193,0.107922687491092,0.591088559243114,0.399963710007091,-0.265009479643826,0.404210395625443,-0.4336769468088,1.03853515611048,0.952831456884008,0.652829200601447,-0.604388516125766,0.252298606246569,-0.876493778164925,0.550426330978206,1.00099728867696,0.505549013482863,0.695690901028531,-0.21823657408147,-0.544948794178504,1.41959941308697,0.75767999088519,-1.29590474438029,0.795379483332576,0.560859353882254,0.772639906468646,-0.280849722092672,0.492847762514422,0.327987071828041,-1.03121433042449,-0.895811483207017,-0.275058989446745,0.262024929154433,-0.874904782713005,0.843798683271795,0.836976439093013,-0.0226658232154922,-0.0955514260148996,0.438918921226405,0.668738002199875,0.221794033584072,-0.0799991475052434,0.19384888451942,0.174546668053457,0.102729380598008,0.794216974815085,0.462238553636207,-0.73770326843593,-0.174126542132939,0.281521589639373,0.9767835077826,-0.72825458366986,0.191655168348869,-0.581711174835203,-0.860968173876242,-1.04710150761683,-0.335724475347799,-0.351611789283019,0.275872624975331,-0.494246291878038,-0.291412207929089,0.168849771890775,-0.0672630849567489,1.14418403581951,0.426277173584841,-0.69623878628468,0.804384492095205,-1.02210428913223,-0.866971898831168,-0.657059590402874,-0.412467802547339,-0.796550227047927,-0.901295665246092,-0.980560515424907,-0.212471656497106,-0.801587323076307,-0.457154156505517,0.428401318645419,0.722170250607554,0.885103955480563,0.611243805883378,1.1455692232153,0.112160184361398,-0.0103514286334113,-1.1148743409938,0.0623009496673011,-0.907204904748625,-1.24354986688003,0.85653816324434,-0.870732817898263,-0.143249611737563,0.791396782887973,-0.76556108552448,0.563806800909078,0.0583958900776758,0.690452186574416,1.08755319309652,-0.33105909140699,-0.779421515592445,1.2298269084129,0.057130133084456,0.200134873172735,0.633151119404999,0.497983172965887,-0.320411586495926,-0.502503005098386,-0.592873194305274,0.170274737807759,1.46865008222059,0.627493882576183,-0.0639004510052025,0.878693982491574,-0.243034633307004,0.59873769533777,0.0949694089540477,-0.306218201555493,-0.479563490054307,0.291978306707017,-0.548309000243597,0.522552682011182,-0.765105576607304,-0.835349849702829,-0.0144772144018462,-0.231142700501241,0.555994316718638,0.476209503039929,-0.660931482132901,0.73777642820359,0.89423189834772,-0.0446657861101777,0.101199390005488,-0.63924297831272,-0.810297604497941,1.10378720789942,-0.255120362823545,-0.814832425486644,-0.520081688698612,0.00426514518853077,-0.874474311516111,0.727421730111731,-0.860700629014264,-0.222307253485509,-0.139271458867031,-1.00173641731604,-0.171474887925106,-1.06190511335753,0.440792005394979,0.407707904798697,-0.631313331335687,-0.444592628174502,-0.218984156618007,-1.46430378575625,-0.0852297394424827,0.58694330015396,0.647235458345236,-0.105170160280698,0.531174182684951,-2.30227770216861,0.781967732837927,-0.892243420321237,0.751556190134862,-0.816969641654249,0.521875126622669,-1.0986398842216,0.525647571470383,0.467940034182704,0.0222994173547871,0.57067348184478,-0.13530784501576,-0.431970404091787,-0.871639497540041,-0.757148401034796,-0.434533877931754,0.524130983331472,-0.69898832329002,0.326404359701978,-0.131986408930785,-0.416083130656582,0.869122905997954,-0.081018299282529,-0.38551937999204,0.844032345042005,0.775938276648074,-0.391613592298972,0.78994259521302,0.174679742160388,-0.232484783402205,0.475251169845527,-0.284528046928106,-0.521418787612909,0.193219313779633,0.774824588895221,0.0145193913907633,-0.748699565888723,-0.279275039078654,-0.299817069195753,-0.437723416511321,0.582641120675718,-0.448230142424727,-0.0327909318138139,-1.41551535938194,-0.364246857095135,0.143549807240957,-0.757708116619545,0.064305395032489,0.0665156671953762,-0.873802829520853,-0.182602773521527,-0.669835477112148,-0.220235009869788,1.41990836738273,-0.705514313119835,0.455585454626643,-1.33250413822844,-0.230653001106762,-1.19940915517202,-0.179292047997841,-0.64008709080567,-0.457283409580125,-0.893919912625666,-0.000824584395242776,0.250861024807047,0.0919932553828209,0.193848723050144,1.4122797322004,0.886426823436526,-0.982060543310404,0.0879974610175451,-0.250696684488696,-0.411929054985451,0.0600242769899318,-0.739094890805947,-0.683384801243979,-0.77848195905531,-1.21871572046352,0.965132472083069,-0.679581616957409,0.868226448424438,0.556222686433195,-0.985302677794306,0.372109876523063,0.603901675294381,-0.112781594158132,0.057445887101505,-1.29416666776455,0.695588183146132,-0.415390888134867,-0.435700970792561,1.06545912934542,1.65357650610319,-0.087561677849539,-0.299767516300446,-0.793339961129279,0.795790284590799,0.99701288848754,0.194787057539058,0.468112735590925,0.71897615199452,0.388840631392916,0.451482849838484,-1.0752903431778,-0.116531986041232,0.56624925964857,-0.488315687200222,-0.329717004199801,-0.244303125312914,-0.280007831555679,0.841615536519365,0.0710248120885097,-0.964899041131601,-0.401243665314146,0.00361973752842502,-0.161554235719021,-0.514302248750876,-0.453364254744782,0.913991089821995,0.625820065864434,0.825692659791485,0.458803251955788,-0.766665993099712,0.459263868774491,-0.659517292049754,-1.20420217727781,-0.907277687114587,0.1461510667687,0.282776609151752,-0.829235364918639,-0.459328445629352,-0.353448170684898,0.00331821349338046,0.513004168606458,0.497949801458497,-0.536742381346368,0.818250133477161,0.0440092140888236,-0.801468786438162,0.123579502687569,-0.508078417679478,-0.713105756638735,-0.327516953989047,-1.57661340110236,0.0921786392880455,-0.470430437424751,0.467924630682734,-0.655847584184576,-1.28862203615325,0.254918958907518,0.0857241405694348,0.559240231381108,0.642341171383789,-0.130954178315792,-0.818050173674188,1.00262437430289,1.19879769583383,0.924579421552371,-0.505311715420054,-0.337834836858558,0.201406392882725,0.413610298149721,0.622756040823503,0.908286281370973,0.931239226300041,-0.229044449194848,0.159241668740145,-0.291340848448386,-0.877023985902206,1.16928042990385,-0.368627065036288,0.180895502558994,0.949382633137033,0.837889303355598,-0.746607658232915,0.453674108761651,1.86503227016236,0.24905045325459,-0.454963127564167,-1.09338120299085,-0.00104244910096062,-0.274391372087557,-0.737770585913989,-0.0898539876412423,-0.480971184755568,0.312241949242458,-1.16797630376472,-0.309053016907414,0.630690922499091,-1.06562395409872,0.10351511730217,0.0656619204357509,-0.212968722373348,0.722684973294939
