0.378961259840412,0.152352365016798,0.896217470792044,-0.999683469729558,0.11523699091612,-0.465823469142911,0.51236210590711,-0.541709547248249,-0.194004363755679,-0.213176987264847,0.842464894950187,0.349521676523074,-0.505049463344119,-0.231909378467343,-0.913359850946203,-0.577032898477047,0.141982150924811,-0.431613186932937,-0.602333647731481,-0.0309699576995337,0.476901176583406,0.0446012669589632,-0.934120214500247,-1.02678285085506,0.54914141088758,-0.251338175394251,-0.586599570421055,0.697257019506773,-0.300269600721424,0.0647003426995621,0.766207678423307,0.737562662832364,-0.199445038449491,0.217109800372433,0.688706748878132,-0.958160984232321,0.174038334165544,-0.151125038790103,-0.430625166929623,-0.495981019940216,0.697100918648836,1.07911129652639,-0.641912185418438,0.259120126756981,-0.486378756049416,0.705267946363495,0.708076728831324,-0.15450521495677,0.325475038814716,-0.0383703448512775,0.498873934223514,-0.369551244198481,-0.910267493676638,0.0653647450176703,0.89536116195382,-0.753243402205971,-0.135264416931205,0.49204200634222,-1.0534762829657,0.789359541687576,1.0079965849448,0.108362842725453,-0.638435164848696,0.235140862356232,0.267260608635947,1.03693207140881,0.637106129168346,1.15115879265005,0.420891849280068,-0.208474023867867,0.748171750472991,-0.0896409172843115,-0.45620049974765,-0.198624776456812,0.535780597199154,0.727734466247512,0.513261401788735,0.846249519382892,1.02669160756883,0.253656229541911,1.41521462136964,-0.71264257824654,-0.897103413539589,-1.21081004627695,0.259326700198386,-0.140764494667792,0.871128394913548,0.103150066604933,-0.341105130579585,0.0853339748726831,0.201336442049,-0.962202944780521,0.656492568499512,-0.982619073044176,0.217964650642788,-0.594655584678018,-0.261816622350279,0.467605714328962,-0.483397090201609,-0.0688560644855596,-0.314368171168713,-0.483297471570373,-0.358939228393021,0.0808571022402034,0.267728150690272,-0.189434467827286,-0.496180324225759,1.02034228241279,-0.137587432916198,0.666677382063604,-0.311560225114744,-0.183284372095061,0.743508764481681,0.408669408317272,0.191082204128666,0.134896299006258,0.796888274360241,0.414491905783313,-0.190703585774236,0.0652356914653207,0.836673434972908,0.711272471318945,-0.24508979585827,0.0263613672056335,1.30759999337875,0.0891373094056836,0.429094158206348,-0.338273788103553,-0.86713757258454,-0.636039065661957,-1.41696311778086,-0.159055042091715,-1.14586581059714,1.21283897156608,0.804892755790056,-0.768574538938771,-0.939229455010165,-0.285837227538075,-0.0709226899216217,-0.798298945033032,-0.779570282309999,0.422448720408186,-0.330259248260164,0.602886569864478,0.130698653995718,0.25057462754054,-1.08869762204909,-1.11063355961736,-0.813853861440054,0.106686682080519,-0.490284824395869,0.701662069266574,0.72697764670069,0.866380770847849,-0.19043293353086,-0.110538508513724,-0.547582718317428,0.0649035505203949,0.490631744813754,-0.595983556114295,-0.275949899396751,0.114256739350764,0.83467208173369,-0.269412714838776,0.289697332233918,-0.465951226707616,-0.348843568794798,0.502191046914938,-0.284527667316968,-0.642049694744536,0.613540554386448,0.181760350983687,-0.399328792819393,1.09040968023529,0.99072697092032,0.956145267881958,-0.745926115610286,-0.604469691285005,-0.839152027087502,0.220742286622582,-1.08980233306791,0.057485316950729,0.748829553068609,0.601907674493979,0.172860048793668,-0.523113092953456,0.613899657737794,0.81325670292039,-0.773934703326057,-0.101593018905481,-0.357234724832945,-0.880843950514302,0.26896662942765,0.593267686506955,-0.13424706751568,-0.325475003348216,0.370559368825375,1.10577141414081,0.509211044307847,0.660175718511886,-0.982362794761676,0.521231181057071,-0.30747856667045,-0.42235057628267,-0.640126808796805,0.213706656004951,0.271930906226211,0.406970770329623,0.729118484976149,-0.865554684873643,0.798409029065977,-0.196169719374385,0.45359691861526,0.330055310662419,0.798387335658685,-0.303653283429991,-0.0853825588971828,0.0438194385704285,0.968899644382144,0.740348787232078,0.769276729601627,-0.00476033920544822,0.156082788501755,1.08327350209622,-1.00949103785928,0.81430849922866,-0.399891101156871,-0.532580244888815,0.659856829598838,-0.712112455905329,-0.266521731557237,0.196774713982985,-0.479297217195429,-0.622082189105627,-0.649214405579101,-0.364665561386987,-0.227617722878175,0.0166695073536476,-0.601107803618754,-0.69954861606591,-1.70191519932627,-0.385418254217947,0.53919385854467,-0.352826174710682,0.363555804550007,0.476984406156625,0.706291406015571,-0.0618518266707298,-0.0949906161055608,-0.381261515154502,0.161046940586025,-0.379698728150601,0.571024102795803,1.3681099386732,0.0158878219599139,-0.41141847780672,0.3611324046089,-0.439335570468947,0.0682011850292056,-0.525185394772137,0.0789107456134406,0.981728204677593,0.507092749721934,0.961704029871817,-0.52884897689446,0.057372701023681,-0.899726918995175,0.514662873170011,0.20395953255102,0.706318139551014,0.976787965207141,0.858215449898313,-0.179141733502588,-0.996853694723846,0.0829543083598778,-0.584538756007881,-0.561432823635139,-0.346776280884587,-0.808087199496582,0.494956090946265,-0.314637697152421,-0.0420832938556222,-0.323735366951894,1.35949666822577,-0.353891101322616,0.397354947662913,0.816009157967372,-0.201804342286173,0.259462385222013,-0.306636497490102,0.705547001513777,0.583133031781313,0.3597223369649,-0.947920715423435,0.484089025565962,-0.154359740729337,-0.171142238151937,0.663612568836965,0.660238096819302,-0.222648193099892,-0.198481633237547,0.682597138752018,-0.514793227440661,-0.259135949236707,-0.45535747202141,-0.401260665873826,-0.263022010222223,0.845728189746354,-0.940084315283051,0.185333510412773,-0.661251868383435,0.578843900426855,-0.681127093831078,0.0564540145249767,1.14232749512899,-0.483649644224499,-0.905844580902332,-0.551846599661071,-0.203470875032267,-0.317028577456044,-0.507264498637468,0.958864082915813,0.361193357301658,0.951400726232852,-0.140923308452148,1.12161262625481,-0.840945631090192,0.376183447663,0.381483365642064,-0.540811920236087,0.697676570567419,0.429605395607568,0.579520663988992,-0.0193691356011143,0.87311537337407,-0.528588432766255,-0.553076047748295,-0.567347756847716,0.188885541482562,0.634262649672892,-0.539408280269705,-0.456815826491348,0.724014783805485,0.350926180744095,0.850484510880407,-0.801309242631687,0.354636513864993,0.377834820272474,-0.392456101216469,-0.049322459728027,0.303916088550903,0.245204499886022,0.768237458052847,-0.35110490667166,0.0394982278819256,0.173140753266818,-0.290987511199122,0.223635768299308,0.232137647634813,0.364880760054995,0.0162980046438937,0.555063279678249,-0.222099882586084,-0.293995286532893,0.99540539759579,0.021595067467182,0.796610000488076,-0.463698866833643,0.399334103702295,0.174644668930397,0.8252601493572,-0.806710403200471,0.0356409213056585,0.407394559016013,-1.01141361229951,-0.0179444095401977,0.768777877019721,0.230941304988172,0.752180480159003,-0.858885984658887,0.341384096452772,-0.309819112001353,-0.10868757712085,0.684088618099058,-0.831843903181527,-0.485033461688024,0.0726846286599386,-1.05466049434342,0.659145709421354,0.974975150378706,-0.722521745655359,-0.526240433547891,0.488866463265669,0.000928060422047294,0.665711093463614,0.914581195246867,0.287396098842809,0.905777359089842,-0.242164659817988,0.110596524322708,1.1322868797782,-0.0509485419076616,0.864314884659296,1.15140375197545,0.156161558879766,0.360965873760243,0.509828747071582,-0.414567703493051,-0.194938342086773,0.980605032738274,-0.0226914577103377,0.201098131347316,0.848788340492766,0.830709463366289,0.0332559787815457,-1.34160950628117,-0.927771938409288,0.0364962671127106,0.149344363222662,0.737070884386648,0.483343682335313,0.22766995649651,0.0466266368240191,-0.686065268694849,0.835784955811433,-0.0060606617581262,-0.962953396064259,0.543438353447668,-0.0208797051891643,-0.881938888671032,1.00159211114813,-0.485103169900784,-0.462489610399814,-0.911215543141503,-0.426963448685822,-1.04251958955129,0.303994334434006,-0.86179343640176,-0.494196643993507,-0.602374446604895,0.761551522260913,-0.112759701717047,0.508871548462919,0.207325038192929,0.567791902058847,-0.772105801988953,0.954905231522303,0.697951032301244,-0.898707004658913,-0.0740384783561419,-0.348390501368819,0.259495677107796,-0.537814877101552,0.162007691227451,0.207311220456921,0.199758191665714,-0.10314423923217,-0.927736009557556,0.027642921070398,-0.184555559163404,-0.890641553824282,0.0672165726902366,-0.13034442126075,0.160823355158861,0.541697998754988,0.804718596824642,0.473608463347163,-1.13799988634321,-0.672720216815621,-0.14495119995176,1.00503137427971,0.523886281624307,0.0627279497598912,-0.388347861976338,-1.05672776481007,0.13624841180056,0.013589048111005,-0.485743886703133,-0.248863674243599,-0.510711226694125,0.505202967619084,-0.264268120551909,0.879855213927123,-0.965821717867836,0.659639266707229,0.2544436747322,0.0763372059910637,0.301742995747979,0.453259064613028,-0.819229138318563,0.754090982357922,-0.969954652924459,-0.410104872587132,-0.639057348601586,0.853541638469071,-0.863639126345931,0.162186455156983,0.275242646802171,0.302555173242314,0.728317363114518,-0.818040188248951,0.42278813385122,0.0578449326568571,0.790737091425673,-0.638887848243884,0.501527427506714,0.176952894062641,1.07447439563833,0.0538980577634645,-0.829497189332561,-0.597496860472395,0.209244603206467,0.791589401926345,0.323699051852885,-0.594702200740176,1.20324421093273,0.0403806364229544,1.01455117688011,-0.781117195075382,-0.633797649072769,0.501426512544661,0.818936898109472,0.552213107894232,-0.361432898314743,-0.7520262338486,0.689336285711039,0.550685429281658,-0.464025717872581,-0.547981098024711,-0.386371046466772,0.6793394056177,0.541056797043461,0.188197166594315,0.144301303809614,-0.475474410490147,0.409423312765754,0.592515886563154,-0.125882640743631,-0.109861054015349,0.120635592171565,-0.454720022545197,0.324973421352184,0.80732905272708,0.854815350657282,0.480522450124235,-0.524924543322312,0.379320643288356,-0.736338669048975,-0.75556587546708,-0.618194293511018,-0.672481777900706,0.114630840047994,-0.853046841296033,0.656907418222286,0.41930254004856,0.851716076034972,-0.0147228030764377,0.298884415767405,0.788081218316452,0.0898458554768883,-0.28314067037705,0.99106027645219,-0.938948571061702,0.0126608285827665,0.932903199111508,-0.211822389138373,-0.394009085029939,-1.01968630622099,0.976562517727137,-0.758161439078052,-0.229085696143613,0.830705035335333,0.0341098549845829,0.107367923401477,-0.0052122656653316,0.227578145012469,-0.941335314491276,0.229552814379721,-0.854766703728663,0.642251379844676,-0.332009512535405,0.881665541355283,-0.51003588512368,-0.0977814883882442,0.937291551774634,-1.18083418286895,-0.571314131162629,-0.998047112726276,0.216414005760989,0.194422492213604,-1.32007089624587,0.512084697891967,0.187280149367242,-1.11648197932999,-0.380403843812983,-0.777429421393841,0.577782639314018,-0.912514370100214,-0.468650344715585,-0.556083464186968,-0.879446253799224,0.635302898140902,0.396399532359133,0.492072640548791,0.315490662622357,0.00595867124457338,-0.348893204871995,0.336473842002759,-0.763571212286189,-0.704365171636787,-0.901120798691747,0.888197554262742,0.920432941628257,-0.734892926003045,-0.126626283754191,0.33156888028194,-0.419628866734266,0.51591757842818,0.14332416431803,-0.17791637241591,-0.320960708573128,0.438849945192484,0.796752650011262,1.10580289610448,-0.326005255162153,0.467363594053404,-0.546233405206223,0.0466817968330532,0.920246274839943,-0.464504927119808,-0.463072655891106,0.727046733866897,-0.897515156579672,-0.68634582225658,0.054458302167113,-0.858122627717826,0.271766397773775,0.484720798523624,0.162693331541495,0.249561742028346,0.345835570247078,-0.465747585900142,0.194102930546816,-1.20789909330986,0.00453036997080499,0.738436418584134,0.811030487273761,-0.105258032164516,-0.501371691846145,0.288637097302128,0.83351941339833,-0.0693811886727397,0.921317118533387,-1.20671438083002,-1.05072981094396,-0.497630788929265,-0.207162928876547,-0.540629640019212,-0.269214871547087,0.451901113728424,-0.888385525283691,-0.266925682205806,-0.409638391940076,-0.227432304883648,-0.766802305811723,0.0824617983031614,-0.346993987003745,-0.560959831638856,-1.05007871234593,-0.432836367655223,0.0640675556189786,0.699256142888718,-0.936120176072551,0.492991877746366,-0.813160348977281,0.6958831198985,0.600936749798125,0.76052336192135,-0.694120384001622,-0.0109594335470074,-0.260371217153094,-0.668997228966389,0.149242815625564,0.250186705320476,-0.628536587112854,-0.0389984694618561,0.978035176911119,-0.0202190260912038,0.389746422374165,-0.179568980307506,-0.883937988195223,-0.415447223255642,0.598787584118832,-0.319632767017607,-0.865734456550492,0.0680847459792972,-0.266333184295427,0.463694814471421,0.0572903185729785,0.609507731513099,-0.00721842419362679,-0.50094583521216,-0.752613086271274,0.306885879897707,0.312868096728729,-1.16308090160037,1.12241749776363,0.338469652641674,0.0940160036215828,0.212884416497054,0.0728194736799613,0.710693743753801,-0.286670105805465,-1.15099627917655,0.375865231349931,-0.120997577040524,0.67949906974929,-0.0825794771639807,0.776265407533645,-0.628048965350175,-0.363169180227113,0.735700449930322,-0.919300102045133,0.0863575300126396,0.435325730464272,-0.273196817954535,-0.213195587180991,0.920323794667762,-0.281834040480106,-0.140186238319093,-0.729435408808834,-0.337385138676261,-0.385538929686211,0.198824451096847,-0.139593745370079,-0.862179381779551,-0.182262183915658,0.70712062715218,-0.652186037784886,0.795994132245156,-0.845242198573511,-0.0965143286423356,-0.939221952677697,0.537508805422885,0.387482971384833,-0.616232443349975,0.359849962361611,0.114585361379858,0.698659999046789,0.117130983605771,0.8321372112412,-0.212737096134012,-0.283442860986447,-0.0187184094865185,-0.508217445724274,0.858338537984793,-0.0664863715791286,-0.500320039231767,-0.131798048985251,0.418694436143247,-0.195340264026797,-0.636319842668624,0.712502232293364,0.168402449073197,-0.252842434640205,-0.556610906463204,-0.562011764576333,0.044464886051,-0.133154573024477,0.482607976597106,-0.859100735343177,0.694666872794363,0.359760469115814,-0.72669695620284,0.716804377157373,-0.60033175066585,0.214679843528424,0.0860899673087763,-0.675350615934994,-0.988693863746309,0.542970294330818,0.526078571588377,-0.157861295276236,-0.882651974457496,0.171673614846659,-0.654610875878079,0.45722132113262,0.0685820998820583,-0.493894334951035,0.83411349657117,0.519600064427653,0.770688051925055,-0.862403657792567,-0.630853703717479,0.47101202660278,0.393429705299443,0.553985811412057,0.0019329169458465,-0.147610284687084,0.222474261548603,0.885631197449726,0.253544810290361,0.0368179031603093,-0.310309101168105,0.41243708330827,-0.330970423958049,0.171161569684688,0.817356783937276,0.675460061110527,0.774964136748813,0.852825228881099,0.579163160807739,-1.01477857223596,-1.08812805885766,-0.861857344005268,-0.55698322856977,-0.954402658718133,-0.220308619824259,-0.244680374440838,0.0335009002507716,1.28469118773333,-0.0395663876187599,-0.339534100502301,-0.0363169375513684,-0.153611804111473,-0.671310392038825,0.15855137245552,0.705869524319311,-0.333589142870286,0.355039986834289,-0.169383702391814,-0.165797832560117,0.0497588719291542,0.656760211863326,-0.527866625122222,-1.16044311066521,-0.105985381330591,0.279903167166145,0.649280869929699,-0.100679743594776,-0.133495149043486,0.439044650868027,-0.0641790683845078,0.690812784084508,-0.1854588131879,-0.160358128240702,-0.0472350927049319,-0.794049363134086,-0.563616098363803,-0.865233372782187,0.938956115753285,-0.701981376761737,0.741832108306608,-0.0248345393630249,0.987089595820381,1.65132966800311,-0.720621442904999,-0.768048319753431,1.12923231343437,0.593489483056447,0.594612224402405,0.0174608446120234,-0.981077414368014,0.118414380163817,-0.551662815783814,-0.319729622981297,0.729961539334338,0.280388533315744,0.219058721516835,-0.157205215473093,-0.928890540869405,-0.15031339636544,-0.942745096969643,-0.106922985664368,0.789118828577159,-0.245298846179807,-0.928818873239705,0.788447004401756,-0.244289884859345,-1.23602969983319,0.815542691270931,-0.634754738784548,0.744671453748345,-1.06255420515562,-0.0737259106110964,0.189240690610283,0.195515255837661,0.334641904492176,0.150697552553161,-0.164073176440557,-0.90112845676746,0.503726944755656,-0.530621538824329,0.194101640708386,0.682309049725026,-0.838232411351341,0.944178323425683,-0.885030652378403,0.640076840091065,0.560406663254624,-0.413950242118446,0.31282645337145,0.863672194793945,-0.534991668110838,0.493833579788518,0.302744765873632,0.773621737178364,0.766650291163813,-0.679225368035933,-0.489093188742424,0.15888557567519,0.0133000337559825,0.891438112231246,-1.06926623851409,0.255762998247278,-0.0200338751169062,-0.487780437876324,0.636462736159023,0.0409559113742486,0.898420240037191,-0.734859559147111,0.621619262519188,-0.94474198367765,0.389657554189335,0.791080238103657,-0.322659470355915,-0.653182732099432,-0.350384759769462,0.379951634220771,0.662719512774099,-0.916049084803075,0.36171413977479,0.928442612180388,-0.475863992289562,0.260266381116948,-0.433229289933292,-0.567057207634918,0.314637487655349,0.514003095920856,-0.556328974215146,0.382864782595139,-0.274131665655347,-0.815862586491265,0.32943655046505,-0.125709126576168,-0.389015902179881,-0.247271183104786,-0.389841891408214,-0.493681606140664,-0.201473371437141,0.771224263304412,-0.652354959145962,0.323870649312509,-0.592858594248993,-0.283661084638543,-0.655929283486973,-0.613595376479219,-0.168779710760246,-0.448618475604015,-0.142477495940909,1.12852352428352,0.521669378944047,0.326400409076473,0.927599031717765,0.602280337414124,-0.370858197856765,0.96356490409973,-0.811596413982921,-0.458512176326653,0.909751935909042,0.31361746943757,-0.0452631836690764,0.424790321608312,-0.605328774442334,-0.44294012548495,0.105679295299964,-0.234124021731714,-1.01526881312943,0.0175344970923717,-0.462473178603199,0.297117884572462,0.296827382771587,0.690918405624722,-0.425164248372526,0.578713166710417,0.497689515463378,1.41716479264678,-0.12111393055567,1.03677597488688,0.475842409852555,-0.594099311449802,0.935857164184991,0.397749558206868,0.692431289378563,0.791459700627235,-0.601416111676705,-0.0468506382393414,0.920224974308928,-0.841756477126022,-0.586022326788931
