-0.003235,-0.167805,0.191824,-0.195270,0.358650,0.087368,0.072927,-0.214595,-0.296531,-0.196160,0.287120,0.294534,0.134193,0.177851,-0.222868,0.054769,0.236689,-0.066095,0.335144,-0.285118,-0.114910,0.002605,-0.350818,0.166887,0.049289,0.015854,0.267152,0.237267,0.197698,-0.141753,-0.035521,0.177151,-0.272446,-0.293030,-0.186000,0.009474,0.344083,0.150324,-0.138326,-0.146012,0.235775,0.326603,0.117017,-0.188780,-0.313345,0.232374,0.062290,0.305012,-0.316856,0.070275,-0.186823,0.242930,-0.221922,-0.033390,-0.081824,0.219819,0.120690,-0.189002,-0.137400,-0.262162,0.106472,0.060376,-0.270054,-0.261015,-0.026615,0.280379,0.051001,-0.317258,-0.323445,0.235977,-0.029989,-0.092475,0.198128,-0.112631,0.033589,0.130395,0.280018,-0.125271,0.095643,0.329058,-0.283190,0.066320,-0.063419,-0.142459,-0.185076,0.163253,0.387102,-0.202662,0.188525,-0.238707,0.400294,0.215433,-0.043138,0.172805,0.008376,0.208317,-0.114177,-0.289204,0.053653,0.290710,-0.208298,-0.053589,0.196404,-0.354561,0.347325,0.175538,0.047081,-0.214312,-0.001405,0.013915,0.405590,0.251734,0.326629,0.135719,-0.077593,0.278846,-0.015243,-0.182947,-0.072371,0.142165,0.039799,0.203217,0.390565,0.355798,0.027259,0.308921,-0.307398,-0.303957,-0.138123,0.062375,0.025386,0.284650,0.028622,-0.051623,0.034327,0.136217,-0.358175,0.205221,-0.249540,-0.014912,-0.165415,-0.103644,0.127458,-0.254177,-0.172199,-0.201001,-0.243819,-0.117358,0.268609,-0.022504,-0.085356,-0.221058,0.328902,-0.063830,0.279555,0.080468,-0.097949,0.263812,0.192364,-0.029492,0.207249,0.318062,-0.061876,-0.121176,0.070214,0.273075,0.167388,-0.083502,0.160652,0.352395,0.041324,0.022692,-0.137437,-0.331345,-0.251093,-0.264251,-0.024123,-0.339953,0.284020,0.098890,-0.335891,-0.373412,-0.226994,-0.031908,-0.290867,-0.332867,0.176018,-0.092769,0.191777,-0.050574,-0.054378,-0.319191,-0.311591,-0.310748,0.081709,-0.159615,0.248107,0.244846,0.317499,-0.003715,-0.183842,-0.223163,0.031250,0.195385,-0.121033,-0.032227,0.117801,0.276425,-0.232593,0.172836,0.070033,-0.049881,0.277373,-0.087309,-0.253331,0.080196,0.086209,-0.116919,0.216682,0.347034,0.321146,-0.289622,-0.207094,-0.360543,0.078964,-0.255916,-0.076887,0.265468,0.039613,-0.101831,-0.242574,-0.040314,0.319470,-0.287933,-0.022725,0.234384,-0.332937,0.124723,0.340552,-0.148960,-0.246874,0.146085,0.316358,0.085809,0.305325,-0.210419,0.208263,-0.105355,-0.051403,-0.271697,0.274426,0.076040,0.172921,0.219143,-0.352875,0.276388,0.010767,0.161418,0.181816,0.239579,-0.221393,-0.038840,0.104881,0.320343,0.270446,0.252909,0.054781,0.056955,0.260794,-0.360211,0.304278,-0.054325,-0.319656,0.198434,-0.286804,-0.221895,0.072854,-0.157295,-0.111696,-0.067966,-0.070101,-0.087001,0.081161,-0.261561,-0.241193,-0.258986,-0.130630,0.170921,-0.175663,0.189479,0.162701,0.228716,0.219101,-0.155763,-0.165069,0.002423,-0.120024,0.224062,0.228557,0.031818,-0.137982,0.119844,-0.201786,-0.056177,-0.098524,0.002526,0.416282,0.149792,0.362364,-0.187832,0.046015,-0.327495,0.203089,0.055065,0.305068,0.293934,0.297728,-0.060120,-0.330177,0.031257,-0.220825,-0.201801,-0.123006,-0.289394,0.175855,0.177262,0.024202,-0.091017,0.255009,0.041104,0.363683,0.284421,-0.111236,0.025488,-0.120467,0.098848,0.239622,0.146073,-0.239235,0.228113,-0.314828,-0.069954,0.159374,0.218329,-0.124800,0.140395,0.331054,-0.178658,-0.239648,-0.227978,-0.101596,-0.172375,0.309435,-0.361310,0.066524,-0.237503,0.272096,-0.248143,0.022841,0.363156,-0.077541,-0.367130,-0.205709,-0.099173,-0.113067,-0.197695,0.329774,0.125627,0.343527,-0.045554,0.341037,-0.331725,0.091092,0.248212,-0.230285,0.288128,0.185503,0.239916,0.070051,0.203002,-0.127157,-0.213669,-0.157000,0.056063,0.259383,-0.120973,-0.059678,0.225400,0.101496,0.386331,-0.235539,0.230105,0.102968,-0.188757,-0.039331,-0.085614,0.089717,0.201097,-0.255514,0.209787,0.246635,-0.129673,-0.050014,0.041382,0.150847,0.146937,0.220685,-0.089663,-0.035452,0.366525,0.074024,0.242312,-0.144389,0.078829,0.082200,0.285165,-0.319804,0.001343,0.026767,-0.282262,0.261536,0.317141,-0.039130,0.230182,-0.284086,0.087166,-0.197961,-0.025124,0.255652,-0.236167,-0.168316,-0.008264,-0.120743,0.220374,0.393944,-0.205987,-0.182615,0.124388,-0.073034,0.331270,0.326488,0.112392,0.269404,-0.074317,0.089187,0.308930,0.058443,0.291214,0.169313,-0.021269,0.143251,0.246042,-0.202574,-0.107773,0.385028,-0.091652,0.146652,0.244723,0.374790,0.129300,-0.238103,-0.378867,0.120222,0.023702,0.381752,0.139935,0.104168,0.017809,-0.146161,0.363007,0.005438,-0.307625,0.156563,0.041844,-0.375766,0.264811,-0.138903,-0.160966,-0.244034,-0.130807,-0.199494,0.127503,-0.354338,-0.184946,-0.166203,0.278298,-0.019729,0.146313,0.100755,0.226135,-0.306477,0.336761,0.217355,-0.338594,-0.054156,-0.140183,0.118262,-0.189255,0.083219,0.053802,0.076609,-0.049429,-0.363153,0.002202,-0.075038,-0.269633,-0.023506,-0.041909,0.044701,0.244415,0.173208,0.260641,-0.308222,-0.220966,-0.025864,0.286867,0.207316,-0.032232,-0.109348,-0.304547,0.155723,0.012985,-0.231203,-0.048032,-0.264076,0.171990,-0.109157,0.306383,-0.333373,0.256027,0.099497,0.029618,0.102624,0.168325,-0.325138,0.249551,-0.352568,-0.148361,-0.215215,0.297219,-0.290722,0.063387,0.099536,0.117072,0.275754,-0.304132,0.259852,0.018033,0.145386,-0.228955,0.071872,0.107575,0.335087,-0.077459,-0.347096,-0.320004,0.131977,0.165827,0.169551,-0.078402,0.339261,0.001530,0.391520,-0.362891,-0.200279,0.153293,0.299074,0.193994,-0.115229,-0.266241,0.251140,0.234030,-0.139536,-0.172999,-0.170187,0.229675,0.222498,0.077396,0.081913,-0.148002,0.117116,0.243477,-0.061481,-0.056554,-0.022256,-0.115721,0.171146,0.239759,0.323138,0.199514,-0.183657,0.131093,-0.295996,-0.282740,-0.282262,-0.262532,0.090152,-0.297610,0.259240,0.132443,0.257048,0.026626,0.110644,0.331936,0.042182,-0.112487,0.348228,-0.281627,-0.155114,0.342006,-0.142453,-0.122407,-0.298149,0.346757,-0.318148,-0.080793,0.323485,-0.002488,0.054286,0.053523,0.165747,-0.401349,0.001907,-0.390112,0.278156,-0.123090,0.291894,-0.198321,0.028990,0.340145,-0.354553,-0.324463,-0.324702,0.151330,0.075315,-0.275692,0.191786,0.110779,-0.331221,-0.305080,-0.259194,0.231813,-0.288942,-0.204283,-0.169286,-0.231338,0.262191,0.140239,0.134299,0.136927,-0.001015,-0.108904,0.109236,-0.276170,-0.277935,-0.293586,0.329873,0.335154,-0.276851,-0.033981,0.092664,-0.160409,0.187264,0.058478,-0.067147,-0.143232,0.215612,0.269005,0.149791,-0.074270,0.373227,-0.186130,0.014602,0.331780,-0.176470,-0.167492,0.323406,-0.305811,-0.152601,0.063357,-0.194605,0.104056,0.241282,0.007305,0.115608,0.184665,-0.225427,0.081701,-0.287347,0.009405,0.272132,0.299889,0.012959,-0.169864,0.135971,0.281527,-0.003424,0.326049,-0.224866,-0.260799,-0.079792,-0.139681,-0.042146,-0.201561,0.129162,-0.329611,-0.020737,-0.196640,-0.079022,-0.260751,0.133328,-0.177239,-0.189472,-0.434493,-0.129799,-0.015117,0.223541,-0.308242,0.329125,-0.248520,0.172197,0.288909,0.365029,-0.225501,-0.038196,-0.033925,-0.287048,0.097569,0.125745,-0.221586,-0.012980,0.361314,-0.031790,0.123608,-0.064123,-0.248082,-0.104188,0.151611,-0.051795,-0.277286,0.028087,-0.110938,0.131311,0.023670,0.183299,0.154491,-0.205006,-0.265554,0.281314,0.072012,-0.396545,0.280408,0.011037,0.033282,0.085436,0.166465,0.263861,-0.080404,-0.289479,0.162522,-0.113807,0.268791,-0.100637,0.252026,-0.251355,-0.247126,0.303343,-0.308956,0.132256,0.181892,-0.052034,-0.084802,0.339079,-0.076163,-0.048482,-0.219775,-0.129156,-0.126423,0.275861,-0.175356,-0.129055,-0.072027,0.163736,-0.274369,0.289030,-0.277144,-0.030165,-0.318740,0.179274,0.155700,-0.234082,0.127583,0.039960,0.266099,0.046640,0.257098,-0.059269,-0.096864,-0.007209,-0.169467,0.290574,-0.024917,-0.194383,-0.051542,0.158133,-0.063634,-0.255824,0.242844,0.058057,-0.099454,-0.229728,-0.198802,0.014388,-0.049158,0.193036,-0.274247,0.258662,0.122605,-0.254797,0.248263,-0.202878,0.083743,0.033060,-0.261076,-0.383708,0.180077,0.212379,-0.054626,-0.314178,0.066682,-0.266662,0.161842,0.024818,-0.186764,0.335316,0.164312,0.285655,-0.292823,-0.222294,0.164061,0.133333,0.219429,0.002897,-0.057431,0.087874,0.238283,0.135529,0.016244,-0.143387,0.159505,-0.096429,0.047308,0.274187,0.259499,0.320537,0.280753,0.234487,-0.340837,-0.346215,-0.285397,-0.162099,-0.378090,-0.059170,-0.122955,0.032729,0.283208,-0.161770,-0.109682,0.254409,-0.123991,-0.297611,0.006162,0.252335,-0.087111,0.156907,0.082364,-0.037090,-0.017422,0.314580,-0.288704,-0.150149,-0.041780,0.068722,0.290235,-0.023959,-0.041056,0.197475,-0.022413,0.255467,-0.025906,-0.001302,-0.008985,-0.191775,-0.314385,-0.348666,0.248316,-0.197229,0.246522,0.148491,0.258000,0.294656,-0.281959,-0.084791,0.372954,0.113929,0.267300,-0.017519,-0.325991,0.083458,-0.211805,0.019272,0.160945,0.072758,0.070242,-0.056092,-0.161279,-0.049699,-0.334349,0.073296,0.317050,-0.272082,-0.370608,0.302389,-0.197766,-0.379777,0.208028,-0.286000,0.254765,-0.288631,-0.114707,0.078342,0.059621,0.119849,0.113704,-0.054002,-0.233844,0.183886,-0.173026,0.101856,0.247071,-0.283944,0.374078,-0.366002,0.257779,0.264341,-0.296514,0.034205,0.300952,-0.129200,0.240403,0.073359,0.215244,0.207869,-0.332159,-0.170720,0.108186,-0.017422,0.332343,0.163715,0.039224,-0.146318,-0.189175,0.295529,-0.031496,0.238406,-0.259382,0.296266,-0.320816,0.273964,0.309856,0.029077,-0.278100,-0.233611,0.147299,0.273651,-0.303202,0.195510,0.303895,-0.118299,0.095744,-0.101839,-0.226889,0.229764,0.175741,-0.173309,0.046386,-0.071534,-0.267303,-0.345488,-0.008843,-0.185420,-0.112753,-0.140454,-0.250458,-0.071936,0.136304,-0.226962,0.115236,-0.049010,-0.040267,