0.233501,-0.236997,-0.537498,-0.778128,-0.181078,-0.627160,0.617030,-0.231918,0.598167,0.394453,0.138742,-0.526046,0.863248,-0.424689,0.683105,-0.542535,-0.289851,-0.647982,0.250491,-0.480365,-0.758422,0.436099,-0.243251,0.301682,-0.270580,0.195482,-1.016489,0.799462,0.632932,0.479251,0.763535,-0.245095,0.224795,0.135157,0.051237,-0.470124,-0.520430,-0.092541,-0.618788,0.526996,0.818857,-0.852584,0.065800,-0.654587,0.590152,0.920977,-1.118111,0.627056,-0.819361,0.345790,0.631031,0.071747,0.578359,0.653839,0.288605,-0.718940,-0.771230,-0.568649,-0.802402,-0.662117,0.227446,0.716043,-0.274588,-0.161732,0.779256,0.874965,0.404764,0.767601,0.476892,-0.245708,0.270610,-0.499938,-0.325651,0.338401,0.064707,-0.136331,0.218398,0.487836,0.175880,0.100835,0.203909,0.024463,-0.799491,0.392631,0.853795,-0.304027,0.975725,-0.293752,0.878514,-0.078479,-0.145771,-0.512108,-0.690757,-0.302953,0.441706,0.532602,0.500445,-0.699615,0.583556,0.794160,0.602600,-0.961256,-0.182715,0.334833,0.526350,-0.547400,-0.631160,0.309549,-0.039415,0.208437,-0.514773,-0.525853,0.622030,0.483043,0.698979,-0.769975,-0.728215,-0.630214,-0.018359,-0.460687,0.659950,-0.783423,-0.724404,0.107575,0.634589,-0.289064,-0.682548,-0.313624,-0.610419,0.019946,0.990472,0.270564,-0.763392,-0.195225,-0.766448,0.002630,-0.141382,0.951808,0.708150,-0.024801,0.664369,-0.656676,-0.202964,0.677417,0.815557,0.402100,0.305506,-0.223629,0.741467,-0.705571,0.512820,0.307866,0.500033,-0.166674,0.572699,0.665520,-0.485210,0.093497,0.839089,0.083016,-0.331189,0.194618,-0.262950,0.464216,-0.138502,-0.015071,0.446264,0.743077,-0.307733,0.507388,0.398458,0.887505,-0.744612,-0.268779,0.378628,-0.336383,-0.572952,0.411108,0.262325,0.176598,0.391235,-0.948822,-0.289601,-0.086873,-0.446294,0.449594,0.737460,-0.417975,0.525117,-0.627133,0.567204,-0.655418,0.162765,-0.212205,0.599261,0.007127,-0.026823,0.538092,-0.249751,-0.094977,1.030900,-0.962024,0.709936,-0.509274,0.383074,0.171610,0.478570,-0.248629,0.210638,0.524059,-0.938938,-0.677528,0.896072,0.273906,-0.432371,-0.189560,-0.866298,-0.363756,-0.432651,-0.253182,-0.579724,-0.297016,-0.601947,0.721452,-0.944786,0.661376,-0.214484,-0.881028,-0.332016,0.460093,0.718490,0.093918,0.356802,0.703720,-0.766715,-0.410394,-0.939569,-0.582546,0.500387,0.383866,0.636396,0.149119,-0.792195,0.669962,0.586782,-0.403011,0.112787,0.691832,0.366708,0.637390,-0.148429,-0.061747,0.090974,-0.378373,0.570837,0.007718,0.401220,-0.343939,-0.632692,-0.041193,-0.268616,0.469255,0.529021,0.304967,-0.589608,-0.939606,0.137084,-0.312842,0.785259,0.722371,-0.355721,0.587833,0.629425,0.183176,0.894038,0.682409,0.104682,0.444727,0.161618,-0.924898,-0.130188,0.306470,0.040700,-0.228112,0.752242,0.688933,0.722772,-0.243849,0.211800,0.644920,0.730231,0.305018,-0.541076,0.243771,-0.835976,-0.175600,0.431085,0.618979,0.528703,-0.028959,0.571011,-0.174355,0.708122,0.799629,0.834787,-0.220600,-0.123690,-0.453169,0.498098,0.644794,0.808046,0.095021,0.186651,-0.635432,0.643095,-0.097471,-0.674605,0.628278,0.469300,0.574436,-0.358519,0.338492,0.260736,-0.708320,-0.215930,-0.346036,0.460784,-0.421586,0.834381,0.636778,-0.267913,-0.004711,0.373267,0.597829,0.188371,0.156302,-0.360155,-0.083378,0.485913,0.665434,0.372058,-0.873051,0.322493,-0.097553,-0.121454,-0.721028,0.812604,-0.249985,-0.431564,-0.295611,-0.276460,0.097846,0.092842,-0.170705,-0.233654,0.030509,0.430520,0.806681,0.389389,-0.168343,0.648199,-0.595365,-0.829418,-0.752395,-0.540715,-0.345222,-0.454439,-0.767297,0.071354,-0.608205,-0.589245,0.256265,0.571054,0.890598,0.164863,0.764213,0.113942,0.030167,-0.356629,-0.136622,-0.019870,-0.899545,0.742817,-0.778122,-0.110072,0.682857,-0.218351,0.217057,0.724184,0.668623,0.726189,-0.560779,-0.445474,0.630546,0.182389,0.007237,0.291328,0.455855,0.054199,-0.560076,-0.102540,-0.151524,0.699581,0.196736,0.447905,0.437100,-0.418430,0.030397,0.099287,-0.578637,0.121211,0.317284,-0.138743,0.608566,0.372277,-0.274906,-0.104984,-0.178401,0.492444,0.351820,-0.116260,0.378615,0.707597,0.533800,0.478573,-0.601251,-0.233820,0.177053,-0.085582,-0.877115,-0.661272,0.700450,-0.927775,0.650230,-0.726610,0.353421,0.000447,-0.539464,0.162776,-0.654091,0.288342,0.180239,-0.819334,-0.703241,-0.678819,-0.904442,-0.167337,0.474113,0.199581,0.037919,0.809240,-0.845585,0.612455,-0.642322,0.038844,-0.708450,0.162260,-0.886299,0.467028,0.587310,0.814124,0.793069,0.009750,-0.413653,-0.642298,0.015365,0.196142,0.413325,-0.745138,0.242550,0.028249,-0.642817,0.696909,0.169957,-0.138346,0.679608,0.331610,-0.093441,0.715386,0.063474,0.131517,0.377250,-0.254323,-0.465877,0.135550,0.767025,-0.192997,-0.741049,-0.127599,-0.345961,-0.166057,0.603924,-0.177836,-0.174152,-0.272596,-0.677309,-0.619313,-0.589702,-0.120089,-0.456243,-0.450230,-0.157942,-0.571796,-0.008080,0.473201,-0.509090,0.779080,-0.761950,-0.185841,-0.836503,-0.545543,-0.812024,-0.586531,-0.646997,-0.373110,-0.638462,-0.828167,0.155486,0.716693,0.660121,-0.464774,-0.033865,-0.197349,0.044671,-0.547523,-0.664210,-0.135258,-0.634889,-0.998080,0.886719,-0.169117,0.967571,0.502730,-0.880549,0.309792,0.430566,0.300486,0.100051,-0.640640,0.471501,-0.458090,-0.234263,0.721357,0.564802,-0.190583,-0.342625,0.280536,0.585400,0.695622,0.172255,-0.372360,0.742079,-0.086506,0.662601,-1.070316,0.064377,0.591680,-0.573730,-0.286280,-0.526016,-0.347798,-0.156547,0.091660,-0.816659,0.084840,-0.442226,-0.592427,-0.403636,-0.617981,0.685814,0.726183,0.622809,0.362895,-0.608817,-0.325125,-0.478826,-1.060275,-0.357376,0.420405,0.244270,0.105000,-0.127846,-0.407199,0.002983,0.450219,0.548567,0.157472,0.473758,0.330753,-0.652285,0.007413,-0.276928,-0.752581,-0.558150,-0.589618,0.324351,-0.176833,0.277447,-0.413575,-0.921718,0.071797,-0.463684,0.669800,0.666027,-0.246170,-0.943310,0.468530,0.603201,0.825728,-0.746343,-0.097012,0.134375,0.352264,0.397116,0.241409,0.445569,-0.289160,0.128370,-0.685908,-0.664941,0.799654,-0.420486,0.150648,0.867953,-0.731740,-0.472503,-0.336438,0.842855,-0.230298,-0.442443,-0.848334,-0.215961,-0.239905,-0.659265,-0.112106,-0.853892,0.237341,-0.935477,0.166518,0.501545,-0.445713,-0.094551,0.127975,-0.695230,-0.007237,0.267959,-0.719671,0.481011,0.800986,0.651313,