0.004256,-0.174839,0.194379,-0.202239,0.355790,0.079788,0.079681,-0.222349,-0.289567,-0.190984,0.294042,0.290848,0.141692,0.171162,-0.218558,0.048748,0.230240,-0.065604,0.341103,-0.283977,-0.121993,0.008804,-0.346329,0.173480,0.044142,0.019844,0.264374,0.243606,0.204384,-0.141070,-0.039039,0.179716,-0.276238,-0.296400,-0.183851,0.015808,0.350281,0.143534,-0.131443,-0.144792,0.238419,0.325988,0.109780,-0.188149,-0.320154,0.225150,0.067579,0.303531,-0.310071,0.065624,-0.176390,0.232244,-0.218015,-0.043493,-0.086173,0.209366,0.131097,-0.199455,-0.126958,-0.253761,0.116480,0.055981,-0.260289,-0.271217,-0.018488,0.272047,0.042208,-0.316083,-0.314741,0.237898,-0.039726,-0.082496,0.203896,-0.103273,0.027258,0.135712,0.275301,-0.116836,0.104719,0.328923,-0.288557,0.068807,-0.067875,-0.146898,-0.183740,0.172433,0.396210,-0.212241,0.198643,-0.236381,0.404068,0.214739,-0.053782,0.173517,-0.000839,0.198105,-0.106357,-0.291095,0.063490,0.284251,-0.208513,-0.053776,0.196391,-0.354670,0.347470,0.175874,0.047533,-0.213803,-0.001153,0.014503,0.405727,0.252528,0.325901,0.135439,-0.076363,0.278892,-0.015224,-0.182936,-0.072498,0.141928,0.040013,0.203408,0.390539,0.355909,0.027161,0.308607,-0.307873,-0.304455,-0.138454,0.061756,0.025232,0.283865,0.029326,-0.051286,0.033065,0.136168,-0.358191,0.205246,-0.249487,-0.014690,-0.165603,-0.103870,0.127501,-0.254330,-0.172030,-0.200666,-0.243355,-0.116883,0.268865,-0.021856,-0.078621,-0.226792,0.330501,-0.070533,0.278373,0.073950,-0.091468,0.257294,0.198777,-0.024525,0.213783,0.315689,-0.055775,-0.127310,0.075085,0.267397,0.161097,-0.083516,0.165616,0.352591,0.034953,0.027678,-0.132723,-0.324981,-0.257078,-0.260952,-0.027041,-0.334704,0.289843,0.099178,-0.339063,-0.371628,-0.229781,-0.034527,-0.290173,-0.327433,0.181197,-0.099238,0.197796,-0.049763,-0.052201,-0.320427,-0.317533,-0.309976,0.074644,-0.166009,0.253015,0.243649,0.323744,-0.007510,-0.190111,-0.216546,0.028995,0.201796,-0.118756,-0.026102,0.110937,0.282385,-0.239268,0.167125,0.063615,-0.048079,0.272052,-0.080828,-0.259470,0.085471,0.091921,-0.117374,0.211611,0.346456,0.327161,-0.295372,-0.211050,-0.366540,0.083659,-0.259053,-0.073806,0.260486,0.034106,-0.101642,-0.239249,-0.041587,0.321925,-0.285378,-0.023015,0.228825,-0.338418,0.130716,0.334373,-0.150333,-0.248988,0.146904,0.322729,0.085435,0.311159,-0.204425,0.202997,-0.104626,-0.057737,-0.268371,0.261584,0.087901,0.169134,0.231779,-0.349319,0.288999,-0.001778,0.174027,0.169327,0.229747,-0.233857,-0.034021,0.093088,0.332346,0.260905,0.263603,0.066466,0.056529,0.250914,-0.361192,0.316421,-0.064712,-0.328104,0.186441,-0.276444,-0.228288,0.078512,-0.167457,-0.122859,-0.068300,-0.063565,-0.089929,0.086545,-0.256155,-0.242839,-0.270165,-0.141779,0.182353,-0.187976,0.186484,0.158084,0.229324,0.232168,-0.156525,-0.154316,0.014756,-0.129465,0.226349,0.216701,0.039688,-0.161403,0.142770,-0.209929,-0.033647,-0.089726,0.025948,0.393620,0.173356,0.339514,-0.205776,0.023581,-0.317596,0.180860,0.077106,0.288364,0.313060,0.318294,-0.061710,-0.348917,0.028144,-0.198994,-0.222454,-0.137299,-0.310983,0.192755,0.165751,0.035066,-0.109285,0.234932,0.041444,0.375597,0.279392,-0.101963,0.034919,-0.122208,0.078743,0.219823,0.167732,-0.261513,0.223274,-0.323047,-0.067732,0.182400,0.216481,-0.103290,0.163038,0.313653,-0.174475,-0.261572,-0.213897,-0.123083,-0.151109,0.301972,-0.340386,0.074448,-0.216121,0.250811,-0.226761,0.001543,0.346148,-0.098232,-0.358405,-0.225691,-0.078474,-0.129544,-0.180297,0.348361,0.123774,0.326072,-0.048746,0.361177,-0.351217,0.078462,0.228678,-0.215817,0.277260,0.195136,0.222669,0.051364,0.202997,-0.116290,-0.218914,-0.147880,0.065043,0.256735,-0.139563,-0.077982,0.245317,0.080988,0.381990,-0.243150,0.232052,0.124288,-0.190434,-0.019621,-0.064706,0.073700,0.204988,-0.275710,0.222846,0.231886,-0.115408,-0.055118,0.055434,0.156413,0.161739,0.206700,-0.074697,-0.049642,0.355550,0.060044,0.248849,-0.158614,0.092501,0.072278,0.297151,-0.306928,0.000354,0.014985,-0.284310,0.275463,0.304533,-0.048089,0.216872,-0.273685,0.079527,-0.191867,-0.037242,0.242649,-0.236849,-0.161106,-0.012539,-0.113941,0.226743,0.391035,-0.218601,-0.194993,0.137938,-0.086858,0.328575,0.321435,0.113910,0.283829,-0.075393,0.102591,0.322951,0.047262,0.293566,0.155411,-0.012793,0.113972,0.274537,-0.212361,-0.079189,0.395152,-0.062612,0.117752,0.273761,0.345906,0.106311,-0.266240,-0.367058,0.093078,0.051795,0.359390,0.163618,0.129502,0.015368,-0.169823,0.358775,0.032825,-0.333970,0.139288,0.015255,-0.355899,0.250049,-0.125822,-0.184393,-0.269434,-0.130855,-0.184886,0.120173,-0.341949,-0.172879,-0.169696,0.253303,-0.044158,0.173779,0.073155,0.220781,-0.316661,0.340085,0.245710,-0.341153,-0.026271,-0.111771,0.096487,-0.183960,0.055705,0.071338,0.068037,-0.040717,-0.366180,0.010703,-0.071871,-0.261156,-0.032333,-0.033520,0.035965,0.237241,0.164722,0.263693,-0.315937,-0.212511,-0.033093,0.293974,0.214980,-0.032834,-0.116244,-0.305515,0.163822,0.005276,-0.236520,-0.056079,-0.257772,0.167742,-0.105057,0.299640,-0.340807,0.256229,0.103950,0.027839,0.105990,0.171796,-0.325633,0.242075,-0.359939,-0.140304,-0.223512,0.295396,-0.293640,0.064389,0.108099,0.116501,0.283655,-0.295937,0.252990,0.019224,0.137002,-0.224202,0.035370,0.143051,0.322927,-0.041816,-0.334540,-0.283810,0.095957,0.202019,0.133555,-0.107042,0.304142,0.016186,0.357689,-0.327918,-0.228114,0.182892,0.330786,0.191080,-0.144639,-0.271345,0.285325,0.201407,-0.161255,-0.206229,-0.145078,0.211280,0.238797,0.048202,0.050230,-0.148126,0.135480,0.234550,-0.046039,-0.041378,-0.026723,-0.147140,0.140249,0.273569,0.288470,0.192279,-0.196510,0.134539,-0.260029,-0.285639,-0.248652,-0.227130,0.063030,-0.291020,0.225030,0.154510,0.289642,-0.005945,0.122080,0.300054,0.030048,-0.144881,0.380871,-0.313933,-0.122540,0.368235,-0.110660,-0.135005,-0.268089,0.315278,-0.292590,-0.107624,0.294580,-0.000232,0.080442,0.057509,0.134919,-0.372588,0.021977,-0.359956,0.254561,-0.106627,0.277148,-0.172196,0.057477,0.340299,-0.371100,-0.316606,-0.338424,0.137763,0.079053,-0.247453,0.219564,0.080385,-0.300039,-0.298517,-0.247715,0.228621,-0.321270,-0.201734,-0.199444,-0.263034,0.286783,0.134521,0.165177,0.117357,0.013427,-0.122835,0.113964,-0.290288,-0.282757,-0.307885,0.344102,0.320856,-0.262640,-0.022691,0.106527,-0.166217,0.200630,0.044649,-0.056139,-0.154906,0.203119,0.270187,0.161435,-0.072208,0.359735,-0.173182,0.023131,0.344885,-0.186297,-0.160225,0.316962,-0.294274,-0.140089,0.063387,-0.201842,0.107604,0.235180,0.001324,0.117357,0.197050,-0.213271,0.068293,-0.273680,0.012199,0.277192,0.298450,-0.001181,-0.168687,0.122560,0.267539,0.007294,0.323449,-0.211340,-0.269496,-0.137720,-0.081809,-0.062461,-0.144910,0.150737,-0.272035,-0.078729,-0.139215,-0.136896,-0.307339,0.076836,-0.154825,-0.242912,-0.378562,-0.175176,0.032566,0.274907,-0.312252,0.282641,-0.255599,0.227197,0.238085,0.329369,-0.278903,0.003573,-0.063540,-0.261461,0.050557,0.074753,-0.222638,0.016205,0.346399,-0.006537,0.148122,-0.072326,-0.298280,-0.153523,0.205608,-0.107091,-0.288643,0.007394,-0.105645,0.188761,0.018893,0.237111,0.211315,-0.247867,-0.254593,0.226946,0.107841,-0.396884,0.281638,0.010214,0.033478,0.086806,0.166981,0.263342,-0.079885,-0.290067,0.161903,-0.114134,0.269210,-0.101111,0.252654,-0.251864,-0.246992,0.303315,-0.309438,0.131567,0.181234,-0.051723,-0.085995,0.339431,-0.076325,-0.049325,-0.220041,-0.128911,-0.126843,0.275509,-0.175138,-0.128766,-0.072106,0.163950,-0.274131,0.288945,-0.277637,-0.030694,-0.318360,0.178733,0.155480,-0.234294,0.127479,0.040598,0.266122,0.046866,0.257588,-0.059645,-0.096776,-0.007670,-0.169115,0.292041,-0.026238,-0.193890,-0.052863,0.157564,-0.065144,-0.254604,0.241275,0.059353,-0.098553,-0.228422,-0.199634,0.015945,-0.050398,0.193665,-0.275404,0.257427,0.122695,-0.253637,0.248522,-0.204229,0.084959,0.033928,-0.259796,-0.384706,0.180822,0.211804,-0.053442,-0.312918,0.066764,-0.267351,0.162275,0.024143,-0.187385,0.335628,0.165531,0.286848,-0.294128,-0.220960,0.164315,0.133658,0.219072,0.001501,-0.057467,0.086697,0.237202,0.137072,0.016453,-0.141767,0.159268,-0.096968,0.048792,0.273255,0.259872,0.322055,0.281472,0.233761,-0.340116,-0.347012,-0.286191,-0.162777,-0.377793,-0.059836,-0.122259,0.032174,0.283769,-0.161176,-0.109764,0.253818,-0.124125,-0.296953,0.005476,0.251950,-0.087747,0.157328,0.082002,-0.036769,-0.017997,0.313967,-0.288693,-0.149951,-0.042169,0.069025,0.290391,-0.023927,-0.041401,0.197330,-0.021315,0.255064,-0.025471,-0.001391,-0.008195,-0.191710,-0.314737,-0.346838,0.249021,-0.197778,0.246663,0.147734,0.258215,0.297820,-0.285494,-0.083627,0.369563,0.112807,0.264268,-0.013726,-0.328853,0.087059,-0.208552,0.022684,0.160381,0.075191,0.066728,-0.052312,-0.164008,-0.052670,-0.334106,0.075883,0.317233,-0.275100,-0.367508,0.304429,-0.194577,-0.382277,0.209490,-0.287861,0.257090,-0.285941,-0.115146,0.076523,0.059850,0.118947,0.112550,-0.054547,-0.230969,0.186735,-0.176140,0.105110,0.247904,-0.282802,0.373717,-0.369300,0.258012,0.261284,-0.299705,0.036788,0.300437,-0.126005,0.238496,0.083235,0.205616,0.211181,-0.341800,-0.174164,0.098387,-0.007671,0.322543,0.173463,0.046984,-0.136606,-0.192873,0.304689,-0.040786,0.245788,-0.267747,0.287093,-0.320581,0.281581,0.310494,0.019613,-0.270184,-0.226919,0.156672,0.265359,-0.298241,0.191118,0.311787,-0.109612,0.096048,-0.106915,-0.224619,0.225581,0.171539,-0.172031,0.055070,-0.062871,-0.276177,-0.335921,-0.006511,-0.181833,-0.113219,-0.150607,-0.249874,-0.080271,0.126727,-0.219632,0.113458,-0.039805,-0.046379,