0.233462,-0.237017,-0.537188,-0.778158,-0.180900,-0.627182,0.617004,-0.231936,0.598153,0.394507,0.138709,-0.526202,0.863130,-0.424363,0.683314,-0.542661,-0.289589,-0.648093,0.250588,-0.479688,-0.758199,0.436271,-0.242363,0.301739,-0.270374,0.196107,-1.003971,0.808697,0.625221,0.486041,0.770129,-0.236704,0.233926,0.140421,0.057929,-0.461943,-0.516643,-0.091459,-0.611704,0.526491,0.818374,-0.851657,0.065516,-0.654761,0.589779,0.920551,-1.118437,0.626818,-0.819665,0.345472,0.630986,0.071433,0.588097,0.660804,0.282974,-0.714092,-0.766161,-0.562756,-0.795532,-0.658012,0.232025,0.722053,-0.271832,-0.160962,0.784504,0.875022,0.404832,0.767389,0.476811,-0.245389,0.270671,-0.499928,-0.325159,0.338371,0.064840,-0.136009,0.218170,0.487711,0.175922,0.101004,0.203735,0.024777,-0.799594,0.392475,0.854155,-0.304093,0.975707,-0.293735,0.878488,-0.078433,-0.145825,-0.511760,-0.690808,-0.302812,0.441649,0.532548,0.500332,-0.699647,0.583567,0.794013,0.602549,-0.961283,-0.182896,0.334796,0.526373,-0.547296,-0.631246,0.309623,-0.039339,0.208480,-0.514658,-0.525701,0.622158,0.483142,0.699041,-0.770009,-0.728192,-0.626440,-0.015646,-0.463133,0.661730,-0.781517,-0.722585,0.110205,0.636007,-0.287595,-0.680048,-0.312452,-0.610171,0.021803,0.989625,0.269570,-0.762709,-0.195609,-0.767278,0.002060,-0.142092,0.951369,0.707693,-0.025486,0.664117,-0.657109,-0.203524,0.670426,0.810509,0.406302,0.302035,-0.227341,0.737153,-0.710464,0.509883,0.304536,0.495729,-0.168736,0.572241,0.661693,-0.489660,0.090235,0.841777,0.080785,-0.333568,0.191782,-0.266208,0.462319,-0.140666,-0.017897,0.444993,0.742572,-0.310254,0.507073,0.398105,0.887834,-0.744542,-0.269086,0.378386,-0.336549,-0.573337,0.410761,0.262014,0.176560,0.391067,-0.948896,-0.291175,-0.088084,-0.445130,0.448785,0.736653,-0.418890,0.524020,-0.627735,0.566450,-0.656083,0.162324,-0.212262,0.598421,0.010565,-0.024343,0.536032,-0.247965,-0.093216,1.033016,-0.959545,0.711547,-0.507629,0.385392,0.172632,0.478848,-0.246720,0.214959,0.527252,-0.941556,-0.675419,0.898311,0.276571,-0.429279,-0.187682,-0.864179,-0.361136,-0.431432,-0.252601,-0.577297,-0.311848,-0.612464,0.730421,-0.952251,0.653705,-0.223843,-0.891828,-0.338304,0.453062,0.708813,0.089740,0.355520,0.695385,-0.771536,-0.414170,-0.936503,-0.585117,0.497659,0.380748,0.632695,0.147261,-0.794636,0.666762,0.585266,-0.403433,0.109915,0.711990,0.381492,0.625101,-0.138162,-0.051008,0.103629,-0.363853,0.579534,0.017429,0.414177,-0.337953,-0.631051,-0.029978,-0.264741,0.472007,0.526613,0.306939,-0.587567,-0.937161,0.139948,-0.311368,0.787055,0.725133,-0.354519,0.588153,0.631987,0.183827,0.894640,0.682275,0.104835,0.444978,0.162078,-0.924268,-0.130053,0.307063,0.041054,-0.228040,0.752602,0.689249,0.752976,-0.221693,0.193466,0.660373,0.746303,0.324099,-0.519270,0.256719,-0.821411,-0.156167,0.440013,0.621464,0.545502,-0.031188,0.569456,-0.173058,0.707250,0.798492,0.833617,-0.222139,-0.124599,-0.454195,0.496731,0.644224,0.807860,0.093725,0.194671,-0.629521,0.638176,-0.093292,-0.670237,0.633073,0.475058,0.578185,-0.354561,0.343706,0.263620,-0.707695,-0.211312,-0.325500,0.475371,-0.433963,0.844738,0.647727,-0.255565,0.010190,0.381784,0.607428,0.201740,0.162249,-0.358519,-0.072144,0.471620,0.655025,0.380661,-0.879900,0.314890,-0.106302,-0.131766,-0.727111,0.805665,-0.259144,-0.435760,-0.296883,-0.284377,0.089606,0.086927,-0.165715,-0.237773,0.026116,0.425414,0.800741,0.385882,-0.172286,0.642895,-0.597869,-0.830127,-0.756961,-0.537903,-0.343116,-0.456115,-0.765983,0.072820,-0.606272,-0.587173,0.257473,0.572699,0.892395,0.165781,0.764627,0.115384,0.042328,-0.347637,-0.143933,-0.013737,-0.892845,0.750335,-0.769386,-0.104649,0.688712,-0.210489,0.220707,0.725162,0.675428,0.715019,-0.568687,-0.438715,0.624929,0.176442,0.000329,0.283250,0.451126,0.048853,-0.567302,-0.105851,-0.152430,0.693550,0.215888,0.462034,0.425490,-0.408661,0.040607,0.111156,-0.564772,0.129359,0.326449,-0.126463,0.614245,0.373824,-0.264246,-0.111009,-0.182987,0.496064,0.348940,-0.119454,0.374864,0.703552,0.531206,0.475738,-0.604934,-0.235772,0.176476,-0.088914,-0.885914,-0.667915,0.706055,-0.932376,0.645387,-0.731885,0.346945,-0.003361,-0.543739,0.157022,-0.656700,0.287585,0.175574,-0.797464,-0.687155,-0.692085,-0.893303,-0.155725,0.487674,0.215383,0.047158,0.819782,-0.831505,0.619130,-0.640549,0.051095,-0.712049,0.159616,-0.884123,0.465195,0.585446,0.811885,0.790377,0.008149,-0.415395,-0.644632,0.014340,0.195907,0.411143,-0.745823,0.242379,0.028677,-0.643121,0.697015,0.169549,-0.138674,0.679631,0.331115,-0.093949,0.715250,0.063578,0.131019,0.378855,-0.253441,-0.466811,0.136546,0.767671,-0.192189,-0.740079,-0.127056,-0.345283,-0.165247,0.604689,-0.177723,-0.173335,-0.274085,-0.678395,-0.618482,-0.590426,-0.120838,-0.457252,-0.451293,-0.158568,-0.572416,-0.009036,0.472824,-0.509207,0.778268,-0.758716,-0.183463,-0.838435,-0.543907,-0.810351,-0.584561,-0.644671,-0.371744,-0.636886,-0.826064,0.156362,0.716920,0.662038,-0.468014,-0.036255,-0.195171,0.042993,-0.549200,-0.666093,-0.137707,-0.636321,-0.999625,0.884699,-0.170158,0.967439,0.500889,-0.854894,0.328779,0.414956,0.313590,0.113768,-0.624712,0.490072,-0.447156,-0.221689,0.737914,0.572477,-0.188485,-0.328371,0.280918,0.585706,0.695396,0.172418,-0.372144,0.742330,-0.086186,0.662771,-1.070108,0.064641,0.591798,-0.573699,-0.286055,-0.520836,-0.344006,-0.159702,0.094296,-0.813908,0.088048,-0.438484,-0.590223,-0.401165,-0.614665,0.687381,0.726608,0.625674,0.362063,-0.609466,-0.324573,-0.479241,-1.060766,-0.357938,0.419771,0.243912,0.104551,-0.128382,-0.407472,0.002892,0.449769,0.547817,0.156922,0.474211,0.330371,-0.652674,0.006942,-0.277417,-0.752894,-0.558496,-0.590096,0.324130,-0.176900,0.277038,-0.418060,-0.925008,0.074518,-0.465965,0.667578,0.663249,-0.249301,-0.945212,0.466370,0.600322,0.824406,-0.746661,-0.099514,0.136505,0.353827,0.395773,0.242517,0.446785,-0.287743,0.129807,-0.685037,-0.663642,0.801114,-0.419827,0.151199,0.869148,-0.728796,-0.470174,-0.338335,0.844205,-0.228740,-0.440547,-0.846421,-0.214507,-0.238606,-0.657554,-0.110982,-0.853712,0.238911,-0.942709,0.161186,0.505966,-0.449446,-0.098093,0.123486,-0.700384,-0.010339,0.264455,-0.724378,0.478879,0.800434,0.647218,