0.400149390317507,-0.807979933418734,0.61773179983066,-0.855524226705708,0.292887591118472,0.308475535558511,0.401972961476863,-0.0559247721348161,-0.771434090999203,0.588983359980464,0.620614731524981,0.259626139229628,-0.346903788413641,0.0152204692295463,-0.713738652177498,-0.186044632643393,0.191953719599929,0.739204988160572,-0.886842924858074,0.37746797430221,0.465248038237691,-0.774805734586591,0.854255203135849,-0.841387554134285,-0.81540018273247,0.576732191360106,-0.76776238911001,-0.987218315380441,-0.974377565338303,0.115017446625821,0.926803366467176,-0.754866989120224,-0.81669524693258,0.310555556508722,-0.560919291166338,-0.512594306248619,-0.644594599208631,0.802276032133135,-0.132395138517965,-0.0778248298086362,-0.626014392608513,0.861721281646172,0.586987065943366,-0.648606755176368,-0.567068452551123,0.585062895658221,0.00406900422359532,-0.353843417448434,-0.842016759231474,0.478643738486896,0.90929647076825,-0.937224563559351,-0.605458548354804,-0.673963657512638,-0.589719110645323,-0.373394715521133,0.726718584792729,0.00667885377371277,0.169062492336856,0.174036667756589,-0.0690632856175701,-0.865387335705859,-0.603002345842611,-0.201264228864624
