-0.557208571048382,-0.423989314528695,-0.593247605912233,-0.403134440066074,0.0249304069823393,-0.148344578252261,-0.474309951917688,-0.351150335261441,0.0416491376090173,0.222534729493939,0.117665322550592,0.445912968634709,-0.514071630021854,-0.623111607324624,-0.694528159100994,0.982427624507282,0.949438327911102,0.844202401259899,-0.0973946198316058,-0.596397785686088,-0.293590688565751,0.387725150266872,0.862366538164935,0.610266429147914,0.349323600343959,-0.275767710067294,-0.139716660019342,-0.470776004883775,-0.464069244975851,0.251109713509434,-0.561429376217132,0.177627276832388,-0.239020148974755,0.0993549929079151,-0.140883773433279,0.431759370258384,-0.877333872983542,-0.304328757835625,-0.759666493097873,-0.866071430112806,0.472823609683366,0.028858400515101,0.0976836027195927,-0.513073955057476,0.236043754305068,-0.146584353803579,-0.0634282052580587,-0.492049693340079,-0.642264765018479,-0.023338216066465,-0.0052946309088603,0.310827963011737,0.185020325758648,-0.131679487131309,0.115459549352728,-0.33915788212384,0.339928444657823,-0.132665518438272,0.0311061311622542,0.867379248886743,0.129213803352196,0.463377728400285,0.17881729795865,-0.234091590846873,-0.280573235518145,-0.0070837895694067,-0.283319192902918,-0.182656677845063,-0.411576948274229,-0.0995874498646126,-0.282891933299345,-0.522872790938618,-0.155293640199042,-0.267306018043448,0.0285323723534119,-0.109837043660281,0.171226206920977,0.0130685819874488,0.366237899189742,0.340576421205076,-0.376476187275941,-0.103473629764023,-0.411360083653216,-0.360884997669055,0.00315570694989755,-0.704664681457283,0.216424627480045,-0.857030943006152,-0.331849989073645,0.177437131484751,0.110018434108011,-0.153676204545319,0.0730523322901045,-0.0216649843498057,-0.0833948266791844,0.132384969343217,-0.4344535093204,0.902096809939485,0.366336657798769,0.235820186457071,0.115820928567059,0.525478702278409,-0.53840016766876,-0.779310254513812,0.0031593483734458,-0.0690438873386213,0.0231875230659766,0.227961633559197,0.0566202257815233,-0.0913319223164799,-0.0739755153044847,-0.0832106382573707,0.0584973174456345,0.326767874411751,0.179870921355569,0.190560560166137,-0.928088230131446,-0.643857458145058,-0.812182365395471,-0.74960760556164,-0.480315335739143,0.225834947242581,-0.380800191849281,-0.0857384634704316,0.327442335807317,0.724484106906037,0.486680377669128,0.970225777905724,-0.329426610900906,-0.142247098554031,0.480858583126061,0.495736032367612,-0.209644028177422,-0.532031759477356,-0.570319511075495,-0.794018821219537,0.719331118566123,0.297347628396389,0.383030297817259,-0.0316272102278392,-0.0085376095846358,0.136245678388933,0.11727999383318,0.205991442895051,0.037308390775073,0.656966841155482,0.505133293407003,0.660594716946402,-0.0836958020122228,0.277091538807046,-0.0045390415292952,0.559021596931815,-0.478085042500709,0.501877683356701,0.176031620996327,0.497268673470316,-0.257298611021765,0.128781393016411,-0.0722433078401465,0.190875762864192,-0.0277728385102361,-0.266006638784217,-0.0476504944756112,-0.0650930142034841,0.135696929428316,-0.255493969190382,0.3840451455326,0.585277011613486,-0.194410188614926,-0.128680861666409,-0.100512760756414,-0.190958229164733,-0.231918939092637,0.258971751888494,0.155266107297108,-0.0458479420910878,0.486667554395108,-0.0349738514913863,0.458569644990327,0.340099888850983,-0.240942040254843,-0.522345911360652,-0.340351670149003,-0.558140928049376,0.522982003963379,0.0655734836809843,0.180544805189607,0.668799520336877,-0.140755021912509,-0.131948509337292,-0.0525296094503699,-0.074331678549359,-0.137091166710344,-0.100774124862428,-0.206040598046157,-0.211773327647387,0.0227652355594276,0.251523645471715,0.216293654583258,0.291711823870683,-0.0714605944544951,-0.521279952059204,-0.509265137790796,-0.777468023511677,0.632522666822127,0.425850016250466,0.549710161983418,-0.408501175616811,0.255886689345777,0.113787263256192,-0.00440728975097729,0.333925839835416,-0.589119534524232,-0.416100391197547,-0.418312975323184,0.750888131650062,-0.34853738433672,0.317306806555885,0.196597864361186,0.169521609382991,0.250562813731554,0.119019417213831,0.156803698100637,-0.30861376227754,0.613362567620552,-0.0254440842502594,0.232210127816764,0.420181441506707,0.608235792763158,-0.164768229047539,0.200877342422307,0.049107113729088,0.0224593919851168,-0.211738400281685,-0.0419726499614949,0.134021290322892,0.188124032153157,-0.00225043735982474,-0.368841354777323,-0.507651171232314,0.217189321614545,-0.223841407312198,-0.150799037823647,0.110231963763266,0.0904018991325986,-0.19921560496727,0.000954988183846355,-0.0716466665695277,-0.30151077241414,0.10900623825042,-0.0729788842686609,-0.445527197191258,0.0401241380124797,-0.479264291776066,0.0412729841958157,0.304898171111441
