0.394282702973678,-0.279519696348262,0.600755599860917,-0.46142711170964,0.549171983479291,0.297258128771841,-0.839711356845535,0.25628793114811,-0.788941138843308,0.159277741731959,0.621238075464493,0.0243631593995128,0.112054530902812,0.0234442643096592,-0.406851378944405,0.394806544522469,-0.337384726530247,0.84917195038233,-0.577905101832758,0.0857641818288667,-0.385813261286221,-0.473934912711508,0.0867995014654406,-0.459724456029971,-0.703151039444724,-0.639867278307254,-0.32428270909378,0.520016050745159,0.244950523917021,0.413797882131735,0.994911819190886,-0.221764596884078,-0.413958083322018,-0.190124454953573,-0.0720947486128549,0.637543613985327,-0.23098799878184,0.500372079073334,0.0758292312956247,0.451989789994072,-0.237157954636363,-0.767904727114435,-0.513416072079736,0.00734206164815493,-0.610720070273927,0.0347575428014958,-0.0826689501722328,0.239692608812504,0.588213899495999,-0.897690674983593,-0.287941831761943,-0.171902585723635,-0.739296395554222,-0.564206861589409,-0.8811811957231,0.483373673123505,0.682732594720319,-0.213303983242703,-0.285723023842895,0.0866257996223731,0.517176095414703,0.359147397649341,0.689291647720364,0.506311825484736,-0.80683750168194,0.858074848011319,-0.821825121738894,-0.898151251011961,0.43694143154406,0.180414201593601,0.0836517941110936,-0.00204954712894499,-0.746910531466268,-0.408743807193511,-0.611704059677676,1.03712123217955,-0.765048024007673,-0.761593191637828,0.383855870249267,-0.338076420194327,-0.494338505700272,0.274755951285654,0.431337246557758,0.576397900145421,-0.482006263621006,-0.149241814157495,-0.30639298714357,0.342011581028801,0.513021517494408,0.823181681267608,-0.585072949344662,-0.423974828067212,-0.254164865996121,0.830784340391667,-0.283970544117433,0.943177902207209,-0.56208639348442,-0.47185208935183,0.908939508939707,0.840280299627549,0.0676635692483382,0.0634698420612139,-0.376615161077835,0.565068616700267,0.488156644916136,-0.71262741170145,-0.807180038557761,-0.362682909696459,0.397767794803308,0.113904789049123,1.01739437424466,-0.691519334921308,0.555718576967946,-0.233491454078444,-0.893079121063563,0.743224740556249,0.27083277906405,-0.408438687019848,-0.573376433605154,-0.257110141199595,-0.771065798888606,0.330697476875547,-0.590198869926494,0.531620615066508,-0.383107273832074,-0.19430029349862,-0.886727079685072,-0.921520289698286,-0.463496134370068,-0.483914598491513,-0.605562691957949,-0.23973004676186,-0.936564484827369,-0.776675743686369,-0.986763797615801,0.805276486875634,-0.2758953056274,0.0425647581961238,-0.236144558358133,0.894019464327636,0.386080973871398,0.665182767871857,0.173891810380389,0.27929490259359,0.145706567973664,-0.551797966581864,-0.778914524257189,-0.577094064338943,0.586037330033048,-1.00808830996183,0.645918078458121,0.155113967595741,0.540942649419606,-0.229127452164663,-0.190241676062406,0.445764466001241,-0.291640779298369,0.0534427364404656,0.794807136551259,0.649716943402089,-0.429942947289122,-0.00364438489127113,0.42795500200782,-0.768021979132133,0.508787726629818,0.613351433037699,-0.102651385416973,0.112332367336356,0.574991078571873,1.04174971719868,0.652108439021969,-0.286150542353693,0.00971930137243326,-0.665112422520721,0.179309930291827,-0.763336621878791,-0.48581060558525,0.232037823224973,0.129456079507356,-1.04381177906878,0.391525432138625,0.0275192017878717,0.769534604480265,0.218832711789422,-0.407938595713046,-0.695440308461183,-0.830373042305062,0.15276181303187,0.430575305993493,-0.476727513391722,-0.228698952368762,-0.220318538738648,-0.74226606593394,-0.844684472906914,-0.80817753217975,0.0737681506853356,-0.553553699467276,-0.381160848872288,-1.03633914988176,0.325353620530243,0.0834970646983665,-0.0620639080483263,0.441328604188127,0.645408837194753,-0.309537957242073,-0.462792749698842,-0.488966510011824,0.253443242266417,0.488672110422257,-0.879551571054502,-0.353577611183056,-0.0381493140584813,0.285017139624448,-0.476549740789211,-0.0674931384025096,-0.3735121700691,0.550676221918628,-0.193303354128757,-0.396722284728859,-0.755952124829115,-0.772479194703165,0.574429944277497,-0.691965560991871,0.733548172655193,-0.385754469039769,0.526671618968647,-0.408613658841309,-0.775498988021593,0.313138773544136,0.23595458267201,0.81167540562938,-0.551811411775392,0.525825699490908,-0.308171265949677,0.851584158152268,0.707826723864095,0.277092566158904,-0.573203678816547,-0.754651802607641,-0.459942762319179,-0.0053335825444436,-0.707262891644921,0.356891573668423,0.802721010012678,-0.407150226109667,-0.0415621520946853,-0.806287776826172,-0.0761174884776292,-0.0884121460207069,-0.440455801797794,0.452883215636719,0.837959191267151,0.202582525575049,-0.465344572281144,0.878776109189565,-0.839546007657467,0.245810817897836,0.866536879489345,-0.13525432902284,0.880199877627956,-0.443847600164767,-0.0106773320842966,0.734441167231758,-0.466058158311647,0.66896182686749,-0.562099854716016,-0.119602908302124,0.82715095560347,0.458830025866848,0.106003986930455,0.285158489009859,-0.891306690347971,-0.631727776175245,-0.948329906632688,0.532776993457187,-0.866502886952784,0.148068020308312,-0.670309514663178,0.0548536337870332,0.0390188783381629,0.479098673645018,-0.281746028906925,0.732339199178099,0.704580877976933,-0.592308601317688,-0.430043665641078,0.686303374094364,-0.851222088299675,0.460563800398746,-0.775787876944507,0.671672206440562,0.276576283249002,0.288123824033075,0.812520022781568,-0.349378858783248,-0.935604261385799,0.546920662287068,0.199306559983247,-0.650476358772823,-0.862513547020194,-0.724707082187634,-0.704216050540876,0.73002397558739,-0.361272077351565,0.0579594760249597,0.559545057752062,-0.468806668311225,0.490269314291068,0.262557436637372,-0.424033626063886,0.263373790046924,-0.248331317143551,-0.697722158862945,1.00028378676287,0.162639480866091,-0.00504207619582073,-0.311517464431789,-0.434528821367376,0.681452706563819,-0.377842966722481,0.155170181642769,0.0940603154706278,0.680098053247958,-0.468312507165175,-0.451257809538566,-0.295939353730658,-0.13244884893102,-0.29456763060194,-0.436490640142715,0.214655999161921,-0.319294856475789,0.991443628676011,-0.13762261082772,-0.0229879254048224,0.182148646027131,0.20913465918668,0.612254999137272,0.761753959364582,-0.506778294388791,-0.76872590919075,-0.387634692600464,0.226135968845433,-0.12551733587545,0.820587415553879,-0.906754812388984,0.793079749541163,0.435957599777632,0.136912596902171,-0.892493143342617,-0.976362485039521,0.0494186529912989,-0.864484719661482,0.380453326876887,-0.47463995974665,-0.349591837432576,0.817696790877234,-0.472479893238511,0.523923128087062,-0.856365401493669,-0.356749161353053,0.822790143001666,-0.247104685313553,-0.618392363510259,0.165513198812192,0.477811375454677,0.619639072648198,0.794672093584127,-0.510788272413499,0.273631059116563,0.720019835376205,-0.135178614355771,-0.839346674324124,-0.506036538946878,-0.392669466106598,0.482279000027887,-0.292369213116368,0.740841545953291,-0.676177963739329,0.366220110281394,-0.690163074706772,0.680481217862476,0.262977222091683,0.901997957857836,-0.751223853510039,0.840105822576583,-0.261518012760487,-0.966970665099068,1.03500307938929,0.31877115161942,-0.152902470639093,0.0795368524556319,-0.255694610580247,-0.545371051180077,-0.811603245089522,-0.667890084675937,-0.252397345355003,0.764629884672812,-0.102417179335404,0.301889109755495,-0.203944490490149,0.681697618902278,0.53267941254887,-0.662227934854818,-0.721418127926919,0.220029607782093,-0.22517656272602,-0.817388558413512,0.335141916108413,0.214768542040104,0.84421015257645,0.139290935165139,0.014207200819176,0.178631597923305,1.03277539927298,0.197851526550386,-0.225005082025148,0.942098447103866,1.1587904765103,0.765170539275394,0.437189644590163,0.196200637281926,0.534412000026894,-0.235291042922897,-0.171921491311698,-0.557924162757172,0.736240742248653,0.830407646053508,0.834716439300669,-0.624152253589354,-0.947329765603451,-0.613376199529035,0.0525881319417015,-0.699995642443014,-0.927610584266203,-0.718424002096289,0.265409756430313,-0.771341594771519,0.28184471312421,0.0656874176596641,-0.818032228368363,-0.44076827630367,-0.280351401191565,-0.702143783082053,0.506207578675764,-0.246828340959215,-0.886134773372827,0.362731997277301,0.772993809720302,-0.936703581572344,0.615749264172933,-0.630942658051793,-0.741998847006358,0.0827569272752915,0.798361384990504,0.250808880549286,-0.259142051242135,0.226740185505672,-0.0527124919683862,-0.129972793649322,0.734103591343792,0.341933924533198,0.628295221461674,0.476428436088102,-0.452965138353106,0.142123565652382,-0.212978549611072,-0.462159392589562,0.252710935105189,-0.0302208359613277,-0.913060270607869,-0.080651019618998,-0.252404447194231,0.682748039500669,-1.02848192681674,-0.447905033833501,0.683156336067485,-0.639950802492549,-0.299299864595707,-0.271300505017602,0.555375050243423,0.146157813272096,0.674183859707189,-0.666783023138955,-0.547617851973798,-0.0148295966261106,-0.732689671277241,0.356843769817815,0.235423763647033,0.539942650529288,-0.410699277979392,0.487565062792528,0.443240424776209,0.725357534235993,-0.152348169505715,-0.728970329219134,-0.212693700059882,-0.413204302570339,-0.20369169820086,-0.204060613462079,0.278747610018481,0.706535837233588,-0.515122389027505,-0.291166380612795,0.556160165135634,0.848302184938455,-0.376154441313666,-0.891565343103001,0.573027795584951,-0.632253432601372,0.154664857414531,-0.100292311382786,0.175732886519395,-0.746009469732633,0.19949271561333,-0.590533082135076,-0.612824177548584,-0.104104691033744,-0.454659352383889,0.92847035303913,-0.116487586782315,-0.00740478060758343,-0.145998434128799,-0.121753833044597,0.387305649350626,-0.690874395419337,-0.686857582783482,0.416502033873129,0.121299847798213,-0.185864024345258,0.829242440639754,0.0779357933628838,0.762011311927004,0.231537395159886,0.726794089066022,0.411794631528865,0.333788507015305,-1.00351480047,0.0859530592319563,-0.00336743829715714,0.250854850875639,-0.0189285211728603,-0.456046698019332,-0.0848184239717461,0.592139231867082,-1.04212830924991,-0.709849352933666,0.373220129111041,-0.985997828948752,-0.418263984983006,-0.369377808409209,0.649161593087072,0.239958721282434,-1.1269888632063,-0.466179659841757,-0.591105229876875,-0.407570196580466,-0.899113281392544,0.532733165544753,0.578103230594419,0.274275099827605,0.627169395511169,0.418193548095331,-0.625986899580294,-0.300135270614553,-0.965493144972364,-0.860039715156772,-1.02403741856763,-0.507872122990681,-0.708459597375929,0.0160610177758597,-0.133247518551279,0.125875236489724,-0.605434883668063,0.445741444948222,0.135125546882378,-0.729150574517651,-0.719644714970703,-0.883939030014687,-0.35250777853637,0.106463362466182,0.690517027978164,-0.586328170553475,-0.533601063974298,-0.489511398780719,0.781060712546119,-0.648591076425877,0.234064312162207,-0.35124528397068,-0.364648382922549,0.378792514918233,-0.746694988803288,0.239361254727966,-0.613075245153034,0.960221504625939,0.14248132287695,-0.373702548502992,0.51790977969874,-0.890322479762294,0.462609337198703,0.366421741516885,0.194191242636301,0.39149294418673,-0.233573879906609,0.517991704218149,-0.994815177927268,-0.549052434552449,-0.836944590960155,-0.808058150076511,0.927105005633506,0.750898334420423,-0.564773505793706,0.437738385175714,-0.893348444753384,-0.739687090176182,-0.548364422390788,0.301231238616629,0.666904697248288,0.721269633110753,-0.174857482342871,0.529384510789292,-0.326167699679222,0.850871615245266,0.870506920291953,-0.856067204871222,0.011729191876617,-0.276988536231634,-0.551374428871862,0.445215643051247,-0.129053192187506,-0.555088387235808,-0.671315896166177,0.59597635614987,0.664935561557141,0.0533131220151644,-0.971452979508116,-0.130979788004267,-0.624115595739759,0.659338940028855,-0.386294962385002,0.783376792599341,0.775147763695828,0.551489143768571,0.938698170075747,-0.715619581475952,0.907463897221377,-0.749775869058005,-0.590121228613319,0.09285144955738,0.625545975831138,0.33125260612731,-0.323209256068715,-0.73295768431227,-0.507683037538033,-0.475659971356084,-0.0657050578128816,-0.224184583819031,-0.029613779218324,0.228991513019382,-0.0872753675443349,-0.868455432012692,-0.783693775771603,-0.219451383658534,0.805017018095774,-0.0627098261060033,0.783553204751531,-0.371848114647591,-0.291983638635422,0.706273492859718,0.635689335921982,-0.226585307054822,0.693845786497624,-0.0567805316748689,-0.00158908834579959,-0.11199153514821,-0.0726469503332416,0.645811946838533,-1.04731465270265,0.432169139975577,-0.556862301684528,0.0107186053352598,-0.344889376160106,0.0569651938618392,-0.5946815730935,0.920486380751477,-0.805888837810219,-0.346303891296549,0.368402135297426,-0.401659284787218,-0.722837739312417,-0.457602623270106,0.962518732151337,-0.399330417691048,-0.468677057296154,0.0780566107263727,-0.878995047754895,-0.760018069532301,-0.437341252304029,-0.535684448389538,0.394477638538864,0.376972628095805,0.606926120008906,-0.0262398254302905,0.112015246642762,0.132518638627674,0.467416326538523,-0.146489729536942,0.0230502904785773,0.179432224713338,-0.386245473560516,-0.601985800040097,0.0103328318840681,-0.361532115911633,0.178032205731813,0.493095268482401,0.0057145595136092,0.188781641864196,-0.220273293253958,-0.00664988540632679,-0.27508944543186,0.562795948811051,0.402826719986722,-0.711556172331662,-1.02652201105203,0.309005899779959,0.301492980280759,0.474457568647964,0.0927919889538432,0.866190168680249,-0.627605134305857,-0.476378074209675,0.426960459584843,0.0438720267653227,-0.278095037631927,0.211190069146361,0.684779764891845,0.588788549806664,0.708163305119851,-0.0186172380564038,-0.328650176083551,0.276064231172475,0.56028001503469,-0.476242667794896,0.488537367202548,0.715794191412734,0.00264993701393915,-0.0196349147243676,0.616657275856245,0.292913648117192,0.451963178324937,-0.134931711050128,-0.10217838957748,-0.241113096449199,0.295573994952318,-0.660336254541445,-0.17884128077492,-0.675856797088366,-0.473483182165431,0.767378102559889,0.220351936749895,0.0847939591857243,0.635758450444503,0.0937242762796639,0.31994492767423,0.479787657850278,0.188662756949534,-0.0281917923137092,-0.0841942682078099,-0.775150000312172,0.911453168343135,-0.103995732907731,-0.18375200856925,-0.816554824505439,0.0152492470268973,0.659368044471573,-0.275125673627575,0.260739918704645,-0.563439725128498,0.267234645271286,0.383747185368984,0.00996604403514474,-0.612720048988948,0.687107202491495,-0.534096214943551,-0.608397351627972,0.230575358278819,0.215451262275397,-0.00458540649396656,0.13297239999908,0.244914293866316,-0.327587484115656,0.127428907887211,-0.229313271314738,-0.832683185387082,-0.296390410407978,-0.13855847730122,-0.645560296539505,-0.712179384739992,-0.410582336728861,0.303083992472507,-0.0390949316004125,0.115919875887895,-0.805272701684371,-0.756070618458522,-0.307201335023729,-0.362333016037637,0.785257797460259,0.25055884294013,0.289795046082399,0.805245160091664,0.0568122158772437,-0.251012371509782,0.744965051619881,-0.35582743752094,-0.765173517551824,-0.212451155054289,-0.35055926643186,-0.463894891991226,-0.34590800402568,-0.157332485108497,-0.969450186967221,-0.477157383011639,0.326841468001218,0.924700196698492,-0.544359337167955,0.181003084046079,1.02790740732498,0.105890518105325,-0.400513184498297,0.262938141228381,0.0322086200478169,-0.757088760028931,-0.0439780892891406
