-0.78890755285689,-0.630737991200074,-0.0175926229380827,0.101065105964756,-0.808165848282072,-0.739848749352289,-0.395547730095884,-0.820446650474248,-0.222137647547052,-0.435739437432475,0.183464984022708,-0.669694410102393,0.266832145058711,-0.632731748967191,-0.814005524218627,0.831768991343001,0.140764455621837,-0.18875034702544,-0.65160778086007,0.10513983124811,-0.797254903873906,-0.636109338936497,-0.722691756640388,-0.261489941218119,-0.307115797007949,0.868820572593018,0.691808967003788,0.606043876492801,-0.676577758694522,-0.251254711159569,-0.258306271818307,-0.235944087890126,0.96145078103853,-0.364689309026077,-0.814255548235534,0.444181767883882,-0.937311579423148,0.743103093135495,0.732482566325364,0.921191795261171,0.554934304881776,0.182796103970734,0.980221013626012,0.163005301417594,0.0472467553746092,-0.401057230617207,-0.608077580520171,-0.0152366855882503,0.317888144233445,0.987965898262373,-0.330760691643117,-0.55506327273616,-0.278763904785015,-0.816787473940431,0.249768511777618,-0.210772584010439,0.774725878268,-0.153173937338061,0.773982453175136,-0.512378468227685,0.40257111790562,0.785907165232891,-0.210227204813029,0.156240577667937,-0.812447537610471,-0.499886807713505,0.187542814502717,0.0344401729501372,0.819153345933619,0.318648403396645,0.00348727577764084,0.2696052895574,-0.82997127614748,-0.923612599571017,0.485670064782312,-0.353876491390223,-0.853675925711831,0.848942720453066,-0.891278900260105,-0.864114829089612,0.14154503745836,-0.122495240958519,-0.93938227929036,-0.90496693833074,-0.522130580802907,-0.746845911940475,0.260657629310832,-0.0507129256461519,-0.780005610315904,-0.122685448323542,0.806263200916067,0.130108209107617,0.47071009096979,0.953533023534535,0.181354736612325,0.00535660114667693,0.0631873946750667,0.213923542112267,0.529446891658759,0.204677000685811,0.445076778056689,-0.132761622364525,0.300070212070201,-0.646609110913052,0.75165684378045,-0.494793760175609,-0.291334146885562,-0.398505204955399,0.934303456230077,-0.613360728039761,-0.804271154053191,0.395363836726117,-0.809199353640254,-0.601227244483225,0.214109939470586,0.417379722903113,0.775111794576021,0.205283040831268,0.731814282953453,0.348524216897523,0.569997011953179,0.0647104143169923,-0.991105127664562,-0.593087161168795,-0.134556979321388,0.131724258810267,-0.22313172858699,0.292857308381908,0.22129451498866,0.47164381916646,-0.651675656690027,-0.173865464456362,-0.129297447659706,1.0848733169164,0.801400396439852,0.785473901250506,-0.127149143028099,0.492311939175923,0.918284631558705,-0.251799374224573,-0.724586316851825,0.0191306631350241,-0.317749726760099,0.698805654421045,-0.531795413382915,-0.518047914165286,0.0195423664781194,-0.881582591294401,-0.543387955815243,0.128270045795035,-0.777848227510843,0.319081857662885,0.779515184114428,-0.000845898632088047,-0.528045455799365,0.490705069691775,0.932516946268175,0.310351975791926,-0.159531155308424,-0.162633401991009,-0.595174556461583,-0.110308926572863,-0.101109497744845,0.641131243964951,0.419973849766758,0.142662061189371,-0.75126363922319,-0.776477059207194,0.083486484025289,-0.0220310242063823,-0.0167927448989816,-0.881905947827183,0.0800956727838535,0.177954245663699,-0.0361452415449761,-0.585950500258407,0.511094683523765,0.599911305775706,-0.41726148722421,0.0680185969870629,-0.480230470376437,-0.614630753686357,0.421738512761973,-0.836446684080825,-0.608275074677621,0.946186033164268,0.0913723762816051,0.197730795920952,0.8544107874488,-0.581924899576303,0.702801743984014,0.690172901812351,-0.516674194244829,-0.732655237929375,0.239605141710052,-0.664405842957158,-0.830399956083606,-0.363766590141845,-0.0694519213486083,-0.819873060185474,0.459817709615903,0.0302145347366772,0.875923171518461,-0.452450057871349,0.844666354459046,0.217938348502827,0.50523681084388,-0.245688771471137,-0.0944499999917785,-0.764299625377992,0.760335128160815,-0.110819585070761,0.267197878033091,0.356189736949506,-0.428433201643955,0.0502580269499287,-0.258939510883309,0.69746319025073,-0.80762640295512,0.986099034178527,0.410977594030287,-0.866989408234957,0.779749749712271,0.63881080005423,0.404143283325889,0.778816037428073,-0.00835238323430253,-0.248620072990143,-0.755892643259937,0.936802243806892,0.640267607502359,-0.999859478698072,0.227074857911278,0.313956785523994,-0.20609717149038,-0.0648386768336334,-0.261900843696143,-0.0361639168931387,-0.946480321415708,-0.282034172618993,-0.757184658536637,-0.914482995113986,0.0965024973696462,0.295932206112478,0.524056956803595,-0.486161448975807,0.504450293935367,0.405639917983102,0.00752904358871009,0.778442466813737,0.560858152687827,-0.0355121638171273,0.452684272274394,0.300874113044385,0.978162591403713,-0.696385506682396,0.745168041449018,0.135710425373312,-0.75969747755062,0.930895988894426,0.66504067453547,-0.887692148196932,-0.444223484992962,-0.180740028073783,0.253617533138399,0.829051248008387,-0.198765817860259,0.420549881688853,0.948625202875109,-0.12816046043735,0.270763887393611,0.803110096128934,0.737948820542719,-0.71452667899398,-0.592339623874743,0.233418361994339,0.550058375243652,-0.507907562311431,-0.26109557962119,-0.317593448451573,-0.0872209950522025,-0.654386346811038,0.491211928480853,-0.807492451474625,0.786779036932501,-0.83672988479057,0.572227251925183,0.699182739555439,-0.0982452394225894,0.213025959667737,-0.289580599007601,0.513722208576529,0.178881714319491,0.218607914595319,0.68528690698131,-0.0860241920539482,0.766388872376934,-0.0104704676187633,0.250104481503283,0.11968518249462,0.4428760290718,0.103404148382651,0.568882826222847,-0.101970725937071,0.81206261911702,-0.826825901621792,0.99787471117074,0.455162186225288,0.108674196787089,-0.714351735544144,0.688693477641839,0.447805048454106,-0.165240620821978,-0.470149978332995,-0.370584842457272,0.174376399947088,0.366415836011661,0.743904322036922,-0.578282547308311,0.0132690312958526,-0.100417174211495,-0.523193940715184,0.515456399522662,0.589019823162606,-0.206065470654963,-0.415563661546628,-0.0472850496764089,-0.443584939150698,-0.642983671413831,-0.217153292308427,-0.397835157788487,-0.393056150234058,0.342483820860043,0.949731790985397,-0.627328941798597,0.819033828996605,0.0629534140282514,-0.701781155459238,0.219958175074519,0.295671870928777,-0.336206144997072,0.0398215276499856,-0.945434137674145,-0.983254057398645,0.5970486705454,-0.637300064305267,0.336038924806402,0.43324477160416,0.566733802628714,0.481549685607633,0.775823166739725,-0.228838468476867,0.996016985958058,0.00925367609462919,0.170910612712135,0.853540230571451,-0.558622259322238,1.0838220023682,-0.650811916722103,0.882120364111793,0.861235715446739,-0.576366696250689,-0.852820316885955,-0.416300761504702,0.0253659132362903,0.582894415949638,0.207518853105378,-0.386509510488823,0.0880450844997217,0.685558168888107,0.252265447262263,-0.449242515741536,-0.000734437005150488,0.77680100979121,-0.510121571172699,0.63908128765006,-0.63761624190074,-0.820168513563753,-0.913380051647331,-0.967805637311794,0.973181513519128,0.735106150506783,-0.900629265609625,0.42461000348896,0.786606322561751,-0.56287470536705,-0.876347162970911,-0.0522646908040601,0.313645381902648,0.211678988079154,-0.0111436270525372,0.828740449628519,-0.96783963828674,-0.00275530123987439,-0.622247691424475,0.133576563563535,0.239738866660509,0.356820190212355,-0.588229356948616,-0.322711431083286,-0.432766558136636,0.233129478932427,0.113253116127939,0.377816090154629,-0.68660259043468,0.311764476741429,0.54577699565002,-0.32610831919863,-0.207471675165264,0.370403603510237,-0.501572322052333,0.843508772304036,-0.74300996863596,0.108928528687032,-0.835120921569784,-0.458261718727252,-0.338681988211004,0.779356445266036,-0.404994076947135,0.11635898343284,-0.118504030088246,0.735282261274632,-1.12254305929265,0.577030750948914,-0.0252595254238516,-0.8899467709763,-0.011247939923364,-0.294873889484806,0.0212661464390385,0.233896709361423,0.010740480093389,0.512727771693414,0.941933582797405,0.596624584939097,-0.124547165825012,-0.811291981447008,0.746518391641851,-0.243247396982076,0.354869752625675,0.558781607785249,0.608472559674256,0.147912903808701,-0.361808380548901,0.518450179036555,0.227711644245562,0.0503321492617244,0.0136387895257747,-0.14319003875367,-0.698201999676863,-0.446381676229605,0.782341538405105,0.810099161147019,-0.0611823808590058,0.164511712141723,0.434098199895512,-0.690363231383939,0.11128107235028,-0.632966635614798,-0.894857715825308,-0.823336539174061,0.813224048091579,0.13346675155275,-0.699286318659926,0.277091171665839,0.211629154927418,-0.390007577931605,0.310450281943056,-0.162661757122807,-0.544492514651391,-0.456286034990761,-0.208447158567155,-0.967988936790759,-0.306554442685572,-0.018592624726763,0.14898739446336,-0.838199587185869,0.0778920159048198,-0.138083388392017,0.26619091419614,0.512882318691988,-0.583214697096276,0.818922016970101,0.0409186402042348,0.778554132180711,0.240557444791981,-0.655576574470574,-0.899396657991043,-0.96989844403592,-0.605959952751954,0.0495857241830644,-0.603789337491486,-0.923857533984241,0.041785260932789,0.807061094544615,-0.674277747372712,-0.80047938322228,-0.787606273298137,-0.844470497073079,0.427335986072302,-0.0867124562648883,-0.0217122341148433,0.210287198148607,0.707515779932768,-0.703867869237522,-0.419489484827665,-0.88511471611964,-0.699992226737196,-0.773716829278845,-0.570037934165486,0.407140456021084,0.747618868186564,0.0544841246293449,0.633511795965669,-0.589969964393978,-0.147932381905583,-0.21630381142066,0.36601659792565,0.782643360071755,-0.592917650199881,0.502575381196742,0.00401528363189746,0.464233199104099,0.626269701512543,-0.519352546065188,0.852637601686225,-0.806163094045322,0.140877382753831,0.780904572422211,-0.66932274254139,-0.10968725603936,-0.269414400561115,0.00111274282882374,0.647410480173912,-0.385186049176782,0.242701584791257,0.937387443971057,0.656941262834194,0.598160480137118,0.785568410904429,-0.670136042821283,0.363613127262685,0.370527231138956,0.678220604390431,0.224911662033169,-0.34639585947598,-0.665935254161637,-0.697008379561727,-0.422259103670155,0.669698560932363,0.709207565108502,-0.10122673510682,0.977072688573185,-0.955899965730613,0.714359866172557,0.0593835741056315,0.850083148841012,0.836246750352223,-0.584788966267268,-0.293249458287816,-0.972067140671936,-0.0743379024760441,-0.129416189426632,-0.361276044629572,0.833605784830384,-0.0178003114622824,0.420474805788652,0.280472201137757,0.659664935004781,-0.483929311377925,0.530154749177134,-0.178991791321782,-0.842546202836256,0.730611533160423,0.914619995592571,-0.76233007722642,-0.0551061882733415,0.473500369884197,-0.76614716502898,-0.910040063962886,-0.108092827640996,-0.683823175403402,0.846640284576306,0.853985888274988,0.867171111624429,0.891191922319732,0.391348544277102,0.410073945321616,-0.325809737659725,-0.824510540290104,-0.137845930387647,0.0859747047486243,0.0803241478379892,0.473150285692965,0.232091562176512,0.91415597844798,0.202479308659344,0.776346481928181,-0.698366865705314,0.627096449463845,0.963275683656956,-0.537513638132158,0.71257059801816,0.304432422567399,0.47270479681604,0.400758615138119,0.433883740822917,-0.00137540020326492,0.516383502687407,0.0196727913609112,0.745933830836038,-0.758940147925902,0.700211306014394,-0.652187655416891,0.495775537943192,-0.0571164762466173,0.212127364468528,-0.237249388678091,-0.171684291769178,0.409801527517314,0.916278869676462,0.762280358652439,0.113946111470664,0.935531517631175,0.234654576846192,0.531096041409722,0.812077426287325,-0.54686881901906,-0.780167654496443,0.691448824899946,-0.151060026840745,0.468993655340293,0.937171820031302,-0.406935147661848,-0.37386739979315,0.0819176241757718,0.171194517371689,0.236814361204464,0.224150116735365,-0.692616209065189,-0.164984689175619,-0.135008399087117,-0.854925851121921,-0.527713168257231,0.930978411264913,0.80017355998613,0.382744582859392,-0.704086125283818,0.111789951234017,-0.935654688813494,0.307421739181406,0.537081959392015,0.922702922442911,-0.676410140391949,-0.472337999108052,0.574277674007043,-0.0311951365287213,0.0662137513387253,0.772526680499295,0.986947941590021,-1.01972749290773,-0.29321401111837,-0.0084916089034545,0.500560254746714,0.866162101289701,0.390286184141932,-0.418919636920883,0.873966142666585,0.831879792815774,-0.190477393614001,0.263808233231581,0.0911979538522659,0.958407899536993,-0.220054303841287,0.641031126692418,0.74518761559467,-0.24789188500025,0.453621766794028,0.855341996312782,0.689392447253777,-0.837095312711656,-0.917145400634804,0.102215380818318,-0.946355504265702,-0.678590337296514,-0.995469154317665,0.604296029841108,-0.61834117456573,0.799685889100233,0.512352074175752,0.638179447891393,-0.16238885634887,-0.349315431858961,0.363216655051197,0.717031338221922,0.730157288002321,0.825083191664652,0.687173523465073,-0.0416301966462095,-0.0281302344414199,-0.735719712369996,-0.104142668652339,0.299532212375856,-0.866146837962477,-0.266908896592919,-0.516117421470785,0.169276832823264,-0.112814722269223,-0.159341320449969,-0.843253291195593,-0.208561313800272,-0.529625822843867,0.443050843159446,0.2726912312081,-0.761141498887481,-0.635324964824317,-0.827541440079874,0.37332849427999,0.107792412949621,0.642253608980496,-0.823820179168288,-0.510599221508471,-0.821823248627437,0.178498125310801,-0.446674388603477,0.399556654718187,-0.78151600512682,0.0562571611859005,-0.983387801104027,-0.797388624053943,-0.0780590178967616,0.447697386853068,0.207549530968305,-0.668648282897598,0.392856753396078,0.310174312448823,-0.393601788091737,0.615969037236748,-0.494348370068734,-0.559747534153241,0.162574671987656,0.781018603066068,0.693142242506673,0.0705941338283266,-0.995424317579944,0.868345980127152,0.583355883936584,-0.123415256151269,0.902423915162006,0.39149598935731,-0.365302748653088,-0.663110552093874,0.729161490787775,-0.31988433744744,-0.388314759106114,-0.199653158303984,0.485127543012265,-0.690634589488488,0.376580696841308,0.262888616781119,0.602627524364066,-0.242906139339548,-0.826835041716442,0.715178177822936,0.283716798239125,0.186456416353766,0.508888258215215,0.4619455669966,-0.0462613225668974,0.57757203820983,0.263184820768933,0.0455638121736372,0.353804602877949,0.875513635975725,0.158972132665858,0.720917698386287,-0.629970507048346,0.554946743448815,-0.598613280041588,-0.164379094312325,0.707957247809064,-0.18308499785699,-0.961868010421355,-0.594060141024182,-0.92228328910319,0.34160952019033,-0.53049986050484,-0.142669875023579,-0.600041753013035,0.731241422573704,-0.244571672645805,-0.579531935877143,0.514630377656951,-0.951060033355853,-0.908004786945331,-0.0307368100611794,0.774907800476582,0.252258203327543,0.198819625842482,0.191700020063133,0.816105495302108,-0.535437123303435,0.776234788785711,-0.907081732924156,0.549613176165247,-0.945862563937387,-0.19955697531981,0.132983554395624,-0.606409439233948,0.493515895535747,-0.587582977619537,-0.669612240492265,0.174399950762764,0.773008422163523,0.248416578188796,-0.570203249669144,0.78733695212774,-0.259768233494654,-0.922665533393478,-0.553201521213162,0.87542078717534,0.711605943619981,0.164937337741008,0.109424501864332,-0.958512691207956,-0.746275773470348,-0.577582921812333,0.650607666810951,-0.179532604977127,-0.390262844153172,-0.523732629813794,-0.355598475101025,-0.0776851130780119,-0.558969941300984,0.132226028337782,0.326422308561187,0.335987138193824,-0.252971124846689,0.745821856338478,-0.524642411720823,0.503543423592607,-0.361213695023945,0.639442653170192,-0.381348908647536,0.417340567456302,-0.198195175807213,0.604427200555535,0.509927754249394,-0.141072154765206,-0.202174686257989,-0.277671078243571,-0.140380446094608,-0.320777761320478,-0.859490573361765,-0.0137052080833808,0.214988141317437,-0.480495739175937,-0.186712488678539,-0.731969359464374,-0.207889513674513,-0.457819514232995,-0.866356234846806,0.605679489427396,-0.649429773842415,0.471198378272879,-0.682202664990016,0.790087899878799,-0.099224298754156,0.660260902893489,0.420894593812818,-0.0183747044472702,0.138042178479617,-0.301422375984077,0.13100857462326,0.609680186313917,-0.445029677594861,-0.376623976532392,-0.314193015974403,0.823648943287391,-0.813361699715787,-0.584643747721782,-0.352764648346009,-0.288352283933931,0.44154996563456,0.782801614200151,-0.867941039760195,-0.842881637302852,-0.847019498604041,-0.628638834184487,-0.94742144054544,-0.0783102977962507,-0.496177215640496,0.823491630318552,0.352031589214173,0.0235634602498637,-0.866661469958978,0.067620391406927,0.339373205696622,0.225477033757776,-0.160629838400377,-0.76563646064917,0.60944729070775,-0.487515170654666,0.0380906985608568,0.608265344378803,0.0185412946767316,-0.39459999330663,0.735291585379235,-0.885211363776828,0.465767196374669,0.801765668888334,-0.0719132621022291,-0.0612720598778262,-0.710121542090895,0.93595558200661,0.756399574892743,-0.0159980555633377,-0.185846933712012,-0.724880556058542,0.851062301789479,-0.991330336227288,-0.627223187539684,-0.354370846717957,-0.878165747688621,-0.709332890129311,0.45628758294763,-0.0375766889264331,-0.310915221880594,-0.519170385252458,-0.0981917742735026,-0.632602385942936,-0.342402403088673,-0.472059261970563,0.660196700305653,0.387025175697674,-0.324589354847744,0.160464983609381,-0.423900124050406,-0.482892711269995,-0.476291759889314,0.334371314071004,0.0396530984337071,-0.869570518495329,-0.888309489930916,-0.462512615243407,-0.119438756221245,-0.431421767199785,0.357535699851115,0.899159095344755,0.54787608350907,0.272278017291587,0.487632860468734,0.480653823528691,0.172062307317267,0.546112671415381,-0.21502348345947,0.215285505916883,-0.49491692813106,-0.432167400847536,-0.961334806553629,-0.304203369373458,-0.677844859449231,-0.176930582655482,-0.695786879840069,0.696515159105504,0.401330006883483,-0.720044921720334,0.588346407734935,-0.545776781618789,-0.812797515319957,0.312715462371352,0.933425945687516,0.64151903921949,0.222415095754951,-0.362342351295768,-0.439009169459784,-0.131246282240048,-0.2730606987205,0.765028146648016,-0.93151939418377,0.378087406778678,-0.323873785168203,-0.348294170454386,0.296201399270261,0.912783181054605,0.786147562191304,0.867629088122402,-0.812248813543549,-0.737126451823629,0.962478105653949,-0.855958284214705,0.364739110687534,0.723763805350723,-0.71611833611644,0.725092269265184,-0.894179638204296,-0.405777876063231,-0.52324844644352,0.913475360151786,0.666619887583156,0.589023192789889,0.793260926774032,0.451177650592242,0.653200342223706,-0.279774975322556,0.367919442921539,0.220550982368976,-0.421632618795933,-0.243839651966297,0.634043230754857,-0.935498039117405,0.388232905527109,-0.584287678498071,0.673049847203811,-0.56353547253205,-0.940259655965548,0.238214286979413,-0.792370434697788,0.598123607179273,0.820029567507475,-0.297121794759039,-0.415493532897594,-0.83108711729747,-0.0119771293052316,0.971667945345109,0.445452759507434,-0.369224051356475,0.208999374088954,0.561045128556804,-0.740431477131902,0.170350158683967,0.691341805180413,0.383053207797795,-0.429330058775593,-0.313188324894269,0.138744318504292,-0.914206235453746,-0.268225199885025,-0.518606748982702,-0.0323073366185615,0.598003591097351,-0.35048645116308,0.139330167863082,-0.799651646913747,0.848189708907724,-0.607635093770114,-0.131914039252273,0.321313166211439,0.506060638411762,-0.653861175215808,-0.0188132250744539,0.96682035218822,0.430399200590011,-0.826114179127261,-0.902371069530278,-0.071292113745791,-0.124743358669217,-0.0191313630247622,-0.592416651830439,-0.234536333320164,0.628189731955765,0.492649217902168,-0.141222359557117,0.801415146043426,-0.81138625245694,-0.648929143971756,0.876663151724648,-0.794298788355584,-0.105010405115337,-0.358553027697388,-0.82204864515569,-0.610783989125834,-0.258425924310459,-0.457387669427718,0.401143725875173,-0.520573644129355,0.919444311798233,-0.38025360206774,-0.690169083573831,0.119451631398289,0.621023443508398,-0.112255412824312,0.9673322073669,-0.119221126328605,-0.480942361166602,-0.491690262858023,0.787331734707138,-0.550950830960503,-0.187091489872301,-0.550168805693573,-0.459950661969009,-0.163117041994822,0.994421253854213,0.820646931831424,0.0995524690775916,0.19267163155276,-0.841709521394185,0.153272074781097,0.795451067686874,-0.07631419041125,-0.203457020092339,-0.790453135683186,0.304643735032591,0.983400010707203,0.356145631946588,-0.143473020595239,0.309602643151756,0.178259609088867,0.489310696735692,0.281740576339532,0.0070334337943053,0.876082951610388,0.210687161242969,0.277847496359404,0.405936722191697,0.721898178207674,-0.240952193800909,0.424976703505278,0.0468109220701578,-0.272109359660018,-0.130598951295816,0.375195243065507,-0.546045988693366,0.958111775257578,0.950952181517733,-0.420972397839703,-0.323560188272961,0.992889330076468,0.577941053890232,0.589843095937833,0.265034469906632,0.623172810855424,-0.104329948666531,0.661227105232854,-0.745642847413604,0.026536255656336,0.432275711342371,-0.504784903681638,0.0638006503379434,-0.235580634126842,0.603522485946071,0.340949473700446,0.965718369189335,0.874848109957137,0.152317358783031,-0.839627625939827,-0.173848197783269,-0.638309951055533,0.992350445016746,0.0394573767384194,0.772177927302482,0.296503042861437,-0.0674928192640394,-0.735780599062194,0.933355577650068,0.235950827411655,-0.779565262833186,-0.23792290710591,0.842559338148703,0.125667447558563,0.0869325890030832,-0.131828750470084,-0.649805464078213,-0.557743236022563,-0.454259380616766,0.00329827490902295,0.127623751289257,-0.165701001411167,0.811360644600277,-0.345097646435457,0.282302012017428,-0.385657069570718,-0.497933756541361,-0.283633780248234,0.569376082965254,0.0806802632549025,0.147350203861969,-0.537716517236429,-0.787134319077861,0.27865681002677,0.975627138673307,-0.792652683950453,-0.616418328062893,-0.943252735372267,0.584389841801936,-0.0335352718960259,0.0221255137223684,0.8652479554577,-0.129610021217479,0.0686089882606702,0.476088944709307,-0.71401253425121,0.0188317315149282,0.0164087044801327,0.709935144171742,0.259302273242002,-0.64903824085242,0.196281068622235,-0.612680219529404,-0.201948946401313,0.0451429032116858,0.652296875910943,0.318077004762223,0.571285618336438,-0.747065777847863,0.027278409211385,0.798959530286352,-0.856847283506138,0.239630644181597,-0.838307977301134,-0.185113885441048,0.423650028988338,-0.759908196621465,0.535621726776158,0.370963459412218,0.79207486930236,0.290923361844235,-0.168494133133787,0.354854408052985,-0.045016247953553,-0.740294828694374,0.167394120609089,0.789063166519188,-0.0239284416006836,0.219170558402971,0.196056906089821,-0.550912796024866,0.321091985890373,-0.656044868706396,0.452071808149574,-0.599723325574978,-0.658795744230882,0.451505521909087,-0.668501418245188,-0.665215169718464,0.234396580144869,-0.496222622921259,-0.469161403998245,0.643267676374016,-0.205139722801232,-0.75974560949927,-0.612291398384708,-0.363898498374097,0.701910938053505,0.130442165841673,-0.491782935077475,-0.285289680640874,0.743700475318353,0.814919333009634,-0.0959615025491077,-0.535109072494891,0.0751974922296105,-0.49088579876829,0.742925656673852,-0.39702466349118,-0.712508018483362,-0.946554261736876,-0.283889291574553,0.0553414952012411,0.66329890950041,0.619440616094837,-0.95332711884852,-0.273219797272882,-0.0162602508640679,-0.179377512401133,-0.907184122070315,0.243985492925635,0.154177930466022,-0.402761198853334,-0.147538323404271,-0.726733935227219,-0.326238089716099,0.545425550297366,-0.929394940105649,-0.487222298734838,1.00624021992183,-0.00766824075344101,-0.68731104205555,0.606894341597758,-0.945540925304721,-0.716238998525251,-0.424514991760829,0.536457961050857,0.770722365860954,-0.41553845840278,0.260664073989987,0.477263848374617,0.849495577674404,0.76065326223908,-0.272261673713831,0.82083659119186,-0.245754215680509,-0.654082105296669,-0.323239586043378,0.328104819319823,0.879148997229078,0.875101282758286,-0.0426184660308441,0.872865645751343,-0.202561124029235,-0.947696863329404,-0.425456630270857,-0.899355821327141,0.73085402462633,-0.134478392675075,-0.814382918865788,-0.786200701219181,-0.498546073548665,-0.533841303127571,0.552961502989518,0.467045977078079,-0.278119506536068,-0.138887372844781,0.188724582152585,-0.00446055550068666,-0.320719759603883,0.706204872754603,-0.416189892452422,0.858351772005619,-0.352996319701328,0.366130817660857,-0.378684864569612,-0.970538009381974,1.00141875794491,0.0509405535268177,0.392923396267049,0.272276482129723,0.501746526536678,0.806747477330339,0.48026658522046,0.692421620908764,0.965195426370587,0.537688207250428,-0.711466142562324,-0.34738948790374,-0.78977916986819,0.366544556477958,0.917513843912087,0.432756477130275,0.512417435373719,-0.590188643154388,-0.319205604270516,0.0196575575060068,-0.134825756967627,0.661098124865613,0.540985934437595,-0.29310673568698,-0.0942753629111414,0.263359748166613,0.102702350944863,-0.78794143885228,-0.956095561633829,-0.746584167490981,-0.564521484208867,-0.105755896373637,0.0044743204383042,0.842134852384946,0.346715803458905,0.855157675317563,-0.892524404355183,0.273748372384378,0.751631425960923,-0.422659275705834,0.972486993444299,0.819225796766064,-0.64608592733947,0.3941146622776,-0.650277548774927,-0.752486779584836,-0.371774663961617,-0.340286484125452,-0.240564427842063,-0.461747603810922,-0.322656694371138,0.579509895670787,0.875339641049803,-0.832158769976417,-0.419980275064938,0.234129200245418,0.727209853928055,0.634384136950548,0.136714507618516,-0.842332257959577,0.406581989133814,0.697976996795861,-0.855976603949223,-0.24456591337714,-0.621056278326733,-0.0475368201483671,-0.305461357852365,0.898858405832363,-0.740134096771158,-0.676534538834599,0.790920970098499,0.250074477562325,-0.203675245779099,-0.269066737160024,0.280325045340136,0.466182451090551,0.455139259608852,0.944976661907739,-0.908091094266758,-0.188219028271692,-0.964979829603896,0.377532618193875,0.524832383177337,-0.0121703741926949,-0.957331109745088,-0.907597097370695,0.969143784370903,-0.60483255899966,0.676289088156458,-0.348855887020784,-0.0876476120071799,-0.693244941322881,0.487000251392886,-0.0651324220059129,-0.549248143180835,-0.35295227947376,-0.0494143257638955,-0.274028169205664,0.480821636914763,0.465365645755916,-0.977012613391961,-0.869975319564951,-0.036218611682747,0.55522634973555,0.616567335200148,0.177402006417952,-0.29145406278701,0.776159247804461,-0.488868254967716,-0.792163249623921,0.454302358157292,0.425991748805265,0.793844561811404,0.612616650863644,0.856736935146264,-0.0947925507343366,0.871954244828635,0.92854611797593,0.0428483452655586,0.707444671115764,0.701046938774839,0.837793490416703,-0.118333198735603,0.333979760528712,0.895640268421163,0.621401421997791,0.908723835354245,-0.0455712654355411,0.727888791554416,0.914624978019703,-0.16143537225316,-0.545484631997879,0.646330821644829,0.266902711718632,0.779125255633207,-0.0849731083888029,-0.514708905020048,0.368725372094176,0.796913880362845,0.234149580141131,-0.392413282118356,0.00665145918969255,-0.185089315129267,-0.858853773355354,0.148386874161341,0.813893249147787,0.0417642853345926,-0.308705821259309,0.727655818802692,0.406633759899563,0.387608407621215,0.218174076194263,0.117027052876994,-0.271752121214805,0.0911013609512532,1.04424793282132,-0.0653437732785365,0.382109057426326,-0.0488047715208348,0.439782261392108,-0.557365280730581,-0.352020398306775,-0.589925897667701,0.509071774810907,0.708590836623849,0.550038629437864,0.281897738597115,-0.736969556283835,-0.104447699414177,0.655844359708239,0.616820053659454,-0.194020133650376,-0.455809277076064,-0.694689260176793,0.38270507861304,0.0243195751820316,-1.02454026533754,-0.162017254542779,-0.224482990096991,0.600131851950373,0.585074505797746,0.263076424595072,-0.725077162564461,0.0732387020637021,0.53078873266479,-0.198812847636456,-0.528417710205555,-0.456822444042104,0.938408922622271,-0.0384872609865903,0.612394455101744,0.17251271128595,0.688474073802433,0.892786592310677,0.200499244811718,0.232316770928444,0.293126662608621,-0.646145022668007,0.911666294159959,0.744194848464948,0.375983289525346,-0.372689538358312,-0.324139824061742,-0.8475411137299,-0.0435812252214505,0.169352162182833,0.454319920868917,-1.04647264001819,-0.660817946813771,-0.0818472867081291,-0.0965237464949719,1.0255173214281,0.81915831733568,0.795496917832711,-0.560106896949342,-0.68079197518203,0.150907346085989,0.162541351307299,0.421411842440451,-0.362276169110585,-0.233654786090344,-0.326228347829785,-0.742013917479129,-0.833778721445702,0.0903595481509156,-0.362547235874397,0.963138419582981,0.452124232703339,0.14420278021158,0.43445434326431,0.978200330997477,-0.164083610177858,0.831470133891778,0.78751771005412,0.670457134951826,-0.897368962899032,-0.280784705670279,-0.408938240698571,0.258251236462432,-0.747396218775497,-0.286231018116737,0.729563396419646,-0.487749653792872,-0.954864861445387,0.981767211827785,0.193236336803924,-0.511303776116952,-0.119324220290125,0.437419310256935,0.107280140472784,-0.128926884459136,0.174317119092655,-0.615075519896616,0.617572278193185,0.63716888705777,-0.026585299162868,0.51572684872346,-0.13894625904701,0.451469884550155,-0.688468419389472,0.0181465580598392,0.337115801708512,-0.731941532504361,-0.874607971572958,-0.325770234311689,-0.108112039052717,0.514533149766183,-0.738932842096741,0.804067542548885,-0.559419874533549,-0.242898525178671,-0.154488223253321,0.945372400178153,-0.649585245364625,0.719235266107567,0.111574499781033,-0.357016184557297,0.806018113388871,0.103967262151155,-0.108960801516443,0.615031614024065,-0.324210977317054,0.854265941278021,0.240818637965857,0.606464601149746,0.362927842710096,-0.559026624403326,0.620285360684935,0.774732403310378,-0.898267388481719,0.252831521604401,-0.435024772958268,0.501943164933959,-0.0340795735835962,0.536685813068598,0.00659262718108912,0.242821650530332,-0.509122240168674,-0.319677947428554,-0.36566457778323,0.713341989155944,0.976871719767649,0.247243208260625,0.817514614316989,0.953171444753631,0.323167468239978,0.646741389659728,-0.050233246797518,-0.011691501180547,-0.826433577744177,0.621431474361878,-0.263863936070656,0.718161281411844,0.868807731731113,-0.0305004769224089,-0.328483425559752,-0.844873652138736,0.828154120042818,0.395466240058726,-0.157863803492343,0.849475081085812,0.440600976262259,0.345501847814457,0.0986545549858877,0.754112514986693,-0.848079546931903,0.017635585689564,-0.382205259993774,-0.622814130966038,-0.683966078493501,0.769765013956019,-0.858683409303159,0.915223293433848,0.330549860574269,-0.97598067222326,-1.00990987370488,0.770949863445236,-0.121052973410653,0.625481259193617,-0.492290163495988,0.598440315953858,-0.509149570649387,1.02598862765972,0.860278777598856,0.0922597453841853,0.735433896273059,0.226296274983282,0.575460540123318,0.155120745562931,-0.601652380512871,0.748685352654124,-0.0139469967748723,0.93422720688258,-0.230090624223237,-0.530368982008941,0.404084309091966,-0.381965459618758,-0.793545410467155,0.684377744819691,0.4150631103402,0.935772834984836,-0.20160669779267,0.559105162394548,0.634240995677369,-0.276582024082004,0.75364593206387,-0.423368334990492,-0.603677829605076,-0.109519801453411,-0.502647919035002,-0.988327523712168,0.158833023925678,0.24083659358047,0.268665566851897,0.355333136694875,0.743060096148808,-0.913762318668916,0.291224894193074,0.19008110800392,0.339583520240852,0.791917979209161,-0.466275415144479,-0.912632088377878,-0.317309850106253,0.507284508269577,0.0687094302830785,-0.00857456688500835,-0.525071847605979,-0.470874646664409,0.381789884513553,0.534425134873983,0.382430909333209,0.143433913043159,1.04043765853385,-0.151109013005013,-0.0132934999971333,-0.449200070649994,0.3181224277428,-0.185885815181624,-0.445659130244297,0.195714107605041,0.541224347597461,0.799597344822246,0.567555871024138,0.150864879108249,-0.13484029367353,-0.637762926216536,-0.628783936569724,0.416052159798028,0.708962780633449,0.239634666216848,0.687892687219321,-0.566969916777286,0.359284697208347,-0.386113897660169,-0.969926937503216,0.535903076574193,-0.0787690550162123,-0.884936907972715,0.761775002665445,-0.21687835049602,0.172403031093982,-0.495033655437957,0.253788185725293,-0.207250727483953,-0.0349373555108001,-0.22584349731684,-0.268038957126581,-0.463854577149776,0.513868665240641,-0.519236162106343,0.962251288111513,0.944367152629391,-0.464170150751843,-0.521286211313782,-0.427576605454107,-0.539382941189554,-0.508103833471697,-0.156809469330594,0.661372204302359,0.139561888262767,-0.645435481419776,0.583369504079402,0.941189123401039,-0.806805158338876,0.706061616082404,-0.631301849566967,-0.149704752521898,-0.368542838288234,-0.0817940647349847,-0.437703403911532,-0.715624759850759,0.342348799663183,-0.843079177067467,-0.641051861974578,-0.0320169509214142,-0.452778695485236,-0.151088549967931,0.120679991554339,-0.90171018113325,0.738144728857604,0.723656305007277,-0.829876899906909,-0.648776735178826,-0.974972809701604,0.207264499131276,0.402419485000025,0.479742007581231,-0.540584928706754,0.947030738278591,-0.0708339148784222,-0.866495218062287,-0.643081604431455,-0.25716917682898,0.822806824594574,-0.881798544160842,-0.340246981315867,0.28147864943752,0.744601021780564,-0.91462390844053,0.624152720925605,-0.905893902787131,-0.443748257846011,-0.568994780311684,0.826907622945902,0.210934190741047,-0.076726707904225,0.452001712068198,-0.799164250259749,0.700511542857359,0.059101350748977,-1.16417329178653,-0.674264171973295,-0.39360280202335,-0.922260339274734,0.196155902178239,-0.869867789953613,-0.0927539478072199,-0.0976046776156054,-0.2461938445875,0.152391959756579,-0.447713017709317,0.866153072733482,-0.822948332832386,0.109992662704565,-0.151521315755945,-0.260481448813,-0.916682076871258,0.384801844365651,0.10912748769017,0.533036892198884,0.579663592262151,-0.459430231732589,-0.479454676454395,-0.446738978876238,0.283102797119265,-0.749270357732962,-0.232383504052007,-0.899104360989408,-0.85795968357811,0.420612205027819,0.597867968502793,0.924971725344812,0.824247390546621,0.220018278024373,-0.718044580324492,-0.875726985444099,0.548253058150129,0.474301726917763,0.239330896609176,0.485617259792775,-0.551333337351831,0.589989612904664,0.904265056267803,-0.164314920749954,-0.525794425168749,-0.0518404254335143,0.291817868124908,0.733729026966296,0.872793346857884,-0.622300035662056,0.392271622008493,-0.715976149807072,-0.798351536448123,-0.71843514891678,0.0634408630549181,-0.122165837887891,0.0113467848683033,0.588335918646142,0.0471280241155796,0.280163120444656,-0.0418270860979637,-0.3851478427881,-0.440373311180994,0.933426748495617,-0.466624331001088,0.580134264659919,-0.0391305911856162,-0.358429469859179,0.263272036633234,-0.962260132915067,-0.871251973944388,0.741533581882105,0.836076658105837,0.526562973375721,0.823106082243746,0.36276343395733,0.489225393058719,0.308319610795336,-0.621569540093985,-0.0675299679777398,0.526373741308768,-0.993608884363493,0.111155194443318,-0.152083002175156,-0.937087788227919,-0.202079297340647,0.632504824897878,0.0908398848056676,0.43102641678396,0.871274803035592,-0.393353514695102,0.418954559103747,0.749965483597385,-0.13342818181307,0.0551536903222366,0.356881691972589,-0.0619770849892591,-0.462895077032401,-0.455740841886547,-0.176089152796689,-0.983461858962456,0.508138658055035,-0.830021338659243,-0.181523839745504,0.0571076658359818,0.221111962900718,-0.244017591179118,-0.832644141041648,-0.426372234925544,-0.817133837212616,0.420178208009552,-0.29251458444572,0.483080562674915,-0.00878054646002207,-0.208085645404649,-0.488591340291041,-0.798380873587488,-0.135366723016882,-0.413702844874863,-0.0407968390737475,0.574940799875584,0.365168479256668,0.674926539424259,-0.0548806558081383,0.661294826418263,-0.130000293347415,-0.418829461559731,0.224534703669428,0.131701952743991,0.0823129352897711,-0.21264748385537,-0.159075257467164,-0.67427823309174,-0.317014333121084,-0.959624825388887,0.883848220572199,0.312830713102766,0.685348711373406,-0.116801591039181,-0.207204308500502,0.214703120627249,0.222944623880043,-0.114168932133142,0.174100787219677,-0.814897441275132,0.664020065908454,0.302286993803597,-0.226287675856077,-0.372260908579262,-0.482973405474353,-0.825818967488746,-0.190793919933171,0.674668457752201,-0.53284847793115,-0.759375143402363,-0.0955312849618909,-0.775909512351558,-0.1947574695247,-0.810328899974864,0.352061096658799,-0.315314182625385,0.104461119037351,0.353941132425069,0.305002307553478,0.376550357965968,-0.412403893105806,-0.77447140968915,0.160125234702216,-0.425987682513725,0.702204660754485,-0.594222926541319,0.373539545631517,-0.279646030956384,-0.279708036789819,0.327058588886575,0.676289332562977,-0.414766767949052,0.852498047908522,0.492840859793956,-0.908659846736576,0.719531483258528,0.420598117326417,0.059877631657106,-0.424169126368993,-0.0794340921578247,-0.845354424676552,-0.083398137895272,0.126347314177908,0.124870259388147,-0.167714629553411,0.885859158290678,-0.238390557874702,0.897413054628785,-0.93975284212942,-0.00287046372472137,0.401418299741454,0.274929176918704,0.054070146793111,0.209626472228463,0.540826356665254,0.43329365878949,-0.338157438877352,0.0789517552391992,0.721705385185452,0.17389270746102,-0.0592904428838481,0.815519669813535,0.394534885852836,-0.810732007757513,0.106200007037375,-0.96166666911944,-0.0524351101231748,0.806386400657806,-0.983562583769549,0.915644236362223,-0.629280338501899,-0.38808357600579,-0.589521835294966,-0.77216216965521,-0.205157081296023,-0.451137337770229,-0.798283580230735,-0.012823299373863,-0.508001826240991,-0.300797337631874,0.19906981211802,0.155977264715494,-0.157452138916635,-0.229000667798917,-0.240600954555967,-0.410594462257726,-0.692022661307762,-0.858175775550166,-0.970629198519332,0.390356280822948,-0.00415302649198665,0.41039322653903,0.519107764854481,-0.470847392635414,-0.623581660867393,-0.872377208993594,-0.148213375878952,0.410013263938677,0.979727785841298,0.0748039910617738,-0.905977792139232,0.145090838339066,-0.411677987305148,0.0717310131886056,-0.121705302683897,-0.787889924934588,-0.215894356723284,0.524372072120403,0.877867661260509,0.314070995942219,0.876797219283717,-0.73717533185022,0.292827771043846,-0.207199744440615,0.124689181059699,-0.682063294071328,-0.260241349969296,-0.316846971385218,-0.248488505108686,-0.314903696979611,-0.779349457798398,-0.0386480704785786,0.635689629670589,-0.303015791908446,-0.0373437877695859,-0.795101069519322,0.160119812136687,-0.0546286001862138,-0.218411183895041,0.726697862656686,-0.322427054011233,-0.109988074799961,-0.502971109569693,0.638503268364053,-0.422192217412502,0.0716966943728431,0.0622269168178866,0.784788734773045,0.796985618017597,-0.912290504034614,0.951469865435155,0.284270428064998,-0.860264046858823,-0.576351976420023,-0.275790667644418,-0.139589781633459,0.51629074925361,0.78954665529158,0.257945766640901,0.878873436530532,0.462002171016159,0.0879876232119564,0.66589766000887,0.651470709483099,-0.731337811060752,0.521448337112664,0.235522857809002,-0.0243508870961546,0.705592531612931,-0.984205613808517,-0.85341446091442,0.896204472490938,-0.193814604123856,0.0356430656012929,0.902642096419723,-0.328755868145227,0.343716143185885,0.438457049579327,-0.54371007532264,0.110908063721683,-0.125755188805608,0.113530027127986,0.097003191909653,0.0361192973872859,-0.427904506012733,0.725079121437494,0.873086073944845,0.587388223613048,0.938169854226843,-0.134363753400836,-0.770357375129646,0.286408760061791,-0.552551232045077,0.732258063497825,0.835387765058931,-0.821860130617524,-0.40712210562221,0.565241285922413,-0.159362340074706,-0.0623848046395913,-0.940967655298927,-0.00496084716157869,0.172403178708642,0.483382737172765,-0.81125713853412,0.539983628026198,-0.658586754092084,0.143402441020572,0.871826641339647,0.748587336528436,0.950586796044952,-0.408865083807636,0.477073678194872,-0.587289769611467,0.715084701284898,0.318949570357787,-0.797755008790411,0.160929607427327,0.916574719379111,0.678353512429239,0.506213797449395,0.403886553587185,-0.513933116452273,-0.808539556698792,-0.137763295231057,-0.719038731148742,-0.681995397799203,-0.197395465608468,0.205652286103703,0.902585762508648,-0.457640591064142,0.0749372221867941,0.752286188305827,-0.497601372307567,0.659933496218916,-0.78009866743977,0.79789211207928,0.0217118985178743,0.980752196066405,0.514673917193518,0.370678400806303,-0.862007064498493,-0.58648131958983,-0.486127102683145,-0.72859614724745,0.414515970377409,0.636968626350702,-0.232368599440392,-0.749490905312197,0.355471438826839,0.676444289861153,0.305697019003951,-0.721081804155102,-0.270402747228266,0.417961486625522,-0.00538506502174042,0.934596000809401,-0.277335589492724,0.694953494776779,-0.33565566688758,-0.701906416653836,-0.782798089371028,0.472614930581888,-0.212234046581136,-0.244736491824144,-0.378626142474801,-0.337644007464553,-0.480372869009456,-0.149097300510438,0.989252711320948,-0.218721760433566,0.862651330175226,-0.723181069241323,0.782227070323667,0.508674735158638,0.729695651972635,0.111220664756542,-0.803026593256564,-0.0947409242305688,0.3106804793965,-0.981716284345886,-0.95747424630751,-0.455346668510104,0.859803422199992,0.0280387149131822,0.740427367271982,-0.232774805287354,0.766290049442837,0.0584351409983191,0.638357012028397,-0.761815469238403,-0.612616377477851,0.474684810530819,-0.314068088744042,-0.997377694321143,-0.13923038075743,-0.421663573723988,-0.222205200946228,-0.618275837472695,-0.570963712513706,0.189609468011283,0.179974299312737,-0.609042518293861,0.875617400408253,-0.866345675564205,-0.543099023987439,0.00749864514621847,0.505359081087904,-0.703535235780373,0.87953847677573,-0.161845734615263,-0.895940926405674,0.29487312812773,-0.527442649405769,0.560174086519519,0.91120868067003,0.37648967330561,0.0404552685072679,-0.664937422940257,-0.445569756272323,0.070713556819027,-1.01778767114746,-0.400883690571391,0.199471097324232,-0.658496633840285,-0.715310006328227,0.304494653283196,0.140508775478227,0.108661396218413,0.921275657481429,0.226051223410973,-0.350900564969521,0.0304438420501335,0.747426252333259,0.968157148377991,0.67071773426937,-0.23952496103812,0.553947119579852,0.878825665475727,0.417413186950517,-0.0617685736273185,-0.432676355651601,0.190311611198364,-0.302470354921473,0.919417712652379,-0.115849956561971,0.880252152101029,0.376764043075316,0.412155673515475,0.893240267900843,0.87262611391557,0.631497325518553,-0.732197330066152,0.656675634942197,-0.137512999120057,-0.510778761041982,0.0199263951417307,0.671543422257213,0.0495113993735909,-0.443284698152121,-0.274480907757452,-0.569761567802803,-0.241723877897343,-0.619544580742684,0.717406104245587,-0.230204877535661,-0.876280126798839,-0.2663308699257,0.579807840485127,-0.36873655779332,0.553873253065082,0.048772525642836,-0.778899489554374,-0.00669003648068308,-0.49934872267781,0.462943686945579,0.469331310026421,0.0234044994951909,-0.635806336038487,-0.792202117986287,-0.454456772669044,0.234649999652158,0.60814707416459,0.318347159149817,-0.437746824785602,-0.661121310329513,-0.642964260588951,0.348215640770722,-0.847273489941131,-0.0219050566486927,0.988568146357092,0.803107743359861,0.192701803517432,0.506662176850445,0.519216059567388,0.390662813948405,0.341795866114896,-0.401661718102971,0.128439111206245,0.295612845759825,0.637837921346633,-0.936859951702141,-0.571294792371407,0.893564439072575,0.58578979885552,0.261856920835014,0.364294893147422,0.628487967838188,-0.415737720976341,0.329938535818973,-0.776762924729231,0.147340752573183,0.0579404915744723,0.742132907873078,-0.616653937663175,0.824744150792018,0.812913787163208,-0.492940946769053,0.309092599096648,0.0480292141044755,-0.109279363500752,-0.348815814718983,-0.287023613860783,-0.808472983497212,-0.231016148612387,-0.747239530155674,-0.0176245723396101,0.44057033466973,-0.830820253127587,0.649165562659213,0.666900922967608,0.724455176171189,-0.0451190429259946,0.409946960036622,-0.120011834304228,-0.208748891929244,-0.948315114135374,0.793975456551611,-0.847316623942468,-0.00275965310849143,-0.295466810493192,0.110645213947383,1.0162735094662,0.645960814400764,-0.970489003295936,0.592079691658974,0.0120083258703641,-0.176638068883775,0.604030893033038,0.628671220950547,0.976518180380385,-0.585135925270613,0.742663336836964,-0.382778284792866,-0.175514018628721,0.360327416408852,-0.30671272037974,-0.0349018096493729,-0.842883500399278,0.334996362499621,0.402392807349611,-0.419212399871166,-0.235252752011842,0.381828061657226,1.01955686719388,0.190149394882943,-0.820136374600754,-0.188251140550442,0.226510565998338,0.0272168082409222,-0.717321126265575,-0.428182705494079,0.821169327635643,0.589996615714783,0.747561077174917,-0.298484275739825,-0.581733035523576,0.316761750009555,-0.287734689874246,-0.101176737831397,0.888704401939372,0.599230339537168,-0.35935319419821,0.440504017197388,-0.38626472876453,-0.38276081795626,-0.429604831771661,-0.86240159643865,0.664615484406647,0.327879631666364,-0.576089013304349,0.0114670949352538,0.576694062420872,-0.219076534905015,-0.667959195941872,0.493888701007113,0.379843062321577,0.366544935635252,0.239349589422278,0.524606081924532,-0.113027167594833,-0.34267076142384,-0.826231541728582,0.16941341623062,-0.640680364003984,-0.603512181681232,-0.699356983423742,0.0281812610208594,-0.96522615013918,-0.183952140592792,-0.850301240361289,-0.0887631753691323,-0.575397125084249,-0.0905955400185642,0.63865992490408,-0.995693215415151,-0.529639522288571,-0.467169945763522,-0.225792884406626,-0.113757958753535,-0.747864040901385,-0.195626227670638,0.421176106091603,0.0860478815002388,-0.289557781102202,0.296999801189598,0.349330320301014,-0.629272219819432,-0.0320576434384276,0.827225118483848,0.140447721146955,0.0946265060026253,0.325916891093194,-0.49067181786369,0.387710851617739,-0.420099389315225,0.143339533848376,0.269608331143849,-0.190798452522044,-0.480661392462378,0.870664761829325,-0.104159818844228,0.0836410689750308,0.422216787559221,0.239910315924612,-0.155036131989356,-0.653049848089796,0.43133717894703,0.847551727521538,-0.25878811073295,0.277575770673943,0.784505057333999,-0.0355456978976275,0.259374456966189,-0.0699650120400066,-0.781654278994713,-0.771919462797982,-0.784215382971641,-0.10776142818733,0.875767612901103,0.267627956600909,0.859436050556171,-0.874247488213603,-0.386122176681112,0.898856619350774,-0.979404927292535,-0.664900381094497,0.510544896104647,0.667643464551572,0.212762193032939,0.0358343367384275,0.886074622199595,0.482412791099868,0.399718588864117,0.49095348622908,0.747651547243505,0.927537481551953,0.962334268423313,0.838634246968065,-0.433284542744523,-0.882748849783189,0.639635844454655,-0.639514056972992,-0.930137456464053,0.542653427723276,0.0810522386768917,-0.337215370005963,0.156433212424448,0.709122225048016,0.284750168163039,-0.15867877167212,0.0918257723913247,-0.635404543270246,-0.530755332715476,-0.589172666528028,-0.478579490085984,0.884197505727282,0.283140715096497,0.658126733859489,-0.222475612766947,-0.663175564238031,0.480235480805776,0.744906626084462,-0.288950048981806,-0.642342657651764,0.992847215839276,0.918255117755263,-0.68815449531206,0.860545508100681,-0.150381938706058,-0.553832109854404,-0.728825511182241,-0.441055730775527,0.0644194474602521,-0.832993525461596,0.100690169677416,-0.893325625999489,-0.0874873675409242,-0.31070484478116,0.892188255182012,-0.404201991523109,-0.159838953398474,0.246097800776314,-0.237180283198809,-0.713328586671058,-0.784351137241647,-0.40976083013387,0.611446720538075,0.218385611810985,-0.593855934736656,0.970012763917844,-0.126998421812931,0.605986013185211,0.085842840223939,-0.945701921837611,-0.978069751187045,0.572172477036266,-0.0635151048852697,-0.456302885353396,0.724396209671746,0.277389953360593,-0.458062275858474,0.274296360866709,-0.461559743705891,-0.650370036394872,-0.230664323384284,0.0744870642379642,0.772229329123977,0.5124364022303,-0.728805687952601,-0.932299649193961,-0.74597221276465,0.886076173471096,0.318491338801651,-0.781251120133058,0.967751012337938,-0.7399395248497,0.024824928665994,-0.277373196095594,-0.0866090365459577,-0.871533389611684,-0.373364266881377,-0.475338741529684,-0.505352279174084,0.91330070204947,-0.935116010988528,0.85687802215339,-0.223310638578311,0.325080746225638,0.855109936826779,-0.817223111938534,0.323772441362957,-0.214385614731007,-0.704527249522979,-0.0843194882925258,-0.0861356348050289,0.749999299919349,0.320839814623045,-0.436876170987563,0.375076527183146,0.191309013404201,0.701633959725701,0.734274696653486,-0.332171981034337,-0.266443541216484,0.523519670471467,0.698319565365398,0.528624775953833,0.086430831592047,0.0978561937900209,0.87881847350952,-0.67139070548899,-0.234554348172024,-0.494929848968884,0.673582359331513,-0.912300966490704,-0.447749001803644,0.058457110505693,0.243620867809101,-0.156185954499912,-0.483143109406711,-0.224269542370172,-0.214837806653314,-0.749927726683176,-0.728259421234066,0.278506983606495,0.392185633450336,0.686473722292971,0.0197054445353289,-0.434395437510185,-0.621472964850865,-0.956144608175309,-0.600654676290753,-0.387915212637203,0.144796374662584,0.139430813888876,0.550193119143706,0.217842646445379,-0.74577955632095,0.269191981762627,-0.762937905644628,-0.131580531864675,-0.425393870133633,0.452015674901772,-0.921872406754767,0.506111134575156,-0.543936981125719,-0.519243315457129,-0.88926609186981,-0.735050748355087,-0.498194222490155,-0.602912980165206,0.811588740564287,-0.453720412954592,-0.758605109143907,0.502994588238411,0.297025057947613,0.13318255971326,-0.315155818931738,0.285301785511366,-0.523753540420401,-0.35981401374015,-0.297373074881408,-0.455496088914746,0.305686733073317,0.322029917468649,-1.01272790196996,-0.302336779444167,-0.438829186658843,0.828021434800889,0.525818438514968,-0.227268909567904,0.318763226067844,0.401598085867023,0.191920370882336,0.919363262695108,0.368321483348647,0.105707247990476,-0.835359264096349,0.75662119332882,-0.480407590290348,-0.0750839263434831,-0.33840345981748,0.557082413152361,0.60569867065598,0.489222631381974,0.756935095671795,-0.785504345468155,0.283788930431474,0.0446897840325544,-0.358086293510936,0.207428895650829,-0.284387397644549,-0.66058795138599,-0.383959834781737,-0.770993415852384,-0.665900988859674,-0.470778522786402,0.0902722538814696,-0.692523875369964,-0.807261148039287,-1.00502304272472,0.535542302397413,0.363094519049327,-0.73042595223215,0.463726600947936,-0.676291792501385,-0.915819734151314,0.308381771229738,-0.710861191544009,-0.895927120090863,-0.718862748829862,-0.811062248094253,-0.621765697439822,-0.66347603440479,-0.839971081979586,-0.384259583738611,0.0248060148875815,-0.17994785960259,0.974995561170079,-0.106034098939991,-0.900210125257388,0.57086042034008,0.37590027373836,-0.827397153539414,-0.071625323234345,-0.413087339505735,-0.19637846399527,-0.118344612620845,0.763044228285709,0.391872136195151,-0.973620982507923,-0.950306795211427,-0.526011505659597,0.197160390904762,0.850818791124495,-0.359594829807547,-0.124183709808415,-0.814045193002466,0.413205215591008,0.469869396081073,0.554894335077572,0.898108576072426,-0.912060162000585,0.566291382002974,-0.03839261643284,-0.441720300644435,-0.902554331548718,0.575101937134029,0.726887409371704,0.496292168170841,0.674900471164181,-0.301005823989723,-0.576352023570595,-0.263728003176856,-0.489603348026286,-0.954523295060786,-0.413442430438992,-0.531256363794875,-0.669327226739591,-0.28863634888556,0.0515554670677268,-0.766573781153316,-0.614523380658799,-0.0240783579814148,-0.204171707262636,0.536961281169211,-0.276258899961011,0.649520847955797,0.845822743240906,0.530216082599447,-0.323140921637971,0.361465873730568,-0.940088339495978,0.23124779385813,-0.775630268484881,-0.897022224696756,-0.889579501504045,-0.935687447835114,0.936712441141371,0.0504276069959868,0.484137034395334,0.179636636294348,0.455394745480499,-0.383245699600609,0.653238140672173,-0.039868074044609,-0.749597092494507,0.592582320565062,0.37004619119259,-0.234058405435988,0.431387763144512,-0.0808567845815945,-0.903560487125572,0.16462587513838,-0.414349179980463,-0.0881970801996289,0.143162635397088,-0.214687662898599,-0.536142093663123,0.936175645914738,-0.688648304997671,-0.325766282434416,-0.929145697125237,0.760389653257247,-0.251336358766512,0.932989161658972,0.0897493373480587,0.142769910629191,-0.515074427047952,-0.569008918486311,0.0173432524557542,-0.560998525389286,0.819912854852624,-0.424895942868799,0.882269322346355,0.645486352018329,-0.282757594991167,-1.07412840134623,-0.299676170892665,-0.219089384809727,-0.869009695609393,0.895891603413019,-0.52356130130744,-0.642486410809284,-0.0572425757872577,-0.0136742989945108,-0.897043697489498,-0.23092988800566,0.177966691794085,0.832388911279394,-0.197799423199954,0.35556891577019,-0.993251179741873,-0.694919808993751,0.745790685115636,-0.851295510168473,-0.942486233425466,0.140983465586261,-0.297432793795574,-0.504978199305052,0.807982108750025,0.446953172149143,-0.222141723784357,-0.197764327014357,-0.601306382992672,-0.54190702704003,0.72261830067181,0.82285953962885,0.493113501378248,-0.454554639411073,0.248695739738395,-0.554006605062149,-0.736704975041941,0.374596937689097,0.702021829852407,0.480452263109951,0.770455238864675,-0.526515349922389,-0.226507391101609,-0.163792183779488,0.848507177779415,-0.743297062578349,0.0240459679000618,0.271090918770962,-0.43096832720347,-0.598136440856779,-0.183226178505915,-0.242346888698885,-0.639326766079644,0.826347438128454,-0.119335252558707,0.340620039040183,-0.527037940674444,-0.0577075394470838,-0.854173127725337,-0.00813696458950242,-0.382292358888827,0.408968894741783,0.50773594660514,-0.130702090060434,0.0262888352181709,0.498426351486415,0.143472336727465,0.162459328873173,-0.78326879984339,-0.250271092560502,-0.920416718351962,-0.18771382066303,0.356362013239342,0.279078696948499,0.95191247622739,-0.0752009105715466,0.562851931130384,0.0545087807383537,-0.987459952885297,0.0254300925408896,-0.128661877744616,-0.560325852607086,-0.422332560088355,-0.156110816718756,0.839787661728911,-0.367011134545095,-0.42988162617015,-0.276102811358077,-0.00136491380369153,0.545255901402421,-0.566469760137837,-0.95547212788797,-0.408165617871985,-0.392689447426268,0.662827800682806,-0.769325258898449,0.762174254541217,0.718078566491747,0.102588467991272,-0.983447141476337,-0.00794586761400965,0.451486790138619,0.398452294602636,0.800942207455412,0.39255640222787,0.864214928627526,-0.954282358758454,0.549277233907404,-0.999242647646273,0.0411202617551763,0.456223641528096,0.599623207662132,-0.495258620094689,0.208211787005628,0.74933042508265,0.20450376232272,0.526009741201895,0.0250107994940791,-0.258432122966481,0.706132132720487,0.332028739789349,0.66412951697197,-0.948318442434618,-0.808885715421258,-0.0258384075343517,0.761210173544636,-0.466942520496703,0.562386169153066,0.182832856514156,0.37063859965174,0.780668064066779,0.52278819809357,-0.613883087287741,-0.91121604504396,-0.66484474879404,0.435540153646064,-0.730226655509717,-0.538221896466016,-0.0928811170213635,-0.0993227570786973,-0.828371865701317,-0.126867854090702,-0.823032063559043,-0.593375518562334,0.337489287194713,-0.330865479363351,-0.320570190192597,0.63157672036531,0.906034721277695,0.920824579206608,0.159555398960812,-0.593482531285751,-0.415803096322253,0.175719826509546,0.070387050316852,-0.600595501740556,0.879524604957067,-0.340355299196476,-0.572315667438143,-0.319299601750108,-0.629505496982781,0.452360020817528,0.528448279795922,0.236946333865726,-0.837732140742333,-0.614196021152606,0.405140054439808,-0.195937561352027,0.699936627134863,-0.68288104205053,0.396295881170049,-0.554410696361875,-0.219316220392242,-0.401018772965974,0.877050695580968,0.539694285361069,0.215473554305227,0.73098129962552,-0.567420816637848,-0.847260737522012,0.331050128350352,0.0562604405405479,-0.0329210468505963,-0.491035648748493,0.603674223283818,0.646402122149856,-0.923753859760928,-0.0505799927740382,0.879280683134052,-0.156088372332041,0.586922896746093,0.0565122310206491,0.00582942693718904,-1.03553977936427,-0.038970995765378,0.762991885262024,0.917516967605351,-0.517434030245504,-0.63146322892979,-1.01161490441936,-0.311321522220662,0.075462903347935,0.658352241409923,0.324223822160429,0.7699083344953,0.434106449982939,-0.396560890789535,0.81038231410137,-0.33890607392071,0.196975123865121,0.379635345602871,0.735552212275218,-0.3332011257293,-0.0739145748074725,-0.665481204913799,0.0228616014674023,-0.0872590894895635,-0.799099388673127,0.27939307053053,0.792976454477062,-0.167382567635959,-0.644063128158433,-0.406517050055852,-0.918341505637732,-0.794041210586123,-0.946355251859817,0.0643491498575929,0.200287738889045,-0.417360788272932,0.528370481472959,0.291523410918348,0.870831988771055,0.0828133717099441,0.0185531936434306,0.578550284423309,0.181607934655318,0.518968951116802,0.936567296502226,-0.441552895678769,0.143749520245945,-0.0998642716607433,0.233399788673578,-0.59381575249149,0.442119946890157,-1.04319752271114,-0.436599188672576,0.83640622112899,0.53852623622647,0.133435209588906,-0.863239567161503,-0.612909168934138,-0.97596473875322,0.76408996967243,0.572463754793274,-0.159665136651152,1.02956542227642,0.45312828364385,-0.084457413030207,-0.815618382942589,-0.581302784861633,0.662867302613204,-0.397106823562835,0.522748972315924,-0.633567712110398,0.459599519321601,-0.772324197065885,0.428779054167571,-0.804237361313255,0.859000220229386,0.16697327544573,-0.373612676075618,-0.160455474101637,0.699141970512793,0.015770617080592,-0.768021534051579,0.130876030548753,-0.0961592304376364,-0.705663004808595,0.574251137760978,-0.0386869542863454,-0.824211607027359,0.682663596215864,0.721744108729156,-0.887400277446113,0.263602917256769,0.748993339873584,-0.158038496780955,0.170563850969384,0.00995698045516212,-0.150443052651571,-0.867060839516863,0.621323077860953,0.853358782529124,-0.0629902650260071,0.13672734532952,0.868339378365827,-0.0991660963611232,-0.556748228216698,0.752267606488628,0.314115945951269,-0.722622800344044,-0.952669152145818,-0.531566805041362,-0.554119611515826,0.825446862996733,0.436721580475916,-0.743863022322584,-0.0581700932782495,0.299133109937693,-0.307052880496317,0.232976281391231,-0.592740381636166,-0.559289924862295,-0.56317102152865,0.393831520576965,-0.494607178205962,-0.492485354567956,0.0302516518618593,-0.614287897118657,-0.236240947025485,0.311712733986081,0.51857326889911,-0.109463549385618,0.268256854690969,-0.294740494549952,-0.355210644130071,-0.642298795995588,0.671324459752358,-0.37153723665372,0.845758161793061,-0.773581648248363,0.148856820697425,-0.349604765884115,0.038508887346707,0.00887575232457374,-0.835816194841174,-0.172158593321251,-0.562540720099006,0.807118198947015,0.409188784515237,-0.791827305523351,-0.298564248641232,-0.341614180033488,-0.553250602224782,0.122890974839765,0.369110727335203,-0.133342392769736,0.582341051761581,-0.17723656456787,0.461494591231663,-0.290198697536649,0.893322789335597,0.40896546017907,-0.919181458302434,0.665728528361089,0.791469436766536,-0.326181232406347,-0.833502897741897,0.621180171550367,-0.751266345208946,0.034173178415539,0.797209041021098,0.0442105913138633,-0.892871689577345,-0.141311358738387,0.388914350162026,-0.543176811871729,0.775438631075578,-0.0190750645065331,-0.524416760682569,-0.60811422084172,0.791750286542488,0.540630733313695,0.318753026524803,-0.805754933982145,0.66072461073528,-0.156130950892576,0.304988835997726,0.86949895758408,-0.778588749840531,0.0691355377869902,-0.931456797337898,-0.742610490014834,0.754838851362522,0.0594147902941945,0.303918805892885,-0.624547195065982,0.266850587633685,-0.792410387271915,0.300877532146593,-0.658146718295138,0.189625078304806,0.780506390580385,0.365389543378243,-0.336377346288581,-0.134333375098702,-0.902292343076882,0.0499986583707398,0.961324946478749,0.404230385790383,-0.2649065927653,0.181459631745967,0.0579487578621538,0.00033195676653874,-0.713812672283215,-0.427295827214766,0.0333216848403868,-0.580502092543301,-0.187233197092385,0.0965464729175939,0.707098054230222,-0.0588020805459681,0.359507725562696,0.466055940887758,-0.661751639366214,0.257415744460639,0.489095426134552,-0.103952067355314,-0.0419282750715506,0.033674512509739,-0.568148892596362,0.665125148229164,0.0718101324765418,-0.835620568495303,-0.228321255940142,0.632815104873867,-0.75447804399085,0.313938902911654,0.445764560867522,0.470163898484421,-0.792741803799814,0.93128943371626,-0.150278617962368,0.126553165862868,-0.802434457777942,-0.0465016237868746,-0.690704339078571,-0.412710570386011,-0.750000156979197,-0.318173156806061,0.37348539897706,0.0344281032000362,0.590037681785536,0.153191135550557,-0.926247457417437,-0.50045855655516,0.796994754692894,0.795873767490682,0.967536469054373,-0.331434697565675,0.88447000281207,0.22948179833492,0.324476511361564,0.237482392190303,0.571289763145207,0.216238681059513,-0.289808814773874,-0.689034138116855,-0.880171590684746,-0.657061403341962,-0.245981157409586,-0.88253656744355,0.943832177789683,-0.337378736076762,0.891341922455915,-0.942080564418609,-0.15208750982679,-0.50402333930148,-0.276293805241287,0.556113271652599,-0.105466145188674,-0.896472989820357,-0.904011319372271,0.0445356063732519,0.522358722673288,0.229258388648263,0.841035348478022,0.55525832433496,0.589598836053093,-0.386970281664944,0.0766871103348002,0.287965226698076,0.0319660944011638,0.201578936892341,-0.538359017803834,0.975846777968075,-0.627333463462821,-0.0633525494406297,0.839034752998675,-0.0289783091637155,0.223531339573303,-0.942177454018247,0.511791664223205,0.525306242532543,-0.45782326257872,-0.28735932353436,-0.640747374115188,-0.835228444139542,-0.55976051270793,-0.0118438307008403,-0.0800722684071459,0.557641422557664,-0.244619904260003,-0.195727578065828,0.931916756935885,-0.328342343335947,-0.876623403989143,0.390872886164757,0.737279635588001,-0.183605572589483,-0.0780556334527749,-0.947085630821558,-0.485158357191287,0.61700911033614,0.188728246625375,0.59232542753368,0.526078115570515,0.414896290870008,-0.676422547482346,0.587330747177114,-0.634392701435564,0.0799768391549916,0.149383012548753,-0.879731647062897,0.897973166886773,0.23458385064252,0.201520521431322,-0.318247779875185,0.28011636567775,-0.0586067282515979,-0.22063612783481,1.04918815778839,-0.029498520146537,-0.771287433352334,0.70854219462859,-0.273569948510306,-0.367241731659872,-0.259380125019819,0.736770573045923,0.0628665362440151,-0.949688981689951,-0.534142474503384,0.375719880013529,-0.0668156331619714,-0.512269372874133,-0.625024455100414,-0.413738263355435,-0.0153784415441006,-0.897200193420644,-0.233858352009745,-0.28782715816902,-0.423049139614196,-0.511593818772802,0.484556356148607,-0.732181710948852,0.522773930091213,-0.419341709370705,-0.298075274428085,0.171322794713913,-0.948337860648813,0.5636254778125,0.381434296607494,0.837911705042178,-0.970952847381544,0.433756609356705,0.37365273085172,0.620040116642749,0.0898380085349742,0.699990303846097,-0.902162224422558,0.545546711309806,0.351999748231225,0.688434853840755,-0.3713770541393,0.105250113155439,-0.106469694115652,-0.720078334739542,0.594886965088816,-0.947016503123397,0.0743697126594952,-0.590766691544992,0.759023189927022,0.0459019839791646,-0.813283823695938,0.570770310699815,-0.834873767136143,-0.715916503297554,-0.527737039237396,0.650758883400903,-0.394920963048302,-0.848319759677334,0.717511540460014,-0.153862858022105,0.577123606227808,0.683006608975851,0.275542810633214,0.0828502542366646,0.788506458853168,-0.77671067398235,-0.693984059190685,-0.931521335104242,-0.175555092226517,-0.591170678973551,0.996157189883911,-0.189395448605182,0.511983161684914,0.281941120891477,0.44794078206087,0.703725377663054,-0.360133304372496,-0.705081209179212,-0.815544568954984,0.227611544489432,0.110786702986379,0.313923009606158,0.202091037497166,-0.131354135048962,-0.723121924585789,0.54232604613829,0.766036729140343,-0.72567441809137,0.598553112824883,0.761410205060776,-0.864923243806839,-0.165243873079802,0.469212640008436,0.451677800876911,0.559187981616861,0.048054566076633,0.0944903248344162,-0.30591563214281,0.0705786254805011,-0.759676445375882,0.477056323778956,0.598434127477476,0.672639318945228,-0.869021283858145,0.726678345415444,-0.824174188649607,0.749885036302628,0.0131935418694677,-1.01840695234699,-0.678222277237949,0.202227089784792,0.294902018909475,-0.922381854440782,-0.808074725135135,-0.549319794986049,0.513976229877164,0.630855735623157,0.178758964269592,0.798029373144648,-0.012980017146453,0.937559751409251,-0.376212060300142,0.430894591745221,0.207982930669022,-0.441342201603216,-0.537297578744684,0.37152706262031,0.62353428686759,-0.850366386184411,-0.233315488578143,0.598732227160854,0.91666197876991,1.08643795541201,-0.158069538922862,-0.133694017348133,-0.34085461935751,-0.0439283092718604,0.436255107043638,0.388753477256425,0.824853863428462,-0.608554507072168,-0.183406237422828,0.5835681697736,-0.672887002429195,-0.352651340750041,0.347105972093568,-0.424289589864103,-0.192362133008433,-0.059001189095338,-0.295339666556472,-0.81035732440836,-0.0134392684936148,-0.339708606943074,0.31638963953725,-0.974009443972342,0.297928481433492,-0.145192899639943,0.290591438626973,-0.305776858126219,-0.328067126356526,-0.203047472353522,0.100107647534928,-0.752191392671445,-0.767256447398013,-0.542423604116041,-0.773857070567438,-0.813925641343391,-0.453199346992326,0.319396785859437,-0.0208153559790122,-0.0208454637338642,0.939043200142105,0.101026797088188,0.567150256911013,-0.151116828034756,-0.490924308453198,0.618889858941708,0.497615072861049,0.521953147284739,-0.872247421080546,0.696834309509646,0.311256248369111,0.902465695879814,0.0244210920137404,-0.371619571283524,-0.731032272158866,-0.325655981391212,-0.0723822423944118,0.705057181348884,1.02347364470502,-0.79140106039045,-0.285729661579891,0.991766491029828,-0.16813167449888,-0.189672538836247,-0.790840881552734,0.167766100184709,-0.713810431761955,-0.246848569941437,0.872704943901704,0.388802338903462,-0.527455254347651,0.391652914234219,-0.190136440355822,-0.267410087877431,-0.0379272584195932,-0.541852821824769,-0.424865362408203,-0.41502537450789,-0.215878904670352,-0.00419129240001176,0.915454485297953,0.691944547360481,-0.420048634898124,0.920967006600037,0.444198046099078,0.760115282865015,0.132389173203663,-0.871704282627663,0.935715843082598,0.344821419659569,-0.869066487625454,0.897367296624644,-0.372364726502202,0.795956996741243,-0.653160266446716,-0.998190802293883,0.784783020923564,0.701073508566782,-0.304701294793623,-0.803339793251451,0.224413715867409,-0.260099378459249,0.835091482328799,0.653147970203299,0.362030206067161,0.748530784044209,-0.464786233397898,-0.483248531292511,-1.0618025061241,-0.809555824972917,0.0411456277880456,-0.407824000753035,0.555931964924669,0.129169302041015,-0.640906927111153,-0.495100131163673,-0.737303725625289,0.255453047090768,-0.639559193111323,0.7577403167501,-0.800241191766484,0.700647725436517,-0.550297625262251,0.489790287829537,-0.885121045016444,0.414710269403616,-0.626424531181645,0.980539801010037,0.033399406753887,0.0770960627842484,-0.457277396882658,-0.243486039098356,0.0241210547753701,0.0368654208880268,-0.0667042239143067,-0.580933249401991,-0.577066799348837,0.277586427732119,0.216160958971908,-0.634954132277155,0.734460862095361,0.0554362091658673,0.948303385366529,-0.429257775121058,0.899042667006506,0.215281615705352,0.554361884875859,-0.872939178162294,0.181932963647375,0.799228716978777,0.0191822217603819,0.0653637247780951,0.596987020830827,0.309028737683062,-0.0753926530942544,0.114663943187621,0.486214922258945,0.0288666871116502,-0.758672053431604,-0.468903686028369,0.849064016133393,0.178794612693089,0.0785994468415975,0.874530529382782,-0.490541008003171,0.820352819808472,0.114310215692553,0.475500118098964,0.371949138291642,-0.721110632280442,0.946829818520748,-0.150891025429093,-0.847946821133294,-0.784147623536812,0.941210665509339,0.141914614542458,-0.0337814000530607,0.289924175271444,-0.563591247675248,0.391606020758649,-0.510767355800151,0.269941374585093,0.924486600067982,0.455774764446774,0.939438021816166,0.524281797269331,0.049685968965314,-0.109605083836628,0.276215803045072,-0.385724425749725,-0.113188143412463,0.330496327805369,0.644554348846025,-0.361082904272626,0.315868455316379,0.0108068150385785,-0.688939475644305,-0.389846893202143,-0.790278698309687,0.739540205081808,0.355238214124983,0.650437772823664,0.893827546366057,0.252849262481253,0.0305824867996526,0.12584158767942,0.864940726920723,0.28373129381494,0.731193335554386,-0.0404114144318304,-0.960082489160003,-0.505380627069886,0.10136581843327,-0.814760788353065,-0.03830428492884,-0.704995473404486,-0.36270127518388,-0.779227372819035,-0.143526978369731,0.431514741909906,0.605296666904417,0.90161934525823,0.511559704623715,-0.351033356777351,0.691961342162713,0.0512194730711826,-0.492486370653179,-0.663566359414429,-0.954728535263647,-0.588695257595819,0.932660944385381,-0.825248360806507,0.659028726183227,-0.704052716474072,0.554915594413865,0.210099090342029,-0.518151625123094,0.676827629205856,0.558033883508169,-0.787928328376776,-0.67578027364194,0.290071896834355,-0.349803034335355,-0.546494297692733,0.635129961635905,0.176364068153035,0.51363862062171,0.471798316816301,0.836772337411417,-0.759623825162775,0.162306823025231,-0.0601469761915206,0.0639801859146204,-0.556261737352171,0.518799718699472,-0.457648279736524,-0.601772046401037,0.620381259053913,-0.905434258962768,-0.927319572999789,-0.130310700139824,-0.904461248817173,0.896844791953041,0.20283028051931,0.306084351406902,-0.347210569308827,0.0751267165948286,-0.95626682735955,-0.600046392189768,0.718047930560434,-0.880471960633106,-0.375077330834049,0.655274886654669,0.225170440199264,0.825343450666813,0.768229087046595,-0.509373932122063,0.921384798841559,-0.0934051134702652,0.781113248679089,-0.0629064374850083,0.170380620457193,-0.976724546488376,0.456115554640851,-0.177361821554508,-0.757270006373746,0.189556249283598,-0.990712372305871,0.880255292339533,0.382824077137846,-0.456314542938342,0.507474662797564,0.3203313731871,-0.440459007650183,0.0712290154685677,-0.862547782354392,0.35152152847983,0.840004579300265,-0.0709243073918514,-0.261192445897091,0.835123794981117,-0.979182487101952,0.847363247154368,0.384943048364557,0.635911691868553,0.72027672789505,-0.778846219421985,0.408657353802583,0.104343622017255,0.0351624401773222,-0.360155115686086,-0.675093866439005,-0.357529403571695,0.342133197867373,0.0532781086918476,0.20394279027699,0.520570004526086,-0.672274938771782,-0.0112766120159045,0.530577745321674,-0.398377049477603,0.681469444060211,0.364368135540911,-0.343077640967158,0.0764487003211209,0.675633850156851,-0.508272008768562,-0.97812353685145,0.230034229508148,0.0809245099470147,-0.550655491354481,0.793422205855945,0.852560718655213,0.0232523183808609,0.327084385813256,0.104545033356271,-0.484061470839112,-0.963668516889966,-0.395880728535128,0.276194983435863,-0.68923146669108,-0.578545499938299,0.709790764322146,0.219331123057418,0.31210113529958,-0.873374427324469,-0.578648205230238,0.596960855506342,0.278264084582985,-0.829782045426081,0.345142145830265,0.00671565357083393,0.948586324392467,-0.954717240400283,0.426579808861536,-0.202964279370214,0.3494626620647,-0.803580353131214,0.570037989214287,-0.933614777193009,0.207000099917356,-0.0742825823595844,0.0429807132833003,0.484550516609235,-0.491982334922926,-0.529960821882012,0.398697484024483,0.902941384941899,-0.702397691779608,-0.213036144103914,-0.806395238078433,0.83407328332005,0.608479595355036,0.425994786007684,0.523917049439219,0.101257291567493,-0.427144912444326,-0.677332683786094,0.774317599419053,0.727329031518314,0.512286282834795,-0.276415747772534,0.0206854279379853,0.302104413363607,-0.422066434065173,-0.793473172001582,-0.30208974566849,-0.305117400776015,-0.726587880620424,-0.585064192139183,0.125655320538603,-0.915186922337486,-0.119715368127635,0.366351257590178,0.745542329234166,0.173461599386164,-0.0695351077884225,0.634548075117657,-0.337086014632382,-0.256563823490704,-0.645703443575268,0.271783711541396,-0.949016052738392,-0.589038155520821,0.916834791117847,0.9247887621905,0.859464271290277,-0.821942182340837,-0.654328643265094,-0.139395974684633,0.0741528577351178,-0.0124743758458972,0.336956239077528,-0.0753196547538452,0.572578077508944,0.420432321435152,0.196348358115953,-0.68580244369435,0.256175394629842,0.851666647561765,1.02155735958446,0.413277777899313,-0.646988545884478,0.639418283778081,-0.768542826277021,0.467488712678309,-0.895940726898927,0.304144822041324,-0.979034154662827,0.745615153707412,-0.688348468113367,-0.837057170248846,-0.385342512847098,0.174837067417715,-0.591113393899354,0.979535952461461,-0.950126319877053,0.0534551726741333,0.292450962973468,-0.182591909917999,-0.753889343050127,0.260673989851564,-0.440579995255461,0.320560440324274,-0.208177109752973,0.581584654297339,0.76878618359233,0.572571759124631,0.404965192851654,-0.23176602671743,0.279154008088927,-0.843382012365985,-0.251063330099923,-0.145114757805831,-0.20364717711615,-0.341427414959677,-0.403500888494691,0.445761372824838,0.716265323837813,0.552299351786292,-0.934304310095888,0.108470867613907,0.13758091545192,-0.50104596642141,-0.23216703708931,0.610488404418226,-0.396328793709206,-0.0245883646810237,0.562574290524111,-0.142375087759972,0.662247786623235,0.349068986151338,-0.834502812342354,0.961436949613954,0.132856837459156,-0.584300586045511,-0.83272499788179,-0.854260171976711,-0.948631785553204,-0.349964169468081,0.115563948820151,0.691878841590277,0.252887783211911,0.199727219827298,-0.589742823058368,-0.493239332495754,0.31297638625515,-0.312785995296578,0.0381595582303276,-0.772051153390225,-0.0873889935381832,0.985191721334756,-0.170430536094801,-0.876016472932929,-0.455204730777619,0.0969496850905304,0.471764385255799,-0.358495955588307,-0.0122836493870218,0.227875959629193,0.503938917766764,0.394519960340948,-0.68122152830669,0.848010355012092,-0.215279395805006,0.0592444185705756,0.968711037027631,0.89691131421666,0.635292153026081,-0.152209058627018,0.645355545071036,-0.113686899865387,-0.239479305166018,0.40544741661675,-0.523381640132706,-0.648469774723024,-0.519613438821419,-0.421722072691866,-0.922230570701139,0.0709741858180032,0.872583565100951,0.577560503835346,-0.500816628161096,0.378618674089884,-0.969484981494616,0.536748732764287,-0.249226728403834,-0.39199500416099,0.529887885163847,-0.220805451332481,-0.562746558019918,0.154128125379668,-0.569681024748919,-0.619156420846396,-0.318865849236014,-0.804066197668802,-0.166404024427912,-0.988888868933584,-0.910279942611683,-0.652743732358333,-0.599316634313491,0.14934117810074,-0.536555084148062,0.13309575957615,0.0614534802091298,-0.323987412312567,0.95296735508526,-0.703281499277186,0.775194145343584,0.580618346844249,0.0264937991815237,-0.788906185387877,-0.527946159151689,0.930817982027724,0.327842039954586,-0.561535830345904,0.310165897059923,-0.80524866750505,0.0456764236457658,0.575936413087136,-0.0137887709949611,-0.714990505997993,0.174213441292351,0.240253368612875,-0.730542867612214,0.792166251367087,0.0725886549256676,-0.530028198863945,-0.414659019563569,0.333133413519843,0.0895118763151143,-0.0686658242420467,-0.348834981057335,0.128851509096374,-0.96817428962265,0.105568917547398,0.871648430767912,-0.00590028959740427,-0.344671252105022,0.606163373259702,-0.713068869597497,-0.823965042592024,-0.129229778335636,-0.131670414130314,0.542322716289423,0.39634302859356,0.156158449176144
