-0.632855243152482,0.626893137085686,0.272104633745779,0.196312264582229,-0.00778240909774636,-0.462884152383681,0.304595587209271,0.0855503087944755,0.786669619613467,-0.672569684137943,0.737644768053206,0.885316311494368,-0.148597214069617,-0.608781121631673,-0.0578726750861351,-0.0687048212857921,-0.587655268450318,0.735397448983769,-0.126257484231497,0.203802341266912,-0.217898241489583,0.892551718241546,0.458399283648165,0.798805467118329,0.907227921715019,-0.623921371636162,0.310042402033041,-0.794683869552915,0.739740907645208,0.562388383690118,-0.578512985323427,0.0895641514011429,-0.362272426185429,0.265214854990298,0.146152224495703,0.443889417044815,0.0689150290187853,-0.565252031709897,0.0107319861202029,0.419278201803439,-0.168546790038509,-0.579816359756372,0.243373751051374,-0.588456400626749,-0.275277315277046,-0.203471118460687,-0.831833762234257,0.864439909218739,0.983386293787571,-0.948066873523786,0.0786601039336953,-0.478125863858609,0.686739479564619,0.705766304757174,0.164604370358975,-0.350267419835233,-0.19353752219942,0.529615742520213,0.293601910222883,-0.645161267547835,0.239673379739875,0.371595734779167,0.580735447844524,-0.679239240261212,-0.61223559712902,-0.950584563574407,0.111195922712098,0.365446100360511,0.775773938730253,-0.753821846284472,-0.173656390830904,0.62177243701693,0.0614880111673591,-0.18135764365172,-0.0686101802815446,-0.178305274491668,0.0955317985552127,0.0166881955724306,-0.594822100081975,0.375829333434013,0.266003135828594,0.613513684295586,-0.381031659190787,0.535689768018618,-0.322673869396019,0.426178432984878,0.811418008707354,0.357704118725005,-0.758761796371793,0.0370311268065174,0.591591317780524,-0.0367234900237706,-0.853965187568759,0.365759675233514,-0.160428582971903,-0.976771191611433,0.342116745943909,-0.0772350165577289,0.833652813902872,-0.31820444238642,-0.455714416206748,-0.546884325919005,0.264472540179136,-0.250452539457377,-0.729561694894431,-0.495447505061728,0.148827378329785,-0.126623089866994,-0.0654248264010937,0.816407068557628,-0.876426260493505,0.16595242580685,-0.925758492044868,-0.435642259458471,0.0651261280104701,-0.681633559713973,0.0317218366862094,0.243690887974908,0.54420962513641,0.954916477516692,-0.13842455439322,0.769122677881811,-0.50508906422409,0.309092388829129,-0.0212212866485575,-0.0615120908172573,-0.19003400521227,-0.669709181534232,0.49630730113251,-0.81323697101442,0.545636706578798,0.624304095268945,-0.418670798161563,-0.756611234670083,0.108582035012281,0.64359153830558,0.343704465530163,-0.575885437063051,-0.45308783914032,-0.399830688884537,0.404306435018595,0.542986947207953,-0.270745760656608,0.895056003070456,0.846149723285643,0.268731186098998,0.297607693999334,0.652763666297231,-0.721524535625694,-0.0977667820437039,0.56028953787512,0.335999614106498,0.66476515760696,-0.802084775923811,0.744548980226437,0.506162108369536,0.865078408049867,-0.214008016204039,0.156864859210154,-0.0810950288421777,0.653387184116233,-0.857206636983819,-0.222405767214029,-0.50995912663186,0.410039220570142,0.360952392921531,-0.855562693624602,-0.034370002625495,0.749881009569552,-0.258907428863058,-0.538224063979612,-0.482859470599272,-0.45348589827199,0.757405205175809,-0.0531414840611938,0.742285657812636,-0.0939132799266413,-0.20324543231835,0.184611993209761,-0.0141248025394217,-0.89813192879028,-0.103315776700311,0.77807085179437,0.0757588716869185,-0.662894648679076,-0.615187426741219,0.0927754206900621,0.863681841955184,-0.928393812835776,-0.677306442549802,-0.741596572781317,-0.0772785033261834,-0.279618841853356,0.526524182826039,-0.656319669282372,0.27050688941382,0.107330279660701,0.643344699410081,0.235044617861551,0.453286680580996,0.493682060531029,0.174620162340792,-0.503867241760736,-0.566875804069955,-0.0870273437423484,-0.296537871916932,-0.865949643035431,-0.842724273924167,0.166336081570405,-0.3172983033345,-0.714222863553971,0.438769128599249,0.164643491548632,0.440556368255209,0.172170478941101,0.323997662877438,0.718815181066031,-0.718997501558441,0.43065393474167,-0.777421713304416,0.218110842585248,0.777625517094455,-0.708345368387291,0.979122529303285,0.870046448444103,-0.127045230160318,-0.472083592703586,-0.818320315316253,0.771255683418552,0.159391694826335,0.144143271817572,-0.271961834971592,0.747220790891117,-0.791017556895949,-0.55141373801304,0.832533768334754,-0.557590401653606,-0.725108597679936,0.50430826775876,0.467873198643977,-0.077771873522884,-0.357610434723904,-0.647260177032078,-0.71414460057587,-0.000758520943785837,0.851802454302466,-0.381123210117217,-0.756051803650062,0.0392542194926902,-0.398068358504229,0.442439819462222,-0.849823777320402,-0.497727922256875,0.327412843508164,-0.671374957774887,0.967857720591753,0.451842650674603,-0.316714625846565,0.0934696342344162,0.0113501042887663,-0.54617848004917,0.679771714165155,0.181688488114659,0.54115574887282,0.476042152278055,-0.693133320648141,0.368050597078324,0.464413635213762,-0.232583475027303,-0.679145231401321,0.159413038455606,-0.429425155313048,-0.122056688256507,-0.415593825054427,-0.369106772885924,-0.955191963700397,-0.372368247079155,0.333801742354878,-0.0153250697365589,0.771214393282626,-0.74783454138084,0.944753525060039,-0.743903289000978,0.0819525508599553,-0.0664516038523407,-0.192013356986274,0.556009675788385,0.0959780453277952,-0.122096742728957,-0.971540169992819,-0.39633040243326,-0.443137461345293,-0.178530196835908,-0.551232345957232,0.365853876593371,-0.230231771661278,-0.543837932606796,-0.757399421559435,0.168832206990372,-0.361187640630055,-0.874055460258075,0.298780924999522,0.588580173024142,-0.755960799456889,-0.188041619849301,-0.653573999223331,-0.795559540338941,-0.534344215472057,-0.568272468283423,0.232107916073058,0.746230144356266,0.458940037493102,0.599276976447015,0.676497530886406,-0.82282022857976,-0.309301381138311,-0.88749319586445,0.333293692633413,-0.427752106680719,0.0544515700077231,-0.913511640836052,0.71699939294065,0.304031275353156,-0.501716259482432,0.978431231788734,-0.729171979006777,-0.901269353761439,0.225249436239705,0.855565330338586,-0.798883272002173,-0.257190892878192,-0.395666486946393,-0.717628619727888,-0.224946141363538,-0.358826794283649,0.721794190734092,0.621243527465225,0.161970650823709,0.0287281148693101,-0.53374139497753,-0.49363525161334,-0.383575897389532,-0.553608736788639,-0.603757381137881,0.666519171201795,0.564309309094416,0.743923150439762,0.482864764444892,-0.778975566586427,-0.627277739043757,-0.960375943375547,-0.212427816645383,-0.618906002068519,0.0547973699313451,-0.745935583617343,-0.581126690104212,0.210299588361571,0.0687853714652429,0.0788378868865661,0.910373867145232,0.312879142883878,0.212334602860621,-0.845450447970899,-0.626588876177376,-0.358873079291422,0.351651906171352,-0.0428596207392639,0.404492581882678,-0.0464689690062114,0.654462170740097,-0.606317437656462,0.83753293953685,0.325796769002104,-0.513304373355648,-0.376297491970577,-0.789385780137928,0.18377479403434,0.862109006009692,0.143907604052775,0.774415084627158,0.275845124525152,0.933066247832871,0.295170273704193,0.567452001196237,0.682421662247526,0.950173549202717,-0.440839285483526,0.0740086262637284,-0.422201909006194,-0.78476346582604,-0.684849808287654,-0.343314526613519,0.113619983218019,-0.678235293284543,0.111819989664697,0.388439351845524,0.155963866426315,0.718196803736711,-0.806129978496058,-0.810212779950048,0.231286775462543,-0.769467717845505,-0.000950943160843056,0.133244357803879,-0.331179631033049,-0.292186253143359,0.969699570201268,-0.712312066251183,0.759555620909976,0.701303781269085,-0.723215960586865,-0.679666054249823,0.45063206860058,-0.631927467911946,0.276628656652727,-0.180507406322263,0.543156555667043,0.53580999000893,0.170597742860234,0.664292313928767,-0.565798499496628,0.588537170057466,-0.711986880993948,0.124175800222804,-0.213929980838045,0.307771405800415,0.0107690164231368,-0.262217546512252,-0.632118505823422,-0.50367608023928,-0.28154459454164,-0.704479209187411,-0.389545435213494,-0.198685771718109,-0.433437474270281,0.9197459661974,1.00115669848018,0.829660633536318,-0.396047099418626,-0.929381452652277,-0.295833843518691,0.768762527134962,-0.851146886078126,-0.808239082477333,-0.423048933406142,-0.737210455065321,-0.895910352792146,0.763531922603053,0.87962428068241,-0.127668941610834,-0.691810465113326,0.783443769870955,0.359394979513726,0.27711330665376,-0.165373348420992,0.931258328899501,0.865986044534605,-0.846049664704138,-0.131614556900282,-0.138174928458793,0.884192453765395,-0.224705737324195,0.650842732816333,-0.910181017087658,0.0328948580083259,0.303823395544467,-0.576593388369125,-0.576194422589669,0.645794553122792,0.785405217062797,0.621953970546733,0.263865474280804,0.945544085135234,0.345776269194962,-0.449952527866928,-0.709752526971746,-0.50330199836106,-0.906433659281549,0.258357073444546,0.368907860529662,-0.348005338046699,-0.635372395877957,0.836118838678369,-0.712983776370441,0.910140152811721,-0.600666000819679,0.835505621957438,0.281475215343781,-0.60803251557399,-0.666925328829072,0.360143285910172,-0.781437298393109,0.12468924228458,0.022568438902778,-0.412801658160684,0.423167215268158,-0.0268999270897256,-0.0778020576166097,-0.206863624521593,0.58062529553872,-0.242534956574628,0.430777397575819,-0.509869143871583,-0.0319883673059364,-0.534767668219371,-0.63376909744667,0.284383498538989,0.720496609882721,0.204516926923834,-0.480402448603122,0.264119041189912,-0.0291380554899559,0.719240308533926,0.356470978274422,0.264249131667628,0.790465762573677,0.642669142185425,0.283044463957467,-0.581260223321139,0.920236951243269,0.387302457113259,0.474469812182391,0.608338915996423,-0.355989800211265,-0.46217323516213,-0.367279539137983,0.995808311551234,-0.422140936572679,-0.142785534574892,-0.737244116819383,0.544814550688563,-0.144387220657391,-0.629869974648124,1.01940435602046,0.261460942701034,-0.0481798404371146,-0.710587225519943,-0.384034142948412,0.0188828011324155,0.0363011480582866,0.659989399572931,-0.591012996522218,0.00639585630726298,0.391829063054489,0.466134565200688,0.613541127632929,0.394159742662027,0.11225779773793,-0.68069285409947,-0.167372804870204,-0.0138521909483914,0.350498606545802,-0.0876731085034507,-0.619845426940958,0.0155262388688905,-0.760945874720971,0.716859449582034,-0.477698014312641,-0.0330520217128664,0.42197169726547,-0.865888279125081,-0.143953396769364,-0.860104756373824,0.035688080166686,0.194519598216211,-0.412705121972379,0.634441210323229,0.429679923057804,0.412335787866419,0.924047816205461,0.767836267156025,0.738483502984082,0.425398282056834,-0.827685893928104,-0.411092446357772,-0.388981285221348,0.883513181262787,0.431003113000968,-0.632648146534254,-0.673708791381701,0.53179048368692,0.579474387372399,-0.454497843846414,0.580813195563776,-0.221510292755536,0.697930327159889,0.556877985870402,-0.427760412588634,-0.594298950663705,-0.223155793323072,0.612197866717417,-0.324754538751766,0.648922438146245,-0.382881899218931,0.0950058747996188,-0.488963779456536,0.299437218833523,-0.174309555986284,-0.344460607577174,-0.458015344217304,0.00240246948858323,0.669965574330957,-0.0657519093152424,0.893297473392585,-0.134226678288045,-0.899131469015527,-0.577448854382907,-0.00615036262683452,0.944647537270132,0.230054265823149,0.520190226878047,0.106687363848126,0.156855311181431,-0.955818780805207,-0.428700317538235,0.387121192576789,0.543233692877046,0.277126421009312,0.520775176272985,0.5766370693823,-0.822310483104944,0.53342031856952,-0.90092244527202,-0.309854305820188,0.244547906747552,0.122618911902881,0.50039420634613,-0.84955355780242,-0.796353749475623,-0.00125615710576787,-0.62226721814711,-0.805564380864422,-0.41237120576948,0.10476220316833,-0.790152419825971,-0.793888074819544,0.879790593639611,0.0202860489626885,1.00336583861519,0.323815280295966,0.40615781230392,-0.414618160951584,0.922658865143355,-0.0620959863628602,-0.726660842415954,-0.989417886897959,-0.212992053668252,0.141393581572184,-0.897634136554157,-0.318029064673356,-0.305023381022667,0.42097559294408,-0.432756268648978,-0.663065548490401,0.121049525499611,0.830561750361955,-0.407582314797563,0.105114034467324,0.441527824378739,-0.518330558831422,-0.911611943321115,0.491569777281047,-0.405640948384146,0.823712646888458,-1.02006892762376,-0.0472286364297043,-0.817852458264979,-0.227592133643084,-0.0673405314806234,-0.405654306708134,0.432643172030265,0.0181330193130097,-0.58794886762774,0.760909578001695,-0.851830301618915,0.224072984488687,0.202886849136323,0.740684025573274,0.506201301068479,-0.350821385730391,0.756234362363842,-0.121750775281337,-0.679785951980475,-0.0295770921834295,-0.51649445087456,-0.498768773160211,-0.309377417960517,-0.697883570040455,-0.0256718928354803,0.375669846695835,0.669944246797224,0.795253552448722,-0.336565713584348,0.295385884796469,0.619882929671775,0.356959110106929,-0.365494067421544,0.700005400749376,0.712464837750055,-0.559592128676542,-0.491179176279315,0.133262780332452,0.356253620225901,0.365788428089594,-0.958156338471067,-0.400226920640353,-0.833863287836255,-0.865705850454007,0.493899200643892,-0.0160998566564944,-0.0351217983856059,-0.458967197945643,0.670154232313387,-0.731146149205868,-0.954144661027363,0.15162501541632,0.29712436522844,-0.0203021865155244,1.03875243671676,0.084816313173388,-0.289489177576153,0.0808607029432236,-0.875847503061066,0.525750240426124,-0.464898342991893,-0.648633348995201,-0.0846239710143295,-0.528803733805534,-0.464956060212113,0.00291462203647569,0.530617246275754,0.614248515685503,-0.839343090753758,-0.64790959850849,-0.57588228779409,0.767019892446011,-0.476524114110921,-0.254394281929696,-0.250184820604498,0.0248392346617313,-0.713931714626924,0.440806920569037,-0.581928171214103,0.685439229258164,0.702802733344964,-0.931763622466534,0.58901179745376,-0.260453932787855,-0.70435774145269,-0.107429053642755,-0.791681246580883,-0.900555163457084,0.535132559234966,0.668744991610167,0.434618398304616,-0.422114620602256,0.766794953503117,0.46449563086706,-0.915392213867932,0.368337191726627,-0.605823868417368,-0.805997989181734,-0.0313946395346643,0.464330193854956,-0.4315749858803,0.972087925090848,0.139630561461937,0.889150384315928,-0.562338048973458,0.651182403250775,-0.146429038401109,-0.65403657758747,-0.872316811587917,0.447433595729093,-0.920780765415185,0.979408931587454,0.0726432866583403,0.373520592170898,-0.29457216978472,-0.886490617343979,0.582622625653714,-0.273305912034,-0.788587830956582,-0.783014615668941,0.489231694676681,-0.0298631632083967,0.237615763894041,0.594277306294653,-0.152087195939038,0.0788545489839768,0.43431116511506,-0.244368131707826,0.373494178904478,-0.0175368266492474,0.632448395200802,-0.224479992089318,0.539612904614927,-0.712841955847382,-0.339941756259468,-0.00435531059846503,-0.29960139297816,0.389544058941289,0.577176958114528,0.890046450581607,0.801089187450104,0.441751118083996,0.487496732519209,0.542311900924113,0.246412466426277,0.428940423119254,-0.231886872092829,0.0975683212456906,0.789813127376088,0.336307337299874,0.473241752698168,0.280942704156732,1.04992474602956,-0.765904228596515,-0.0258109448310012,-0.433244524643665,-0.571008009601517,-0.65225626821914,-0.623721403043057,-0.440142023846319,-0.0957845671509307,0.268534622098349,-0.28843963771693,-0.188585034556516,0.511436099938591,-0.490804093628846,0.366901966828074,-0.902573288128076
