-0.937661612395183,-0.557357403471418,0.362838471932992,0.265590393342348,0.7249602195564,-0.0464682313717823,0.818222818657981,-0.734018980018457,-0.624140883213628,0.758725760028488,-0.385847267976414,-0.566869644744128,-0.421321788718955,0.171576618132792,-0.769002812660061,0.448615065810861,0.212023225207163,0.333309189650103,0.0602321875390855,-0.251671956706968,0.0731197977579919,-0.320188913075717,-0.586293700376175,0.718730091602994,-0.0789283187432296,0.0347193278892517,0.377558420194795,0.638251659584512,0.587795254360095,0.750834707157471,0.471574481579908,0.42673008574129,-0.76882721573176,0.756922296282819,-0.0673763927168306,0.814373734751785,0.0240334919098748,-0.701720556033655,0.704245193396844,0.599364136007432,0.51923477596326,-0.496431452167657,-0.730675552988438,0.459222660762745,0.748490435365254,-0.293243797383161,0.162513983497523,-0.142251750133009,-0.703072616559226,0.568288771382807,-0.548236150690944,-0.033455011322229,-0.447905688060473,-0.815804415827954,0.162937299619421,-0.991802306685958,-0.497856516646285,0.852390609156961,0.436349695146432,-0.681621223506213,-0.861855145308729,0.522288728782889,-0.991040854000954,-0.567898165084782,-0.452907218639134,0.407930958599901,0.61219224648449,0.319253745304932,-0.061159263572828,0.526668112135101,0.176165188942997,0.485000640722391,0.231407319409292,-0.429697494241981,-0.754685445111027,-0.0465970033392338,0.00679053283637363,-0.550555858450303,0.15840911128123,-0.477569996972169,-0.899023230326297,-0.438190970725401,0.528679316351856,-0.266354374928279,-0.656021914509245,-0.0113564835476038,0.27550332923078,-0.322773573939467,0.999351226572496,0.76314644057283,0.891008521027314,0.90177697635124,-0.953768281879372,-0.076074050152446,0.414943447671087,0.764820499835426,-0.740420221871573,-0.334422088413906,-0.424122820031903,-0.542661349393798,0.113876512105421,-0.060363472171004,-0.475124407315353,0.867763889603899,0.932583749833541,-0.571842591288693,-0.676145063516588,-0.0878208948320844,-0.494821587335885,-0.468133972525767,0.98159366927862,0.117975434019611,0.698321315823823,-0.343156851439032,-0.529224742599357,0.453600904265872,-0.724579540226663,0.174287432356611,0.374115303049934,0.880805957482293,0.586868050959445,-0.709958556834258,0.51703852831519,-0.185408309296701,-0.275659401189791,0.803110132121247,-0.0853125067130678,-0.661240154505139,-0.311149307593471,-0.902809427569392,-0.812827527658491,-0.67263837653253,0.263633759845582,0.49038608701112,0.55278671890432,0.0416166810825895,-0.955156689281315,0.198785851243039,-0.323666656141096,0.544678118638641,0.778552524563858,-0.174868939965329,0.993338557851374,0.661608798185313,0.227966462790212,0.575585377006073,0.934326540123775,-0.648113680031716,-0.133410065202382,-0.179690708858211,0.927017068712276,-0.78489883378922,0.633823130233396,-0.11239557300738,0.251236107521925,0.570165138719923,0.848663409210133,0.84124754346483,0.965914121453215,0.838766543365597,-0.115930019175648,0.550478243438486,-0.121883988120613,0.327705440348352,-0.595031105798082,-0.652736824657903,0.893078252803622,0.954561152458846,0.871773266755041,-0.417081160910528,0.853242852117275,0.045705016605638,0.708527394587236,-0.454110124986387,0.895818063522569,0.0442011385487504,-0.0108195418537781,-0.429178073241346,0.245500300758683,0.912637657233492,-0.125290835262968,0.71801713520688,0.426946108223554,-0.0462673516027072,-0.18523170938176,-0.236271805517112,-0.676431136811983,-0.222869789497708,-0.510249547328379,0.647454501588966,-0.36563802245246,0.13504206938185,-0.419681902938737,0.375390156976461,-0.630904397261496,-0.952770083005586,-0.237895393957437,-0.694102099437467,-0.944872653985082,-0.171186411692469,0.599846535061922,-0.646142899009018,-0.726330050632756,-0.762419542076782,-0.633866749960038,0.0422609231383392,0.041320809132069,0.169293163115822,-0.184873899099675,-0.163252329099689,0.531834412018829,-0.108251546829451,0.155948119154242,-0.313231543902203,-0.0825753244529637,-0.206225926415648,-0.695055967385043,-0.692481300069891,-0.958526889826091,-0.0904409297375889,0.011766430322306,0.00762293439992968,-0.902270269502698,0.612467523459889,0.332115556093037,0.188023087971075,0.514138563892649,-0.226124813258523,-0.582433496713156,0.253403995856488,0.470634965977101,0.165023523968527,0.43646653518242,0.430191575554846,0.307990142195567,0.0654634953064065,-0.733192156607609,-0.966485000765085,0.086084368850335,-0.0833331959681968,0.909641009423074,-0.743110547923944,0.0828596842325695,-0.488524368631179,-0.690070541409486,0.819998885794475,-0.684917662159753,0.575074594697178,-0.281583884602319,-0.778614135217898,-0.357365324650405,0.811108473435197,-0.279552756729632,0.86735809532173,0.505675607161323,0.244416429806769,0.809993445321107,-0.331646604897932,-0.201227667234461,0.392082477543901,-0.511685743114036,-0.357033147156686,0.415111838564598,0.0509685968250427,0.936036988752116,-0.259980104592724,0.240442772303276,0.775552380068522,0.107334231528037,-0.741107454855325,0.656856490232868,-0.11535979014899,-0.197349706708672,-0.70901930745107,-0.580810459574663,-0.269090282308278,0.256478645653915,0.35086555456138,-0.29949166320966,0.424817237326295,-0.568046638211282,0.202299627795874,-0.0490752408761763,-0.329808146227974,0.477217323492115,0.229702572834497,0.133965128521919,0.44553185887842,0.866054517171365,-0.472966888607884,-0.572515468860669,-0.48232325063522,-0.717641427887829,-0.671277711156837,0.578008611936235,-0.518317282578078,-0.885923674244537,-0.605362371355531,0.78150620955457,-0.398776604158754,0.0419644084614495,0.965285093746656,0.0130827438178058,0.189292752915539,-0.508101838095622,-0.244708057183157,0.0116793808923119,-0.083973750018706,0.825036136821614,0.392577559409882,0.382052975422534,-0.69209432367466,-0.671117440811031,-0.296595001252671,-1.02485214616605,0.126629821966304,-0.255968189840792,0.886156907417188,0.48649021295664,-0.780505554401081,-0.355118337953472,0.194459043744869,-0.0383562280654519,-0.639767871293569,-0.578611577047335,-0.651064778805075,0.965636837827349,0.0124876635157677,0.991801757053422,-0.541838004256814,1.00997092525601,0.661730517232322,-0.61133398837528,0.674331280106817,-0.217878349166429,0.0273069519914454,-0.594519449795528,0.342116035296108,0.571184242288761,-0.68148658206601,-0.942256205275903,0.105681956147769,0.390777758682015,0.501785034011249,0.38742153120546,0.0204079913025928,-0.118349274494224,0.837239048954053,-0.361855675194486,0.0622534254960295,0.168774446396494,-0.307607963202769,0.83288547039759,0.0163581807371676,0.711987596320373,-0.0183043752902657,0.373772028772469,-0.241588938227948,0.665705246547511,0.536079910744079,0.681144506398614,-0.461041128849948,0.844156497724707,-0.933545265015347,0.526325019594267,-0.690681048955096,-0.888661742232602,0.705379938545299,0.106159025538947,-0.0366982098009795,-0.755391226591519,-0.893315256269959,-0.57339047858275,-0.268300410829773,0.119384620241288,0.655556435425602,0.823786380515453,0.0751981866800563,0.776894988751174,0.610573771338656,-0.713268122012924,-0.237535692066231,-0.649582422733436,0.037416832234808,-0.947360859597349,0.541834763925571,0.275763879218644,0.0436914109437444,-0.733879495224383,-0.451847594998895,0.944910791597805,0.028792004029303,-0.0132206157477406,-0.437244674938502,-0.37874777098161,0.83127202656571,0.618479406031572,0.618946743148462,0.861462838327179,0.543864248298192,0.357073094435884,-0.976565788210846,-0.329628307129521,0.862333185009548,0.0236167018808203,-0.184978216849909,0.207270596083311,-0.845853972357809,-0.120713756191336,0.439410729793899,0.11153535810794,-0.675049420883781,-0.591902640481774,0.823476643459459,0.531469311931078,0.55274954617365,0.130371424481552,0.374875669169289,-0.0826478451504732,0.423505070607657,0.343687658511839,-0.892156873444896,0.535099834325606,-0.437357178741617,-0.774247740795536,0.738300144889671,0.193351497010628,0.266210864609492,-0.764153684590993,-0.526157477332008,0.997167893409827,0.752533085715013,0.849637682870129,0.381131761409853,0.516396645884651,0.873111742113453,-0.578037478222999,0.388928743098382,-0.565364349307979,0.40749797796612,0.533203671292716,-0.182580833454236,0.672625966593621,0.600209694854171,-0.611423386536907,-0.106212978659546,-0.847471007014932,-0.630853669226332,0.170123684433601,-0.340817577143914,0.650179484174357,0.485308176704646,-0.98497102243077,0.535263257551916,-0.681684705857964,0.159656815091407,0.987735928257968,-0.980329064197169,-0.132818667563494,-0.107283455558295,-0.861406482603516,-0.0337956628162395,-0.827782919643262,0.458511449559124,-0.341789539274362,-0.0865375407216638,-0.0492029957569905,-0.0432374054193156,-0.251838235848307,0.987508154557316,0.300864678281406,-0.880098691333068,-0.638514216470906,-0.240789933219129,0.0118544194291232,0.790154636269431,-0.431302195426459,0.157945175485321,0.97631990916401,0.869160844776509,0.0988373266980077,0.466884089191636,0.816436985454467,0.863628387117342,-0.437207573966221,0.472639087646122,-0.216812936978503,0.554464384818074,-0.984833561532114,-0.835635068725429,-0.517069846190399,-0.438836497182418,-0.443611951622137,-0.34560511426337,0.396318932291055,-0.372904459433009,0.794688816276469,0.222818123652381,-0.589106339394933,0.894834196939088,0.160376571310199,-0.721668846431086,-0.34329122879641,-0.292828439689294,0.141434188304794,0.387448804818659,-0.0797358284470498,-0.41683111140832,0.514236679506849,0.979467623157366,-0.0972786255686184,-0.575400910294692,0.320376189670855,-0.652671182595034,0.405293708418426,0.1419752262595,-0.431343732410929,-0.95828596545106,-0.522385409945128,0.313962772350324,-0.482701053217027,-0.0671504892051313,0.656056406174775,-0.405154777355313,-0.609471353403306,0.149774514514504,-0.579416924569212,-0.6060991016752,-0.31047576953595,0.305561510629977,-0.17780174798706,0.60848863515472,-0.0320933587872313,0.70505013210172,0.200419813761635,0.691959680820352,-0.929554964640283,-0.0937090429607763,0.786339776998928,-0.388416675514981,-0.326420907618905,0.0279870409382357,-0.388135461194817,-0.609343652166643,0.282504350739098,0.322993390624555,-1.00855843706368,0.174540560713392,0.305385634644082,-0.858555920605687,0.926292802679534,0.42027018479036,0.021977930454045,0.670808356986535,-0.869247691098011,-0.431616531237768,-0.52182856038937,0.582207109857024,-0.685978063235954,0.67740219427323,0.920779941510914,0.0575262293710732,-0.255398877097065,0.973582284051692,0.285407407552277,-0.0487400143647809,0.440260055526233,-0.487802201489142,0.564077753330422,0.00973631889306596,0.501546285796247,0.0564927123752651,0.134833897975933,0.741101478395899,-0.566610428797381,0.256472399584273,-0.552830022501677,0.459259925019056,0.46127365273388,0.35323883814919,-0.0666852800579731,-0.484847605753869,-0.587148027473196,0.119180239534107,0.495160945083584,0.134922479346837,0.0608153368404451,0.821582420874652,-0.117448942072302,0.448186244638963,-0.206059454425026,0.597491784630789,-0.188473824703826,-0.297906417803839,0.782426317190544,-0.856088503011486,-0.0256526832481434,0.552904054844744,-0.137434584277375,0.0880850264421451,-0.0684092594671664,-0.73319927294496,-0.499823999254954,-0.11434277780094,-0.63522510530043,0.305976920540445,-0.568146594455424,-0.714744710211517,-0.799772930257745,0.575092347546229,0.442687487539782,0.214676822132824,0.126939878618777,-0.93550711581116,0.132827570106046,0.866115925430414,0.673652547632555,-0.238590274484722,0.62503068968008,0.775429955353263,0.634963910848297,-0.355520996662366,0.283589387391831,-0.752341715032264,0.61952891701644,0.169457673153564,-0.45368854612687,-0.799730844598592,-0.565730521128231,-0.739714512272363,-0.632028013895433,-0.6998248380239,-0.416443714923004,0.36364321585725,-0.767562575249851,-0.0546993331913904,-0.874423569369342,0.107075375030402,0.09883073779667,0.635633274055476,-0.0848542367828549,0.290274922559177,0.950050952497247,0.443928974589208,0.293310832168991,-0.912298000811964,0.19912553622977,-0.0165267515748659,-0.635514352848907,0.787594909865787,-0.693761654798158,-0.0879090962612574,0.919934042698263,0.150788643804871,-0.50510759660126,0.533225503917973,0.804425633179472,-0.195877158722213,0.799357780576272,0.342747237190893,0.860064693508489,0.478548090913815,0.177490385159918,-0.778690121896681,0.566319888348471,0.214710926214179,-0.294806436823071,0.226590137500228,-0.0510298034263021,0.2506273768896,0.264029000318855,0.77560892914632,-0.81852286632596,0.310155932002745,0.271835726582331,-0.127273379661807,-0.567043734660462,0.28001777625759,-0.916672501637508,0.414609364653146,0.375918358261656,-0.896453450813869,0.250212928413061,0.609801324282463,-0.104429867471598,-0.683738730350213,0.819983367025724,0.883377061249131,-0.212243711834268,0.772617131702757,0.47778502475168,0.926257211646033,0.66913773664256,-0.221369655686207,0.030204188511275,0.293016069797092,0.57997069204677,0.843368132784694,0.404256313579557,0.245226797624061,0.936221454468581,-0.813121627315013,-0.609525420298167,0.511786782064758,0.0611377964697655,0.804401836188856,-0.0308729424609424,0.953330544037879,-0.547123522752065,0.431459504350144,0.22673856785546,0.0286345669168437,0.3408618919024,0.840043793499386,-0.668758957753665,-0.53410670276839,0.568453167978703,-0.457777046345485,0.439281126134017,0.163843328591121,0.7873140035531,0.226112488907697,0.668087864392392,0.529433897949633,-0.420215341546422,0.536080835332641,-0.597822154401263,0.734229286139381,0.20458094191293,-0.133696946014626,-0.310951453352553,-0.893169279700873,-0.36275317461671,-0.39336256528314,0.543633746006906,0.937758831305275,-0.798851631169374,0.908056523876908,0.756262104758903,0.123304050898727,-0.707621755561005,0.446362914077728,-0.808471868974635,0.0486380896191567,-0.963435493137685,-0.755337481328312,-0.803156799142117,-0.710842988723396,-0.355354904259946,0.602776267689136,0.948360379768277,-0.265269657795917,0.822030269194148,0.28143182117458,-0.827780668416697,0.0466797823353664,-0.744009509017092,-0.903891269684313,-0.555860605044067,-0.570452225526032,0.142908441356565,-0.136147669547473,-0.561773720702407,-0.0290499052313833,-0.435163005619096,-0.0398949481851616,0.368333435054726,-0.603936346589828,-0.664239178310988,0.718126974990845,0.29497357918998,0.154955127069573,0.149371133936274,-0.286336522002681,0.527883151603281,-0.889231814259713,-0.235344857517621,0.154471568033551,0.385657609357012,0.115123421138406,-0.164507151389621,-0.472148214402282,0.35357911181319,0.566952360098586,0.86962183533855,0.337296574731391,-0.238527880725048,-0.25431666929157,-0.0963470860345934,0.837658269596859,0.356091434711364,0.579888095938034,0.350732879451996,-0.810325889172482,-0.870877320436978,-0.620919128469189,0.035845588298836,-0.683066777136534,0.126942106896135,0.330848121269884,-0.183692598432553,0.339895755838612,-0.215764665907616,0.690217660889939,-0.932064837929309,0.500195134257378,0.690605984930021,-0.858289711967254,0.920223966325393,-0.150954552280154,0.0728771836858446,0.0392362291291112,-0.439961903971558,0.489677803207234,-0.942550464829738,-0.0437292749527733,-0.79997029803303,0.597722710446516,0.532885982834506,-0.67082502295711,0.713197068343136,-0.351352341587047,0.375750604640821,0.0414903409740132,0.417387028028108,-0.548081899985432,0.713851311878297,0.558309818652248,-0.688236898680943,0.411498456219373,0.247218900513269,-1.00394517885789,-0.0148311149112223,-0.111793899209188,-0.890403867493999,0.118606590170728,0.733757054371418,0.909480583593426,0.0610118982874929,0.562446031164559,-0.921493732339861,-0.725578480286518,-0.947175974243134,0.707082529946702,-0.310599208778294,0.892071813915956,0.865937484714401,0.863413832154222,-0.050441869758799,-0.614133040401369,-0.671684445502722,-0.0812005576154189,-0.870170921843487,0.786576704718999,-0.706352115149836,-0.197687799075689,0.427492365831626,-0.0579304029157634,0.511766843936044,0.712326951079378,0.671738552010175,0.33489807430325,0.0755799537415584,0.904207063434276,0.433661316376915,0.443678389353616,-0.809567173009106,0.191211920443338,-0.607036876222947,-0.931032789574245,0.840102284932919,-0.198796391207471,0.890721581104702,-0.108292998620569,-0.618469576870811,-0.468750247018756,-0.388724766205456,-0.610824736144531,-0.774663718547907,0.879283180224572,-0.143815088574998,0.929662527190387,-0.193710569601857,0.0277492298054948,-0.690848201847678,-0.0500996326422394,0.900783331433419,-0.975228790619923,-1.04137673254571,0.0627691862216102,0.565095564997633,-0.514665179284348,0.833411940894216,0.101890293721337,0.681323519982452,-0.945403335505742,0.290309145907907,-0.489678821812858,0.45877781244477,-0.323170904574064,-0.702123730559047,-0.288445011972042,-0.988101018061925,-0.983318858888808,-0.239101569873932,0.757985566485685,0.859301309453866,-0.380211740153897,-0.194711255290164,0.0712318342226175,0.287980425682944,-0.752349836172803,-0.388172754933541,0.59034626019678,-0.0493808870238306,-0.481864203875591,0.116905475942846,0.908519958598804,-0.644060241445678,0.138906383094657,0.404187397644692,0.377560936669303,0.738495091228711,-0.983038261296374,-0.920340792293573,-0.00579330963177494,-0.208183492482414,0.0589902516547091,0.312704240957845,-0.307712287347569,0.902866333785646,0.277326814071109,0.833925051702334,0.279429332710405,-0.853187400826963,-0.0619576617904289,-0.0700341050205897,0.95496893058934,0.118180012221588,-0.855427989182942,0.612673240403084,-0.326033209602745,-0.463866411759462,0.0905742652863126,0.196241109539388,0.222262819778946,0.0776520851830796,-1.01785299556264,-0.154036335465231,-0.530212783564881,0.40800211519377,0.264595238424077,-0.208691807788177,0.890876345190953,0.081935138723363,-0.456534289850069,-0.122552179301666,-0.276935174929777,-0.0115459972164618,-0.19588154491458,0.716432048149416,0.685072715399113,0.35228626859666,-0.247807596810612,0.743393336908881,-0.604404276700194,-0.776070755768833,-0.716999833727181,-0.335366901873202,0.623876288688503,0.259016259304298,-0.404980965145365,0.402971723677178,0.569606360336934,0.0959716155266225,-0.671128813075002,-0.509278871180501,-0.614011373912359,0.525292620981738,0.927465373995042,-0.285034086088472,0.793138018446469,-0.645772592911342,0.630144449717496,-0.398239696118564,-0.91419191193303,-0.623242054504332,0.297017772808155,0.342803302704597,0.168878122302804,-0.707494983384019,0.38080039307497,-0.984688667266567,-0.790245555552401,0.837480089580853,-0.483331682780867,0.878178951101435,0.0149432061231782,-0.101665356284646,-0.464008693649256,0.771778587134135,-0.190543162014144,-0.7711434885291,-0.362685915527995,0.565354586540616,0.655659835279062,-0.898658521021465,-0.356209152893015,0.612356550165155,-0.000666925824126859,0.471886803991016,-0.119439321424796,-0.540477402930186,-0.670315764950076,-0.489625319013765,-0.414249182833122,-0.196808693753137,-0.949321157579789,-0.154608989816149,-0.843626492596987,0.875180137546983,0.848804888556436,0.14303190262122,0.548604649898873,-0.41820149120688,-0.813365009409797,0.742898103819116,-0.300409788198575,0.324161926543457,-0.281489663951925,-0.670008235115273,0.225733060216226,-0.837514535571047,0.895690314787722,0.250812216071469,-0.440852253818789,-0.000923733214898137,0.398594216577377,0.58689731216883,0.0208851630129661,-0.827068883043274,0.34304252136983,-0.390836727883014,0.902639436573489,0.0825173525662466,-0.718948646445305,0.827093387536758,-0.885517412492131,-0.374084823523762,-0.543417582976608,0.732850095555635,0.742446918349814,0.724347654282328,-0.530219652933645,-0.281848419028097,0.00290224777308712,0.095585229238234,-0.039844564006619,0.672236181793976,-0.603714822114688,-0.727341772399755,-0.933045204600422,0.567653696120697,0.587756796029357,0.306613309599136,0.384037640570589,-0.915705362053861,0.86926295245554,0.197509593294342,-0.721163893974216,0.534174811132702,0.231826182950094,0.154780096419133,0.0139710662925911,0.66272805125824,-0.315534995589985,0.757011373130166,-0.37978978236329,0.36563564827112,-0.990068793576673,-0.325926370298284,-0.0852271364909671,-0.421021515521068,0.538033201823477,-0.729926911470965,0.70407814435454,0.576748794022205,0.363936180959615,-0.224952403345205,0.811941550117631,-0.637279167263046,-0.571568867314253,0.924812283533111,-0.134941610165158,0.197167113741185,0.508257027172056,0.398530562674958,-0.113338913250577,0.178644107661603,-0.612267408360978,0.281207635515483,-0.477985556424988,0.0333452529620031,0.125965371896393,0.464086744401643,-0.337528627090886,0.98369125722288,-0.416111798695543,-0.657680922424036,0.600798966968526,-0.858827843706111,0.583804750674055,0.749145551486344,-0.767922664711254,-0.652261860301905,-0.953178132115851,-0.40816167166023,-0.956306191067087,0.536574844463629,0.762049880148621,0.566402913418803,-0.469381383221478,0.203141830372354,-0.888464482339711,0.459709273463784,-0.324878910114474,0.389856832473346,-0.338897607877677,-0.580890627723356,0.346696778576841,-0.998450094894524,0.531034455487442,0.464587221252568,0.109117346865906,1.00236207989876,-0.25579856695488,0.668966226584294,0.879592628988505,-0.632492348443262,-0.427945280784212,-0.600336152383478,0.8971712832739,0.318156731354654,-0.301705645244267,-0.0752678744536525,-0.0175919601527197,-0.23424090798303,-0.14423778357159,0.795324415735621,-0.391242475779591,0.419610614575246,0.644203502055657,0.934489296008545,0.102364543449774,-0.197906921863575,0.699918863597062,-0.667495960341859,-0.0471480227181496,-0.661954828000137,-0.58411928787653,-0.0614397434964847,-0.0291210544498062,0.907278639773129,0.230502411966875,0.891580439048331,0.565795649527544,0.861689293708105,-0.97931019564376,0.793784697804726,-0.519186619836931,-0.765311451565843,0.889626489242745,-0.073076299072552,-0.773420365640158,0.764949714203465,-0.947336622146564,0.778242892224275,0.474994038493616,-0.227031119920495,0.302630631805053,-0.300106222414381,-0.653706875398326,0.721995612434115,-0.841773946830337,0.758458959089532,0.310744800328657,-0.611260851906646,0.221970697954609,0.964303638564809,-0.333105781961474,-0.0149263696197083,0.0429272125997097,-0.889785176466976,0.0921997417606693,-0.117106892192267,-0.511863578652165,-0.755478292978648,-0.728977321623869,0.892916183097289,0.153061830986881,-0.777333826558187,0.671241378563515,-0.066155690210855,0.797324140592797,-0.604799758560303,-0.153640427127655,0.415670945820228,0.760912846111521,-0.0270911693358529,-0.837315223919805,0.2769615718803,-0.699434542152639,-0.887613816961961,0.963846235176981,-0.532370331083877,0.668196684659916,-0.716476672175636,0.575501042910017,0.0744895907238083,-0.528791673679209,-0.18165713688372,-0.673381821593187,-0.121837509476617,-0.146339283473059,-0.371544329294768,0.883760879714261,-0.507642353153201,0.991785309708898,-0.887631067971085,0.720522977945068,0.170997246484897,0.174054126162867,-0.217948769551701,-0.0290703571723812,-0.0115339622217053,0.602476179294118,-0.14205745841252,0.207330411927011,0.264822014059717,0.0513852252838072,-0.186400359628481,0.374799174735132,-0.149535437455075,-0.523214828582928,0.548875918824933,-0.600362642385236,-0.336338064046097,-0.307891736826029,-0.11636663698085,0.680989447219086,0.602656846980905,0.331531645933157,-0.489570560790922,-0.301489079971411,-0.092694304952934,0.409290282013428,-0.00715544996862337,-0.307430370722647,0.613085511735656,-0.652245225625661,-0.575607740410035,0.690760991437821,-0.133638911316438,0.879285622308673,0.567349940933266,0.661692375945827,-0.449414530739844,-0.223148359220744,0.867193119468262,-0.11227161155736,-0.470277957978992,0.47338380274417,0.11662142890834,0.012961877420218,-0.307137232894115,-0.991691089325538,-0.434595073279377,0.695675108397516,-0.370369677447561,0.888836504619645,0.333606347595859,-0.96140318068085,0.473219029169576,-0.23849656491879,0.997983561366669,-0.585930958386036,-0.699508777393271,0.591437152280177,0.917297119664001,0.854909669848757,0.520788921953655,-0.0864641158803769,-0.884410984870912,0.938623611393201,-0.67753262966446,-0.719128909951539,0.442340187990861,0.891204050585065,0.544591310609089,0.11586812417323,-0.715448063226201,0.274595000013176,0.254815420937179,0.696544635569154,0.805590891166182,-0.747112289448707,-0.840705289487251,0.0722788889341242,0.655587423053624,-0.9147795235263,0.605943728799034,-0.975797533961694,-0.394136078068559,-0.560431642369339,0.959467523161663,-0.829978288251833,0.425008942605141,0.611526798036184,-0.335378991141618,0.936907899721591,0.581931460157669,-0.0583988900156631,-0.179192027165251,-0.98742026455438,-0.228667389788832,-0.910227089109793,0.655642692105174,-0.848310060948863,-0.65209505418834,0.949290041374784,-0.315968092847345,0.0721562129984201,0.867042741475935,-0.905533398709572,-0.65697838529644,-0.661453491682946,0.534418782718628,-0.925374259507318,-0.046121185191489,0.491380094480212,0.533394740773367,-0.404622405160845,-0.605962332249524,-0.0056715778373889,-0.943090245702832,-0.166113128379294,0.164545930784138,-0.843154769595881,0.3642207366809,0.795273242783627,-0.890622081379163,-0.859247261389797,-0.317944951810274,-0.660790618398938,-0.850051418336484,-0.222666422533229,0.742174278596271,0.28754601310472,-0.141841232017835,0.0917538690983064,-0.239498544134431,-0.742249644209977,0.0876277924737804,-0.217218568653295,0.210074854311188,-0.247726780077044,-0.560007935315546,-0.989879999798255,-0.682441700339487,0.0758398726830244,-0.685964007900887,-0.0964164213814197,0.805342917131903,0.653520643857168,1.02157179256607,0.715508462892981,-0.695390927457876,-0.284258337529638,0.560016335865243,-0.861180505510055,0.541050554844957,0.422475006141462,-0.226390768769011,-0.117562080923268,-0.845251285878082,0.742819755596691,-0.353589903988631,0.676321015383642,-0.414552342676831,-0.186889126555548,0.676645893483778,-0.0148097233583316,-0.00917708963663469,0.252834752027484,-0.519362354905437,0.720349969739561,1.00174679200398,0.588214339732034,0.727539603091884,0.431093247280445,0.232014663856863,0.826545968555662,0.533897060948817,-0.637296963055952,0.694057335112853,0.878123105774805,-0.026308403925561,0.875578799886701,0.0653076656940907,0.39967366817841,0.368811851631921,0.923886191764548,0.429085666679393,0.484032380276643,-0.4355166650491,0.740360525936619,-0.75459308150518,-0.217212687939274,0.545027174769188,0.668389755107081,0.0167585289521335,0.996525834358547,0.328533026225145,-0.809202780442418,0.389741047127474,0.215048705670097,-0.256576183325569,-0.961487898609894,0.862725106981577,-0.558852012099273,-0.819339777939359,0.0932542136107497,-0.13380523403452,0.0585125625532412,0.791037340889898,-0.859821973423467,-0.845733078236727,-0.605696602827289,0.280954114091571,-0.359346718522628,-0.79394785119469,0.120928898886073,-0.142347964205315,0.420102661768717,0.315031559212083,0.899625899044916,0.110016836414931,-0.810544731592401,-0.141441026581826,-0.380002876211354,0.459357648127287,-0.60548421654548,-0.685790500091335,-0.545627483659885,-0.580192340738536,-0.205610896181729,-0.993370609414178,0.288232129938914,0.109728072236227,0.838649071523111,0.0681020489584649,-0.688919572562252,-0.632116647093308,0.98989080935215,0.5835408828543,-0.182463388131979,-0.550649565280315,-0.219895721058549,-0.138248188299219,-0.853605196446424,0.615448869103566,-0.829228468372459,0.786589406815011,0.817373456044154,-0.781242065446842,-0.847694042688391,-0.124674935124302,0.802051876418642,0.1560132319637,0.929293821791067,0.0932400655165909,-0.361427493709302,0.602472224841547,-0.0413865343368369,0.347509202247455,-0.508277391949851,-0.881873268294094,-0.810014438140336,0.220779183998597,0.270789363677974,-0.0954542494830794,0.333579253213171,-0.570867813937387,-0.88627320893076,-0.518938483284221,-0.681711591414581,0.437507362461374,1.05589199169638,-0.212832461427506,-0.961828298447922,0.223226291031856,-0.710792751819056,0.217068404267093,0.0574764876287262,-0.325800062558432,0.430610867825544,-0.335802844548839,0.0698633296224043,-0.111219378845444,-0.973907633904837,-0.748602528391757,0.440605341977846,-0.210964410684113,-0.519705574111721,-0.817305955142527,-0.113988994289379,-0.384502797296833,0.27847658650663,-0.944992668614513,-0.791032707561531,0.570605273904176,0.413211306297884,-0.283500704202146,1.00118590571116,0.127475193235028,-0.239789879924003,0.468740695057953,0.432121450441642,-0.00378715208530555,-0.815318724688991,-0.794644898562276,-0.607797338491572,0.409847406467774,0.318374922773201,0.695396292932305,0.187317314124942,0.597189160311379,0.297919510374414,-0.768572590231663,-0.509411989855894,-0.372006906155115,-0.38518858485893,0.845189075030124,-0.89190489320158,0.367876976198468,-0.00668955995867667,-0.0290657264620707,-0.0678806878959364,0.659085704627378,-0.119676646838281,0.38565368559296,-0.1656870999405,-0.703817394288774,-0.219509085284739,0.0955827172588403,0.396944253472155,-0.907980264727375,-0.463920775871885,0.689852824733199,-0.0539425335865353,-0.244192874595939,-0.224129837037267,0.122967891461108,-0.0437523644246539,-0.638133567541909,0.757364126721236,0.0832287391204668,-0.230346288841722,-0.75848493194208,-0.266451835029617,-0.857794295578944,-0.615753670537658,0.934061211575167,0.615424683438122,-0.540782862285017,0.836758576996871,0.221105699486452,0.337884506307408,-0.542643533611053,0.89929783474941,0.0592231527046255,-0.982454455415844,0.942939600090671,0.688127507033278,0.264064115514361,-0.838054359321315,0.247435539974579,-0.798917132590177,-0.420568025609543,0.284118993356481,-0.967678580361975,-0.607702878456584,0.468635917151223,0.0387762134379817,-0.52666999071764,0.792399739834692,-0.569460065823391,-0.246373068195009,-0.683524549269637,-0.262118766172587,0.480066138771546,-0.848890536170264,0.12174877340084,-0.531079353381161,0.836335513246342,0.022853891309706,-0.684584459024365,0.650030632278744,0.505590991275836,-0.327225354569006,0.155758071320024,0.196472975095875,0.19997648280247,0.191059829220792,-0.955564926092724,-0.201605919265883,0.921109177361245,0.319505551952113,0.85900378369255,0.735791203336844,0.418751734117885,-0.0611081378151768,0.687167301302111,0.710513562284629,-0.606902622033994,-0.346239716229671,0.132220999638092,-0.643620498126213,-0.104434635425831,-0.603977926427794,0.176774379219521,0.570822788808418,0.315466900867287,-0.9017599386405,0.318901298631871,0.318815420779886,-0.897045991325734,0.526646543015906,-0.828320683436255,0.780810725736631,0.40401356566932,-0.80745928767109,-0.363814411597868,-0.631152489449482,-0.518280919344903,0.942154120115277,0.937116547756979,0.595933202486402,0.828536462674399,0.324086134006322,0.257981201260348,0.0118391017386424,1.00120031204247,0.490130619655176,-0.267439640910343,-0.808669234506826,0.443395383236352,0.0469043180712437,0.057757939341626,0.62382389725552,0.669244334720584,0.884125585077871,-0.0268930825381775,-0.609161013746975,-0.624777633756239,0.235363145288469,0.949453676501039,0.886888247091652,0.107849707614889,-0.435019903353548,-0.558135394644805,0.525859420534321,-0.582662110573518,-0.115434498643876,-0.32541778381194,-0.174411220559468,0.565897617497388,-0.995060589763484,-0.588671298351429,0.822637776039276,0.723404734396826,0.663070764316801,-0.580911426610373,-0.395313830772267,0.476131457306979,0.226032494547036,0.178654901642164,0.823610492253369,0.00356980437150883,0.624052289214091,0.609395239623043,0.340948693748901,0.204149885401686,-0.360955904992928,0.881727433385038,0.860418797848135,0.397882023590954,-0.672257097003075,-0.627132110474471,-0.36745119039369,0.301922353925777,-0.433086944468055,-0.279273055626079,0.70193617366799,0.977274405405279,0.687104121538394,-0.0500169749027114,0.753929846492203,0.447781862865407,0.906644724392932,-0.462844810776804,0.818558436592385,0.445565747306163,0.312867740312622,-0.561334871282764,0.6198331815679,-0.149897115263684,-0.209442956815764,-0.0459613145486255,-0.422653701792208,0.185388043843279,0.924243867803192,0.790768253528357,0.875320793107468,0.0300124679886291,0.0637654803204544,0.111199068487627,0.695643749362795,0.695827080925125,-0.792949151616075,-0.49440262868948,-0.283106113059844,0.461693298669937,0.375673601996745,-0.374275452076885,-0.300911565588469,-0.378210527859356,-0.0624602178144721,0.76153058676977,0.76253496339668,0.172401599188369,0.767881935777165,0.629597131423382,-0.425449452350529,-0.365390660332525,-0.665042555495108,0.898017792815013,-0.164665954718322,0.734578065016383,0.73665138431646,0.587376092042031,-0.310018398755173,-0.876741602926859,0.339588887521959,0.189949449879886,0.0921431989227301,0.320844799200435,0.21272664086356,0.415753019076504,0.459365415118339,-0.195658006542002,-0.44214292412656,-0.438491311943184,0.829420153884467,-0.049932949407455,0.517205567772554,-0.137051774317118,0.314847626338803,0.356956442630212,0.765678828243234,0.421705147188838,-0.30822518635889,0.780194357770459,-0.419816329321633,0.751219583059574,1.00120715673432,-0.0394826686934194,0.767083068886168,-0.33115336112873,-0.804863132540601,0.94722312877667,-0.499771539187334,0.286525863933689,0.870954849021972,-0.387681370560086,-0.265638201494519,0.527920295218705,0.0452122765063625,-0.291343151731502,-0.196972210175626,0.541507485149571,-0.820197207099263,-0.841981261866632,0.891006739141524,0.816724189013859,-0.258858530272659,-0.804770527855273,-0.26523698030387,0.378083570956418,0.832221982371601,0.11657065094443,0.181328762192905,-0.299887193478175,-0.383917471079671,-0.97269031176207,-0.168391252789292,0.852760932022177,-0.332292399968527,-0.388740088390819,-0.726042281486165,0.241675805319487,0.0819608432807495,0.848138531040949,-0.573364209935116,0.664307531122102,-0.232085113201765,0.539431214063188,-0.568256813863442,0.76724126114316,-0.117589190723456,0.777146774072923,-0.278938793888542,0.384995367407123,0.177973831819632,0.654094004258194,-0.672215053447232,-0.660484003223559,0.12909380048718,0.14488257036854,0.749062284150388,0.181990929515367,-0.000605246560146215,-0.396405302876224,-0.269953853187551,0.657907900467548,0.0853301118939547,0.121455921176661,0.492460669527648,0.326239545563655,0.979495382193017,0.374812863636384,0.185916908621228,0.475367583884312,0.150929360790389,0.572937210530876,0.845045044206292,0.539104145515284,-0.458797447568017,0.896572968614101,0.718446397583815,0.182598840116929,-0.707517270349693,0.492325413292927,0.176851726047639,0.51231272815209,-0.886142358130521,-0.157557113051561,0.762279345540898,0.752270626434608,0.920109301097652,-0.328927367757186,-0.810113257388798,-0.00880705078552981,-0.816004228090495,0.733468581885324,-0.792071708740777,0.288421568674782,-0.350269333941404,-0.344771790732083,0.668369782698385,0.0912104268192585,-0.026179389750526,0.334278389310072,-0.489838735641373,-0.773193093120984,-0.276337374345514,0.0483035717349974,-0.638245917142983,-0.751314609593022,0.726327691636441,-0.454837479092202,-0.423771768571954,-0.435705196096294,0.408516388679828,-0.967115659696811,-0.9364529789031,-0.864268922224794,-0.401199925755854,0.760338963359614,-0.801425021163629,0.779327446507212,-0.714532119675376,0.374751806197684,-0.574407950412203,-0.341731922649692,-0.0473810082197409,-0.961295794203486,-0.906779914032075,0.792089947412701,-0.76318207116034,0.18573453109646,-0.318671218707545,0.794509148283048,0.299158363139804,-0.513728256282597,-0.240352884619592,-0.686143695664551,0.539598078058789,-0.92578486397848,0.999977416897105,-0.0400086371776297,0.36141591425048,0.0758782803882787,-0.128879831758053,-0.161667653825816,-0.557912923362465,-0.350688402398341,0.299480652462118,0.450612722087553,-0.915893946903423,-0.294077833339109,-0.257241142377426,-0.763446322277877,-0.654650245852545,-0.12102173158316,-0.570910900344361,-0.278627806855618,0.37305756395016,0.542189124488443,-0.320707305162812,-0.963749909889662,-0.679747655656043,-0.422234889945501,-0.16148971292854,-0.381517409894766,-0.0878756644314829,-0.332156748250103,-0.713306214380127,-0.448062461408767,0.0420117103065942,0.608341437111843,0.97711417237897,0.358267722949607,-0.605639666780204,-0.723731792151437,0.144475609025442,-0.793056411559391,0.659632477555131,0.637101801240102,0.553512814918459,0.532456701129429,0.508922905166632,-0.494405481529433,0.623772468372204,-0.147455023240468,0.738498877123384,-0.710749258097183,0.902764694412354,-0.694191942057701,-0.920194110279539,-0.225697876140182,-0.422041516062939,-0.320205207216685,0.31749164458375,-0.256364497726823,0.499445506192617,0.477050899642609,-0.335056028733023,0.535535317009847,-0.4627001123478,-0.612604100497375,-0.920832679493974,-0.213687263770464,0.484276751785156,0.458113364324907,-0.0288608195771698,-0.738357066450424,0.374454017361223,-0.470412949355028,-0.269156814452865,0.934381315856552,-0.993245456581427,-0.157201185435393,0.530148116316319,-0.334612279097293,-0.927553972497932,0.767054507936918,0.805128149778412,-0.838659018492477,0.512043957303445,-0.963044097371282,-0.844285863496418,-0.46431809871966,0.358639732231109,-0.368746169721049,-0.884434107273041,0.321897034284512,0.140270860589243,-0.64062748416107,0.0692410294987515,0.895438773509309,0.902752363059368,-0.847753215909938,0.54283763215642,-0.147528157182465,-0.190346777285874,0.855061572916505,0.0613202947534193,-0.547288945455173,-0.439517951610657,-0.440150828410635,-0.763099988681645,-0.246211529980369,0.488607918877102,-0.175547714197339,-0.518658400030401,0.104116247195973,-0.857420003662563,-0.787667085772049,-0.249053903645536,0.901598868756779,-0.824113463363633,0.844395650686998,0.00383282113003445,-0.473681571013252,-0.40503895316355,0.219805852200165,-0.700423099150758,-0.765276468031346,-0.767474167788757,-0.92359244120436,-0.872349749250968,0.553106444829213,0.450620552852078,0.766233799204108,-0.587005581857859,-0.344687294318475,-0.530725021347072,-0.992025081808093,-0.783023297128541,0.285590761363913,-0.343276332637082,0.723350839400921,-0.0289692099177628,-0.687163709539633,-0.350822944824091,0.185207434586315,0.788639931409351,0.494186864954277,0.547230005179786,-0.732594892954198,0.551595225190964,0.190859105757742,0.999540500636475,-0.96172273449871,0.666411542811603,-0.756266013863076,0.885533385896752,-0.335583529761135,0.249457167033227,-0.885735333448063,0.625742169188008,-0.414637252826808,-0.925345978036295,0.603334883038695,0.549265707600883,-0.779923035287853,-0.776845177912327,-0.319169724308648,-0.213056276512533,-0.468556054407298,-0.928320142111293,-0.234342607811599,0.0715174038517163,-0.4160520159446,-0.978114545873673,-0.421764036322103,0.194550483167349,-0.499772410407183,-0.641070285930685,0.497890214396607,0.680187649920698,0.332573421286518,-0.554966888773326,0.138205288601825,0.916521386964545,-0.31526984026478,-0.699709672150538,0.478642525540654,0.863803297682457,-0.268212505118085,-0.840164174828589,-0.692123021725045,0.734960838207118,0.00380977873901875,-0.565419850443929,-0.459636939653953,0.408727921686931,0.509264622137256,0.00978737307358614,0.825427586736544,0.225799522204222,-0.551162249416042,0.63310578145911,-0.640358125615917,0.807841380708768,0.517080417517082,0.888701879114579,-0.549595213771741,-0.142485809158594,0.309052533759667,0.982581000096748,-0.894864409553865,-0.396502420984477,-0.680473947034125,0.84457305245992,-0.777892999369478,-0.847024903899671,0.291742922945474,-0.071402931751617,-0.201292761955378,0.614552809549579,-0.856564918166786,-0.926417608788615,0.902266598324731,0.159575131426638,0.982925630672213,-0.646148512415518,0.913238092050965,0.291126638819286,-0.118197785261151,-0.799429920967985,-0.450380622217481,-0.910585856446404,-0.95967930243029,0.21999702741946,0.870189338498802,0.448961609469693,-0.904559883489531,0.655563523802446,-0.899847731871678,0.635935198733741,-0.382045785932997,0.754910166664884,0.031291933750227,-0.0421454945762103,-0.109965370425179,-0.331066585090977,-0.213535743870498,-0.22072675344414,0.265962449300788,-0.815278516772772,-0.185867710393498,0.794203293501331,0.000441669945751076,0.900837627707106,-0.678274577240306,-0.413497694476795,0.570088323430898,0.576476354039646,0.834936430026892,-0.588236362473494,-0.287654038480767,0.380674325875637,0.849929145266756,-0.120066085346729,0.23845075213005,0.37025958950828,0.582055935102108,0.8396519277651,-0.106698580157446,0.448433843913986,0.550878355202926,-0.0699447439416725,0.242302601129377,0.378463764536621,-0.648877287017316,-0.398242555538268,0.00835329731565304,-0.576999139656361,-0.0950435909877785,0.591559854918722,0.339271010785252,-0.475902556583067,-1.00727779851125,0.252196267527459,0.350504827759696,-0.153408424832787,0.765414672214162,-0.139915748258473,-0.105150283383878,0.860242901496031,-0.351461836474731,-0.443221565923187,0.767922075261061,0.685532627558122,0.646298760575192,0.160914108998333,0.962335979608507,-0.498817423084398,0.506468442648842,-0.320687391310319,-0.957687240871725,-0.500953474148791,0.9639684332549,-0.168976449410031,0.917984934507719,-0.459305267505771,0.389550593785004,0.431789425998711,0.466670153584056,0.468235218192284,-0.717863381110369,-0.729444407275646,0.167152742692612,-0.074270611335068,0.288468466419267,0.788073408130655,-0.303741209993147,-0.127542338472651,0.585611673344944,-0.406768687920089,0.205102491506436,0.607897647675009,-0.849389594115584,0.204058647756615,0.583376198428601,-0.876326823986316,-0.400462260420323,-0.888662077073753,-0.464721792528747,-0.359501187176895,-0.0140087134118334,0.41953066020288,-0.134547320249505,-0.0152241213802594,-0.750649787274917,0.388122369523198,-0.150591574367175,0.725406160667831,0.917232975598891,-0.511041737133541,0.514178658937485,0.94158331082248,0.37487830337422,0.196379110894431,-0.053616558059506,-0.749696419772325,-0.0532205859162271,0.369463493788081,-0.162307562014559,-0.298352824489966,-0.591579395940686,-0.609297577008886,-0.584149410065774,-0.762469333231296,0.257676531953319,0.926090610545625,0.947948089896516,0.768886054705724,0.481765700883525,0.517957188304005,0.681693101377088,-0.46686118618162,-0.353570653845568,0.927892970927748,-0.33864192223427,0.688130054015169,0.690094043302918,-0.111667121792689,0.861705946374841,-0.679802813470064,-0.980647459292229,0.674092501456064,-0.313038009069337,-0.748209165633041,0.118308197094414,-0.574172853477431,0.307218681599087,-0.169104564009129,-0.165527841891205,0.422799239379355,0.838396408232281,0.284095137868293,-0.339441081190259,0.438578325745264,-0.567006601865109,-0.363982627700546,-0.670904351508578,-0.615189343413662,0.712078804718422,-0.65225386550236,-0.572144671329701,0.506154545064141,0.700662499084042,-0.355045332885581,-0.118977689898035,0.593035484971799,0.866786272151231,-0.121073120597958,-0.681045188989737,0.598913771057447,-0.53987473211446,-0.940051884497369,0.474940191526621,-0.327479746397779,-0.815880500244457,-0.535862588791792,-0.88443326304007,0.60511951098396,-0.104590642181417,-0.874404711494379,0.912819648878985,-0.389919949383627,-0.604414277614897,0.269674086336107,0.592323289311821,0.398092467234125,-0.536738057004742,0.35633028592047,-0.793440584498648,0.388472848719184,0.627493007783242,0.897806922929312,0.656923460919687,0.77752432424819,0.153307232771436,0.838563540628312,-0.804902626569284,-0.873599060818232,0.404312781054801,-0.76059292353638,0.25490329047744,0.92486294922188,-0.3338168613312,0.134991109576918,-0.442481381607229,-0.326694822743567,0.226291875853514,0.730449458472356,-0.591579978299775,-0.238939223835814,-0.558350307395855,-0.0743970096636413,-0.0364691183090511,0.548707981696811,-0.692115257863671,0.767070782698792,0.91948481138321,0.894299554954679,-0.232977925334989,0.574902888900947,0.67887289616405,0.487481778551964,-0.221574939392227,-0.295035819808707,0.937874502349736,0.625709468210344,-0.8738025418607,0.31820049361662,0.561896673579134,0.532992354743661,-0.00301959798725065,0.543945733956328,0.130542831490738,0.50766470552786,0.25110061977919,0.596260792814355,0.077673098588942,-0.430164905722503,0.790279015339674,0.706432377396278,0.177618215020576,-0.846464239818655,-0.0114650582012933,0.510180894958829,0.721898649372721,-0.832538092704159,0.0190445691576968,-0.928736883151956,-0.594834310623412,-0.174317909540322,0.510473978434612,0.331276997948843,0.931668683540236,-0.223076597334661,-0.737697809357738,0.710048092532778,0.586658667588132,0.706267899539073,0.613753182614591,0.967640642586673,-0.344417174910017,-0.454998597640766,-0.621280953251138,-0.921562169660147,-0.460160497782398,-0.535064787980304,0.888490641581028,-0.0443718791069303,0.921825651899588,-0.928971857885498,0.752134864562982,-0.057664211776765,-0.73814591158589,0.301617860523078,-0.293349502931011,-0.713001797985759,-0.294388206949693,0.357189692451521,-0.68861844430701,0.318485169599408,-0.00409156265496105,-0.0605332623676336,0.132295686156225,0.328958401175502,-0.452757098781472,-0.0389448774114476,0.715091384081577,0.420021115299874,0.0196853575070702,0.517824340499957,-0.846064183151566,-0.0835612866603767,0.477779179779684,0.758845111764163,-0.822951659215062,-0.32661657199506,-0.749152523984018,-0.061504254276184,0.523238774366555,0.31640501276539,0.229552917768518,-0.591130680959019,-0.15263841470532,0.903383787405602,-0.729862152017182,0.148493181991404,-0.889534013870607,-0.608917016035933,-0.000780753921762473,-0.163194005854725,0.849888869782554,0.181847569687529,-0.215881499322619,-0.815786260251507,0.147187352739581,0.0451165151063523,0.747776485733551,0.469997197094078,0.148906722003397,0.664797001682704,-0.794750751401491,0.116147972347708,-0.383597237137236,0.873809876591824,-0.163016688708925,-0.951755532381732,-0.52861345917443,0.517422767986559,0.735639717358917,0.379107954921064,-0.375252536938613,0.570497047559326,-0.618658932026735,0.0937500781390034,-0.35318680580371,0.348375418644153,0.355229311607816,0.148378739955371,0.348984219823259,0.884318669657402,-0.0142156518056504,-0.451109896487404,0.387421466880921,0.691369317057087,0.966581684449821,0.748013569859117,-0.244561359859185,-0.788797131774601,0.278832566346573,0.324323683426683,-0.489926136862216,0.261015106391087,0.500432002462585,0.278106978035834,0.332264555467941,-0.437214562789025,0.591790055198143,-0.419885856353277,0.854836801020776,-0.0638599126641967,-0.106147903975522,-0.333175437671258,-0.447469268017432,0.896982092444636,-0.358647609297807,-0.546324661232094,-0.903755820544787,-0.409845074057153,-0.77227514880859,0.462454587784197,-0.472316582312581,0.680686170665712,0.519190533809551,-0.493876632905423,0.388429038113383,-0.806202112046513,0.438121830147295,0.249457113136392,0.723565258097137,-0.265533073992134,-0.612842607002933,-0.641219673332872,-0.0591183739448543,-0.285810627005139,-0.353378165232087,-0.811654845248792,0.0184498633049468,-0.910186571021028,0.0293250936765304,-0.88885663289899,-0.23824516991844,0.180175160037897,0.866617485725773,-0.892453087513749,-0.403860534162018,0.332217207887024,-0.275555158024156,-0.320184677634873,0.532004714166024,-0.544090909601974,-0.848771466604489,0.873206889410791,-0.883500321798955,-0.932342156379808,0.0466991899978189,0.952274117993654,-0.906289605858916,-0.0554042693829936,0.586247612455043,0.669166236759196,-0.650972728953147,-0.219911766646474,0.727497274949432,-0.232180916293449,0.163357752310214,-0.345351460460885,-0.457555833204017,-0.242968216818118,0.229776914964177,-0.0900771143198946,0.295138309677736,-0.0295880894172166,-0.185292204633881,-0.32231946132473,0.913323039441371,-0.657519026381478,-0.043975678459246,0.928475458793761,0.852293642197487,-0.928021915200363,-0.960227276025611,-0.154470450711256,-0.894800629480532,0.724830049142596,0.679841258906282,-0.0397184801569692,0.343543755855637,-0.494427461506667,0.341774883325458,-0.304686120887504,0.728154360608146,-0.0277050326608315,0.817618515757201,0.816926863974238,0.866735227970746,0.0364754892200625,0.351413408274003,-0.839197876208842,-0.971109872363735,0.0679947990163526,-0.155699137411775,0.993968000278016,1.02951089965642,-0.384951837364905,0.0173677496451528,0.688060657784219,0.164966193108991,0.0424651587032584,-0.895666426435135,-0.970766067608727,0.216790754620754,0.702647979921838,0.596573219207206,0.543324897607777,-0.590706224661221,0.0474722363522397,0.000528391826742067,0.3107478452809,0.00732292190419813,-0.304520073569645,-0.84374950512745,-0.828151547123483,-0.0264257538243281,-0.892566749333699,0.703576893243765,-0.331516686533043,-0.184299665454992,-1.0995857104576,-0.180442596350661,0.442616643765316,-0.0750615744855163,-0.476263856841724,0.648203203396435,0.685446714825985,-0.451574933523965,-0.204803425591163,-0.518314501435669,0.870395905271311,-0.669376857206966,0.166852335382774,-0.719757866492949,-0.65026096117326,0.724570926645597,-0.60500103242013,0.921567788476338,-0.271532207116237,-0.990912995729994,0.711359787229956,0.69563308244522,0.0814220521346116,-0.0484479480973454,-0.83004069034268,-0.240708712850053,0.0470546333625383,0.941698067384411,-0.12267396113605,0.62389927496574,0.792176999424571,0.660069605486305,-0.0199140814568091,0.534847659507492,-0.973417032072928,-0.30309619908763,-0.571535880101053,0.259160700371986,-0.337602956751483,-0.60005384103266,0.725548192786164,0.435380912660475,-0.339183781385706,0.892023509840076,0.18008699675917,-0.135270142824505,-0.590195289727078,-0.622030249044307,-0.978419968902566,0.693867775964769,-0.439077738410005,-0.1963145501173,0.433707293907028,0.701677893266568,-0.109286522056298,0.42659579444454,0.776689364650753,0.262691400458309,0.973425273326802,-0.652254837560318,0.256177494123387,0.369248627546521,-0.664925657379283,-0.701848659744819,-0.715122180736045,-0.814713591557963,0.834647575102655,0.70658902366089,-0.285736441244098,-0.815868444373409,-0.335578716481672,-0.865076367015961,-0.823907871263336,0.4460978610669,-0.178588328821103,0.0402293439208965,-0.459554273817903,0.447619131312511,0.73768683028994,-0.630709566791933,-0.233804608987341,-0.195148073029971,0.051782420094449,-0.650301642970524,-0.176989811971922,-0.977715672559742,0.820104771715019,-0.0906890686253901,0.473253534173855,-0.771419295016982,-0.810399430513531,0.494463440737747,0.745521238000468,-0.595836401899716,-0.119867703851807,-0.575984702894628,-0.786220073959566,-0.80381897199743,0.97204026889753,-0.126272908914711,-0.490176124728898,0.464889453157397,-0.227714297369007,0.185285772398004,0.540161060768028,0.422717507280173,0.857696119369619,0.554598947803722,-0.585489336395059,-0.0613202845698326,-0.389168991342829,0.834521058609066,0.326019135920997,0.4159592725973,-0.762870018820694,0.274479328500072,-0.275073600158691,-0.171072055178042,-0.709481567999356,0.683785907756833,0.851570654849845,0.855661864341479,0.172332441017899,-0.147998506960625,-0.983311679661423,-0.884106678147686,0.00525197485714907,-0.108180495844284,-0.941669762161753,-0.0792380311352749,-0.911233260129027,0.598170234295506,-0.144245769674703,0.922787700425707,0.148741815898929,0.76376426752046,0.138337933742909,-0.0219809976783824,0.162162577821349,0.875137445174585,-0.906110675839679,-0.437780768024115,-0.828622307638526,0.346142264219192,0.331422554654292,-0.813282714282248,0.350196322795833,-0.783231984092516,0.232123618674457,-0.665793120803107,-0.386242486781386,-0.30176802724514,0.680575038441137,-0.590410441022624,0.559222959823451,0.0722072304200075,0.124387469855147,0.303984246796931,-0.661961694887925,-0.0985175959127893,-0.280271066470682,-0.767031991475403,-0.488945796990386,0.493838347904668,0.240846885989014,-0.29215828411526,-0.299368891383315,-0.0397060009539274,-0.291680569008963,0.45840209482535,-0.00560682842364876,-0.886845293538651,0.956075871381229,-0.886462103498123,-0.205796469082528,0.538668586911252,0.362551311942319,-0.963484418780888,0.090886119276441,-0.17191172937533,-0.381764149032157,0.0974494208467152,0.948775186298513,0.864203112083258,0.607057723182397,0.896368821759226,-0.265974785841106,0.767775206249149,-0.253614838313669,-0.603972649259573,-0.535988816945373,0.151265652414686,-0.0384409507755294,0.444492815236025,0.613475275455749,0.615955727655011,-0.305901629528222,-0.672858782661247,-0.677876028158537,-0.23052968626068,-0.0288195101818141,-0.0138457617546373,-0.155120925059179,-0.826345219737622,0.57362118878654,0.0127918911934095,0.89779559844444,0.111835923162649,-0.545936638255324,0.374276143666055,-0.422148897936896,0.72695851273089,-0.469113364427169,0.254145147487989,0.033256539160702,0.506418320841402,-0.0166709140999262,-0.505121599889787,-0.293645952631671,-0.420949121198002,-0.369858998655865,0.370520755590283,0.435348782982287,0.143819694828142,-0.868965435865964,-0.537395057761342,-0.667756159719652,0.60375933637914,0.542646628523553,0.333934626084074,-0.163653828303231,-0.281974717080624,-0.803880202805089,-0.821862504640416,-0.658009656496051,0.849474271505752,0.545808818501858,0.671686316032402,0.994011631481234,0.530924544544282,-0.858176316114519,-0.90134600866892,0.60624646647582,0.394037068708959,0.847038957162363,0.569191910098604,0.11738026151866,0.508234270748705,0.685488207639911,-0.200487690873048,-0.685929577085733,-0.131610909438998,-0.560839753148643,-0.802331140945668,-0.847780275828729,0.00673201612801856,-0.209164093451805,-0.679606171446706,0.53497644794562,-0.935321200362855,0.000597076930883913,-0.414246888409954,-0.403348981364037,0.316449313075433,-0.0659981127346511,0.190943930873742,-0.215215514285921,-0.443463962266383,-0.670690964158431,0.0337757663680001,0.0678025093218979,0.0877937518562301,-0.155218788440115,0.282409572066482,-0.239649197382494,-0.588854264350403,-0.89787688394232,0.795334737922006,-0.898235018557697,-0.409034330144396,-0.878882688287553,-0.806676117628815,0.904552754925012,0.0980167808797494,0.79446544607475,0.290806262525683,0.565130885805745,-0.837261811385113,-0.185401949825775,0.930618602181175,-0.882600059787311,-0.742969971440394,-0.864855240201973,-0.542584585591653,-0.726988600182468,0.5395732905023,-0.862563282623753,-0.579535230963717,0.9403794321919,-0.501937986223566,-0.30069768071385,-0.823586166573985,-0.600627606708457,0.590992907362758,0.248746032834463,0.441804404626239,-0.711489106609726,0.919981829270931,0.343524369246723,0.6264741717463,-0.425879421776819,0.206609449904602,-0.116580707263513,-0.192213500285927,0.79244323986411,0.675807128361536,0.0905208243280453,0.579063513037927,-0.768957058164805,-0.24112596152726,0.0444592799988403,-0.147533067668293,-0.813811940745925,0.235180974543435,0.294282613928228,0.161647274732524,-0.160463041898869,0.339656668484304,-0.639722606635875,0.757479116442765,1.043262231484,0.88742179863999,-0.420477646345555,-0.843746165386464,-0.980749950147035,0.43385647934745,0.818390054412983,0.261238766033284,-0.465291612733809,-0.618747644408823,0.959745366239825,-0.168750947925069,0.242327248075313,0.87687499143466,0.260371602476452,-0.710554879261529,-0.464049581579701,0.845151087723021,-0.0543642735144016,-0.0416435570333337,0.0736503964741504,0.784083697828815,-0.0338293324525643,-0.881553511374863,0.516338485566231,-0.0341288293951232,-0.658467642173843,-0.384541875025983,-0.450816304099655,-0.395743848119689,0.894050914139123,-0.18250091184469,-0.111740865330957,-0.0843925627152292,-0.355040965659641,0.705291428689644,0.11572291764287,0.14267293145737,-0.819630735953376,-0.270322328089917,-0.329685311970963,0.70362864132589,-0.392788156394329,-0.292976823751053,0.575776033690066,0.190929739192142,-0.81853434926849,0.492704327145241,-0.340676936393085,-0.462489625093887,-0.522923985239343,0.707521036279337,0.12071722350353,-0.53667372811462,-0.432795607177776,0.737345125960534,0.0578871899426985,0.625494852078474,0.796446882485785,0.370550292477057,-0.0124805672285245,-0.161632395993276,-0.062926220615929,0.149885507007323,0.63228449597011,0.0265658094352494,-0.568079570899728,-0.0239461799624445,-0.924395461600251,-0.933817122837699,0.167044244225378,-0.584970741730509,0.21346186386948,-0.796948126387708,-0.5483655592244,0.659076742041682,0.828540523465656,-0.774385796574112,-0.651972621990589,0.808259901769775,0.756191507440736,0.965470650527041,0.379578535569598,0.449215025128965,0.874562567621457,0.436928125719975,-0.0471941965078579,0.188900562488571,0.419963251670088,-0.776842796985072,0.681328887288794,-0.0511022815112094,0.36710976196817,0.776953655856593,0.34663889414137,-0.980701776822773,-0.426479426885974,0.0949161918107124,0.23461972265601,0.0565227217141665,-0.956737146880911,0.0865873537906209,-0.968419624116351,0.657398954563315,0.501862814807387,-0.0520456507368065,0.540552563695665,0.115662175399351,-0.381750576849693,-0.287048842039905,-0.673078557276378,-0.27580091934189,0.739989084431761,-0.911950772939758,0.92406374301193,-0.969890672232991,-0.056179793025781,-0.229555137821763,0.379192245550554,0.114704160447392,0.775992050947414,0.152601065116386,0.409623273766282,0.0208537190266498,0.290840280522844,-0.601353522391258,-0.0465705153037948,-0.805176546269084,0.876289484356358,-0.265020782109008,0.730470198437432,0.958192190075622,-0.375834956334935,0.675539139407453,-0.907715621274294,0.736980818347524,-0.328762395242712,-0.397401944120796,0.790678676054648,0.0388007914288002,-0.478922970172746,0.881798510436127,0.615478076486592,-0.797984941149428,0.971808718378418,-0.768286122638822,0.0477366199740836,-0.79350799558119,-0.827718657920566,0.115092285717224,0.836616936825724,-0.877629413987423,0.75902685742442,-0.0170077538915456,-0.317174972538758,0.646403024859904,0.893431818714251,0.29904821965161,0.955623622372424,0.0115269367729516,0.809118533801321,0.0891457027691867,0.63857845067902,0.74395986767484,0.642375875172213,0.561319655161188,0.766435501678711,-0.936858903529864,0.964259925849161,0.756577625975215,0.29555128174038,0.41301639267259,0.897489262276996,-0.135812818810877,0.8223966271694,0.966319804935301,-0.118043988444138,-0.500485154100565,0.25899216237608,0.196818161727542,-0.979865692399799,0.0728535033856745,0.0386903236860185,0.844093332214972,-0.648705294087737,0.193926341846956,-0.98796363816699,0.617967398120989,0.172112695479327,-0.43377449583865,-0.538228888154871,-0.806443743000903,0.0636298844471108,-0.724728108221887,0.534578722717567,-0.907253303306613,-0.97526889653831,0.669118994990275,0.57184335530875,-0.651036986626603,0.583839622945077,-0.385342217452351,0.835265559715548,0.73711706623667,-0.59407455923797,0.110935735591769,0.461422120924191,0.644956978815328,0.649353939997437,-0.0469840535404619,0.663707025683593,0.168129967146249,-0.5470996891241,-0.605092463121152,-0.710176022871581,0.665982376958883,0.0293515115306841,-0.343891043507427,0.623961518084726,0.44490240682986,-0.929971402932219,0.605037037929024,0.517339985124152,0.386512860875822,0.00804429153093319,-0.645304789159867,0.418997892308024,-0.736988882829734,-0.191363903146744,-0.546165618567373,-0.874530085967939,0.327187125979191,-0.871780851903597,0.186967413875669,0.899464319758355,-0.745756599443856,0.0262734429185555,-0.732959361255247,-0.768813630448487,0.62691725460891,0.82693609039984,-0.411119544556962,0.131130152961038,-0.982783174795802,-0.442464263999567,0.700046479682819,0.136680623429475,0.16308442320228,0.74557604585085,0.701942918040349,-0.645326624964596,-0.945854221214475,0.802442517622593,-0.207686630342475,-0.657461859111716,-0.48174203085302,-0.519060889365371,0.526523487850897,-0.337766586125982,-0.95930224954899,0.681489139332937,0.983549688659187,0.958548215576178,0.210719337294927,0.15806068746808,-0.280989777859383,0.744528388851553,0.647880871346662,-0.448391034008951,-0.0500007544083121,-0.866290294725408,-0.977407989464656,0.679865734423147,-0.805837023835899,0.00892993663947439,0.670107706587615,0.306038185245629,0.240196548427783,0.351555862221666,0.6584816729123,-0.123277368478911,-0.891557400394696,-0.558280408182217,0.763315566914432,0.129512657345753,-0.614389809594063,-0.843782614644474,-0.620352439797573,0.930723055509294,-0.241885903683406,0.463237046612522,-0.755240910730358,0.222724831098709,-0.525684045353938,0.561568161123374,-0.383917351738713,-0.413968255349244,0.772509985058237,-0.343326802977633,-0.737411744084526,0.0560616065200874,-0.573558831384818,0.811430824012148,-0.154598675512303,-0.0263665770657313,-0.83841418365896,0.925546183131309,-0.0414337106259208,-0.656698117668187,-0.881998687973412,0.614130492714603,-0.97693248254796,-0.604942047747268,0.422325563083565,0.003453089484861,0.648346148675757,-0.666028753971833,0.689904453841447,-0.402163299320079,0.166221650960006,0.944275834337999,0.718619200180785,0.442559630485705,0.343829077959909,0.597952693920873,0.623555639378416,-0.265775374463992,-0.956428356686921,0.17024104939608,-0.524919976782967,-0.221839481768609,-0.131811677769045,0.269734272240797,0.637088802345839,0.714203690746475,0.897186218232275,0.752898844091215,-0.794451075227456,0.362724948454594,0.247593647544956,-0.819737480233391,0.555892708323119,-0.37320127088836,-0.291515334581457,-0.754960562485589,-0.470007922949718,-0.242720688128162,0.967773973830362,-0.335183316945811,0.125624183625104,0.519807441971156,0.101599457056955,-0.393750635619154,-0.0635246503715818,0.374311348918209,0.861289183840154,0.824870595230367,0.748716241158777,0.557125289938116,-0.740940650261559,0.308421665667375,0.23507581935122,-0.137110827597069,0.54447373953388,0.854603813666978,-0.824928060753971,-0.478644865920251,0.124009056316531,0.484744267156932,-0.520577864693958,-0.00678842812580127,-0.561990196234778,0.941208951702663,-0.405670235296254,0.397591294590311,-0.274459565309481,-0.192190068306805,-0.257274618102705,0.113217193813459,-0.337701925334473,-0.461046734436785,0.782151002431262,-0.851676497094983,0.779745253785284,0.695792192829287,-0.0654838813932688,0.591358462282674,0.520520584862847,-0.665266804736646,0.94257880762733,0.754997802186169,0.202819280928541,-0.922484228104348,-0.636410391197121,-0.407767391831095,0.092114978494575,0.411634264670296,-0.898537977805466,-0.274513777690005,0.183209061384878,-0.357181988978286,-0.499578610790412,0.0243953100139797,0.541689286283347,0.897403292590461,0.686463699932987,0.812121353139193,0.18246739420307,0.947159240836945,-0.911990180276112,0.403566400212315,0.299427765886351,-0.603404011712219,0.422523693651181,0.823283418583574,-0.855331375339924,0.899571332344557,0.230370147929234,-0.321976790129187,0.052496005919718,-0.810974999316436,-0.39873381397305,-0.287260736100352,0.753877670000616,-0.803369956950139,0.539779854427482,-0.435700557231778,-0.729223449196933,0.572129529262447,0.53353191819413,0.49725396960005,-0.824389010676798,0.428906054643055,-0.0838860071880655,-0.811594761767027,0.178528197226779,0.620235846027887,-0.724970919024703,0.771630176009889,0.890090226670764,-0.788611550412757,-0.188072484054519,0.527366166538112,-0.430918330132716,0.785708408304724,-0.629960314540763,0.806960438975008,0.130698890381892,0.6219078941813,0.661039818134456,-0.140452219119873,-0.473885827699731,0.542418529424391,0.658453102322954,-0.485014952968461,0.494722015041465,0.20360663234717,-0.186897530140435,0.304321852865252,-0.0984560624552333,0.493073940658275,-0.763435911746938,-0.683320761996544,0.0520132697426596,-0.168466505293573,-0.350036305115667,-0.524488782844896,0.571744522391699,0.469663955297887,0.681052107277818,-0.695430064164319,0.623945682479298,-0.83572811218603,0.0495755468690231,-0.518693521670402,0.289362675847579,-0.706908058252212,0.874258269774746,0.536132170859846,0.858031850627501,0.694703711667489,-0.950996345644449,-0.374544631618659,-0.38637437147018,-0.772775267810516,0.65099344232142,0.931759785849632,0.0260311796421286,0.12136800811593,0.0413794395782589,-0.347859849014605,0.0726357584681647,-0.595722927865764,0.0167408379072615,-0.500297303905501,-0.0477651162172525,-0.52627667731148,0.691792829770343,-0.898586402192795,-0.551757247075434,0.748962295322743,0.532070499102027,-0.775557053129437,-0.28614635135625,0.104435923294746,-0.663369495079097,0.13584157132125,-0.178122297194669,-0.241144564991013,0.11684544995758,0.678931349665383,0.671665366443521,0.61485874070785,-0.699662832481325,0.189852034292684,-0.648083246725724,-0.0361072579858254,-0.887010884639077,0.710456919069359,0.0703047080545935,0.890132389194703,0.463562199484024,-0.251994599824067,0.218385497362153,0.211153628078788,0.796389479960665,0.935253107862715,0.169100003826566,-0.354205185390112,0.714523555428826,0.801688551973286,0.401699457016779,0.826100898633408,0.39331118819303,0.875060323982076,-0.64841255559561,0.0703170855445157,-0.03565701466285,-0.0825263305569418,0.482657428343641,-0.0030270797944747,-0.69891352627846,0.35770509147296,0.616209957324878,0.267410083278263,-0.114400440460433,-0.368563359783453,0.0936679778799631,-0.354775241329481,0.766108234309059,-0.330661606986735,0.143526343254864,0.810027376187639,-0.815897277506506,0.35875985290536,0.460971185087432,0.766902627078088,0.919385442203311,0.587924355574669,0.713484194966076,-0.58604125879112,-0.347072055854008,0.546109424242111,-0.921054990621344,-0.997054728676417,0.927234944968364,-0.535572086722089,0.333210621845354,-0.143793446272799,-0.408719124078028,-0.394850942039112,0.889046841145579,0.767692644645528,-0.807947173081259,-0.711951357288907,0.398737158104972,-0.23681093082261,0.0203549890788515,-0.910624256579112,0.565727713957337,-0.946933793420932,0.362628612165021,0.796326650692152,0.923654993031924,-0.531731910560653,-0.234617313546527,0.155097707580628,0.632904005353693,0.756390926785088,-0.673720884174697,0.0929315410148397,-0.938471248340627,0.190715126359519,0.779936942134146,-0.0375780188082676,-0.475528930389188,-0.635277477338799,0.735267605075155,0.832595799328341,-0.564427328230092,0.889730118034708,0.0691402678528434,0.678450274007497,0.93460976210519,0.976994953622867,-0.263116066637466,0.0502788735857505,0.303828595819277,-0.694200965800485,-0.825950338397133,-0.506743000697653,-0.724495590566464,0.435449579289684,-0.973369497115753,0.236700167845674,0.94468725986658,0.17262463125636,0.00799790942127409,-0.692354768439461,0.326288284400469,0.417390920694005,0.158042448178528,0.199612452889449,-0.953736818519717,0.499974097831933,0.333779491940134,-0.982707925762135,0.297268920187935,-0.713206832796605,0.303189365925686,-0.33943753255238,0.291142537843546,0.221479260085433,0.618686411720749,0.772302930814634,0.448675865214961,0.109903490164535,0.388129745929452,0.0986173421763263,-0.181644737852542,-0.671054089929867,-0.542235420972729,-0.752734411711486,-0.600818676133383,-0.875513307238862,0.784063158857242,0.592396520357076,-0.756018432520175,-0.580338124545231,-0.20688297400993,0.438850528256253,-0.262132270151044,-0.433064400973163,-0.707718591351793,0.582846669767587,-0.00280854546740352,0.151929449589941,-0.863099681754223,-0.172098390676417,0.661720226429572,-0.232420714426351,-0.173159964119547,-0.438456878473301,-0.518735466031872,0.691415488634512,-0.932643590709244,0.494815519935635,-0.37830678150526,0.2116825715346,0.555278904750435,0.792008343904612,-0.489552181724117,-0.147289733361885,-0.95598400752354,-0.0668783972919992,0.244715302383902,0.288742785256029,0.0271275256391647,-0.212872062043461,0.13358723922514,0.147832925776298,0.515016674206935,-0.757727335868088,0.371439888009977,0.675786426802272,-0.453380979483864,0.528366611423265,-0.0710396308039148,-0.597276976274745,0.521397298892793,0.921531161101716,-0.510429400253035,-0.914694565213172,-0.770557588312545,0.599667621056578,-0.274610710901508,0.141448100135707,-0.713704582582879,0.00943482365968908,0.882839327755808,0.834448693552847,-0.144183371583862,-0.180475063697029,-0.370410042378431,-0.786988206603976,-0.137994168795706,-0.355710614047729,0.975571761363496,-0.0942124888995894,-0.191297366771937,-0.105284578345664,-0.674624480297376,-0.170300849880304,0.0176154481879143,-0.449879372354125,0.301309907989173,0.237082744013455,0.436390658522081,-0.48216256550449,-0.00664912400478346,-0.426060241516368,0.258028125646787,0.919895411686202,0.547806960815799,-0.207097282734212,-0.102479646061452,0.103750428667874,0.358474463431398,0.51863664815587,-0.184891634354711,0.320253649690195,-0.419040933430915,-0.726183669716082,-0.967054025491192,-0.945714535395776,-0.294319123398247,0.596464372278758,-0.112579367944043,-0.710388794280611,-0.402240407007989,-0.74386301766559,0.740957092031848,-0.107191112618403,-0.745786634294195,0.860637278345106,0.947118571677506,-0.449782854201016,0.766590192202248,0.719723254640635,0.278625989977154,-0.102343156873283,0.338960356499284,-0.356999574681179,0.0382526655341286,-0.309751921841517,0.0725172446669531,0.460526765007785,-0.291668042736529,-0.634217814041367,0.293219451423664,-0.310272113954049,0.0592087455256618,0.231771445751425,0.359918369595005,0.839669747150945,-0.810649546485218,0.0412897846507116,0.173117786721282,0.44270564415085,-0.651426076089487,0.139095629712548,0.385220624324169,-0.952070630047978,0.409865847703776,-0.244899235159809,0.91643879124611,0.209254800649922,-0.159443288320329,-0.273973227615513,-0.925354758901743,-0.651174374086082,-0.195196078746779,-0.5201063431429,-0.747219337449277,-0.141691935894543,0.976937613109434,0.0951643543828384,0.0144840949693439,-0.39904252220937,0.137561552778547,-0.376126669557075,-0.912839413046876,-0.0491484553765611,0.405990596590907,0.415058029977077,0.169327785032952,-0.227167317866549,-0.908122099883117,0.162392333969569,-0.443576179169584,-0.384875283671711,0.0291950498823226,-0.313167727138334,0.577313593024084,0.532828729208215,-0.479720788306309,-0.2708070126716,-0.458209082690261,-0.0181044443048479,-0.0902808159706789,0.830333835325092,0.57979345188378,0.263272164999165,-0.0332301630761165,-0.395826145559702,0.798583633192928,0.327534006507898,0.433393837465492,-0.58865077324787,0.649089627008729,0.371174433841628,0.456956823789588,0.492346463790148,0.0636887009472169,-0.917855033663256,-0.071575429363707,0.384128973353838,0.596382630365172,-0.0775185070728075,-0.836637477956439,0.361887239811929,0.643209052564923,0.887534112895443,-0.775833761618018,0.864683779258195,0.459943957684205,-0.390703022559379,0.0938827346612128,0.376059679118365,-0.237598349071599,0.532404303695947,0.886467921159613,0.704393532510186,0.968485466630454,-0.546088589148068,-0.683908953837549,-0.239773416682521,-0.790997706124439,0.0231754570209839,-0.869473885739641,0.762707475983095,-0.0649304907490283,-0.65315965295243,0.212540608446909,-0.806506477121997,0.659307809568737,-0.328016207569629,-0.423746528998696,-0.214023560088349,-0.28867336965109,0.305471207864483,-0.193386703901463,0.0200824594323042,0.856560399891855,-0.162679742258034,-0.143018233022679,0.0670492084631527,0.698166031307915,0.887398028314381,0.0352800167275416,0.351667766942602,0.495717907521587,-0.305728730958135,0.303253653854969,-0.663415950607223,-0.447419651998877,-0.638632407663274,-0.183255884813646,-0.426294579064817,-0.0657929853632404,0.526749779440366,-0.549729545822758,-0.867919795061651,-0.885742174769279,-0.572783721764325,0.50079551844841,0.822656571720601,-0.313475243108521,-0.16897107858209,0.0773406715119755,0.784438660227116,0.285654123412337,0.0156648385433848,0.691437545375032,0.0167414336890962,-0.877059846091641,0.0998870615967333,-0.00382864559741192,0.901455305674475,-0.989326336364978,0.971595190671698,0.663600385695726,0.498680008136474,0.503554419126158,-0.619233031277066,-0.383768045923143,0.875425901705578,-0.468325825175749,0.689816461383788,-0.0180845337099641,-0.726730747295458,0.134137851380399,0.399878504631865,0.119802810416034,0.251804981878711,0.712945464415524,0.0173435521755817,-0.464060077685491,0.996221508308785,-0.0740152772058811,0.67205743498819,0.467305953579657,0.104487843811287,0.960145031666726,-0.888197703177036,-0.767163246087462,0.32931753548938,-0.815127174436516,0.24516078398252,-0.0741507237326353,-0.0555453438237459,-0.200835677848351,0.16996499247411,0.593959036668873,-0.814851683625344,0.0127939215946817,-0.788247980879588,-0.704736097739268,-0.323495144295882,-0.846685811579054,0.765097631292708,0.287640528972786,0.126620133576054,-0.704265529745162,0.188798173007619,0.261413950091213,-0.438104014179188,-0.621540978379243,0.0357258177061342,-0.450604222854975,-0.805925382138663,-0.908836744017427,-0.817487117851442,-0.0466585476389199,0.0482108280752937,0.760041509772871,-0.368206224923093,-0.932959658579198,0.0196748984765425,0.232458039311668,-0.217163151104965,-0.066308166234357,0.696716918359891,-0.833590402443265,-0.84246375831075,0.641308615442726,-0.613615941257491,-0.536290501263842,-0.231803623963784,-0.976093968802713,-0.264522032583579,0.591538909227395,0.551861520731104,-0.182332122642132,0.656322713249849,-0.0484925605953826,-0.544713016876037,0.50035264253969,-0.230088479690711,-0.988951846968272,-0.26135969032344,-0.136725377318427,-0.017349202818308,-0.413755516901903,0.00118465122610012,-0.100097190904317,0.956787218164552,0.211036991972484,-0.0174450409987814,-0.543100111123692,0.271112184791766,-0.318230082990717,0.290180123951533,0.785996020973632,-0.366524115105036,-0.446513540616114,-0.801726896191778,-0.477980827461224,0.932944523531239,0.336906362765768,-0.191449946594982,-0.505273068034922,0.23904525045287,0.677527120372142,0.723369133257894,0.161333610036537,0.298689546426244,-0.140691869964095,-0.628842506301338,0.159137343117946,0.982864199408607,-0.243093169072433,0.0190575566739859,-0.331911851295366,-0.946543207936874,-0.15973189719676,-0.515021738466703,0.317863751180898,-0.228046408747871,0.834474028385355,-0.167515145710013,-0.107690446573369,-0.638767523816937,0.00729681705037797,-0.279172863882273,-0.395677819418957,0.610928981189806,-0.750677504794,0.084972244048526,0.703547929838948,-0.258709465694418,-0.295249630514301,0.930366092626669,-0.378872864564069,-0.552043542737683,0.877991760425471,0.324765286402395,-0.188317171982736,-0.190369335894941,-0.0208522804950928,-0.335934301552159,0.921091378487304,0.753822183222369,0.00833344894058833,-0.785592391877039,0.136737399571533,-0.23775935548263,0.200595792345237,-0.897164859353615,0.395272734638686,0.55042622097889,0.635521483202734,0.7760433212047,0.362095783073459,0.803785670520732,0.72727463003645,0.298449318262227,-0.195174037476903,0.0678003712885734,-0.929391277399441,-0.756645062502485,0.134360767921383,0.97967446265602,-0.282380829285939,0.841217080790357,-0.0663793628730707,-0.0967992883431592,0.915694332359796,0.254986225888864,0.7095973293267,-0.331244908122458,0.0919459219408691,0.247799907898039,0.631804684203978,-0.146176849435333,-0.908929138571679,0.585876048919855,0.567586353043909,0.358280431958834,0.901320031265741,-0.211659946286927,-0.744907193950721,0.306112530009846,0.782392053364878,-0.677766694221837,0.0636921441449839,-0.0708212653684166,-0.445020781913648,0.608933602822013,-0.151992082735015,-0.860608092776049,-0.708709860153129,0.0481869089372954,-0.426632862719386,-0.0928674698868194,0.585231362890908,0.63780713569585,0.154593261905704,0.555806305692969,-0.288765614318094,-0.93452193005968,0.697867446224013,-0.320685309829234,-0.221906340547567,0.562799258161445,0.907235363576429,-0.716530221862072,0.306910223552405,-0.847779349345299,-0.0903613994761642,0.884697081089343,0.264513107078623,-0.87368662963213,-0.478567319808474,0.430049070925517,0.898272129534222,-0.349367117616358,-0.173399294756747,0.355748052755719,-0.985451548682274,-0.13063539924863,0.212477432210755,0.794450674518311,0.180933176068387,0.507334094318723,-0.193171724406206,0.737517026315443,0.261291220505773,0.165140508965435,-0.93630202831768,0.254209623436307,-0.158787550279426,-0.570739042158314,-0.0748720592828542,0.396011964579334,-0.443209639230483,0.385016782802777,0.891006996781416,-0.0979280173357557,-0.458779956929707,0.572805953741424,-0.192594703317237,0.180208639114347,-0.640033976262335,-0.504411980112877,0.765353537063067,-0.692153094198887,-0.462088267477602,-0.525778243728547,-0.506541948335044,-0.964410289643424,-0.776330111858246,0.258516661589808,0.393038440662697,0.961897661870378,0.731320745542284,-0.928613775436887
