-0.182612510507614,0.603656257941294,0.112903630193412,0.13774013331762,0.49333259601501,0.396419252229419,0.457939140885981,-0.318423652496308,0.850145277712996,0.773208793332963,-0.977431698145082,0.0648499774267522,0.431677654440964,0.748003224924734,-0.940965014389712,0.988999971674413,0.253447722767726,-0.780055989495829,-0.373246489563889,-0.465651239284512,-0.93549183405612,-0.561711101881598,-0.484183500714902,0.99904666206725,0.872162312834626,-0.0374563341594915,0.232098432351998,0.336628133961366,1.05641421234203,0.794722477230105,-1.03413875443274,0.808964861449836,-0.510563074568999,-0.826237960738126,0.943727453608631,0.911805670237973,-0.483685205498253,0.435946002715019,-0.186754465354664,0.334920846709494,-1.01345758825271,0.578449139706657,0.567414103494153,-0.350219341037816,0.713585102694932,-0.379057792865405,-0.772005062742329,0.433735949586231,-0.563039790814639,-0.678618182228563,-0.41518117939809,0.436392460664217,-0.202912674768586,-0.402341260767597,0.460705546513653,-0.231180504754603,0.785825201878299,-0.770600866566573,0.783335721537052,0.846524981512215,-0.972423465720339,-0.946691996806318,0.112039010453633,0.382577324125517
