-0.605319504149369,-0.589689043375762,-0.0387152412819831,0.705736106714571,0.426598426282469,-0.0310910412626316,0.550129086145328,0.919336292250977,-0.258505345720935,-0.324532266667292,0.759924250888211,-0.0475030571991431,0.717722080968422,-0.614907491012943,-0.835725348219433,-0.780802818852952,0.0832766789079888,-0.0689101425408556,-0.273322692900909,0.524148911939498,-0.243139026875566,0.35341180172312,0.607103234257419,0.5906902078789,-0.988923816890733,0.991409023495985,0.720269043950261,0.185104993634151,-0.945472748136086,0.993380998829584,-0.345902148110159,-0.249777026669264,0.190941351585381,0.0254385380471234,1.00071086046805,0.768959317864027,-0.0732283898091588,0.687646902080618,-0.014642803056709,-0.947412887055672,-0.439456141964724,-0.332646321036589,-0.0620003759811698,-0.0367947888024754,0.494530341215127,-0.22876273392653,0.829106057901177,-0.44424905240712,0.43898487146269,0.794245558033278,0.0384767794815382,0.701199682154951,-0.71966474179364,0.239118757177983,-0.908631792605917,-0.676123959487296,-0.264761858573348,-0.521388447013781,-0.011379392454369,-0.492231123564254,0.387270370386681,0.329993657880392,-0.622129788376267,-0.785252283228643
