0.678574688869643,0.463426556349219,-0.285116588799328,0.89751928871224,0.35031952578641,-0.86528646097886,0.84455855701744,-0.590262209362872,-0.0606624621683693,-0.28039835099084,-0.026904246828603,-0.953575267751099,-0.64525195555122,0.547824900036191,0.069246382371252,0.406341158631141,0.38259888802622,0.567009270249764,-0.296230120322742,-0.575513114404063,0.325576568526787,0.269483877708616,0.886477062398286,0.251737630147877,0.12320838459002,0.20825852872947,-0.410023189382256,-0.0776988372214373,0.198650090756362,0.548102330104309,-0.296916557421825,0.851736595232253,-0.739596881428795,-0.302176202281752,0.0945802349502751,0.898733845016036,0.327361093955176,-0.597769895121269,0.283336985603541,0.322587934966635,-0.846595893598815,-0.782724542377563,0.0653748015448623,0.17270287911641,-0.860038284761781,0.221424379528049,-0.390651692988712,-0.925747882997428,-0.130390077076244,-0.682693714133321,-0.577365754955376,0.331964136110573,0.328692183315292,0.0629265841126286,-0.0193371849218887,-0.959541307533976,0.766742117747553,-0.323622266077909,0.297736210718587,0.616195002466851,0.841742838417669,0.618901121519373,-0.244587327575098,0.610278153709924
