-0.593904093240377,-0.709123141220424,-0.189363891813963,-0.165830960176652,0.92495317935083,0.844755303511236,-0.37966221172032,0.736210045606481,0.109097983509433,0.0457808651006487,0.65800986901291,0.606313503732392,0.0875845694470048,-0.94929095920565,-0.259550698712984,-0.146155875409554,0.273553950010883,-0.695300284010493,0.14064483827644,-0.215002858332412,-0.920709160411296,-0.711550594733826,-0.210210498500993,-0.0932334079892876,-0.336177875551464,0.694032518805647,0.196425685768312,-0.601704652811043,-0.722605323574382,0.45745046979346,0.24562085473061,-0.349309066229313,-0.87885409124601,-0.153821389934876,-0.124275221729209,0.0413463637472793,0.647442134549249,0.945617235199883,-0.253718330311984,-0.619840036457523,0.97208876880764,0.36970297396633,0.868879431063423,0.262618840673383,0.304240163031943,-0.195541369932099,-0.944252787909442,0.19442619954642,0.381933636235863,0.283612795306411,-0.886417564777837,-0.670515630081222,0.46320706158239,-0.00833356315124911,-0.246830529271131,-0.407269909327896,-0.627267071141851,0.861692434913486,-0.213587796722158,-0.703601396148076,0.0672114983982919,-0.922012427605423,0.0685161770194096,-0.244025330808145
