-0.514504196657541,0.443285091603906,-0.803460237475278,0.434035043607312,-0.520838892645658,-0.169438812153786,-0.403627353992907,-0.702762817861825,-0.371668231332824,0.281135269563928,-0.974640099101464,0.235707950695994,-0.605027651338468,-0.212992780564704,-0.0766224115244451,0.570226785744321,-0.561253145430881,-0.254693273926964,0.830890656425903,-0.74163051680448,-0.913803130806902,0.380348622814726,-0.428953327693864,0.997301082895978,-0.632136932810569,0.108032568161741,0.186072597306448,0.0134076194204488,-0.0839194845745436,-0.694461770094756,-0.492044197522159,0.434807890322117,0.992628111582545,0.138114247427159,0.2537921816885,0.364786900690455,0.874671008178632,-0.264261976090239,-0.0736393040766646,-0.740282673451404,-0.828124716646776,0.0934294088302749,0.336885336196581,0.653845649109064,0.190015607288619,-0.850155631204218,0.475637288967958,-0.68994352466746,-0.829797135755711,-0.89620148031359,-0.832103654325152,-0.573419004929183,-0.209326561388502,-0.424035239021705,-0.714984152908134,0.273735141608304,-0.773095983954078,0.466928684896607,0.793366910943129,-0.118571840060649,-0.15846939517767,-0.175811838365485,0.746163851922924,0.0710234215455614
