0.0147168255944891,-0.00749146575663237,0.147224489250886,0.338941035152659,-0.0800398317924673,-0.563328680681045,-0.568284411009706,-0.913511667196463,0.642748044338546,0.859899297107356,0.0180598113865685,0.113475384557664,-0.4634968769611,-0.564418211760308,-0.512141227837672,0.0687766254216242,0.248392200859459,-0.422807430558198,-0.500043155480486,-0.102540604295305,0.246283301055413,-0.0609977487002316,-0.191793785751977,-0.0686985958063021,-0.207539692573386,-0.227449481663184,-0.491210231624301,-0.0298839723512316,0.00492772131775507,0.312153373447047,0.151942153555175,0.126149155009956,-0.441544302173862,-0.506728328992501,-0.558192867539634,0.337109199529216,-0.536945034528164,-0.650618836795145,0.0543171095680155,-0.0259715426739343,-0.25542842742979,0.0535605429098072,-0.236236636725514,0.00388795001523362,0.0406334396353184,-0.0195140528072811,-0.681940743781267,-0.456152901285969,0.610715325070557,-0.0894610216695281,-0.274666485077831,-0.27074213712712,0.31401743169992,0.00474220639745315,-0.0720097189048621,-0.127982505472986,0.647829347061251,0.248662434792727,-0.0654413101262739,-0.446420304435203,-0.161507685622905,0.147721790495297,0.0067737217340893,-0.0986860093186367,0.378068337870435,-0.232706356615982,-0.257135707706666,-0.19711022718862,0.44902139783074,0.373295544325415,-0.682584846901092,0.24562718916523,0.263040610866191,0.0118120196761577,-0.381496076864567,-0.550072630420547,-0.300504145942846,-0.237684629510127,-0.0841430110288438,0.188420114815659,-0.553162405600924,0.933391950686775,-0.262134262914519,-0.165780819788887,-0.0922864474787234,-0.19170450462895,-0.0466094956122159,-0.0966014947419717,-0.601394765362444,0.42295816070828,-0.361578618452051,-0.295443400028306,0.210040698146356,0.172512343319893,0.0734526443653621,0.155694386903332,0.233971986760525,0.429981241938738,0.466795344604646,0.282140181949488,0.876284158102743,-0.0270546364930286,2.69133169559475e-05,-0.0552620443772114,0.228012005462351,-0.0239304707923336,-0.354856912707606,-0.303244006559517,0.328733205034236,0.378074387901744,-0.00939068878758147,-0.205556866186787,0.464419391710962,0.297845554313743,-0.160981187318865,-0.11385386245569,-0.135680063537831,-0.302928079958919,0.184933032475592,0.499390486440132,0.0455930124410964,0.179111605030115,0.299661431942663,0.032162795555417,-0.35406183412092,0.510361492814475,0.591922275120692,0.166446135800168
