0.501554583778361,-0.672885230317897,-0.15116541396256,0.187289317786234,-0.829331246421726,0.0301470712740382,0.432263446664117,-0.695476331704766,0.356457721825987,0.691349528080289,0.00867542468166901,-0.975645933442446,-0.132957189134591,0.769473082858303,-0.815862020124731,0.684121686741971,-0.414549404849408,-0.337764595139342,-0.131881026817094,-0.0310473725713142,0.839912638819314,-0.294381883691306,-0.602172687107468,-0.448770788996408,-0.68864575611884,0.606971762553923,0.134670384414598,0.284116269535568,0.324108919723926,0.0945540523513473,-0.285464009745235,-0.805373684792061,0.639185494750175,-0.422475456843611,0.252951233264561,-0.0293236584116869,0.400385921223248,-0.223821691917039,-0.259546481098763,0.398499914771394,0.875334683165669,-0.495711616156441,0.763566785000942,0.942046114871088,0.692605365293123,0.433735363503585,-0.469406744241947,0.947529826146295,0.455902716183863,0.613464193801402,0.539570964159172,-0.0524893401012907,0.583791644279019,0.858368845769143,-0.796418916790039,0.489134325301479,-0.125643738603841,0.182387531005886,0.891417960970313,0.602512932146161,0.854074199641917,-0.310568996829555,-0.400549649771916,-0.450360885663639,-0.293485188701693,0.0971870130240166,-0.445157935239327,0.831718488697651,0.341366594030762,0.57202093434883,-0.61079841145221,-0.718228304700534,-0.899720383720354,0.235011597046389,0.186734889328799,-0.234103564442499,-0.952088133816274,-0.690872880217506,0.0150221119649947,0.546366093083553,0.527167733342598,0.874152580021242,0.626819314252983,-0.0961238207184842,-0.297972880162347,-0.734280393590685,0.113999291617239,-0.582031496186752,-0.7639866770833,0.535309327089868,-0.0850351335829019,0.452086549787998,-0.816912100777083,-0.121717667261554,0.118647016470522,0.711167365019301,0.822501546379987,-0.252997994568406,-0.28003967248565,-0.814835466336524,0.270007652779691,-0.558265813121177,0.708772503642251,-0.219021088058015,-0.077606560639454,-0.629891120927481,-0.842925899167578,0.557308025196405,0.625443883825647,-0.0731276988601261,0.706356012682966,0.251070396478079,-0.61274957358485,-0.953908329991274,-0.731880855316249,-0.368787807335028,0.440773240666162,0.545960635082571,-0.717678445084303,0.591599166941356,-0.693975700463336,0.434205831379443,-0.827868028417403,-0.21009770481044,0.640273088120083,0.0705869257653087,0.894128740492481,-0.357015147337795,0.137885301349623,-0.616364827849299,-0.216005115812828,0.997512566886929,-0.312623540503824,0.815137359675278,0.425596368977547,-0.940443645525797,-0.0163107300319217,0.346818973710938,-0.189701403589595,-0.687475631662438,0.0921813634582924,0.890844677668618,0.921900150405426,0.952669157720226,0.658807841452007,0.285216225603748,0.76887409120348,0.745725110046217,0.51310206780142,-0.669464707117122,-0.866923575384301,0.0107836542842168,-0.813919474886066,-0.124281742304451,-0.371775474759139,-0.241698248929964,0.965691770572073,0.738984458791311,0.884708691115332,-0.491390315755952,-0.903523568749788,0.661449010719084,0.394242224039842,0.189083561680508,-0.585294131041374,0.044453281364914,-0.930044953924649,-0.152263931698533,-0.604982695631427,-0.306323580651042,0.890031076966209,0.656738397137146,-0.457350357076233,-0.24558893152686,0.467028669633543,0.574888668205281,-0.976190596874664,-0.565349105686834,-0.89072275436032,0.411308277576675,0.773438736121431,-0.445035485466436,0.34813947860679,-0.721972939183848,-0.202951246501345,0.671755666937246,0.41713710779103,0.389838454908021,0.74010654005231,-0.3946967634839,0.302159190793059,-0.363773655486934,0.963788915225697,0.66519267363289,0.607591611566784,0.472369554116989,0.587345128712799,-0.180667312683422,-0.488478017779602,-0.686501395065946,0.54434287722901,-0.865604138190377,0.168112812419281,0.642458273823688,0.731002421381443,-0.145909134595125,-0.884798985414853,-0.0832433186600145,-0.595412787667265,-0.405055565095082,0.857492697744826,-0.59279294511224,0.473600526271095,-0.299725225491142,-0.266143547302798,-0.855259816817559,-0.879636606971144,0.708877697243075,-0.697506976179223,0.760749460561526,-0.277225325652113,-0.119898859422975,-0.245788363363187,-0.970224701289225,0.414142492808435,-0.144189259650706,0.172736930370949,0.539006087236783,0.165176614849286,0.0224572909465518,0.432556800141046,-0.865333743770781,-0.850623243672701,-0.0829348638334563,-0.547720208194782,0.380404395045187,-0.906134977507312,-0.806050557526813,-0.142156864109645,-0.438336873388131,0.886729174720881,-0.336832360385979,-0.0733733331277751,-0.464981567306482,0.283865000102846,0.040090654495949,0.813385107202587,0.315268728559032,0.750092364566812,-0.825958823043314,-0.0435755324845633,-0.905093988946782,0.371109171992222,0.502915189515564,0.343800982110508,-0.743529614168001,0.482394286224758,-0.394321999270495,-0.431379926381323,0.452999148336557,-0.785816002368894,-0.468978246410343,-0.176972860117533,0.356576778106454,-0.391995603013064,-0.0776127495900268,-0.360950189125656,0.867962996452101,0.236597797120754,-0.838399960530084,0.168687807749163,-0.842061322115342,0.475582882643866,-0.942660100335008,-0.01239094317383,0.330202724879875,-0.720719428150894,-0.135412664322681,-0.461003676737754,0.158512759530712,-0.617928411894319,-0.249952951166146,0.635319169185238,-1.00790630305543,0.289457241707264,-0.434970783373764,0.608522713252107,-0.449088192841813,-0.206259717943126,1.01798285613272,0.609267007647162,0.85508140818781,0.796827775112621,-0.603237025272478,-0.132505383547747,0.429733146147569,0.193310704914019,0.451997890707944,-0.508029528829514,-0.216593962603834,-0.568950853031296,-0.754434510255296,0.403983936139334,-0.268737919939781,-0.810421473075754,-0.3783934245148,-0.790508899426146,-0.856753149125988,0.0400523071100485,-0.978077953626124,0.789476759712909,-0.842527028024586,-0.281447145348885,-0.67519457288232,-0.195544725338639,0.73664465400295,0.172965372177946,0.862087958881925,-0.0539887936925087,-0.419128719459086,0.618544043071996,0.852863390979129,0.2814616527179,-0.657248736942113,-0.360435087186386,-0.459608056276769,-0.419670929766712,0.497486929820328,-0.408638232550962,0.979049870164609,0.780014591377841,0.289619803878148,0.721808560774952,-0.446924456356769,0.204631480964126,0.361277376027352,-0.395215053129511,0.0522465012951306,-0.850053177171345,0.51753394384112,0.670478558126636,0.218650049973044,-0.880088948167117,0.915792736697218,-0.884077214486178,-0.517588780537118,-0.18602638613009,-0.119649450927677,-0.542153777771962,0.883947715018329,-0.710405479538792,0.478566514173228,0.202252142483538,-0.259476684843781,-0.75579768526802,0.830555970050531,0.54368938877924,-0.673968354979795,-0.232518240221845,-0.102679697695573,0.405992871489097,0.547661810074516,0.983473203935408,0.42404546121405,0.10104573143073,0.865459018357256,-0.260964148580764,0.775816015558761,0.549111297672703,0.744468199069201,-0.126964718276939,-0.858826456175251,0.814497145309708,0.225477573016426,0.44404140104255,0.188519911493303,0.915174829071577,-0.669872868206907,0.35421917013737,-0.578391069431047,-0.826700160376119,0.221954532913944,-0.0506036475474349,0.373019123712573,-0.909263174330646,-0.899404935078826,0.171662305172034,0.523489503770893,-0.629479263809322,0.0573768885537191,0.124190526475851,0.163776477638206,-0.879106986219181,-0.489159711216491,-0.614446984197943,0.0626015584020713,0.434863453436392,0.722117843943791,-0.935544209134369,0.715636828251555,0.76493080445155,-0.187278871865649,-0.368516976545401,-0.823812509770453,-0.616820463882764,0.345001711500035,0.230132964597394,0.361997780564744,-0.0994806868763172,0.58388860824192,-0.0939718770492537,0.816931850615128,-0.796212852019865,0.270870505820626,0.653027120650163,-0.357803351441263,-0.0602554059568308,0.711805164491948,0.107761878045771,0.576456355995762,0.200868927038408,0.905216545389547,-0.0436916751472713,-0.823440762524604,0.809223125188129,-0.266866606042359,0.151281695482931,0.443739604508082,-0.931705550675843,-0.44865413713656,0.556636079277678,-0.932521969296168,-0.873099324993631,-0.261938635328145,-0.2675334975967,0.562113363963486,-0.63481253187605,-0.187040804713024,0.413430656720958,0.672142589663759,0.036042926051658,0.824678347583186,0.759049188699658,0.296396008365686,0.759928555839434,0.739280287267452,-0.275519889562444,0.848326710859623,0.779631718749903,-0.265765487483554,0.570868330501751,-0.34335296137341,-0.686585040744126,0.475567982866798,0.261727885413952,0.198319221013937,-0.512179497911053,-0.435306487158637,0.591549035861861,0.169008513611728,-0.39712994171454,-0.40377853725059,-0.543794336438088,0.00795641500783862,0.130290020224881,-0.866305852987223,-0.674914703550101,0.0202741094768262,0.0830785143221364,0.0182355313229891,-0.761958584996121,-0.691208583218747,-0.181707171009998,0.387306672738046,0.563675643755944,0.273442770544086,0.16290314624503,0.949467033556755,0.0562832076319009,-0.423258338845387,-0.607582595899486,-0.573420287797641,-0.126978035800698,0.138503479535275,0.834080902218271,-0.362081688653557,-0.43732324429002,0.238903466459247,-0.557706214084979,-0.654240956232174,-0.973692293189353,0.0276131251026284,-0.998560885101826,0.112004888658429,0.111468523185749,-0.852535556322466,-0.206181537115091,0.544089176491956,0.140175882242429,-0.193861731271628,0.0545103594859308,-0.215027971400163,-0.865083096150646,0.557037773129607,0.53276282860792,0.135854496849397,0.226723638625606,0.175039456635566,0.237887920883813,-0.524479587265044,0.578845652797051,0.41002528033534,0.479939798356717,-0.647807957326192,-0.982874537645909,0.477035141079934,0.621573368516769,0.129022502111626,-0.775904098893758,-0.365013668471736,0.853070608863959,0.681509009625754,0.438619228265967,-0.657063238417591,0.222893307593521,-0.819068292882916,0.123139576506778,-0.0724906383976128,0.329485498270848,-0.19862545943651,-0.915494609750345,-0.175254691888957,-0.093939195378492,-0.971693210019406,0.104869677665531,-0.392402642286273,0.651868218118993,0.831834778895185,-0.445741654682958,-0.394753448423135,-0.802649347969803,0.451663624186214,0.441627414275219,0.24173619230507,-0.447454109968426,0.308797191792376,0.0417197954107602,0.315555305240212,0.700621196575205,-0.331884756303876,0.0667515282792501,-0.952841255532924,-0.562670659871311,0.462127140543102,-0.355881415773245,-0.949410644852266,0.435556065205068,0.181037839845903,0.291926041797209,0.726385362600246,-0.647967537475987,0.323921957449181,-0.215959515930827,0.386455465380726,-0.354971116234091,0.299264373631218,-0.370969675526478,0.818631871281087,-0.221511895261907,0.355956122559366,0.492394449236588,-0.458984868648325,0.400905326366588,0.547649585438592,0.453953776503033,-0.720245682735017,-0.792382172165961,0.619477912737801,0.936717865320427,0.503368054621947,0.819481690264541,0.217029988931023,-0.0481539101982513,-0.908172975799772,0.192508546065123,0.557058224245865,0.664751635177611,-0.525168559871114,0.452548902695449,0.364208086496384,0.947041620302582,-0.184393852413989,-0.906804866145327,-0.371939109324255,-0.344374371344655,-0.00851174733223029,-0.901213784033949,-0.809630322935871,-0.510190871686984,0.549388779609528,0.73766081595141,0.248643103364731,-0.347023241450738,-0.457261571018721,-0.965785739432978,0.738664919732012,-0.523845559400654,0.970843615150938,-0.748809488797009,0.0914336133447741,-0.230982455713365,0.547331994064205,0.798423937871469,-0.309108592663221,0.786476738450782,-0.774156946860138,-0.923922753190843,0.82562299447513,0.883949069417366,0.172511223680515,-0.859197154901135,0.764319005698006,0.69903118337321,0.148088541492016,-0.0772731759956971,-0.868831832043052,-0.230803634675908,0.48080464898971,0.0267616772473797,-0.00648147545006572,0.636626334530562,-0.966447575214139,-0.466088981857677,-0.716197749808846,-0.915212764012313,-0.413258700728985,0.794628280135972,-0.645520806547712,0.969820134327495,-0.711871188414727,-0.00915124834482481,-0.102281166652414,0.283025389923026,0.747129844135509,-0.410248870074913,-0.465984191923408,-0.666642531950843,-0.608766508242516,0.497126532243896,0.910445227494328,0.390113731227744,0.0911552027470817,0.159811229501079,-0.935361820777691,0.731133868009565,0.369940962236906,-0.704358906959493,0.06209243782582,-0.107549864113246,0.161838392679747,0.95885898877789,0.167982420740365,0.117099480685272,0.790478686171488,-0.876879574105443,0.305158829124168,-0.940938600954161,0.169140122418158,0.636629115940307,-0.935369258352143,-0.0292366089643901,-0.426356497103351,0.106743014195265,0.340509389189715,-0.885433102915626,0.762299435351619,0.758692861226693,-0.717163933416914,-0.914677030602012,0.923684977701108,-0.174586796015371,0.341493886310513,0.77849360251863,0.695250549453087,0.842506352507946,-0.452636573311058,0.427260506087849,0.821782744082101,0.871832374946156,0.637830176937226,-0.937818576412614,0.812271612767298,0.358413545136755,0.145192154722685,0.38485635047218,-0.0839304717896599,0.640703785110184,-0.719527786765256,0.269039145820702,0.311009005017748,0.0343928652241824,-0.554694311682873,0.829070493655937,0.664004822847356,0.441679560044194,-0.760366123962283,0.0259109962223021,-0.0378948013645553,-0.863656253190323,-0.224508230091072,0.663224669232372,0.580882902196862,-0.75039708106464,-0.142696639745895,0.578749696532564,-0.460503834235036,0.220907609836178,-0.892043498555531,0.366123849081525,0.490092045768932,0.399972475499712,-0.304195997153915,-0.158772474735013,-0.416133907159662,-0.399323667468443,0.552920313681097,0.141557751366374,0.032915551708267,0.98134955982412,0.537926474796611,0.171199096865177,0.585350058502924,-0.017334435628645,-0.847160138312022,-0.057410185214434,0.679230168519783,-0.136453334332134,-0.369193747979416,-0.0369652813982295,-0.279643671718091,0.344812577333638,0.537967657549159,-0.387009693368038,0.917717717707371,-0.242087681613415,-0.536536673926944,-0.802619856283648,-0.434168333144176,0.921680422355078,0.415424512936389,-0.583719979846189,-0.31076585856051,-0.1226716316766,0.60520387726188,0.0064772169131773,0.124446876098492,0.492291236262823,-0.298143371732635,-0.580373285823282,0.667815664428197,-0.9189868643961,-0.835676286868796,-0.313821654380026,0.662913563690969,-0.000162298791906922,-0.305541682386979,-0.13189011356711,0.430919929196698,0.244314550413112,0.800315498300479,-0.804827561608125,-0.480300221974698,0.375118133643276,-0.0940373711771964,-0.265805008135754,-0.867848384501036,-0.305815948278156,-0.155754027803631,0.158010819568486,-0.615405640606635,0.574476390423288,0.782595036307116,0.81001408982085,0.0255139466438702,-0.405057661343735,0.373493887153358,0.0564448816486488,0.216046707356913,0.581857029910627,-0.856716737262428,0.253952511365063,-0.150543421482801,-0.533617243441688,-0.363838141149936,-0.507047921733802,-0.506622339467846,-0.804210006145825,0.336288253344796,-0.437904573762083,-0.50486333266614,-0.0374186330376164,-0.82581076349043,0.487485781998811,-0.878308206289255,-0.552982962764588,-0.312095420889319,0.332113743298846,0.272104905657252,0.475494832333818,-0.530747268480329,0.880137536192251,-0.543852325713897,-0.106286089364383,-0.635999060080528,0.844742592396839,-0.409144352049976,-0.720699079450667,-0.383548499914975,0.947948628756595,-0.575950890406668,-0.274791598719456,0.00917862785068957,0.147780579239938,-0.245468284270234,0.305439278562752,-0.739932942817014,-0.827190216620571,-0.812654838700795,0.188910703254751,0.662746735493581,0.206995522793605,-0.0170801514104435,0.365287072185903,-0.0961905751930541,-0.415710224785096,0.21842055506717,0.26557260661935,0.512037475330839,-0.561474945441238,-0.442278502492539,-0.846856737417662,-0.413685317127664,-0.359145823388208,0.233691928279012,0.223069139987473,0.538183368513401,0.763315110455171,0.764485528762022,-0.814352392201213,0.0967663953917737,-0.932275785854674,0.490593081236312,-0.291824610673991,-0.553746947745606,-0.485008049326805,-0.564385474891142,-0.612295835405948,0.666884587992309,0.548505950611126,0.514705667486436,-0.353710681264297,-0.773163348294374,-0.866325772318071,-0.461382660372157,0.223359948439617,0.277172386111969,0.0545792040291113,-0.579286056822693,-0.191247385664798,-0.443247088265376,0.737705508096708,0.548279536401567,0.719194117943929,-0.255235661579911,0.535469108396696,-0.873710395970659,0.772014825414783,0.385368206509022,-0.479939071591705,0.444100591238556,-0.00604786063695518,0.747883358046643,-0.308826220660353,0.122046571056545,-0.432627971547853,-0.731023182582364,-0.522523112425311,-0.313998754645486,0.302204868621572,-0.921994560577544,0.333628899760919,-0.437521599953593,0.713312825037033,0.0129299913666583,-0.18994545867666,-0.783112635476276,-0.485749936446129,-0.220432895456722,0.921283705085779,0.0388477665091087,-0.758232289837477,0.829085669425866,-0.0691587159229022,0.8093655293878,-0.412920258069065,0.560164445970389,-0.880535263921122,-0.566987100213645,0.545267812168246,0.39362030318293,0.820617897012109,0.208134668292616,0.0851090541330977,0.50365583711851,0.765489162715974,0.792666579837606,0.70516826112639,0.36620806079608,-0.188022151941236,-0.911645461837059,-0.52314452314881,-0.972081629495537,-0.236341734794572,0.814244255022816,-0.408083746208231,0.734659808254147,-0.715714677675816,-0.380174799105112,-0.163511946284683,-0.568874482950529,0.534096946065755,-0.520096511018676,0.758001990206832,-0.413372257273725,-0.640219701916246,0.443729537504689,0.920879152042303,0.814678887072947,0.406957715730099,0.614477121492702,0.749535106045129,0.7764263097591,-0.539097397782502,0.258398400125761,-0.512115484412415,-0.116353940165758,0.56421762155616,0.431658672919064,-0.509678015722773,0.475664584692594,0.802247150291045,0.684464955301114,0.950704251181048,-0.714461558446936,0.723999654515529,0.52677440927275,0.530148904457538,-0.070872745518286,-0.237925566489918,-0.768574958374626,-0.0855978614566691,-0.695975002382348,-0.406428649880081,-0.239165015816496,0.849092960810266,-0.613064232075795,0.307651434616717,-0.211542613991077,-0.604469129530073,-0.936529294862022,0.594349160817819,-0.382644823684694,0.494308556354204,0.181268550288139,-0.40178689643881,0.626211994092311,0.785025018747784,0.175126468917893,0.624172085760799,0.110185338446418,0.629148010770252,-0.923292169929955,0.689885682568814,-0.771028282733949,-0.69765147444985,0.456068983427617,-0.595192297327802,0.475829745880698,0.734342442526147,-0.581922050635527,0.457519555005869,0.226599950967404,0.0259443606842131,0.915840895161023,-0.639892079563311,-0.593280786070131,0.32029764822979,0.490589468341578,-0.248672105288998,0.954746841529956,-0.926779911976665,-0.343988507629764,0.293954791664185,-0.927470693280924,-0.731798613445085,-0.522521270916282,0.718718924459703,0.828956552998128,-0.984784779955397,-0.507636884195085,0.214585070930581,0.969027164566723,0.968564394971151,0.238389274894406,0.897890253251507,-0.252478486528433,-0.544869249307652,0.136286356991203,0.118503039295918,-0.440159981876573,0.747803184958687,0.683892541333525,0.288541607394651,0.445486343839256,-0.57234934086712,-0.664063909516288,-0.718194024584618,0.335811858015244,-0.326898824728491,0.230168746274418,0.560729222835998,0.485268632920584,0.415845218268042,-0.862378540144299,-0.476393542772985,-0.0566007088083742,0.770860536528215,0.0981059484123922,-0.892460766287037,0.765850214953242,0.572219374305023,-0.00218472322211071,-0.80951965309297,0.929283628283709,-0.539485865028051,0.799505522524164,-0.0964275483950035,-0.759546001361852,-0.801481744894708,-0.262727907676489,0.101552738970304,-0.221715174879436,-0.93308685203422,0.435153674955723,-0.31234738690362,0.308001925834439,-0.678214576399291,0.16234669274063,-0.0266774172628356,0.382348879608058,-0.552986504110741,0.849684438304853,-0.657936492507316,-0.815045592303949,0.459239634089489,0.691834179557102,-0.509358075557354,0.223824636725712,-0.880652643070166,-0.476243590877281,0.656577245962333,0.336876313874926,-0.117863976853159,-0.0578321647447316,-0.64919907325951,-0.542323317946246,0.619521529427802,-0.207712899454675,0.639898274051803,-0.121434860820807,-0.729922979903349,-0.903234918596366,0.810667174227049,0.277680039399824,0.961118907224544,-0.0726565431955888,0.900720529764598,0.0577806980768508,-0.474653354099771,-0.649249470068627,-0.696815365693684,0.483648207420461,-0.723373471138172,-0.667464881828596,-0.226960612099918,-0.45206096384325,-0.0321069917270371,-0.791692304524758,-0.687994908348926,0.24013904534403,0.615391763645171,-0.244542137057357,-0.356614741586468,0.757711778846668,0.569553177575756,-0.0388748100971087,-0.621449518562924,-0.92514362671737,0.958369563328653,-0.141615075892576,0.183258700110927,-0.0323389248816943,0.791654995600958,-0.628334681388753,-0.795844904475173,-0.894865979487446,-0.920443907948137,0.365439163027213,-0.0431268485773509,0.803687386850368,-0.113488614927328,0.760827519608447,0.332231846790999,0.842138940347036,-0.064018674122614,-0.159796136895192,0.0442637675087858,0.0648148382872774,-0.0647620138838207,0.927132721590879,0.645831489760073,-0.412478665621767,0.345615071380429,0.589727349961227,-0.388769631726781,-0.669059813977384,-0.793956218391655,0.592929698481912,0.109886006309673,-0.0921615323039291,0.731433729282401,-0.56244663015655,-0.372527397234169,0.327948622236886,-0.124617650386825,-0.194648489487858,-0.520670067678401,0.135147684739998,0.624314924218908,-0.926865697880078,-0.696873731298391,-0.0241859835535304,0.660753578658586,-0.455219741750655,-0.522673954066478,-0.870575783106799,-0.878969792302327,0.104893539786952,0.659147341877234,-0.2406624356854,-0.317659778344233,-0.883234155351982,-0.282973760085387,0.689212757942641,-0.877793437185766,-0.636066325732638,0.57160756195949,-0.849545270363339,-0.134251745158205,0.715259772571409,0.741010918730199,0.227423956593061,0.406789215556698,0.126559836445666,0.506007946630584,-0.38630937473361,-0.784815077444462,0.356937221157319,0.42470602408168,-0.231705311751753,-0.280339367661181,-0.891282073371751,-0.202811295225021,-0.271474842786223,-0.316639081529421,0.695033587423699,0.40174876026825,-0.127640614512945,0.367977284121908,0.157350182444671,0.99145812112072,0.539565160148916,0.430869187108131,0.827473690896497,-1.00196298541854,0.107481781140225,1.13119558513805,-0.0344644702064044,-0.891752646335131,0.0734236116670208,-0.753702652861569,-0.0386715628924241,-0.695595019090638,-0.745768514801465,0.681647573528578,-0.490233822055763,0.00682200201029999,0.00642470677636614,-0.79830171298465,0.746360430078272,-0.113153259002149,0.855866843961227,0.177018154124377,0.762173784598748,-0.556933403207863,-0.682174444874227,-0.600727427931412,-0.8629272257823,-0.591579567098971,0.736483775153062,0.54174819004553,0.909225365787994,-0.911816921428218,-0.881194559332519,1.01178905687416,0.0459032854317748,0.471300522849074,-0.421819423593112,-0.637500953635337,-0.0409417207451611,-0.170314866650054,0.748293010183078,-0.687963824913844,-0.566406831857972,-0.742731568272628,0.929019287359823,0.470517347582701,-0.587371334679803,0.378768157247882,-0.561569923873914,-0.101399541197895,0.881795269430345,0.229184398443583,-0.706130024383196,0.288188992841233,-0.631394546722108,-0.834214876342425,-0.572144574685035,0.110515700917092,0.369385880514025,-0.199199937741374,-0.566221046491557,-0.588587747710986,0.747988879177513,-0.363785427642048,-0.466382952703468,0.829334878334173,-0.698651678559212,0.37936262609515,-0.341899761500349,-0.358375663128938,0.695336224414739,0.0795501094263489,0.247005431926674,0.682933055288099,0.186559085382583,-0.34917646934369,-0.577182848152185,0.198905896712623,-0.473876993736284,0.998548103022032,-0.677287771999835,0.533142374886632,0.848866191754515,-0.040919722006765,0.131259532854878,-0.179774850490087,0.937248959274857,0.306399868807526,0.611330700259961,-0.116349605919843,-0.638131003994393,0.0267467750981448,0.697388777214406,0.355571862860258,-0.122696255499731,-0.0166232623703593,-0.686567950249552,0.454208946960825,-0.593408674764142,0.288856731229082,-0.79811394466493,0.206397237344154,0.554251383895957,0.197755091449867,0.307010474952735,-0.145487393262556,-0.450055927264307,0.940291435186572,0.91636635100448,0.452405966296419,0.439877090550675,0.24321458514893,-0.830107384514411,0.0558084527792162,0.703085485339445,-0.55987272810402,0.654605575444846,-0.591690592813916,-0.0490087454058499,-0.402475572877624,-0.310060229453898,0.860111675684062,-0.922870780752058,0.365757465359061,-0.236918359846545,0.154122009147982,-0.302816930467112,0.738903813227946,0.72726763085564,0.116897476518876,-0.906941629641224,0.0371588519337748,0.606743623435181,0.0973419428556849,-0.563660845657464,-0.350715547324217,-0.870034357484929,-0.252348873615895,-0.483784425758329,-0.485011452663432,-0.0550294924682786,-0.760079400393443,-0.873709132493425,0.621259539000268,-0.863568224776516,-0.413906893110924,0.568634554171213,-0.0871385459880017,0.809602897186673,0.134387224825494,-0.172884580141017,-0.22370808704013,-0.871245262475803,0.49362155137916,0.49057492302111,0.4275256105101,0.378746393215732,-0.479168527506518,-0.982310947402674,-0.117903494803169,0.786996188326432,0.408854639724595,-0.401936027962207,-0.510845071356909,-0.586875770361929,-0.954943999192707,-0.162204744984594,-0.457876971053896,-0.56233179634366,-0.663178371470392,0.0621401511992975,0.452337186881344,-0.296834421375178,-0.695357550207059,-0.765562554360099,0.748659444116269,-0.311709070945674,-0.681076995143227,0.743647582898364,0.520993481465793,0.448050332951369,-0.083105150693056,-0.196316240906332,0.790189207664715,-0.639796348158095,0.652867391121637,0.808005916614734,0.370056857763885,-0.138189947668214,0.60675083316109,0.980010772112569,-1.05509806592357,0.604108801914274,0.330424840980145,-0.175575444890688,0.129489716287704,0.52321969306869,0.274860009341957,0.654529436067674,-0.865296529022423,-0.183205483189941,-0.137436290016037,0.0725035462710198,0.33720577747609,0.770606492694073,0.267664736121112,0.230697414554054,0.612368243970493,0.469774821561143,0.471814044767237,-0.76875621400017,-0.571893416037702,-0.634240717837762,0.736695273833169,-0.201436395721434,-0.0362261129429162,-0.867983343968373,-0.960445557385959,0.921425335722572,-0.685203360874217,0.867284845476519,-0.526469797637726,-0.848892071041864,0.345958240490403,-0.83134507153249,-0.879186232674391,0.390337800208185,-0.995882089351888,-0.687589115393182,-0.457502124531603,-0.376945801499533,0.43222773387192,0.149925111992761,0.0303863238331756,0.14870470334113,-0.990114573155052,-0.295530576000648,0.0894694192250214,-0.815871893994716,-0.456503064911339,0.183841954336468,-0.990745352091686,-0.938498529383242,-0.250206493678678,-0.668969378934662,-0.383207782563799,-0.460051026257465,-0.394500288077204,0.168043860403556,0.0715534239789557,0.5731636795304,-0.245583403930128,0.508105901592067,0.311911724551696,0.103878151943707,0.699228004988959,-0.151803823878135,0.14789966591895,0.536856763667644,0.0790289350561499,0.968256206837105,-0.789723578913193,-0.397990422928262,-0.240292379859528,-0.0545681435007026,-0.554862558723108,-0.35310883918327,-0.550388743573819,-0.956484399225796,-0.969053230049206,0.567699706618635,-0.963131577313244,0.805454319164928,-0.597298721757468,0.218069455397515,0.0457422207213516,0.413797314350006,-0.295190593534916,0.516318009304283,0.0065853787832028,0.531700847355009,-0.187865382805549,0.93494629786583,0.80464912317962,0.103429759219166,0.0420500944608679,-0.57738171509212,0.161809616533126,0.345653762795518,0.714478563414881,0.0187413212451774,0.46222670592146,-0.650358320298291,-0.842033532110119,-0.586079721286883,0.715029658843848,0.679587355026134,-0.628332401824491,-0.660640953933819,0.19639630706703,-0.309087049870823,1.04781312044868,-0.0107683181262645,-0.0873014955141211,-0.711516365525659,-0.325868407072244,-0.118038562079139,-0.706392072609771,0.987146873696946,-0.192622399451034,0.60768376193911,0.652180093884477,-0.548996140514805,0.297489945533899,-0.428942040147308,-0.825879892721388,-0.19770503322875,-0.885588319336945,-0.724533046021377,0.168412925719902,-0.554974975115163,-0.987889884174163,0.847441010208882,0.471802783951185,1.05566579104041,0.724378994396299,-0.0428788518822094,0.949077281134478,0.681332506509488,-0.376189807728488,0.89053042668398,-0.894908571303523,-0.765452433070447,-1.04562972982397,-0.393687132192095,-0.137341380330993,-0.742115252522639,0.245948253305929,0.915027515671772,-0.429098254805332,0.608021612101416,0.242412784344064,-0.842470229535883,0.40320377611712,0.599162267202137,-0.999013748631828,-0.796112822428606,-0.259231943029671,0.829378385921891,0.997977596760909,-0.65901222388697,-0.654765337161479,-0.793859183514828,0.212295396590292,-0.176219694999593,-0.488434484249436,-0.596630308373853,-0.624621511557237,0.767544893679267,0.262827582931136,0.244852861093526,0.316537368778195,-0.64583105856698,0.251697417925673,0.752911307320292,-0.643594042873723,0.291147758531031,0.768244236749793,-0.498967527672966,0.17244231129502,-0.0262538340985006,0.678172574169674,-0.896648893902149,0.478945154268918,0.109032133767069,-0.141055123440921,0.559445085257868,-0.206665368200334,-0.285541868687669,0.31894489277162,-0.211656231289973,-0.643044920613931,-0.891409938900955,-0.505757517992315,0.803626684126007,0.96488618655133,-0.0317820194502811,-0.710500854112329,0.0233331471833715,0.987055235337283,0.525137802513718,0.93204754506684,0.859761100103888,-0.527018873427576,-0.8049556840592,-0.180451349343405,-0.737654782842063,0.509133456928802,-0.303793722148717,-0.100432550444911,-0.601329036801974,0.473035997375987,-0.593265078823863,0.536320736909789,-0.517439712495665,0.227466975409952,-0.308456383376307,0.445263602839797,-0.765553769820133,-0.583701199736982,-0.552373270515092,-0.340441672324345,-0.191212550973593,-0.548439782772274,0.376493218521364,0.927726784278394,-0.195512228159181,0.592945497069071,0.608444024213052,1.06377573549328,-0.538489880099461,-0.294607715262945,0.354797119831964,0.484000014656257,0.970652001816669,0.1355732642078,0.250955838893461,-0.253880906216853,-0.316425941014989,0.212898974033732,0.04779369084386,0.0535129260188145,0.371516415643294,-0.923496021046359,-0.62890899433028,0.839026647661621,0.154819261496609,-0.908128234158666,-0.412649413226419,-0.875652903219243,0.576226952862369,0.248132180962039,0.144251834700035,0.171137435549414,-0.568726249352672,-0.233093609001341,0.0470635299048636,0.713468868811096,0.301140025784139,-0.0952855117114511,0.573057756871195,0.0171049546238934,-0.408043522359979,0.273428450933433,0.920857997529151,-0.234297797080637,-0.435899654036738,-0.489775810958928,-0.851781415800433,0.944947616495847,0.605239051535779,0.142957274145388,-0.22234195301799,0.292784189615773,0.830176552101668,0.31489942473021,-0.795813471154425,-0.160829932363988,0.396942038718321,-0.381385298239733,0.808038871803596,0.289124047416464,0.712538377220916,-0.0745506932839031,-0.332478819970195,0.813180957876489,-0.965252406112144,-0.703889753928052,0.921815507563236,0.402909833831373,-0.343056146727149,0.797752634076224,0.599132444278274,0.68497679432282,0.199178497974382,0.326023805095593,-0.842455658150038,0.835363105663658,0.0870140353715406,-0.49066603579735,0.869644488753928,-0.818385351941056,-0.91619734327853,-0.835039532443444,0.0370882992163899,0.684936862797001,-0.127959359205928,0.122646647661236,0.196311691836866,-0.790432231503936,-0.216955461644716,-0.291458389389772,-0.510422014804363,-0.798692924929215,-0.791924387521798,-0.335179924155318,-0.45877721230137,0.734481476831543,-0.588268096703919,-0.00694805866337629,-0.677345184528199,0.832939088589783,0.894455898901287,-0.660643134903111,0.840646754945932,-0.904057689868337,0.350538087306371,0.798775705168379,-0.183292077421711,-0.507139109034993,-0.734379848564333,0.687667815248861,0.278494858122403,0.504068050305032,-0.282874627066514,-0.591276355508238,-0.979640885413308,-0.826696260854211,-0.36815613540001,-0.393132719942788,0.0120944845690179,-0.162057244867452,0.7894468737732,-0.609345341527652,0.527866920767874,-0.66781297393343,0.705187861213714,0.201821010653486,-0.134274932340029,-0.305941813456181,-0.256451177990648,-0.234254929897776,-0.487386538263818,0.882888901921903,0.321468590762425,0.0271763062806173,-0.585845754739387,-0.81849866717058,0.771210092195141,-0.174022311836611,-0.16362251097853,-0.88441042437595,0.599262769268407,-0.427815045792712,0.793144525949231,-0.745402055775008,0.28550878468307,0.126630923453776,0.223382828851387,-0.252763623519363,-0.990975857990389,-0.428429561415723,0.855565767354215,0.702929456004107,-0.375697793437936,0.427178322690852,0.134879767758352,-0.956153084702161,-0.148970890124615,-0.725268311147137,0.615385383430893,0.871691518909754,0.361380886659122,0.502819136336794,0.230495843557038,-0.381585430102455,0.495028070846173,0.414531184540394,-0.00368186133013778,0.00518583408582962,-0.677997053016571,0.0954642728673432,-0.604307125583954,0.500293458265691,0.443902664903351,0.456670561713633,0.351176641779724,0.298999699359396,0.782192293770178,-0.147900181425546,-0.316445584414227,0.977587159230138,-0.746969215439962,-0.647555012472269,-0.690059657717374,0.655763309058006,-1.03344265611669,-0.0383611451518845,0.226344884409035,-0.22242108162007,0.451604981564502,0.635895578452244,0.812909205492552,0.946928506986372,0.800093647967899,-0.986926146795104,-0.907375220449239,0.738922301292509,-0.12119086307604,-0.0578533539338614,-0.282213025960131,0.937063756753277,0.377130274182414,0.707289245584084,0.0337427427389334,-0.945346995604481,0.699630866512186,-0.369936271270256,0.667626762920163,0.44274140465983,0.122852470576924,-0.167040472686597,0.661309384210981,-0.333951932479174,-0.57761828666766,-0.89812438347605,-0.729805681901781,0.247934245192621,0.834365414910345,0.55795862598973,0.408286227389146,-0.206496852871655,0.876918627073718,0.40842767053992,-0.363282536939486,0.157702289771066,-0.426206534711914,-0.39924151926259,0.356446795262256,-0.328573817097045,-0.136817065447932,0.446661275053459,-0.335794586406658,-0.0306722839879808,-0.955492254523905,0.47423327735688,0.125039099155031,-0.751237179427513,-0.607144536498104,-0.263200002936919,-0.655234052170732,-0.687879550252875,-0.865140420823568,-0.850824142849546,0.272858900080532,0.63317472666033,-0.206767204629567,-0.388289329058465,-0.433221960356059,0.422906111559772,-0.600404072471559,0.180833707731723,-0.530333516890414,0.903202095436916,0.0984139510427565,0.799204290203988,0.923760470361107,0.845830785939577,-0.0432474327001586,-0.750011519489313,-0.893085837504808,-0.114329726548083,0.136128158189176,0.735353707225427,0.92002986973865,0.813341571563341,-0.516569727164202,-0.353122322637975,0.773333554965196,0.0732088421466228,-0.0437869063732969,-0.368078090414774,0.183060448665757,-0.67310197052286,0.784792224000149,0.439762189655323,0.631829329383737,0.107402480359615,0.862327302351445,0.686628400130167,-0.769775974775728,0.871956373370458,0.440682104991829,-0.330383369714333,0.721309104906483,0.821340622840182,0.295343495429429,0.0315219073156055,-0.566420886082112,1.01174350244216,0.615241848464646,0.691556982804731,0.308888818044098,-0.436616546014091,0.399964783533541,-0.504241009608057,0.115962177088297,-0.257262865466936,0.0838573468147578,0.410382663446437,0.504405677892657,-0.192618372705002,-0.677878204359664,-0.882968996558352,-0.840552311876727,0.868197195492066,0.23109891269908,0.158528120660236,-0.986625695896016,-0.582030215853229,-0.832317713679219,-0.791046589706783,-0.81832776829082,-0.751409930835732,-0.796085166257574,-0.524486012756411,-0.889003262067388,0.417404467374104,0.766423621029501,-0.521146332855698,0.223766460295054,-0.147045767849176,-0.652878900698801,-0.610212034291622,-0.59822038367518,0.916200188755599,-0.0332745675406902,0.632453802839302,-0.545592654554766,-0.51842100235679,0.663328096351796,-0.120371282213054,0.900826869193061,-0.69607500785454,0.912306028203883,-0.239539666463418,-0.192910325027924,-0.345082698739428,-0.661008368810332,0.587890536201033,-0.62175558691165,0.630667599821451,-0.201870893642797,-0.157098382372105,0.0430232948547947,-0.251650939641894,-0.912308554896743,0.349718291294539,-0.486424151682839,0.120515010655312,-0.381402392599366,0.0515974341896987,0.594465097304004,0.071211586355018,-0.303974187076264,-0.126272755839977,0.719603181349725,0.780394836322245,0.760174509931073,0.915181875126382,0.454564850586558,-1.00511619888962,0.917119804904479,-0.0889159770263331,0.0753096053786167,-0.797314318413613,0.43961474393839,0.536690413916798,0.214965172907107,0.533557120992195,0.374646586923696,0.256517412682494,-0.83531695646442,-0.242346070951791,-0.169525730677268,0.370907138798242,-0.20104774148993,0.11315033301172,0.206677888220857,-0.128135467866012,0.661050241719752,0.158573589157582,0.577104819740509,-0.273390810549474,0.568275022906692,-0.665659434440618,-0.76928865889779,-0.828256984957341,-0.665403649372224,0.649949301381331,1.00036717016382,-0.670944487368299,0.566719499092566,-0.882130728126719,-0.741908937279388,-0.601826185254918,0.894121902866278,0.0717931962890287,-0.852283731702197,0.795894009672431,0.813309209371586,-0.134816584144408,-0.151029611475195,0.167566532296616,-0.615600591852611,0.471342308461012,0.806383454903915,-0.672969604069622,0.246483376678933,0.356905906553416,0.326481737296364,0.948179028649599,-0.226172072263793,-0.477974155328712,-0.11874149072151,-0.718635038235626,-0.171048773769944,0.501157314343477,-0.398006759743107,0.374238206108901,0.198734124114953,0.708733812870919,0.0387034008032326,-0.263062617284716,0.0987306715905209,0.259662524166876,0.109051075898065,0.386707947014904,-0.205846726365293,-0.74576408000434,-0.326489286670219,0.760815755050476,0.893383300923848,-0.279518717701493,-0.968194016572476,-0.984540262637684,0.699284545504279,0.897585841922305,0.565644649096137,0.762641247011496,-0.0145648458868648,0.0721599348130525,0.345262233956254,0.887339021686202,0.770202015324344,-0.944808608574559,0.000809164438880897,0.445777896764224,-0.697864788251555,-0.903437538777161,0.0698773692327677,-0.920263944463231,-4.05061166670606e-05,-0.572152107493312,-0.04716919051117,0.299993579745459,-0.902054415643639,0.728765979011883,-0.915326100263815,0.268445721422629,0.0144778130531688,0.148226813558001,0.772935383662123,-0.631293104636884,-0.598533584757324,-0.737431062281071,0.644413529189097,0.472815143278614,0.787040997807958,-0.678841742885821,-0.155199706373336,0.257815461902812,0.193562622000572,-0.410778067388381,0.563503408935323,-0.237100410190747,0.969542384409797,-0.594966590215125,0.559500589908261,0.691427178428378,-0.0835648525520915,0.371315117296587,0.596275724927051,-0.522756622162546,0.506399473019706,0.837474395034701,0.985260177887882,0.762404229515048,-0.00329145609684691,-0.988031536481487,-0.967136175061837,-0.811413653409221,0.575012940751714,0.10718518609813,0.439038272248903,-0.542377784501224,-0.974955159349238,-0.762055981232122,0.265956494775954,-0.964229983274339,0.880531602549603,1.00056490663779,-0.243562844094973,0.791181620539433,0.180100092246106,0.661290476978571,-0.0287802480020086,-0.885179278767824,-0.0823887533712373,-0.360864173679426,0.806534838296605,0.802145539022909,0.178881217621221,-0.436816034357886,-0.531950912184748,0.0968699896285401,-0.214353281925046,0.313992735891279,-0.0914216767792439,-0.373192270026603,-0.280840480208186,0.727723130256297,-0.327625774348126,0.0866197457218501,-0.529821593688068,0.0546646029654597,-0.561665722517513,-0.363389933463054,0.0827227802572647,-0.0888390026566115,0.00958625363032705,0.699339450430611,0.378210409024165,0.942073835330831,0.387122317126384,-0.10413159517189,-0.535015338883603,-0.613834185031567,-0.416207628713114,-0.0161864436389625,-0.0897513149128124,0.932308386314261,0.818366909047825,0.412388744695939,0.0720129632041779,-0.797188314579233,-0.208773823137943,0.992210155035903,-0.536614434707208,-0.464073600245994,-0.271438234275034,0.177874181387732,-0.142370892219036,-0.150197365082834,-0.32356773653418,0.73890967175474,0.273962646648607,-0.782795910661775,-0.851349836831618,-0.969158959330218,0.842001791011566,-0.236277915783185,-0.155950031998729,0.0867928314734382,-0.627953890396995,-0.771861222657411,0.46725491391646,-0.140527922982213,-0.600022375756571,-0.659953765666264,0.233320790902681,0.409123228299723,0.0225667869556122,0.16613930198285,-0.273050024521963,0.00247536103450364,0.491583073477938,-0.429440730381729,0.569110239664894,-0.84836224133604,-0.0288999470107133,-0.160857519216642,0.848669614642728,-0.15976856864832,0.880389811546491,-0.181653689646636,-0.561030896793351,0.782612807822242,0.0308154862274386,-0.156261957957198,0.134253674032109,-0.474451128435293,-0.451836959739482,-0.623536805072374,0.246392483321413,0.456069294488395,0.646515208061342,0.17599700419328,1.06924221611402,0.957963868159318,0.359576967567181,0.588776592563359,-0.292399617906792,0.533193879201279,-0.90720532339533,-0.200480746646337,-0.286004350047873,-0.705944548342068,0.85510118353866,-0.1101330091349,-0.187614154690571,0.64895677682018,-0.195325104014947,0.108872313333805,0.316276174631094,-0.919189426179787,-0.108729111424938,0.792409927328826,0.0936300174301755,1.00313005039093,0.824854875870196,0.511546503158879,0.000854794307498329,0.548151031055809,-0.831593542333698,0.50364074772049,-0.793930457048861,-0.698728105912268,-0.628617762366136,-0.1175553990328,-0.991616322044218,0.896080579211923,-0.0530209474316461,-0.656127035825843,-0.508632354815138,-0.795267429562271,-0.568695159301493,0.0207093745036527,0.0404340609716652,-0.220506512964274,0.039382664331597,-0.133509202383001,0.14419453332645,0.984706588514498,0.43533716068053,-0.24248499290043,0.029654248105545,-0.08817813473628,-0.193649566751843,-0.315075086724526,0.326178405245877,-0.305612385788588,0.400852223862383,0.744478934428117,-0.906434716275746,-0.562138667744648,0.909566606456401,1.01699954497732,-0.568886863765388,-0.2972291759461,0.620225718036039,0.431738498241918,-0.09678345792296,-0.274378038203233,-0.454771668353982,-0.344179217832761,1.0391300567027,-0.760631320892787,0.352666245522346,-0.0719919981721052,-0.839618592275489,-0.130510484722394,0.43208849593763,0.730114180114015,0.00874529748222954,0.851289005174246,0.792793454589082,-0.0624129705673558,-0.216900606185322,-0.787549112358337,0.718812822901382,-0.242353303154074,0.330975195768364,-0.0493189127037881,-0.291831011038927,-0.459088443204507,-0.745435168324046,-0.858271793534293,0.610971784910976,-0.310430238778609,0.347987617124728,-0.551784748199042,0.174731742344625,-0.756917550527985,-0.420707397539806,-0.154377642697983,0.424029235385778,0.762346889157503,0.576093344309104,-0.41430281609912,-0.400408353686355,0.87854352619587,-0.369051645137954,-0.746501899797597,0.532023849018728,-0.411643702915259,-0.342321131787229,-0.997336201351468,0.124368978177353,-0.0357083623368483,-0.699179035400408,0.394217833720808,0.0880621641834893,-0.452818988876923,-0.211175873919337,-0.613057795979776,0.16530406045199,-0.887989458792226,0.212398530601141,-0.921709124234532,0.652591481840256,-0.291292801047328,-0.789931532467049,0.199304088885334,0.285783914844693,0.476798388389263,0.514145371169397,0.583194299186635,0.297422675181307,0.810104425706489,0.210817757563659,0.490730213133455,0.426503050499295,0.340293922165996,0.825469729384222,0.872462237255612,-0.36147187902816,-0.761711864752171,0.612098873045723,0.364367963424434,-0.623177838684478,-0.103089068269655,0.861146712262594,-0.710328146215958,0.317810019559333,-0.618168343216584,0.185442454778584,0.244833657573309,-0.0999148240734831,0.31789466687175,-0.105695570158097,0.701273995288374,0.382363092225736,-0.126353114486811,0.240394014759306,0.354360302351431,0.775500227999857,0.89710299677276,0.431061441523458,0.0980924602651916,-0.904704403575036,-0.768218352193582,0.785658562674428,0.886537746856005,0.344079306641501,-0.099098235625654,0.93735062924822,-0.741496682797922,-0.299982257345087,-0.959067710810572,0.183814299983569,0.136472612655574,-0.935202311625748,0.257562661720064,-0.36478505800045,-0.978871618804604,0.969097148483684,-0.759477969040959,0.119514927121217,0.809273106306666,0.58399691597671,-0.925106476660013,-0.197213930684438,-0.147085359960706,0.349315673167406,0.932827910296537,-0.434326736853003,0.654573449758662,-0.945530014264176,-0.358867839608848,0.34621680687054,-0.0025964524420572,0.0952731413328459,-0.545638625601608,-0.690999201698877,-0.166172623637527,0.748084583379486,0.255352968538865,-0.113621990077698,-0.61608199244164,-0.597105930775753,0.872644323742859,0.852105974037374,-0.279494021097136,0.470531937433616,0.0480076359996717,0.495566808493614,0.991329289740499,-0.866608797403223,-0.181525883824297,-0.1211603190704,-0.601819288373623,-0.141060257024021,0.749206377183908,-0.784780802902323,-0.793736792096861,-0.680482658633795,0.232053815344571,-0.453135898964285,0.444398519390775,-0.388547339367869,0.511785466529628,-0.426217661243919,0.299106898322224,-0.737163179694109,0.936007991113381,-0.148210499105412,-0.233700033647425,-0.629109960015757,-0.155780129049493,-0.0320877771001444,-0.823384540015432,0.73358862033377,0.803112009204084,0.565308657018166,-0.0561128815742105,0.593417978641326,0.684357574145944,0.399580727420987,-0.802379579848673,-0.779480729399395,-0.243468969939633,0.53646733322282,0.29262884702953,0.0166584481933891,-0.961125851586764,-0.625385114265738,0.812867549807597,0.274550272787849,0.0287576029336882,-0.550139711238237,0.988407115387619,-0.314229116726371,-0.0386276136893355,0.664839697970782,0.581330058587702,-0.125181113895894,0.201278700416645,0.893447110183887,0.411297989666334,-0.467018113271291,0.529445778085018,0.12215577268891,0.962824436015884,-0.395858027725068,-0.0570291651283873,-0.404355757923094,-0.839076837288006,-0.843182975383935,-0.780376683457209,1.01468959165595,0.193509056352074,0.560169672458726,0.698364237421363,0.689695566958759,0.740889445070468,-0.872170815494766,-0.748969284922961,0.415547002035226,0.702932016120413,-0.143759819444735,-0.525820453883714,0.152020198345961,-0.913271944910581,-0.912990150801131,0.913722867069616,-0.282708868807207,0.505755427482391,-0.514742863350754,0.193367842760373,0.747099987948861,0.231177543689356,0.817394608635951,0.914254323976476,-0.731812404377929,-0.950406200471577,0.82252819573891,-0.70400508304746,-0.820113885421703,0.431387198302494,-0.649971182557199,-0.680556819646982,-0.0421357123326156,0.897463303185884,0.4821402829168,0.344666924261443,-0.859309504461576,-0.387789029328446,0.873666111032494,0.713874007342886,0.781694761474287,0.177173837675227,-0.674827344905431,-0.647909760385803,0.495127229331374,0.890571631952964,0.315959578005009,0.0876639538987509,0.19530617657011,-0.530794215983265,0.639535462770586,0.576991066577363,0.178119226352682,-0.127480443653006,0.0994788555396509,-0.294062588128993,0.99158238705774,-0.270072799968488,0.932348983035021,-0.950518254094564,0.555678228266562,-0.119635761297016,0.260999856602028,-0.37195060759458,0.843630569015486,-0.553350758961228,-0.25102745628358,-0.383711235253238,-0.924355051754122,0.210339349023314,0.671728738719316,0.176504465627136,-0.273090409182024,-0.720229632760885,-0.766932556925052,0.962434868138875,0.0833846980607413,-0.826980183122955,-0.487807544422072,-0.580449978327436,-0.37078039279059,0.807503192204587,0.0413926142543901,-0.675527979975559,-0.712775584973461,-0.871893849043818,0.709290917247209,0.948913571186745,0.858050207109163,-0.134245311049764,0.829738418064353,-0.0666749127503488,-0.0606523195252189,-0.66434360222728,-0.837133603304354,0.342705857969406,-0.488934239397572,-0.10485114205871,-0.575497798629313,-0.961117733165773,0.62270292820521,-0.288601867410256,-0.933800248858247,0.475522274518396,-0.585218341932808,0.388316300237543,-0.592666338126233,-0.338479830449387,-0.767721413145356,-0.282110283980269,0.525259134786517,0.740830438700629,0.443239588231168,-0.507049949519031,-0.0984675477651259,0.754771421545318,0.232739900605862,-0.541311727307592,0.26220634811449,0.307590384709309,-0.197523268963925,-0.676843323646931,-0.311684299303586,0.347367461801229,0.26406910616248,-0.567810636217593,-0.878092581329665,-0.0148005745127718,-0.649497188378872,0.0945706517470583,0.737720491942269,0.276699184661254,-0.498951378437035,0.732870667160146,-0.610715442684194,-0.47932593183996,0.3718677455773,-0.494897131223,0.541173822035487,-0.35297679093862,-0.0232268483477875,0.485786366463143,0.475351004665308,0.233996931585174,-0.525222118246632,0.452061354834596,-0.331097907398404,-0.382039249104184,-0.688300463411384,-0.950466697834596,0.876767496627419,0.733567473330353,-0.209010912203584,0.426627853263589,0.445309614179003,-0.851246163472876,-0.598061922812073,0.805653087106926,0.772448688739749,-0.120118818391495,-0.492857546748507,0.0596672184054187,0.227176665060505,-0.756134768806049,0.764489024759874,-0.00130643991962932,0.760780606245422,-0.763035277255981,0.945324543592053,0.879159388052781,-0.854638916501438,-0.0885868665491327,-0.423654333045174,0.76717516338012,0.817569253588047,0.514190487836722,0.273882646902376,0.282823811287678,-0.378213811800061,0.351890905998542,-0.703956821142815,0.489766662741764,-0.816180193653852,0.916665584460591,0.21793269669291,0.66941008042371,-0.46605024530011,1.04054936302327,-0.556300287177273,-0.686657515497169,-0.185566611171884,0.46865771822228,0.603569640017677,-0.198651649922709,-0.309409121068317,0.657173952859955,-0.462488629776076,0.671292361613536,0.438461736629492,0.95478596081712,-0.604426949932502,-0.50225613104678,-0.457298047715131,0.517373612913137,-0.264526786279593,0.177290414463108,-0.233130217184913,0.0286885431116039,-0.295304832048368,0.250283504456341,-0.971700495904248,0.596561039994083,-0.186111579433768,0.378739859579529,0.942068523125531,0.00603838805210367,0.229298177802552,-0.15628699716564,0.654857305011341,0.270748061717271,0.00851549518438577,-0.262967880938574,0.342204499734692,-0.739145470562091,-0.955592446469948,0.712073849421877,0.260886170008076,0.261595329329307,-0.114838970528203,0.062764100702359,-0.619308328914896,-0.828123643302121,0.335236764745663,-0.761408984705312,0.0839474315115901,-0.848093311852768,-0.086874319771932,-0.615664712742042,0.340066069980413,-0.0338022763358073,0.220846665260741,-0.599652682279136,-0.724999994342961,-0.960605151101057,0.89346817571641,0.40047267305471,0.108466366018305,-0.464387058004813,-0.914736504988632,0.726270628693862,0.216381534628795,-0.935392162996821,0.865799989427409,-1.03032512439254,0.200888017027564,0.499255599805141,0.0199429549589497,-0.381432863072255,0.340925882484846,-0.0501127031563249,0.0583819073067955,-0.535765471893201,0.52689335029163,-0.621466305197939,-0.799385309713306,0.713112654669958,0.766983512392078,0.7930072066187,-0.82375140917567,0.371449844541861,-0.659551552540254,0.625252655465322,0.349524088484837,0.593548879337032,0.524701806162968,-0.850221020320295,0.203811178628064,0.820314985761644,0.0971724945451852,-0.0520512325571126,-0.405674161822932,0.810461428894441,0.179939248830056,0.872142679901001,-0.917123254158204,-0.622743541275694,0.111498563790186,0.224029493058122,-0.452896565734387,0.175129868947064,-0.319413685118991,0.849793106769989,0.197263083221261,0.530782754227356,-0.399964431568279,-0.747706215028736,-0.718660184193822,0.70149589057711,0.445343697151541,0.733794328508645,-0.0354568282664414,-0.878828879558995,-0.65811427321511,-0.317062689314888,-0.818412603814827,0.70631912626833,-0.685018668433366,0.109298980946547,0.167883262395473,-0.644221462145601,0.519501520454779,0.20364229597977,-0.700546083408982,-0.117601040116965,0.295378636834148,-0.234007313160429,0.136664929288113,0.96150057065107,0.101408152498932,0.433756539633504,0.898519780996108,0.740333368775315,0.272347053110916,0.960583170238658,-0.493501541018719,0.0251222894926442,0.194597657976652,0.57385173712618,-0.370222860894722,-0.971628427050976,0.314968320587451,-0.65783349606146,-0.266051130709921,0.154947892582377,-0.74083295056585,0.638379025754248,-0.88593861373508,0.630727367784065,0.722786548548429,-0.681792817942742,0.20161522701207,0.84985215189292,-0.859733489835624,-0.630363882408646,-0.637805681532303,0.184119457733247,0.412435687198224,0.499951179544504,0.00887702597225903,0.289260525662298,-0.914004830427936,-0.592506998838885,0.407396678804755,-0.357438850474422,0.498841862355728,0.699472562196298,-0.810317596745751,0.138964552776166,0.431668664982347,0.153528191394645,-0.526495588766969,0.828599907792768,0.923594123914026,-0.0269120980081392,0.374858641566202,0.589141048307544,-0.630409199193583,-0.791257003809083,0.211962363014722,-0.955552118435396,-0.924875912623362,-0.70828218590347,0.643519001250588,-0.20396455183451,-0.54168737572768,-0.186206468022551,-0.655756375356796,0.429239766516174,-0.313130654277337,-0.375262487485842,0.435233587647675,0.14941354619735,0.590310196630044,-0.260662416954397,-0.629912175763697,0.117230639177488,-0.116662869519128,-0.0640579848283097,-0.375236093541268,0.842170372170635,-0.582560040028542,0.126687416574707,-0.186926686573887,-0.407913765570215,-1.03044459259125,0.281276703429168,0.771375360994383,-0.0959455558165462,0.717160105469314,0.888370153756365,-0.262162623808609,-0.620268536379308,-0.644952520884136,-0.413954853147049,0.756510994219213,0.0554921706579984,0.622950345708783,-0.823326293065213,0.153456920567271,0.252083005122454,-0.434018831891258,-0.937525749144691,-0.42548987424037,0.642540164913545,0.770782463007622,0.797036302003474,-0.896043298878665,0.580282525356253,-0.766698625424762,0.175027697017736,0.531835024597489,0.688113735279984,0.0933935537607039,-0.481189463709197,0.626374427320509,-0.561589834424807,-0.382879243708478,-1.0535574549827,-0.33531907658465,-0.786461898902008,0.700196559979414,-0.383459759459261,0.517205491080254,-0.887750582388902,-0.565788381645134,-0.734150676319914,0.465252020327112,0.501751523686632,0.837575778242275,0.862206803222617,0.557766243134156,1.03196538900737,0.602324881874867,-0.465652442971144,-0.824062924186325,0.516182338011107,-0.0886902996080992,0.05828678361076,0.779269574030956,-0.968578389407639,-0.403829937259595,-0.651466908259743,-0.772424257750872,0.161984510855867,0.772553347978599,-0.200212374573526,-0.473476212781108,0.942821168208564,0.33934641089591,0.738136862327747,0.895947118485383,0.813848947723448,0.993573262023968,0.00721205538777375,0.372875075343981,0.433349487762472,0.241722326504094,0.31585085448294,-0.124219098416318,-0.0972881709555973,0.431048101648176,-0.755467375205073,0.567978645545297,0.464091442242043,0.231566136958473,0.510376088939935,-0.431065628811654,-0.587501770846128,0.304372425818371,0.856239875961469,0.609147029699821,-0.299127873795544,-0.459623188008806,0.489235426247487,0.44598422008708,0.713440711748234,0.837638647287355,-0.461983261669964,0.376303558724007,0.235994103380229,-0.856893054121145,-0.623203530022338,-0.328861062278281,-0.377908358081726,-0.159591964078848,-0.824522401876773,0.119736965814021,0.335250499724749,-0.769396572721685,-0.368679221602021,0.961592684794635,0.771739075422611,-0.954483341145018,0.726571010482685,-0.510012758233175,-0.132796541524079,-0.729247596673387,-0.568800003536387,0.549457830216002,-0.825627478129497,-0.199244349339336,0.180221935107158,-0.606952861854107,0.393624928489727,0.185938629853399,-0.0716200485474663,-0.5176901042811,-0.174459090992249,0.540988941494908,-0.929322216710733,0.215100598266923,-0.841052702203978,-0.169247089912002,0.970955152419209,0.685296870553935,-0.895194795783883,0.455035821662221,-0.770083940508904,-0.0292380768215184,0.737188735645875,-0.966592241772606,0.637816756075306,0.567747344819676,-0.612584534245023,0.825688582630385,0.367379883322154,0.776787017055364,0.469581722811096,-0.0703363442030908,0.67160935036737,-0.818507158453865,-0.94901648698927,-0.297790900769394,-0.0157430201224836,-0.516464216166469,0.152922503499339,0.35542493848804,0.538782056950412,0.664158374088635,-0.109933107913422,-0.136375355260067,-0.169205792461234,-0.359379146999028,-0.0992471481029705,0.962369302434833,-0.132478038219991,0.0719136279467441,-0.931959016414479,-0.633560714833353,0.647147104055427,-0.264226589390397,-0.79590769184778,-0.325671258591216,-0.562534961803682,-0.531516328371588,0.22673725850148,0.951508320332803,0.856068274918335,-0.899861575254995,0.764033204940292,-0.64875361368177,0.881560645956795,-0.281846892293154,-0.507479443343587,0.850534155177976,0.641175371104315,0.907930729811544,0.469104358979615,0.705274410305444,0.637629898983776,-0.409770626410276,-0.764717910799163,0.640034138048574,0.378705759928899,-0.169851211309991,0.84459511670427,0.819760319033677,-0.922504017028206,-0.447666480135042,-0.675631057323625,0.65389860344775,-0.215905249872075,0.243751448986696,-0.266668078102092,0.939146401320666,0.206295760694361,0.386303759192927,0.829116116494275,-0.247780905590192,-0.856119503102476,0.739698904579036,0.6455424832092,0.729393086161543,0.390416741699315,0.402803417467546,0.790834434384119,0.147962909649136,-0.396920613824357,0.934022842873566,-0.46984101396615,-0.42352195755302,0.503734613881492,0.492442609596144,-0.393456288375964,0.456542866605684,0.216863834664431,0.736064591515454,0.0694936016588861,-0.0260977407392073,0.371361640371128,0.924446892027924,-0.240641093624208,-0.50757941264642,0.239008510273518,0.529023060552379,-0.836032191455427,-0.25635949229882,-0.692666526855694,-0.356940984365121,-0.0697643082467447,-0.677838189507095,-0.867792504651305,-0.179536056541929,-0.344990380593441,-0.421354450832878,-0.257031470293969,-0.925208583308106,0.479700589816294,-0.48452049865262,-0.0676846513303333,0.503849719712107,0.0782811983502406,-0.423558045827649,0.760910874253211,0.87979816982095,-0.853683727127669,-0.871306601508997,-0.174574941954434,-0.69641472285218,-0.733624077924444,-0.89734334367765,-0.43327351980027,-0.577613877673184,0.12864537659312,-0.210945894584932,0.542028105563841,0.831350401036655,0.28200756396725,-0.850717170051947,0.748172771159068,-0.47156045056848,0.593767178896859,0.546501435031891,-0.348951224595338,0.907041029900873,0.696608886869319,0.284278869121481,-0.40886729331858,0.234009048368084,0.977006861282353,-0.311982215877427,-0.505912813949588,-0.982581705116377,0.833303302784522,0.255080914507056,0.551783548884236,0.485063144922585,0.237452237591897,-0.639692899551547,0.687703645355275,0.392973483414832,0.303602671154002,0.232050442216669,0.751068122177802,0.585342735535167,0.448849951935339,-0.187124063385013,0.969972079004581,0.265053711031396,-0.293669492828632,-0.634553717591348,-0.344956151857965,-0.488864491141387,0.87997122926497,0.785813351120445,0.999741297092898,0.894330390245917,0.752329248328551,-0.64280929399275,-0.754876777104965,0.291071594320152,0.545073670409614,-0.839785019181812,-0.521574315277737,-0.974080051416114,-0.524995670431843,-0.488406437119811,0.823176303073129,-0.291766849284501,-0.93888553642649,0.312083896715477,0.632733727192656,-0.832499183933145,-0.977037905241108,-0.281856180168123,-0.156921574931004,-0.167958020083852,-0.0598372593259658,-0.0679869749007009,0.0853426820948032,0.0532529129078878,-0.00830294708186656,0.56218265604394,-0.419345593588642,0.104379971906147,0.16530788816204,-0.60265454206301,0.0946779092087379,-0.566816133542149,0.0981058906813582,-0.863823616046775,0.717669279299912,-0.583234585356871,-0.522735808659016,-0.238829569442779,-0.420276836679404,0.501046258843418,-0.362122057499291,-0.78685953884022,0.616489108028084,-0.492959062730137,0.00610308354954929,-0.92029832241782,0.248680814253516,-0.226589117456162,-0.384824719691463,-0.336471532743073,0.867105263379369,-0.062026743072448,-1.00211007658626,0.451561008096172,-0.201034161453863,-0.956910887874616,0.275484778141316,-0.121295974572286,0.18353827276178,0.235969220714031,-0.0963456320601703,-0.901829448206805,0.436229402986702,0.480185724769556,-0.190402410808847,-0.894792564856312,0.89689554977859,0.752822604960186,0.652218588302231,-0.106458189542371,0.763392772719952,0.706221279769759,0.297251883808511,0.0171778196245963,-0.844919954412326,-0.27743967703167,-0.532017192960238,0.720361007447896,0.268780111674166,0.464742656999935,-0.687289433253437,0.899293875825305,-0.199154092454276,0.222773350703493,0.595800136105138,0.372739639040473,-1.0030733154605,0.00531530870728392,0.973042374001225,-0.985992558105616,-0.914855974694099,-0.792433462158869,0.20865947029506,-0.903713002180965,-0.157970433100416,-0.283273561398155,0.428355251520278,-0.261703811150681,-0.351841624883881,0.354951486307642,0.166504739708713,-0.51909040546906,-0.244019674409153,-0.59053077459706,-0.473863853509307,0.689003842976454,-0.157443272462969,0.315524311953906,0.0720211897430406,0.881907907108847,-0.332849100803922,-0.300266701352662,0.493435953715943,0.747254382930253,-0.943530553046505,0.691417278295708,0.613160439420982,0.085565890917507,-0.136910650515339,0.200152320599453,-0.329789593932231,0.556214409498819,-0.811336760809771,-0.095846624623757,0.51287141925934,0.251666466457109,-0.990474156536362,-0.965655189698496,-0.0784692865322035,-0.526056666087762,-0.286604354765298,-0.129821231255087,-0.906375626229159,-0.272901083920367,-0.250441462657233,-0.392230077371288,0.841968449666268,-0.0490435236120664,-0.641825051880494,-0.413765745701058,0.640042349417924,0.231333560208038,0.33223280677607,0.231753791042574,-0.476247657070754,0.739055342295607,-0.97302307700525,-0.269489416275551,0.173255815696048,0.849678118643652,-0.091734912047139,-0.155062812428569,0.287600214476814,0.528472616827936,-0.231852836600302,-0.0887235034193813,0.29728046246423,0.47041840927892,0.276744850307097,0.568943881576273,-0.860275582870759,-0.732151180003919,-0.823464314940343,-0.678963153185814,0.670005894201965,0.118868164923297,-0.617859726125297,0.79599199948885,0.0798421996773677,0.716981806236928,-0.359558830341297,-0.531030977459278,0.354551218087005,0.088000909806813,-0.425872636852068,-0.92379744458346,-0.694394195468176,0.626963480564947,0.0268122828406555,-0.253999956058576,-0.742993888385751,0.279037483683874,-0.701211586961905,0.107419726701488,-0.630999248908118,-0.00836627567585305,-0.355574894224509,-0.560471006226266,-0.675031555128727,-0.692734964062289,0.707889354883648,0.391120781153158,-1.1862182287332,0.698955448199986,-0.551348584960581,0.671159082093379,0.618096161059889,-0.285766762162381,-0.34566177280008,-0.690326622089236,-0.298808435601994,-0.516444812762195,0.611480147553842,-0.432775771676468,0.576248518132323,-0.570748709743496,-0.288093767341788,-0.319280977019598,0.269940365094641,-0.12403534669757,-0.824409236777613,-0.239968811306206,0.116188109936543,-0.863483866749295,-0.54283930015411,0.452913973530095,0.169860374366902,0.616880791783176,-0.99485236769953,-0.941540759411578,-0.225127711072238,-0.616389104798146,0.12175106589535,0.531439112476132,0.498151964716925,0.858289829464668,0.049091068643371,0.0772908332683926,0.334588998761319,0.742522393483142,-0.637350141636813,0.398213249181918,-0.622179593476152,-0.600367575150631,0.541931898213582,0.0597923764105328,-0.990570725609456,0.910722100144115,0.754558000971679,0.744617792767045,-0.0119495301928216,0.0622033853857493,-0.93547856401839,0.500313416639172,0.516704025838499,0.167125478012345,-0.259765983467777,-0.0160001249780288,0.0543649161876814,-0.102551069248628,-0.715198189703452,0.305487464658807,0.349340576764273,0.499525549783436,-0.388148287750801,0.608695184257216,-0.40006640293589,-0.451826649935365,-0.459030035874673,0.526981858558157,-0.362849569116461,-0.285991103453042,0.350963754250772,-0.932923549883851,-0.699954911884343,-0.156899755808723,-0.574211710420401,0.520144249077144,0.286612273110956,0.679293427890586,-0.584408470455265,-0.123304814544581,0.464239503283435,-0.790496562833322,-0.110870571685284,-0.0188945886510441,0.388852706568684,0.861615970963706,-0.689698449258405,-0.894637558663666,0.217352906081946,-0.514118430903721,0.116604392863214,0.357001348864422,-0.0669904629528724,0.316810131659904,0.616698677847897,0.712878471034098,0.492473360902972,-0.282191856449205,-0.411871947385919,-0.628309501158073,0.198753413139821,0.508937571952949,-0.700923433666874,-0.330517347500771,0.181773809808275,0.610071016613349,0.106412593518093,-0.823510720667731,-0.290652581161135,0.431439737197813,0.960286387501618,0.666748641802681,-0.985898007683962,0.594750828562687,0.424410702977762,0.387488560424271,-0.415547290554209,-0.295943255949713,0.239338256881655,0.909972841598478,-0.0971433205262831,-0.0122181099929873,0.906851968587505,0.438674316391759,0.994926522905847,-0.59433732243056,-0.999711301913784,-0.722002826075993,0.267197607389437,0.704318538002732,0.2628005692074,-0.318268524742904,0.160988273932211,-0.62103326981685,0.714072446369108,-0.835109369888607,0.891862944247684,-0.311116260968226,-0.489529381550604,-0.373945850662694,0.742978164606068,0.40015463944394,-0.585833662004813,-0.356171059308888,0.708723500331199,0.27389128850278,0.595306874133306,-0.572884294975846,-0.681610050302307,0.293478165144197,-0.749539172408581,0.0707341760200484,0.254512251671838,-0.690830477516594,-0.255180263232769,0.647915073978425,0.795971655291677,-0.656569438585139,0.453419420049998,0.0325060450587187,-0.554415970574997,0.464261163630921,-0.364609121619875,0.264536155133983,-0.528432997131465,-0.0378428573651863,0.435681262976461,0.257512165981914,-0.432683232390787,0.352026568824089,-0.427838625001446,-0.79412380711077,0.352280397729844,0.844680363521738,0.654516194476409,-0.759987668770663,0.3332476287526,0.299488023948443,0.0337244351435678,-0.157721181433448,-0.202516424554827,0.703115883779168,-0.42089155977662,-0.404706077125909,0.121937698541959,0.259425460475134,-0.091204624285084,0.735436503607975,0.918657746637461,0.633054683732936,0.443807384605188,-0.755916386691081,-0.807297919325901,0.697210380102089,-0.373212332614524,0.835962652541383,0.148441755939701,-0.82670715461716,-0.457278256779694,-0.682904505225248,-0.141533431535755,0.776227951425044,-0.759335022703915,0.878122603010874,0.830224356782106,-0.47858982255892,-0.928642260579411,-0.0806164300497087,0.150556230747653,0.454558141070965,-0.263715138462178,-0.872635466545669,0.741071438182275,0.657925164700629,-0.204913455646336,0.531819940147954,-0.185817203108956,0.0356625349605992,0.121560418325746,-0.61288494869616,-0.750137573554792,0.19525135462856,0.178497612730085,-0.527841665208714,0.715219902060353,-0.769390653758277,0.76503003378943,-0.222181778927327,-0.400355123957424,0.505828286234933,-0.469660997097989,0.0510966490794866,-0.541530564558813,-0.887228897627421,0.655562103870978,-0.768371772613055,0.0838460020612257,0.249367931619519,-0.999248355621212,-0.672769759638775,-0.980966870834405,0.506002909497106,0.407419509416344,-0.287317878439728,0.340824229508766,-0.818009891522009,0.645309980861216,-0.153560051665523,-0.796823622697337,-0.804821288342049,-0.78728534118359,0.237397752829501,-0.59802529614076,-0.153603928392935,0.618044307094252,-0.342167055056393,-0.45330034712927,0.637657622399239,-0.587067214479888,0.309133694483569,0.152026155873945,0.127425534225034,-0.370645027735388,-0.708672358513756,-0.739566305779019,0.68533341399054,-0.0507766208863638,-0.536605301274462,0.562084104934685,0.364848726293466,-0.677562870284327,-0.717612567029955,0.337485661029687,0.317465769551684,0.28761187340001,-0.626424074325767,0.644196929561398,0.22749215026082,0.864443978686101,0.322832318119571,-0.501593670274509,-0.90661559721207,-0.925718925946446,0.436538487557453,-0.513163803101685,-0.708647366336277,-0.912089696443957,0.6176609062217,0.694468497227789,-0.523088178611984,0.505318818984654,-0.436106124702317,-0.323496973384193,-0.343134774475712,-0.862272860402522,-0.845693093228763,0.00034366889258171,-0.241086478048511,-0.181698676851901,0.230313658634194,0.324411799721905,0.275438753129998,-0.312790238914363,0.475543283310086,0.391101277975187,0.169792288542306,0.761905089342369,0.910345689805868,0.720158334553154,-0.35946482545375,0.318416801789272,0.810223903251257,0.370822412807821,0.999991768911057,0.00128626725273356,-0.453153473907556,0.382886714154271,0.99002505696007,-0.579244785569845,-0.168538533654438,-0.676094564312407,-0.492052261065986,-0.230194602757712,-0.319538615644572,0.847054377675112,-0.0804997159270798,0.0582108459729325,0.00415451417068827,0.626889976170342,0.607237784790054,-0.774860128868822,0.223824262234725,0.537286707988891,-0.430323090280364,-0.461759524329054,-0.0677674934582968,-0.251963130979367,-0.0469267237930216,-0.119299333983774,-0.489547608272776,-0.704247966469422,-0.467656080921756,-0.308963357988609,-0.494956069968241,-0.969990271193114,-0.0992522353754313,0.809610815456948,0.310787681778497,-0.705319715587236,-0.491796580130791,0.575350861827632,0.451830136899064,0.611784434967592,0.810293817916319,-0.630937353192387,0.0538873214168392,-0.438780078783519,-0.183225146411083,-0.573855073099405,-0.27834504979527,-0.682586867495822,-0.995030905021429,-0.194203425469099,-0.439439920518166,-0.597054781133372,0.175000395049929,0.44303637766471,0.455665019638647,0.0147519588142897,-0.353811820129378,-0.0776476373891928,-0.374517665415019,0.332269547864552,0.854691455850448,-0.361283544988568,-0.0879162633837304,-0.216911317778226,-0.362208231380213,-0.233674201134528,0.749875758942954,0.913612091323017,-0.991233123491084,0.190442200535011,0.571155232422169,0.354730564463407,-0.812263408187327,0.447760819536011,-0.807712704012774,0.211894370742723,0.697735896680574,-0.498633453834793,-0.611328090024901,-0.939800647430173,0.694422632448682,-0.906107771753206,-0.216330272454143,-0.625042486013658,0.0261458197517753,-0.00789295947921417,0.725950567308169,0.129463118287639,-0.632764820399461,0.816706002665776,0.327275453894517,-0.0180001743794559,0.644169940394812,-0.37207323266417,0.766929348971895,0.0608629245230593,-0.814812712412781,-0.0373601683298891,-0.415203367738615,0.0441129357894248,0.925389112693843,-0.248134425221749,-0.942129018014303,0.270467244828122,-0.377865701403999,0.429332914940138,-0.00430741016257374,0.715370345152419,0.536041709292601,-0.27362607355901,0.00831001071393982,0.189265327568845,0.0247363425906205,0.392315058035821,0.349607504431457,-0.602665958347047,-0.0829185780422122,0.00171809481121921,-0.528764816330847,0.55707484729944,-0.605414605966115,0.0634460941320952,-0.399808175388268,0.130006685445109,-0.0631277438485842,-0.556029734371825,0.193591745238739,-0.816757007057012,0.115252065377603,0.656780593105429,0.459454412314616,0.257458022408878,0.343234151809213,0.786503769896761,0.103855426037579,0.732591908956177,-0.143772421476905,0.85451050618273,-0.0638785091871064,-0.42938693937859,-0.402879920833488,0.294089355860984,-0.105937538961592,0.180100410019894,-0.518819977976582,0.726175556630764,0.384412560397097,0.328739143783646,-0.129234320046262,0.243700714723808,-0.154584893763943,0.773866748340467,-0.688854048415261,0.0381626152777458,0.387364461902956,0.990742874538742,0.263023317638743,0.279504048148938,0.0504520169551919,-0.478580247934755,-0.515221093910096,0.0265668461679084,-0.537837292465944,0.030991642609234,0.541853894965282,0.293464901307068,-0.922817454522054,-0.509849789363036,-0.180003055801019,0.832963353597457,0.215982773648955,-0.563400050464979,-0.286787132109014,-0.324990516220148,-0.284182727371521,0.742388388667127,0.113329953645987,-0.388611388971865,0.247017136447646,0.260208036874256,-0.638542783384825,-0.3632742256699,0.787454170660922,0.789973911398944,-0.294272451070175,-0.323935391663586,0.646230496987385,-0.155604229352415,0.819016446136214,-0.260521673536926,0.0953778679049503,-0.254076267862228,-0.265505986117793,-0.0369923158224511,0.383864715807403,0.406740707671963,-0.327735873675113,0.0198624687507274,-0.264601082157137,-0.937554952052133,1.04329183035641,0.0576618110609141,-0.121876989665729,0.825930275522262,0.184007164865512,-0.104501867432404,-0.295997433547612,-0.0438079083207852,-0.531828918252288,0.215176128773485,0.738682917516219,-0.564719775238267,0.516021250953024,0.651493945222395,0.793868347258874,0.0986230007579251,0.0386859749326261,0.5655960877634,-0.453862702757508,-0.887429458508337,-0.463162390600693,0.02824623756581,-0.505511388187033,0.832846847317904,-0.781142682852548,-0.412012044061259,-0.0843753656730199,0.429383636200066,0.654641749888149,0.299407329845575,0.677319928970316,0.147642788902361,0.0462750989303928,0.654669669060161,-0.11789719900622,-0.902260545628717,1.00681925643753,0.559709766785128,0.0507462292374896,-0.345008867428021,0.207136616055896,0.774116298660244,0.649912144962333,0.823865602656053,-0.619617173922446,0.543607359618878,-0.100595199739351,-0.367010595944265,-0.892908982053802,0.39714112883883,0.669730809110243,-0.797843145121084,-0.42756536284771,0.827772130800246,-0.698191540566235,0.915949976544496,-0.318198934621684,0.713384366099529,-0.393291015625752,0.422023613345618,-0.900568510501893,-0.701375784117695,0.696373215743166,-0.231466163358624,0.128147755605541,0.447313814222885,0.889480134327681,-0.878903428627683,-0.813215667400617,-0.696793270631999,0.61256163259802,-0.662190805795449,-0.0550692544531692,0.325744149989895,0.930677354256175,0.141174080763296,-0.25096621125343,0.0390222737898092,-0.122704992373528,0.626934530278606,-0.882141291163004,0.983885727872824,0.811388010127904,0.90103744575297,0.343720796509007,0.445571562487955,-0.695500023436235,-0.737090779329506,0.611438489839977,0.652886839176204,-0.68131542082663,0.535687227840252,-0.4153504302594,-0.463398618529656,0.581158254327891,-0.202322103878859,0.324260740210651,-0.89310882927826,0.481606125908808,0.995133173374651,-0.244770559950887,0.0587630881265202,0.473696175827017,-0.658216224691512,0.801733359455346,-0.382733133696898,0.335934253501054,-0.0970836390250441,0.390698344512318,0.392971473119646,-0.515334256511839,0.087072020669269,-0.731571309122063,0.813690901987802,0.133781831397684,0.651232029462017,0.980369976898174,0.545871965227547,0.0829508823281149,0.746212574838891,-0.464893958621957,0.901866930426514,0.982354764235862,0.827949855528279,-0.925595855555921,0.167357925122503,-0.17119190511678,-0.906638558040795,0.791658810490858,0.529086696797288,-0.843264019583682,0.488875290918889,-0.358592991446718,0.908651759641217,-0.695706028677574,0.206553748219732,-0.021323360798513,-0.212597401405536,0.721864255980545,-0.487455912562089,0.0592747991176875,0.895766479009634,0.307321078519886,-0.931802267154512,-0.234983402485863,0.730751229138478,-0.223375989530824,0.553020499085846,0.482212029499101,-0.55993429392302,0.845889676011835,-0.5696569929249,0.654208347344614,-0.18582523580284,0.532986823606266,-0.278520923596646,0.794681195022459,0.632302029406215,-0.685756775441458,0.429197718283717,-0.708642453301002,-0.154592891069503,0.099895369879802,0.103605317601764,0.539280643638996,0.410275726840839,0.732680386041788,0.0780757809889758,-0.229025526827737,0.758350154899247,-0.879738596704749,0.253213571929526,-0.482717110515836,0.904792784750855,0.0958689723930434,-0.0993026191448434,0.705856968313156,0.497668360559881,0.300888340593676,-0.943975369096631,-0.931021005797613,-0.840547738883319,0.024454005878659,-0.623362730829101,-0.849748418483546,-0.215348203675951,-0.512326023508408,-0.261034006440608,0.104894748106356,0.866287560205379,-0.57176742286524,-0.0518232048860982,0.969824114413833,-0.201077825611168,1.00222207097134,-0.00353854014215683,0.913162871543494,0.0837799129766196,-0.68915031448547,-0.26648051086529,0.613692999825708,-0.0320224580349556,0.794469570781667,-0.815860102716652,-0.262473273264177,0.130318035146797,0.526091599791245,0.414985591730907,-0.164193858543108,0.861570650003351,-0.613958684706121,0.751556772623318,-0.483648609841123,-0.149987593995988,-1.05420833120109,0.112130556180472,-0.314163960546304,0.321104703873756,0.725411972234684,0.230141442768877,-0.465078215729972,0.633452972504897,-0.802808108017664
