0.375779180602784,0.0927848625908474,-0.348142616925292,0.13743789241805,0.750640097496868,0.710061370977534,-0.31714765560214,-0.461295111771259,0.312579861283612,-0.379856372038415,0.271314330678221,0.120624932203479,-0.830041732115813,-0.257606126266844,0.172743606826907,-0.91174337119411,-0.040038580536621,-0.951967978664262,-0.101035618029206,-0.519170143407734,0.515529523761968,-0.10863113166507,0.775607981785375,-0.778980186956483,0.891684832036454,-0.230262591856911,-0.648297233624297,-0.947140055010851,-0.27208637221742,-0.175389299406544,-0.146400405822621,-0.94449975158363,-0.394003917536134,-0.448438865135527,0.68172486571093,0.436114886208429,-0.542672219681463,-0.373719392231136,0.952002063627041,0.89832920412377,0.505437590142212,0.662281771038636,-0.8833041235051,-0.70074311027185,0.0252284239617025,0.31987160892701,-0.636347797766328,-0.219759189145004,0.836941764333775,0.985176853659686,0.520149631633806,-0.876575928915015,-0.141060677368665,-0.664114269375603,-0.430279850359746,-0.165468762857685,-0.518520862296573,-0.654101132783659,-0.130666724244938,-0.555643793123106,0.928482283763495,-0.248597883140887,-0.28136100480743,0.982323626499393,-0.357047315707337,0.788522331081137,-0.261327813377616,-0.989235187422876,0.546602278278876,-0.153415988263822,-0.745512878473958,0.704058339567968,-0.067094184306927,-0.981306440870551,0.87728061010906,-0.245268963704045,0.734560145064834,0.721944074736212,-0.956599745185999,0.717465716635964,0.740613351222014,-0.77158642911434,0.937334859619955,-0.16788736702131,0.820849060324594,0.0717788798618074,-0.50292964489564,0.588323032291324,0.203675287633484,-0.586774001324776,-0.273577765991103,-0.87872884860362,0.970010762926943,0.0514633665958112,0.891516635318377,-0.579731840758366,0.366847742126946,-0.0594703466750827,-0.49169204765786,0.673667371708842,-0.417886868926501,-0.773742028331,-0.232164179063395,-0.564826491012125,0.0115520169290949,0.0400972587858697,0.826933967078866,0.870325857540152,0.908063116930127,-0.0214090193948665,0.160938426764291,0.969712905509123,0.137906776962205,0.239559767419619,-0.699972194524682,-0.368189552535775,0.446813872999769,0.133554430193854,-0.738743719736291,0.0958622951864033,0.260283989192337,0.365647010882113,0.347211912691781,-0.412583125018331,-0.721836804630209,0.91121884789035,0.141086489992453,-0.594229204996279,-0.39526987146363,-0.826084037307109,0.386559695648045,0.899563937274276,-0.678672992568823,0.379781492889848,0.534390315916289,0.809409824046591,-0.00369202131626184,-0.335864116625612,0.513807313514597,-0.0933152985902208,0.140261303148115,-0.3659765668596,-0.430154550559723,0.441468448288984,-0.985463133971291,0.306866092045622,-0.573596819931521,0.313057868174561,-0.461582655548854,0.703533994387454,-0.21750432155661,0.413227198058599,-0.52421758331046,-0.262931060124519,-0.494913683371334,0.0937746428375428,-0.257487124331634,-0.747605094709117,-0.694739769605431,0.398511306582094,-0.424359498415165,0.724751406834139,-0.687210237144587,0.354187947178147,-0.507933191829915,0.307664478119354,-0.272130134548354,-0.043268956538219,0.347362285132844,-0.286693269360601,-0.417823016509513,0.537380321461521,0.594311167150216,0.0716646374841905,-0.588193861161192,-0.232919312629317,0.202600899964053,0.613526159571171,-0.809863851528749,0.588073248068323,0.703468050481689,0.711432993165831,0.771204770692738,-0.180537370666258,0.745840846858716,-0.114329868487052,-0.937357705510387,0.898365606893056,0.0946921330226307,-0.483391624928294,-0.20179920999923,-0.366185422927517,0.475002831819528,-0.988647079318601,0.470189274281003,0.187181430669632,0.293234373344993,0.650585683066847,-0.804701997108179,0.393950572046602,-0.315788258449692,0.607140696801118,-0.720910905142498,0.441916977332485,-0.889839514317575,-0.159499151535876,0.736092548634017,0.605629578110072,-0.332921468746115,0.244374608390576,-0.313556888486681,-0.116301605459363,0.155779397514213,0.927893847120006,-0.850879250426852,-0.274848647892431,-0.401634325703004,-0.12488751510429,-0.224046675486867,0.646303878354079,0.125949324638584,0.331615843399537,0.0507721869471669,0.138764684384615,-0.577865240415464,0.3740896792805,-0.332870040293786,0.378982993017306,0.95317310114542,0.433894270875148,0.135401660447689,-0.643969054278542,0.716973853187723,-0.0200091902045514,-0.414292777243033,-0.573883360700005,0.841436642827814,0.456432248509386,0.642401614671103,-0.727503456475247,-0.333194393110471,-0.287071832792377,-0.548774236349738,0.988688588752099,-0.51096497053324,-0.504571016426204,-0.191188325686473,-0.261225948966187,0.0431201082012366,0.124311198533989,-0.78704375232038,-0.019227430264497,-0.175890975893965,0.0712961438376686,0.523955636898768,0.145924306011083,-0.67434063996891,-0.606869742112813,-0.934282693934935,-0.0187704710531695,-0.77988112776311,0.120338358391278,-0.240193928522528,-0.172706794621177,-0.391458398788556,-0.249614681126243,-0.417104353922568,0.747250162135427,0.286437260077405,0.518122539318701,0.625837393970657,0.624154482031546,-0.220403692665854,-0.91496259716991,-0.971132288844634,0.744203937968523,0.79259620405083,-0.379583130484497,0.521876105870912,0.297117526310735,0.670624017123142,0.684741152431024,-0.433461091985526,-0.766469285091528,0.20906217602841,-0.70032749011651,-0.892992500094174,-0.269508931058441,0.855577500664496,-0.598496846954629,-0.149709471613016,0.00685046261207489,-0.60491555525558,0.234214520776346,-0.985113890648955,0.628595836838119,-0.326258479790327,-0.645725333526666,-0.45518467299253,0.352017159377831,-0.0951980985788028,0.789913990034397,-0.422683534361889,0.122713850405118,-0.404289410862332,0.896711975139562,0.512599377885394,0.156966918843639,-0.113011038626522,0.61970025777617,0.257118105813913,-0.272327152497303,-0.857369609732734,0.505631459302763,0.998094342370694,0.172696115347279,-0.584991426333176,0.53701261916733,0.987919949700985,-0.350348219844041,0.401849417254265,0.499315648144481,0.432368670334715,0.383902944419449,0.957586290938758,-0.120072401745667,0.406620230614043,0.741483977850228,-0.867295884504208,-0.597526816921063,-0.952767707679832,0.730227493079232,0.0440401370303341,-0.842405379591228,-0.160624745925217,-0.810760913082857,-0.597242056103293,-0.685078091459013,-0.0739529767240338,0.603503529130311,-0.757871823777325,-0.22522139370165,0.686218706571097,-0.0967066070415203,1.00741928188835,-0.235570405502369,0.538203115251044,0.336248244841097,-0.722578715598796,-0.751669661017553,0.948261524651566,-0.716111661854323,-0.282204510963951,-0.693573704340354,0.547822755484937,0.507193428809217,-0.631713174351866,0.768769165515037,-0.173166089044473,-0.144484981809313,0.411588682973325,-0.77671352325564,0.149117495178989,0.887552683789012,0.199932429780619,0.331450086089917,0.357357195567181,-0.150915231715322,0.0199947709401738,-0.524238195370407,0.102768030942473,0.13263322609559,0.62982968994649,0.588491713422384,-0.533016576616859,0.402687580297057,0.779606427686531,-0.430533030964723,0.684597810976519,0.626367403936756,-0.301431368577621,0.531092639609997,0.136775958884823,-0.371492849949778,-0.370843605038769,-0.225882007350596,-0.787744391247586,-0.518481960537234,-0.953799250484925,0.255977054223332,0.827082657763979,-0.254984693595754,-0.516199427524914,0.692324509218022,0.534547678220292,-0.466959287029246,-0.294198156849709,0.567090369499831,0.730115304850182,0.318240764884583,-0.44677151186446,-0.572434709946597,0.00864018319050595,0.285438504877072,-0.850484055579121,0.871302728495497,0.539424291805208,-0.22275715314121,0.356527672814404,0.139494215423247,-0.295614924338812,-0.485298381605999,1.00984786625825,0.356349980025988,0.05131320876312,-0.213820303066837,-0.592162216631589,0.662347161602135,-0.199243550743169,-0.794211800447642,0.762648022776019,0.234346927965405,0.210338856324333,-0.380040100699484,0.379259982964231,-0.150433895947754,0.524753303506099,0.251525724482277,0.769026503860593,-0.559997804782219,-0.946981106611219,0.51170858921517,0.619467335464345,-0.249103105022564,-0.360682098317145,0.759084209408426,0.00467057892748882,0.87021721697451,0.404322342593201,-0.74437363024113,-0.0896737706534095,-0.290957612707192,0.61005679704835,0.0243567665245383,-0.735756554009771,-0.118505063014413,0.920818837147156,-0.0954129818255923,-0.688758794089883,0.168011241035685,0.909174735140977,0.70991417864304,-0.836427945915519,0.720515249340492,0.870308971275771,1.04811493639029,0.613638058573402,-0.447099201917774,-0.467351908452862,-0.789002741947907,-0.42068346859497,-0.685794877917968,0.498823115771575,-0.0591734820016832,0.483063829496947,1.0102817915228,0.616508870280381,0.153730135498358,0.00706571727441912,-0.527008541259747,-0.69253965554238,0.450062533737123,0.19168069157369,0.0328548860912693,0.674455515856484,-0.463846794175234,0.0019480919349304,-0.787390914263622,-0.343773372900441,0.28454378222953,0.752972390946297,0.521532307527549,0.633495135061137,-0.043358100108003,-0.422584751659491,-0.0786184171072769,-0.449365885506502,-0.260715606700576,0.226247945622206,-0.170942525213416,0.843989010446944,-0.355479653046739,0.462182413166429,-0.571257006220515,-0.39391750752978,-0.460215557395424,0.386283504601485,-0.637100761711942,0.0631226363802222,-0.635840595427443,-0.632073496311651,0.499638973114749,0.827559758620898,-0.581896875790392,-0.661907534467851,0.56243859051266,0.222808391075111,0.588307945811177,0.110240738997623,-0.417762067042224,0.181205504232091,-0.670335202495494,-0.249135245395749,0.789342541772689,-0.176951621449965,0.665984502291373,0.964077633375652,0.10562796332958,0.293480850129792,0.158619615714986,0.567901510130653,0.253256542122256,-0.698493098194326,0.676032842780297,-0.739405705300414,0.283107337988249,0.964779186877561,-0.115083416042678,-0.777231686566715,-0.912506573286524,0.549780933498969,-0.991052114820562,0.244296529384934,-0.273065333181943,-0.210820002523656,-0.152086536461745,-0.225718521175406,0.724899128176248,0.413986619194727,0.714314527500818,0.519714846868875,-0.301479139049365,-0.593815339674658,0.318957156865943,-0.78465992090644,0.775605469602241,0.162525810676107,0.562571264300092,0.149122214154673,-0.62468780273509,-0.833809246143191,0.596318408207105,-0.694390377386051,-0.877027718350984,0.204588553934862,-0.125964304374263,-0.0581912189117238,0.812599644137079,-0.700094402449482,0.571400136093063,0.345462758467022,0.798798200411664,0.123499574553374,-0.617709772083909,-0.518071986735996,0.245119944330041,-0.49198833829711,-0.29311508411826,-0.951976835674603,0.507579874810166,-0.525232090199466,0.36030898287585,0.471080363771054,0.431645103024136,0.628575067026678,0.451002047850718,0.228906068252633,-0.799134549750522,0.944887787704288,-0.131799452088034,-0.806984469141034,0.501844083549301,1.00854092815399,0.104298822639655,0.173330860969317,-0.692474872604321,0.275456075353689,0.092148046967045,-0.526360892266029,0.315640474198455,1.00138586361193,0.109959222786054,-0.589523239531659,0.265178013387236,0.419051970868455,-0.0865890613060697,-0.884624477236867,0.988853435456801,-0.921301080514747,0.512376730773823,0.16019324713964,0.936441850673993,-0.260523647373307,0.0301574686272771,0.607170532398416,-0.197403090773097,-0.678681576136705,0.141562371176472,0.190893588829089,0.597861207447666,0.923269423971583,-0.314775493175123,-0.998528292582034,-0.849562158803632,-0.0165242480537338,0.99726262860096,-0.921159718609603,-0.26685298271792,-0.613370734385036,0.7326834636852,0.228085809087543,0.761539762514924,0.576536904390001,-0.0608633896702341,-0.863055008682244,0.0728628605994944,-0.18766907413021,0.151012824447694,0.907290787860536,0.876783285841513,1.07691724063544,0.027054848762103,0.443677469802664,-0.705040997142797,-0.626314390633136,-0.527684790698485,0.777029297062984,-0.795087253847177,0.390119675198165,-0.605466929459079,0.634140524776645,-0.351237795098036,0.600803525489638,0.63187688715998,-0.365910972472419,-0.593435976904236,-0.677041808879796,0.822724229696902,0.41455467224761,-0.758643533933052,0.280765324690376,-0.702100226199966,-0.83699795451581,0.489574435582964,-0.61417892684043,-0.998585220563323,-0.956736695421957,-0.195604338233222,0.182219206161642,-0.905732865617271,-0.993665134402264,0.152756713123761,-0.298908337204311,-0.675396156148111,0.24648276774581,0.102080293704515,0.698845093931273,-0.197210455347673,-0.891956540474935,0.99628716086036,-0.913484672567128,-0.748050677821985,-0.0837504565271048,0.604647335291769,-0.192504309916557,0.509558084098655,-0.320394792254897,-0.312112665454769,0.224274416544263,0.881215166601157,-0.645682977706864,-0.764880921019129,-0.0825584363383343,0.952768704329585,0.58700526579445,-0.685912928808646,0.580055135390516,0.434379688073017,-0.388810403593477,-0.71284811479182,0.985788666902105,0.546156946179124,0.0264728299807384,-0.243619130799072,-0.467382439406725,0.193646990592594,-0.784229927203075,0.366880994169418,-0.587521059528802,0.776778392093724,0.237185155517225,-0.9286942535246,0.6988499293041,-0.720179296864701,-0.578897002023558,-0.25723763641272,-0.544841489779361,0.316880937972614,-0.75573629171309,0.695585185689905,0.403503041936327,-0.411835050668164,0.530091360717879,0.574421372366914,-0.432900990795248,0.0495484327647693,-0.975461149807966,0.455850436945068,0.96994453398757,0.95087741782317,0.327015543113371,-0.176916684565388,-0.969108843218924,-0.269670830661023,0.380158148734477,-0.210846035838662,-0.526284761614928,0.913733687104369,-0.489225817833573,-0.895666588776633,-0.485862537610956,0.569866019734056,0.603237884623943,-0.695825850747522,-0.74336937429715,-0.906749422673102,0.596513547570575,0.189504348773082,-0.308243360398272,0.515392833640174,0.366157824104381,-0.491325511606607,0.161644875417806,-0.0387486303392983,-0.575714300120356,0.176990701784353,0.776977485575157,0.447900256125835,0.666054142824061,0.0211841802401469,-0.33123332524601,-0.621118802949714,-0.836340832438447,-0.0791376793661356,-0.817302661684798,0.199114052375856,0.61755174627285,-0.882809872271046,-0.221496883414533,0.0598115536093393,0.290870452359381,-0.804010078661595,0.515475660942007,-0.175467684558356,-0.933776455149518,-0.887287800585374,-0.980303217169473,0.174743540044873,0.457118547289871,-0.830789411290386,-0.894328978982241,0.268717399390379,0.80698839129338,-0.169372608829446,0.577947819248898,0.0570755550582895,-0.486003443297221,-0.19000519891391,-0.0888016283990492,0.439547105943637,0.248717105865737,-0.0628315855826608,-0.413377619297925,0.35459248141816,-0.923408560028511,-0.826106435431397,0.480939377053449,-0.958924627303174,0.350228494987619,0.770194978768846,0.799594645104547,-0.420711638149352,0.623187045979185,0.179361734324614,0.874778506463643,0.577254252515347,-0.445431966333869,1.03790551794727,0.456262208605736,-0.420754248576027,0.161043220197247,0.440912617745667,-0.11406820596403,-0.917795253863404,0.881982435106353,-0.0795751251719222,-0.838292763085352,-0.922069922411649,0.282307336325692,-0.390266877787965,0.515780951743748,0.0903799152421015,0.366748183129253,0.259235335643686,-0.381696384532999,0.0590477689771725,0.595012933923981,0.372008054629928,0.947805773287329,0.242381483857139,-0.49304534418548,-0.130801217192227,-0.513031885815425,0.521617172404222,0.0338834834638428,-0.76327431833235,0.372597969053875,0.34648084810042,0.791937895146235,0.00608116940794874,-0.0748453505689441,0.32707864756674,0.84020795329845,-0.353771679939436,-0.970985153895539,0.480308978222406,-0.855474194201226,-0.00779088486829514,0.680215724208042,0.120208941542978,0.595817015405358,-0.344090805011496,-0.249994259437986,-0.0586754978140498,-0.458512204099232,0.539751795688953,0.0303244686172268,0.220030854360755,0.0244829573423495,0.652505210521034,0.619798900447473,-0.00849607400153908,0.699248499267127,-0.0323680112275026,0.923597589393106,-0.888344589059705,-0.213167251591054,0.217300347691348,-0.540641312998596,0.431152131870841,0.348906631653754,0.463822095147069,0.564748807220899,0.223576016118506,0.598054421440616,-0.460353060983548,-0.509886995902776,-0.879507885739519,0.426380712699783,-0.0876532370863771,-0.737663819639892,0.374930508106086,0.975093291206382,-0.121654359161145,-0.614293995203635,-0.950618143882862,-0.426477694027529,-0.166830836940519,-0.891923753556381,-0.857149552341133,-0.912226155380481,0.308141706277053,-0.937109089665183,0.692113781202313,-0.587429030612816,-0.546805009494009,-0.78079875081001,0.843037739857704,-0.662042677577588,-0.248315165772812,-0.837153256791008,0.16562662722822,-0.215039601197977,-0.0504463112185663,0.970636322814925,-0.665465937057553,0.872780968281414,-0.075456455820776,0.883213165421862,-0.337508788175655,0.777182203167251,-0.92160263878854,0.426473963998504,0.712248000681482,-0.414219919191076,0.238738777379674,0.960260541197331,0.015123908800494,0.623629992284381,0.377717913710031,-0.921850244314498,-0.768146908562622,0.97391732093469,-0.477426071411999,-0.857265260411973,-0.966808449135975,0.00105587331553789,-0.575499279838837,0.605448747849594,0.150994152836514,-0.332618424258078,0.0367031399915067,-0.164130664523944,0.073438632604308,0.936574094116433,-0.839121352846411,-0.905599389519571,-0.463704620923627,0.22718920342793,-0.212665351311605,0.413181409714003,-0.225054947873266,-0.748848400723625,-0.292530631737908,0.665576533424255,0.437994587351348,0.133757221033219,-0.440634910846359,0.172767620918652,-0.225939307307684,-0.655133964404345,-0.955379859610732,0.827000884226648,0.691989434854657,0.741526024472622,0.506932188331293,0.224157515835158,-0.598271796243031,-0.486844539257313,-0.984494552246146,-0.324861634797164,0.498778647412184,-0.43018333554878,-0.997234180510447,-0.939016238008053,0.393956118429807,-0.467173000615691,-0.799319297783235,-0.237471332137494,0.26668984635219,-0.227305513647366,0.240389611934779,0.313683290265211,0.828308250938109,0.414059954752219,-0.777441196568127,0.424568545003789,-0.4883164496355,0.728526344735981,0.153211245518905,-0.865798735991379,0.399304612713618,-0.163939265829639,-0.491569694186956,0.365126301691522,0.105769487059998,0.511115909568614,-0.364772213771372,0.480026944551503,-0.931060982525513,-0.800456554902919,0.685426393760258,-0.343145054020065,0.948798346459581,0.0945105287725494,-0.560906390149822,-0.345956624388276,0.00574144287496256,-0.491413957089218,0.570334662481838,-0.464994020023183,-0.630142595411939,0.510814612646037,0.367591929044322,0.357309769146258,-0.672042623187493,-0.259399127556665,0.22406223968748,-0.648587563212319,-0.724650609948189,0.572705901793962,0.645728054406517,0.758316997671325,-0.711328455683148,0.330557917456271,0.0906430211213938,0.725239564401739,0.542616979525892,-0.938311302442809,0.614570007734601,-0.0625279775370462,0.0025375599559084,0.0408730056140167,-0.150267323344948,-0.228456740880903,-0.566843852908271,-0.745502198524133,0.457816970704425,-0.95538144175025,0.898849835543949,-0.835214615728098,-0.251045520403163,-0.338938263656688,0.307590541384198,0.00126955137060444,-0.951981235902418,-0.944287722833644,-0.184795089616802,-0.0306589004670483,0.824841292549163,-0.422077942230878,0.374737134772585,0.349286110190633,-0.985572566542392,0.417045176018569,-0.0564844625105372,-0.858073993265371,-0.143351084754494,-0.191582721777211,0.874237343273516,-0.508298247320256,0.577574197392629,0.838484656936998,0.812467415282404,-0.574114685255366,-0.295534689629381,-0.966282880037515,-0.155567727661683,0.583284436336695,0.691549276378949,-0.836562664870997,0.887756428201623,-0.695094626679573,0.540345383442776,0.0064064614186897,0.517593577855122,0.55686057878894,0.905014885429925,0.205597329803737,-0.391416510993216,0.75703592568768,-0.269240539490258,-0.726090565579216,-0.335577885112246,-0.116630443365225,0.413047450156819,0.817568750577331,-0.781240358367555,0.788191613605736,-0.841844532189027,-0.556392997631061,-0.991863046217128,-0.21032671889005,0.333836008092928,0.579130001497824,0.00962500614530564,0.0708156538783568,-0.0314537453001189,0.82222322681497,0.7736568311147,0.145027607813343,0.0760717326158194,-0.299171156775956,-0.671936404202229,0.250615831141641,-0.72148646980106,-0.73516456632308,-0.795318836533811,0.532699675623049,-0.786104611131396,-0.25882131225708,0.495910799721524,0.736388285911744,-0.812538638347881,0.118663134131409,-0.30810414537211,-0.638113450327799,0.626795933686471,0.173347202644437,0.63017579065399,-0.330141114363405,0.79501635653374,-0.699517664136324,0.200796815460575,0.290684586431926,-0.880526320248352,0.58129981132946,0.917288782786456,0.517401261201124,-0.0444696241854856,0.185901410532086,-0.24925961185852,-0.611066509377838,-0.341272189962194,0.282572090011222,-0.11052462550285,0.762379846394821,0.415935413997347,0.207557450474128,-0.253983274887061,-0.105676242881945,-0.44344269775854,0.952796923534348,-0.837622786721019,-0.130627425921345,-0.81624381937133,0.649480707662948,0.770761714723337,-0.506856396826845,-0.0422785863001711,0.355917777835734,-0.233642715441919,-0.887932001122128,0.364857952589246,0.607898858055279,0.369669773143317,0.399015396492163,-0.346378957729593,0.346606933931872,0.597625720832293,0.769962642354971,0.503385603937723,-0.0191275141698855,0.576096599579926,-0.444212404557011,-0.900749304742349,0.968713477588483,-0.0255873917717624,-0.701615053239694,-0.259456158058867,-0.192933631498275,0.130903609828953,0.626562448843456,-0.466546511733505,-0.268910798343798,-0.728473890910465,0.0352275463648736,0.596580595647342,0.813804024154811,-0.718914024976197,-0.56066473890245,-0.384667745166119,-0.0190544482436848,-0.558892807469998,-0.284562509005571,-0.233478180974034,0.466732551492764,0.643070917553228,0.50235009035842,-0.574445042043923,-0.885231992995088,0.942917487168323,-1.00343713069539,0.0382044898833286,-0.709096936127047,0.0394752332912043,0.714855114073046,-0.140200979957611,-0.714239788796906,-0.29973563354498,-0.471446080500798,0.98727123331539,0.797917958518001,0.253179715915339,-0.342773569972962,0.114622677268794,0.502348379772044,-0.835664311712657,0.463545297091372,-0.0713809635497459,-0.673244784853992,-0.780321985890393,0.739622293248356,-0.0919358261742931,0.722527854681696,-0.132037319221014,0.122407845309478,-0.776403364208178,0.518101481189023,-0.758903833759826,-0.771084764580833,0.149920766476838,0.936341548331623,-0.117345975786436,-0.0513743910741886,0.574139216463146,0.150328109411449,-0.0601451162864362,-0.0512527167266014,-0.393338075671122,0.255624750764995,-0.726864243276429,0.0671584922806402,0.835792581911557,-0.325357795770499,-0.341267504752498,0.214084563490948,0.377637573457987,0.227791146964311,0.860491007763755,-0.280086489260864,-0.154460679963514,-0.34622790124801,-0.518396172106811,-0.180591376675747,0.88686096688452,-0.653830811661607,0.216401438814949,-0.635447347514659,-0.48810208136027,0.648930263228392,-0.503012577030075,-0.260105098430113,-0.337254022598274,0.818038732095165,-0.945066530604662,0.248001166130226,-0.490452610526107,0.42593020612813,-0.939689133826163,0.816888511226361,-0.194429566015274,0.626047815462394,-0.469587140427317,-0.947748301524231,0.158326555685528,-0.884874161096336,0.258048353766538,0.238151961689943,0.539193453415314,0.061779053246364,-0.0519798378527863,-0.32462727994316,-0.389353723479466,0.826072932173479,-0.593459184564322,-0.811746122992195,0.125566585198106,0.323613944147428,-0.26999871003395,0.365174122219578,-0.281442060480974,0.635498521405033,0.29586904633974,-0.289354940915194,-0.845634049589715,0.201330702909308,0.806009389373996,0.8538404724589,-0.138175903350488,0.673955062230569,0.119166992248336,0.866537625481064,-1.00947498149053,-0.135238578155205,0.237762231601654,0.538389966758648,0.819839973287596,0.69235434971373,1.00909517689583,0.255447599324532,-0.687070479464586,-0.93585813491554,0.866041808801293,-0.791620834841993,0.0743917508973015,0.531866261731222,0.0793749093154887,-0.0710889692686069,0.436681513665083,-0.425533461186501,-0.0603159798195678,0.699546187210765,0.145083469844143,0.998167681393007,0.847153284191457,0.894465188936974,0.133715896098167,-1.00430054205865,-0.375936047307222,0.745537262427693,-0.665372434545405,0.72875340754952,0.300975262099917,-0.684910737108078,0.988183118770342,-0.557480411185823,0.112194975593927,-0.921615485187773,0.142679604850629,-0.12841139484235,-0.631312623429627,0.833954311502738,0.653889225682631,0.357139527000118,-0.398025674763105,-0.882317059393623,-0.862099535411324,0.287046104144819,0.0904535497684456,-0.0321588205352454,0.128570143555758,0.648857708032928,0.571922872250883,-0.787873211066627,-0.0888901675860563,-0.797664047153311,0.725189055144288,0.757559281141657,0.813650301040836,0.274019721803233,0.385227238958085,-0.147893848599108,0.533896233348384,-0.392930958435805,-0.746458071785517,0.714968508696111,0.970897250845026,0.308533335745003,-0.896927766849857,0.682874652328371,0.833618014880819,-0.828550585267813,0.863254735049932,0.775718769716131,-0.514668469323899,-0.200362727420167,-0.790831041934081,0.910423981707826,-0.651604259851904,0.0192526428589968,-0.157494063447077,0.267363762691278,0.0960389435500316,-0.74181236791251,-0.00963450791532794,0.000723126341196201,-0.144952283504259,0.205690724576223,-0.825154413767984,-0.569183442256172,-0.276513050051864,-0.541534059428908,-0.719520156882693,0.434837224433772,-0.433620567710636,0.134723991076716,-0.800318843838907,0.892402137281749,-0.271196503090207,0.271417376511303,0.93533575015097,0.0686359870343389,-0.937903850717702,-0.33197182178492,-0.833073379119134,0.576064037270699,-0.194256651532946,-0.739403170477122,0.417249641196432,0.323076888235514,-0.442470536768517,-0.0132268528069765,0.480796832783052,-0.0619987729630784,0.774535579550153,-0.282153887955279,0.520546848506163,-0.849621220196829,-0.978393230216693,0.171040682696315,0.714095458938815,0.159434164542035,0.90529619574605,-0.323683671445415,-0.367769009979732,0.479310576238869,-0.701848182221242,0.993883031995826,-0.455706442629334,-0.698599805168442,0.496355823715541,-0.666698928284199,0.595695372720814,0.528696874137512,-0.825418792479692,0.965517508056463,0.346266421603322,-0.433318816538426,-0.461127796741316,0.0124513580604937,0.164489430609316,-0.616117779367708,0.189737026051758,-0.144669711510496,-0.735335937100745,-0.668528133090229,-0.553408457439657,-0.411993790898911,0.561167801871954,-0.352491721767551,0.145201561864328,0.247869867703321,-0.309938129175637,0.994234922167348,0.432990078159212,0.194460549900407,-0.29106854547516,-0.612584441362733,-0.553557556739734,-0.878362354047503,0.5751815293391,-0.642247702057117,-0.587918109365006,-0.865111819194146,0.545588146448924,-0.57243699522907,-0.532110746382746,0.458487399243984,0.422913706213594,-0.541963372448855,-0.193460004055815,0.168832465373939,-0.0098163746583031,0.916649934796887,0.788658500317198,0.433926879603651,-0.794141253763183,-0.366808629517056,-0.638698816103955,-0.788731141523277,-0.43950764804437,0.973880093054453,-0.116393462551903,-0.594023781093019,0.481603863144148,0.952347183429402,0.0094914123407788,0.916151653516495,0.837768251156347,0.0286250824311613,-0.295296441553554,0.266873176439238,-0.457287380294022,-0.336840820243512,0.589876943015305,-0.524147380789446,-0.594647401507074,0.738080608835347,-0.985143782378937,0.625426701736953,-0.0686023385272773,-0.235559695646632,-0.188476243175803,-0.38282227415913,-0.0319934556115856,-0.412439424444396,-0.36345832618011,0.578753147414483,0.0300263618342454,0.228210948533846,0.251482437163722,-0.53827411982624,-0.17308044782627,0.226972327484217,-0.249393317173131,0.313445881031124,-0.942937859544575,0.0336225798357253,0.0944211871018318,0.812100313314624,0.888838546442011,-0.119394325986885,-0.431246667805114,-0.987786334339674,-0.23915384980123,0.0540601418386308,-0.80975987281982,-0.626813613243807,0.218415057352147,0.832820528184169,0.691000789936698,-0.319015801589919,-0.98738257832395,-0.579523004853318,0.368308048563682,0.0906495076811805,-0.438189545132628,-0.30623890249202,0.165733791185272,0.62926832683238,0.455143949153406,-0.727590656424329,-0.552761025856747,-0.446017777070227,-0.563549819868594,0.692911900661093,0.407406018983268,0.0552510633440942,-0.0688127330137357,-0.942235279924118,-0.154365327925905,-0.476487974069218,-0.303099942378417,-0.639097862629924,0.488210243866718,-0.411140633676631,0.315804468751042,0.294688739263668,0.0520051014182538,0.141501203213939,0.574704718401145,0.916405118182699,0.890435568108178,-0.972324112655743,-0.941025175213684,0.744018575993981,-0.262967045098501,0.106285243677468,0.19865627299101,-0.133167799289084,-0.0358780734101349,-0.272131396859599,0.70725904149812,0.16102710624109,-0.698320428383468,0.422074782654883,-0.824994556164661,-0.360222910510365,-0.857148672771935,-0.200893876378598,0.283122447323401,0.887326079891578,-0.493186497232912,-0.4722854879952,0.233318795421937,0.510033829512692,-0.439233851892415,-0.625814690192791,0.11574377733986,-0.300117949759798,-0.0343367322697916,-0.940873324864687,0.836108662658903,-0.692810621260091,0.0651485088144142,0.567040980373442,-0.367531481283863,0.260135434948243,-0.857061751900595,-0.906385391315339,-0.851127615444712,0.723712973783411,0.701517524958608,-0.360338959447312,0.400193096240672,0.743538158459126,-0.876754683336255,0.351968564682875,0.65350864769452,-0.746834640354179,-0.8455254939833,0.182664371339532,0.260865405113155,-0.857852331221043,0.928079337243357,-0.773138373472633,-1.00929653436011,0.230596789241104,0.548822831207707,-0.148457185556153,0.737434104583128,0.549043327512086,-0.654696118618132,-0.772310491658509,-0.0883175013105767,0.80731880067873,0.284914065900798,-0.939181659893301,0.97240379054438,0.139575885971955,0.630581221046793,-0.362918672211683,-0.768738435177767,-0.866275473504227,0.762048693677132,-0.843777918504125,0.0188634237730693,-0.657871814347022,-0.817984057418313,-0.834611876640019,-0.491033821602346,0.181937998219153,-0.43170196225926,-0.536432732644459,-0.593069148748443,-0.366361708024465,0.886350436067105,-0.260701696924472,-0.927638655977683,-0.422412780471242,0.694910985602843,-0.0530020775178739,0.0278424996800701,-0.563296620093882,0.836743263321713,-0.680489584297074,-0.436682379886348,-0.999754358831248,-0.111566339229198,-0.231042229349271,0.973330333682929,-0.482370245888756,-0.586063881017786,-0.816533078060725,-0.722117141782969,0.860411697346381,0.608971193737415,0.730598222546644,0.728214785415183,-0.551367559585257,0.374753950968597,-0.406923476038734,0.525128898739385,0.661943184019035,0.582157105200518,0.224434208503157,-0.713274850966653,0.843098414050346,-0.145364470447142,-0.742704964300166,-0.845525862934931,0.142781516159162,-0.724244136915603,-0.76506119669338,-0.250847388618756,0.997876805840065,-0.289761382780382,0.815054033611538,-0.0639336555943679,-0.473635972352984,-0.49528906273188,-0.680816101939741,0.120107236679526,-0.58619897509187,-0.812423250171879,-0.45598956937868,-0.466097746702241,0.321689636578258,-0.0382798131229776,0.825346712237719,-0.0815830922544824,0.219739907184544,-0.830871656865635,-0.959652552166663,-0.732741059039811,-0.671678190977789,-0.0127915926840097,-0.159509624746457,0.530595501119302,0.178568594181073,-0.573172153012956,0.760729890169934,0.839419628318287,0.319654188459644,-0.234829698971777,0.88580115960672,0.198399665053638,0.627653034267986,-0.648316293166378,0.742041635623408,-0.679415625982844,-0.741915523868364,-0.468237498511311,-0.305773020714572,-0.808635931537148,-0.574364818590606,-0.399494349130165,0.517262208915513,0.814826334675555,-0.31935164944699,-0.212344919796416,-0.59682966479031,0.599411029998878,-0.612700420999125,-0.999000204666279,0.868571670313139,0.964525900170819,0.639993480329859,-0.637349087574783,-0.671451511564262,-0.504182399583282,0.232382786754602,0.843239453066389,-0.0926570729567409,-0.414519421942913,-0.9918892595159,-0.82487428253823,0.622768679563445,-0.716348247201508,0.377272772148009,0.325250576191904,-0.583787099678607,-0.255256793725802,0.542144562877011,0.448210052383744,0.562078488041254,-0.00287213030253554,-0.463778489558628,0.192776967882047,0.0945119795323545,-0.313130571168404,-0.666792160208043,-0.0107857854593646,-0.629936566777663,0.857483134600022,0.388256995280157,0.800208469277075,0.0493544851719906,-0.45051640183835,-0.619958513897893,-0.35477269904334,-0.218491770608242,0.912811377962916,-0.694054241419761,0.615885820185995,-0.357658139724977,0.831824161064459,-0.110088142952489,0.927923513688269,-0.825443378633838,0.196177734438563,-1.02661159107702,-0.384069141413652,-0.088888153092097,-0.561423956011136,0.164976966493639,0.00299404830563276,0.573817409861521,-0.712271703719711,-0.310954371005341,-0.793944278065699,-0.0465912739854702,-0.0602990799636303,0.637010097553055,0.0424820977078557,0.666656968846365,0.392517422144445,-0.889807901417481,-0.791264542044601,-0.427172561507783,0.114043332259432,-0.684395387091852,0.184936099786798,0.370290953234872,-0.252610325804225,-0.466898856239116,0.70962824593218,-0.249758075835235,0.348786236664827,-0.340819671092028,0.657770837540431,-0.817973717568406,-0.310169414350898,0.0578427154240293,-0.651021843585763,0.93118435126091,-0.291447872349006,0.937853832940958,0.268955065745374,-0.081299108192696,-0.506631895756452,-0.623331652165024,0.163601419793182,-0.721747701725831,-0.156588378347481,0.339364521179577,0.372974889044292,-0.201459766582746,-0.408942537515511,-0.891732196938475,-0.0798649057050732,0.109189461730753,0.617442562561333,0.25625267474337,-0.0726362611118745,0.167618296641957,-0.0423475678050279,-0.457437613550608,0.633859583878881,-0.0182710340902939,0.299185464422752,0.17779080772614,-0.68205753926238,-0.502770099834323,-0.329204197289492,-0.932179140555101,0.482943716202969,0.528073236532021,0.85210525895236,-0.765482392993937,0.40863140630186,-0.728024901329385,-0.3984886287501,-0.156959390208811,-0.881961854644128,0.17472499708134,0.0017725192177751,-0.322724435740265,-0.892627317482766,0.514364502796235,-0.28861387057592,0.898347477873836,0.633100178996992,-0.0835792864364887,0.163270417672391,0.908534755850752,0.841108750125236,0.122249880970119,0.773344914859572,0.522402503118353,0.992304911487295,-0.161624268372454,-0.630639886563885,0.707352162024135,0.938251648516894,0.528246010848625,-0.908182448207968,-0.71790986921912,0.598634360416471,-0.353266965109326,0.803460147430595,-0.779562370263783,0.79818612799444,-0.538684398207989,-0.891621000533411,0.144294203182595,0.788546870210442,0.670523976386317,0.823360515925736,-0.182193752759287,0.062423428787381,0.343847177931762,-0.687014678978182,0.693591882241301,-0.181951417494084,0.65754147003082,-0.633616327635911,0.924056165099498,0.739460001905571,0.624912263309087,-0.210827880763447,-0.862739600724962,0.225636621582172,0.829057195665944,-0.118978361303209,-0.626161666576473,0.76842294734129,-0.67259939503522,-1.02427708225197,0.879948873293938,0.916293132744017,0.444948737330589,0.534030367731125,0.152760200663997,0.0872820908917707,-0.787881418494418,0.33075746666907,0.666664462961801,0.667296437883085,-0.822042581779624,0.831004589900215,-0.235731149939189,-0.310772216308704,0.862934725464309,-0.753588430176995,0.48121733911641,-0.2485890559702,-0.751337461233152,0.975339681760801,0.296655235969614,0.556770095110632,0.950761208004449,0.341260015803636,-0.943017611660171,0.0316830914649874,-0.632545194846937,0.232283773404043,-0.148825968869911,0.234427439150417,0.811498718825235,0.502722024631228,-0.253899578412139,0.37628055311826,-0.894660542381127,0.62355078956048,0.521510341533517,-0.960201104003295,0.00104832521538007,0.861547820921252,-0.520961279405461,0.842253029561484,-0.663574692778078,-0.609774688090006,0.671109207253491,0.507370458445627,0.391183400141495,0.6957725248037,-0.757959452692148,-0.705332310148526,-0.573467734430791,0.0642926381020541,0.744521838447376,0.139214767992635,-0.269907002370428,0.339684801849801,-0.849026448576661,-0.452437378307271,0.173055513370454,-0.653621143382713,-0.578321223711685,0.806258801053113,0.755928250122862,-0.67162802800362,-0.363654292947174,-0.223537394910267,-0.624450206128384,-0.604665856248305,0.561194871132895,0.319126898896379,0.0791038822875723,0.219615894872368,-0.468708243060179,-0.358856572710932,0.68600585381825,-0.881820623101983,-0.322302648186258,0.914011172083921,-0.767022415145912,0.512821664729398,-0.885965098724817,0.896023577819348,0.345093122554127,-0.804062706186356,-0.262457951122417,0.0532066021503863,0.309715708773058,-0.455216149033342,0.48018873260534,-0.230117304689678,0.54595092523359,0.461689983099632,0.941780727917069,-0.809493116540552,-0.368682025848729,-0.998778016701052,0.0010032652970022,0.898765940399433,-0.951918183175602,0.00685964220387846,-0.123431235035534,0.64559326665466,0.437430147106819,-0.915312684193016,0.534555748860805,-0.644946611694557,0.152101761252658,0.26037823888955,0.677409224415332,0.732744955286748,-0.718481036214774,0.52436112121234,0.73531836262689,0.92419916140612,-0.182564394219877,-0.813057300013868,-0.556845794976287,-0.276923750864751,0.852869713489489,-0.0709986258660066,-0.245768461426959,-0.0658486715649398,-0.824776124145627,-0.0388770137894212,0.514322266769869,-0.696509699001033,-0.392888115555607,1.0716897418617,-0.180227050764042,0.315413464095003,0.563643205626939,0.133367501603827,-0.676036221494187,-0.914252951200656,-0.602192478435184,0.111340596969653,-0.403758823044736,-0.579784648702131,-0.0247124124121524,0.218322978570252,0.57407524173515,0.170897344856451,-0.199944829109571,-0.118344401113441,-0.990731068598747,-0.126785089501519,-0.597322823145558,-0.149106127725597,0.592120086152283,0.101341728536119,-0.885549936808475,-0.4712055274758,-0.894517809411689,-0.338812626456959,-0.719277787201133,-0.327464798816311,-0.579538610648005,-0.412949461383864,0.459674896805965,0.581565103300222,0.957833792423008,0.827793909324453,-0.586584588453964,-0.568577878181411,0.887396280285077,0.336017132883052,-0.821725177699639,-0.0180041864656212,-0.685468090838272,0.751419451445394,0.767391607659429,0.322714291908978,-0.946201326529373,0.906614557491003,0.290821317513862,-0.81998899416339,-0.441712715902255,0.544337323821371,-0.608804222048987,-0.950141167841867,-0.736690514330038,-0.295615276177019,0.368578859735235,-0.819414070377607,-0.00156085425567598,-0.739935046364292,0.23909136238747,0.08578409454922,0.207589152676543,0.611151174979432,0.0447893912354944,-0.796975160293792,0.369969368660048,0.630323386708938,-0.248710527927719,-0.989358490655848,-0.966257973352618,-0.497185788710311,0.885532542415352,-0.197608701811118,-0.701239754876113,-0.382924100027358,-0.669932983224102,-0.251708328758528,0.328420981291894,0.459154311903034,-0.728695702739175,-0.497299349879168,0.954485903248617,0.407691102896965,-0.1474130578734,-0.709406895849926,-0.077466764292869,0.198641475068653,0.512189463869663,-0.627910210195212,0.645948750478892,-0.541593644009514,0.811849544616918,0.907400228614057,0.00632671825352523,-0.334381147540265,-0.603283354828421,-0.841769518819524,-0.678773607408236,0.278851285934437,0.516761017721301,-0.0335864156968095,-0.461770882048765,0.241968922346303,0.679960718468753,-0.603555338963534,0.573966018447673,0.0767819522864548,0.0180688158453388,0.113931507410065,-0.361940918725622,-0.177405650986356,0.808900881011581,0.732672915161052,0.845067924820343,0.12747496667877,-0.627350765116426,0.353183651068861,-0.285398130279611,-0.639642243399261,-0.173072534871294,0.601924205739316,-0.497433454804046,0.329976374823052,-0.646070226129503,-0.135828928341557,-0.8083595455879,-0.398093131109732,0.439407346965141,-0.232918745537524,-0.123208460313185,-0.98181610785359,-0.654938451599428,-0.833601444949662,0.310256319364044,-0.130183226443487,0.284969607326662,0.0358296374983329,-0.736754489369416,-0.141422219584676,0.986898841602224,-0.238686961716771,0.677877959824434,-0.902620670190308,-0.640397849196194,0.406418905862109,-0.404290166511327,-0.153507723692219,0.0675486989990166,0.543267547520618,-0.523969504986918,0.251213851839687,0.436003653195465,-0.562261098657203,-0.0214383798907918,0.771823383951448,0.999142305481104,0.573120492086852,-0.674337827298797,0.253844551229385,-0.347221980097399,0.199070118001648,0.497211090427849,0.725063889454765,-0.876945009421502,0.214611876835786,-0.16986020812482,-0.17186216186705,-0.253947489079188,-0.514787779721885,-0.0319462753040872,0.960158740559498,-0.097766501227146,0.943071590561938,-0.901861047383817,0.0630005250259486,0.7055800719817,-0.376068902971123,-0.837054289051868,0.133739474261065,-0.672856467435397,-0.408506368186043,-0.478585630884957,0.196675705248543,-0.845748979343047,0.0381145869547038,-0.572504611252584,-0.195989564434163,-0.874047589701782,0.890582338102869,-0.0664838001689532,0.6257236835965,-0.786159928896246,0.566989624437159,0.907686784254773,-0.745366856771828,-0.25506451696471,-0.0727918316597569,-0.990918327538394,0.93587909767778,-0.0965639295252256,0.989639645777074,-0.599315744455934,-0.308205374282749,-0.463955080515121,-0.973504351221881,-0.894092703696813,-0.162819772106655,0.187365256956166,-0.529219084160551,0.222630241042912,0.787019731586444,0.339470803093848,-0.0163105403818424,0.27600914202493,0.532158156773652,-0.381220776649075,0.0488210261506044,0.5233173493471,-0.659906729066273,0.831050236298669,0.423052242440201,0.745900368092298,0.17032576084045,0.146445931878643,-0.290583885396807,0.726177218069234,-0.52091617628069,-0.790766267405458,-0.306136274070457,-0.0256818758043761,-0.597604235857126,0.0819967929584202,-0.413100858476499,0.854354577299622,-0.298472101728906,-0.128859231303861,0.707747766113653,-0.246900991009667,0.370538155820128,0.0486622594655579,-0.856992778851937,-0.41278624060466,-0.0671720408808452,0.309937343175289,0.992624889179602,0.289984459575378,0.537271858877107,-0.496039032764801,-0.566460727719586,-0.52273903453025,0.0572889382233302,0.288464777511399,-0.791099522197748,-0.186324513513583,0.913908792787658,0.301093662355844,0.552318661661862,-0.798515398834087,-0.0391826156249271,-0.90422126427711,-0.179317831119494,0.102259587251364,0.79282230205722,-0.215573379116947,0.569135603070624,-0.520667461805584,-0.905092416111481,0.80566342119966,0.417393928339158,0.359089641818242,0.462023051411134,-0.939640298583415,0.246710347548593,0.0239743971540431,0.141970956157119,0.168810005717917,-0.600954682729334,0.580666519698508,-0.381999887634974,-0.0506270727759532,-0.680151303494589,-0.471363089143329,-0.805040405678101,0.499049382479585,-0.189999339875546,0.25152431205808,-0.745576298175313,-0.276488220678981,-0.712777836854477,-0.294337354014432,-0.0789594931183689,0.132717568176389,0.162633334485082,0.575646838163616,0.633138644641896,0.0112840304024107,0.0277998071213064,0.408006164092429,0.0728709387234658,0.812453283959472,0.895289799015617,0.207336040391644,0.434005826547705,-0.138197947606839,-0.978632696222967,0.0607632107989659,-0.572466381679488,-0.622715853587988,0.907092598481362,0.48642367528366,-0.497685654504297,-0.791926207268088,0.988166029935705,0.327526283653106,-0.0627032064318221,-0.87100980082171,0.0186286393831994,0.105687847329977,-0.383079365395945,-0.275273094738685,0.501319347170284,0.610175576673286,0.195874657991318,-0.414115168723588,0.388850688650092,-0.199589472403838,0.0691984869460738,0.291704219943697,0.397084220066622,0.322382147913198,-0.576550717002232,0.909272393221291,-0.0432867488959556,-0.0764070174743563,-0.0334942267878629,-0.697415084569782,-0.77125053852181,0.362843182840219,0.711047565909843,-0.717960509761239,-0.102340723544982,-0.950090234454715,-0.836989941386822,0.362350823186431,0.894607768135934,-0.072295851299756,0.93310499944115,-0.00264445360684396,0.575783242690849,0.354095139885722,-0.25921252361239,-0.836134814046372,0.289058183361447,-0.105950505099797,-0.696212287834637,-0.855125604643005,0.515327892509881,-0.623977754037812,-0.561188542026208,0.146349345164059,0.272617348122766,-0.465628840733834,-0.111597698368096,0.406106672886295,-0.883567986570698,0.099938303708739,0.185578903437847,-0.963838052144175,-0.0289496098912396,-0.316178140847284,-0.241320502163001,-0.133770929296785,-0.228751794645484,0.300892188415191,0.416236905407788,-0.501157958826373,0.422828122315468,-0.609857366768825,-0.0558707785205032,0.362420933040728,-0.611135830607527,0.486773385563337,-0.873593479919204,-0.938994668967189,0.999529773954963,0.249231959990212,0.782033974706916,0.77088948572725,0.781214621931174,-0.84706828740689,0.874690539008692,0.0631313009879827,0.72349096226229,0.535521006357422,0.763290912139341,0.55226565272299,-0.554472598613391,-0.74284634505359,0.432393622797301,0.988538264987521,0.757066771745111,-0.706432820800919,-0.696815661179791,-0.0755984159593471,0.79947868464424,-0.631890139542942,0.407925373582772,-0.159628721642719,0.58331557579307,0.220979345738832,-0.224184223408931,-0.0747398751613308,0.850828103015967,0.792795853128041,0.248005683864895,0.664352361404953,-0.351996957516017,0.566081736508541,-0.282577543612088,-0.376397873857463,0.647178298679702,-0.010090218907725,-0.279524635615232,0.276235838879953,-0.607658757945046,0.464975428265381,-0.474253418802325,-0.521179983610289,0.0460586250116121,0.618931965053076,-0.149545852216375,0.256141258639354,-0.639691514980877,0.31498558901363,-0.406310504754005,0.978502301698975,-0.0995763407801353,-0.297239721984852,0.175497110795145,0.764865205530793,0.624719091214712,0.365547246026342,0.988201918597461,-0.563068810478115,0.838132394308315,0.790136301371772,0.778037961928798,-0.434632454634837,-0.375872923071581,0.0385435009773173,0.847379204553402,0.0715262971962915,0.359161531476678,-0.778714620663617,0.213182215626774,-0.440635044278256,-0.777572008988428,0.742476905738309,0.338376036512328,-0.711705402730938,0.560413631970733,-0.221733317954404,-0.374864661712566,0.717048630749659,0.832046947896706,-0.455327557321349,0.708899506813189,-0.867508829245117,0.265878827148175,0.761051114466093,-0.767820717640843,0.84495244146713,0.209729520418119,-0.909869693055985,-0.930572338128876,-0.746228724461315,0.734318562974973,0.0494397142565522,-0.623682312823256,-0.83331567986738,-0.446718963572963,-0.794238647295192,0.786214549771328,0.730349363091743,-0.423687952918962,-0.756349025893661,0.465153639020374,-0.516986355081777,-0.861559532626539,-0.284773525172082,-0.154215637745046,-0.0120396221247926,0.447861688855257,0.898186017400085,0.391365775313029,0.535646933909786,0.709636345456334,-0.888554076674099,0.672408824126146,-0.19022317627181,0.126319756364198,-0.974593050305076,0.510726502130429,0.0190919268132007,-0.345696562413509,0.0485042235280184,0.572545340273244,0.38087788955183,0.632608388615262,0.883786634376436,0.241175826967853,-0.119347446855671,0.549630452411158,-0.523269760038138,-0.154298921411342,0.515812952408705,0.340443907972638,0.32502572127847,-0.193835538627763,-0.640757750782666,-0.141113272834018,0.64137901573264,-0.679502644265494,-0.97525956335041,0.61727057088702,-0.310555096154409,-0.535361153239172,0.627998731508141,-0.798721844310781,-0.480436718536428,0.610503792988798,-0.384233503984419,0.351294150304111,0.329761048015807,-0.443628099093544,-0.58184905859576,-0.486463990482043,-0.681293891216672,-0.497077529547877,-0.768902024645745,0.0832374746468756,0.313398882084011,-0.121814645162573,-0.149326101891805,0.892950008037993,-0.623335607353007,0.629556491441501,-0.402015697159268,0.295880985348664,-0.0729599252648388,-0.901621494508997,-0.0335057689897504,0.282856568610749,-0.150164669005845,-0.475084736506179,0.206855640908645,-0.157836944669228,-0.279432020862835,-0.961420267080225,-0.0298795313176156,0.249137557978746,0.914899560044878,0.448566518809663,0.776895277455554,-0.0992278933563384,0.144425153055373,0.218762723045462,-0.482527369228847,-0.702829851971311,-0.49298189650912,-0.526814497695216,-0.462948757054024,-0.590038688233713,0.597195524573254,-0.0220452853016366,-0.840378337531341,-0.895056314058829,0.190724205253177,-0.77589776908827,-0.0283461343250062,0.144957557829971,-0.542711719543815,0.944354177607423,0.500002521110095,-0.164566347782548,-0.391115701345957,0.806629257663989,-0.235064796457408,-0.975849365345921,-0.731710646191152,0.323511966362224,0.172639755512024,-0.511439750395691,-0.24081797419054,-0.651196062370403,0.502640254060277,0.577762696332581,-0.021268757444752,-0.803059334661163,0.170033347088482,0.913605336131713,0.00219294557332939,-0.0924863024593674,0.998487830507697,0.405313406264257,-0.0971989496326057,-0.9010460526318,-0.0982149693140253,0.394575568036218,-0.851228773986139,-0.857683354199534,0.247122486674333,-0.159442937118794,-0.225974664495451,0.0538668563801438,-0.850651980994423,0.141050131860418,0.5836279228394,-0.405433364422412,0.269812173600929,-0.716477420005711,0.716396289910793,0.64320742462407,0.546716012475057,0.833611986594798,-0.121808632433509,0.401346391325215,0.313603807673898,-0.185876726747377,0.751431611446104,0.713961965977004,-0.518591187775271,0.166122565661319,0.000749482823374947,0.932652633064446,-0.943164651190089,-0.378663969558942,0.958395991955622,0.684886002359903,-0.801389144944349,-0.929627458786285,0.783710531136129,0.10909548471492,0.61938403132765,-0.37427503920293,0.0715572110191766,-0.563596926861392,-0.973717703395034,0.868210301291529,0.110554198295425,-0.845709187972114,-0.146445563370375,0.497103005503232,0.089895513093386,0.875715667391967,-0.193883135652176,-0.645328404992643,0.709442273634341,-0.672500521460105,0.689480273132683,0.752551796989015,-0.0171848237420496,0.548775442258317,0.679215579312761,-0.203462413476487,0.119859101076168,0.06095259617514,-0.415549644635303,0.83511302232632,-0.219133344716866,0.740855041760384,0.0389317133636214,-0.181691721120192,0.416982113216993,0.617068270908464,-0.618361107919363,0.707097766950453,0.158720712826814,-0.054296374393271,0.306566903403102,-0.735093010940714,0.325698546668244,-0.798132524473292,0.137081148614251,0.395915785249512,0.836646400673476,0.717056371139596,-0.23793266950142,0.415139485634451,-0.243051547905018,-0.154356722068414,-0.540218374651441,0.167799644383177,-0.951868333478806,-0.164030190009722,-0.221905191484263,-0.710859575283197,0.479706107255886,-0.405239720308192,-0.219303253533288,0.985686643502528,0.287381083911761,-0.221719472738629,-0.535375844795414,0.950906625761494,-0.581341793386772,-0.0973137843508467,0.0935973582023645,-0.720004144957755,0.164944532792955,-0.784769991333765,0.192160066045357,-0.14686884655942,0.533234766662178,0.132111810018305,-0.55226052183814,-0.137893792864098,-0.137600677794592,0.709883077943736,0.417684192908882,-0.228803587099673,-0.580959040476091,0.0836655403024402,-0.880986175786972,-0.816772541538994,0.199995745855771,-0.114088883696564,1.09006843859315,0.317972309907527,0.944650214949863,0.790236558911364,0.40915179173115,-0.862024233084252,-0.0573005930653808,-1.00071275604679,0.417021510722199,0.552798960686639,0.826279653833087,-0.238331993329522,0.0876655310716801,0.290552246388549,-0.589981771304861,0.996100161716924,-0.99582672446384,-0.593102651158588,-0.0597326057623965,0.114996451417292,-0.506117403006105,0.95009793584888,-0.102634116945756,-0.874396894037875,0.406460583869435,-0.524674849971081,-0.372345116298081,-0.461040204123906,-0.814046815735539,0.134845443207393,-0.574259912028063,-0.943369948819794,0.282825532037647,0.153650195484468,-0.617867433028053,0.337586705788339,-0.36259454670897,-0.14528637708383,-0.236964683295554,0.261867662116541,0.569095042500105,0.224502107820598,0.294693320190862,0.207349032598689,-0.685875662957262,-0.872639551909468,-0.710820575383585,-0.488632592254117,0.513849790415132,-0.118237587939004,-0.758255022156671,0.487446976622816,0.351535971234997,0.270938720890341,0.0805455696784916,-0.488774191483752,-0.835768544048657,-0.200340375844318,0.902964240287849,-0.951653848459892,0.225937660957246,0.741285609107279,0.131351648494593,0.397089594582728,0.443055976091963,-0.229388500094959,-0.691464639092057,-0.683115062969435,-0.0748774964375023,-0.920743592580309,0.465086454490456,0.503977850770408,-0.0809487650972168,-0.426274061971032,-0.696406205274605,0.00443052308573081,-0.269780244737184,0.530012042578047,-0.702919001631456,0.473616019789614,0.240253545365443,0.825378105478677,0.380462306083915,-0.765687041352112,0.742053137337692,-0.809160234825528,-0.969413262971024,-0.275642196800068,-0.156854364350517,-0.426588780027395,0.268168594963355,-0.406219421069195,0.946353803453046,0.345819200982858,0.366386091606495,0.606156934277376,-0.925522124536837,-0.409386315941258,0.0197426598498209,0.758145726414449,0.980879123277593,0.217628384270789,-0.946724646544344,0.76499383331579,0.574752807657037,-0.0205838085405158,0.533341306542122,0.19437753174213,-0.195280700001371,-0.508500525757786,-0.556327626225786,-0.364718744055474,-0.285824416108014,-0.244561467134296,0.068964185713802,0.772486851812204,-0.782973426486767,-0.639926257430941,-0.0430580761498382,-0.382944726177113,0.882970958188617,0.804774574498973,0.938088569187586,-0.611246399534834,0.601062513531654,0.304603357543405,-0.493295874168289,0.595014615816958,-0.124968873113696,-0.787288620426825,0.140500034647356,-0.659917873408949,-0.564143891039211,-0.00712013459856729,-0.0601293757235784,-0.683096220484559,-0.665232273582514,0.356374937309904,0.933853910547155,0.248955106203518,-0.547177096543373,0.674624804377397,-0.312555241516811,0.469492764021237,0.288520932823239,-0.938558632919357,-0.478423947048474,0.811274891708905,0.313372233490507,-0.404093727182309,0.183038593685731,-0.301112785985663,-0.662570622203843,-0.899916368844736,0.98083257247764,0.198486948792023,0.236686436052591,-0.439960452751279,0.793729999793699,-0.0856455749644562,-0.481148872487664,-0.982012123530791,-0.75619950754553,-0.0369513233910531,0.33340318355025,-0.352208593536128,-0.923767170921605,0.274253322851091,-0.620184704041706,0.0595951326781823,0.963489429423609,-0.0246394345609807,0.769842017852867,-0.0991021212538632,0.781290161532502,-0.280645773156202,-0.734916259774612,-0.1646877473166,-0.232933733455239,0.96518937280463,0.972055647895037,-0.385076951114145,0.844863867933231,0.593283078626992,0.799853347282727,0.221104639837794,-0.21201033395357,-0.181405265061515,0.493521417045373,0.25341577964713,0.147543701237389,0.541183907163062,-0.625660795591493,-0.469028892333796,-0.251035708691598,-0.810421490599337,0.478749550392731,-0.356564584402002,0.249840498258854,0.739780663379761,-0.333606094159706,0.474455567060364,-0.0471793611687481,-0.123363124398831,0.655389270853064,0.0244486557550122,-0.0279404841128512,0.73548170854941,-0.738680005037653,-0.756506118507286,-0.71742854626739,0.30542645566809,0.956501579023268,0.20158651843289,-0.180603190004498,-0.937086129946752,0.795794458666401,0.950571576170355,0.947597574226811,0.90647573667307,-0.623218975433088,0.124154012031976,-0.0725459620235612,0.659317080531541,-0.251444955742791,0.835443184508673,0.23060739446808,0.628260527707657,0.455486435979325,0.946021826770401,0.569188783807856,-0.0156312525480628,0.529848067027724,0.914702741675684,-0.565830513813506,0.760943615951651,-0.326742526445377,-0.69549009858088,-0.123757945230015,0.542878360874846,0.832716966446976,0.0262837001949679,-0.150410396578869,0.562708040291532,-0.632426066115741,-0.0460110997124568,0.147651820018141,0.735272827795612,0.328659517375911,-0.604830331082111,0.793497111986297,0.197864087769237,0.255595158539968,-0.198371315243469,-0.324270940562112,-0.877471563842813,-0.187012156695516,0.662441133763634,0.304596830846784,1.02687251760523,0.199745398483811,0.0323709153642279,-0.881540809927056,0.31266792332553,-0.233275291424582,-0.480325193236175,0.548542755840464,0.674770760101306,0.0967223164895621,-0.0478647362931509,0.834850720409909,-0.817522148792466,-0.264164694102548,-0.93750142081809,-0.956338903619094,0.272254997180568,-0.0228645475579134,0.171187177711728,-0.388756941005359,0.329442079950573,0.225922013113485,0.419130632941587,0.207281435028701,-0.0790769517410397,0.451279220944946,0.969628499244877,0.12636290017733,0.553679280149654,0.969131154215721,0.280060911503857,-0.453452744606291,0.171753878469937,0.171843704011567,0.828362779379332,0.258894061511037,0.860945332025981,-0.4885319175194,-0.601476411687582,-0.0170477748982431,0.769025324255026,-0.341464558321312,-0.782714604051146,0.594250753712187,0.725717506321031,-0.622714202556428,0.277878047997443,0.0794867960544499,0.736115425108732,-0.400933593782432,-0.393406192173568,-0.528831101325968,-0.613151854939879,0.96702006081883,0.391173950408271,0.588210356274904,0.0724124105352952,0.626869491381069,-0.399614353011963,0.446713323155781,0.66365010965657,-0.794828993611539,0.89837629182716,0.401835107902632,-0.809898980672952,0.8856793715756,0.96822492202144,-0.259320630093919,0.0749097177755593,0.62573653517263,-0.84682042561784,0.634198259285297,-0.668153505195771,0.669348165202696,0.680085508014184,0.00322362903827103,-0.0204633138537649,-0.26620940662173,0.837649045301691,0.463639086520431,0.980607933495646,0.907207395883627,-0.808030884122182,-0.244532533028152,-0.0572199241623369,-0.765802305314915,0.409953593150918,-0.394175498618719,-0.835840193496665,0.902637636980891,-0.585308323138872,-1.02354230029384,0.731888772892267,0.339064525433063,-0.725161524401988,-0.646677829222909,0.832607155066243,-0.854494462760644,-0.846684478075378,-0.974521900566448,0.190736953285511,-0.349217928581218,-0.0465702197418643,-0.260434154546479,0.182415224895294,0.224682904982477,-0.250346851409351,0.928851151392562,-0.398348296456546,0.342083643770621,-0.894149428155822,0.829905038394846,-0.304535074272701,0.829182365419256,-0.507840726485658,-0.833967714323909,-0.471067123715141,-0.380269851894877,0.22919969366917,0.086208441511462,0.384634520633769,-0.84087154548269,-0.200488686669801,0.362695926855923,0.693630958580165,-0.100889480654587,0.378847072284563,-0.812482349055549,-0.854791407160706,0.650403179802947,-0.797682744553469,-0.565052425646701,0.583522088934138,0.34261472638364,-0.0616836231785587,0.821518125628152,-0.166375899297773,0.317096818442271,0.857885250738948,-0.373645928559296,0.419230079782551,0.503367730932905,-0.617842079571573,0.13902621837985,-0.877774862760911,0.39146046542613,0.321206265825852,-0.739775841258814,0.736519117896844,-0.615792651757147,0.0875088950878531,-0.932926416547583,0.612917530042163,0.187395516489579,-0.188399254363689,0.22740978621827,-0.281934149637346,1.02724049695757,0.371190217815121,-0.606396756622001,0.637367784141374,-0.423092193894811,0.0449037697065647,0.21119694489307,-0.983754882098501,0.55074100062578,-0.622060177875529,-0.574474149475411,0.622339667278715,-0.440934477823031,0.656897855456371,0.965194665431995,-0.231098645371666,0.799708398596418,0.0913000360818243,-0.828786572811426,-0.187828848390931,-0.99461558077211,0.803042588579584,-0.247419259983893,-0.927757526707764,-0.0195684520681139,-0.0921617555472598,0.664458258646379,0.00172565679749703,-0.751732325581343,0.561135055623251,0.856395016144506,0.695390583992136,-0.686046750294461,-0.841438988081436,0.25652443235475,-0.837173056177939,-0.93313455201785,-0.367705902090485,0.315385251258998,0.138586019090839,0.36229544774947,0.58758223501126,-0.210809746789434,-0.841855665831042,-0.131616299301095,0.569759769451612,-0.379927894710878,0.456124087177189,-0.800943741116185,-0.654132012029408,0.865925914610523,0.579980629936116,0.544922235356443,0.746131375117061,0.836657922376315,0.855727280936879,-0.189967535246615,-0.421701136033555,0.538768382260238,0.81818325885331,-0.455285864839448,-0.257739119591517,-0.461107686837793,-0.0122514622230681,0.957859307391684,-0.742552183325829,0.0812893513034685,-0.336347508304652,-0.648396882855937,-0.148158433054739,-0.331245148821109,0.1177873344363,-0.63111973675702,-0.548524611102118,0.0485639750429626,0.806149447967567,0.343491304433468,0.732914304990166,0.478257771762576,-0.045552873957698,-0.762793606222816,0.8719355301567,0.155104023865483,-0.36261550864961,-0.458407554109099,0.00816324300892535,0.694375775056894,0.839110226526674,0.715457169507202,0.100520147569278,0.055361220100712,0.0524353243405851,0.253945066803052,-0.469375033587489,-0.0621330092138839,-0.347092594499175,-0.434728060895525,-0.285748631339982,0.972644032706422,0.448006470558819,-0.108020014814426,0.637406913671021,0.0192760263601828,0.15106957158397,0.493817814223347,-0.455163028624632,-0.174397597266907,0.525453250620941,-0.0130579301311886,0.312788599165342,0.773352078388332,-0.350871770770741,-0.410537897927812,0.258546052229034,-0.649948663188919,-0.575705858336,0.627765675904809,-0.758784090018461,0.2730869074801,-0.585576307247302,-0.184148670364161,0.08439280101645,-0.470912196914378,0.494408842473169,-0.369234214040011,-0.924722941756799,0.676506860251393,-0.937002578997906,-0.405532211427948,-0.366099270269352,0.0727702259300096,-0.701256400911466,0.533994521094014,0.00510151096909728,-0.609006706307451,0.623676852863447,-0.773113279559507,0.995613139349005,0.542049971629578,-0.00319165957300905,0.00484267128143983,-0.511755923246299,0.89849036906515,-0.369302674957034,-0.0919536944949086,0.0797268788174941,0.567737080728423,-0.168097174585666,0.818260438187779,-0.758697934309957,0.751984073178625,0.262222016244329,-0.172748362897397,-0.730231439473152,-0.985795382960949,-0.268522742791732,-0.970090105883621,-0.0329120516180773,-0.668468457116377,0.711387320630115,0.821353119900052,-0.577873776106525,0.47548356684954,-0.871794642941779,0.0289875672452122,-0.751312787295957,0.260598910001832,-0.701874872509071,-0.851938008299872,0.133934580322133,-0.695464606374087,-0.279594313235594,-0.597616450122021,-0.972648073262047,0.590651791938499,0.915245482126731,-0.118693214867708,-0.264502334655193,-0.286897369312256,-0.424250415254053,0.677863702139834,0.952677920383125,-0.564683573568187,0.346694245529595,-0.122088061130075,-0.17442439051882,0.697277663855387,0.00564817043130146,-0.539569083061032,0.424085377494486,-0.134313123967171,-0.159112795723325,0.866570525717088,-0.704089824828919,-0.960323601657274,-0.149640790048801,0.87889813724832,0.461540757269603,-0.373065217796008,-0.697399368042445,0.978225204934526,0.707455206156097,0.3795789059021,-0.451987768856125,0.819030079778626,-0.472983171114721,0.702327489207718,-0.14884509774042,-0.828626525984432,0.840159205213293,0.62589799716972,0.867345329174241,0.271315189521462,0.97303046885752,0.264420264064625,-0.155162221753939,-0.473040698471649,0.662695768200109,0.865949136487506,0.909151124795794,-0.649721614744588,-0.656619178722995,0.885568578798167,0.252250531502764,0.105240356436901,0.289450576084467,0.980470380500418,0.635779550962044,0.826717170162221,0.124266854015832,-0.371673467436604,-0.118821779829651,-0.462704731575588,-0.714568244308986,0.535128096509096,0.217796230605251,-0.564453444799045,-0.0525287933782831,0.591094183114675,0.173021148110622,0.82713459431934,0.510474780517389,0.61865702702203,0.454028948552735,0.690763301131021,0.231775910926524,0.227040748597127,-0.980638507186193,0.126290160061397,0.708154399644233,-0.0962181709658967,-0.323388838967237,-0.829662997135442,0.789765881353114,-0.110587497902744,0.787163865742789,0.0543503381014196,-0.09398713028105,-0.971728596480183,-0.464345821220504,0.597325176691047,-0.5892634607967,0.285633406047605,0.387341612625713,-0.805854497750777,0.478691643891085,0.952213191660674,0.514796229228618,-0.586913674635623,-0.649975711397223,0.821643727191184,-0.46079971511983,-0.621138138184298,-0.129108371033952,0.824816958723561,-0.619757310989597,0.418037404592411,0.527287713674796,-0.45570809688646,-0.409852163757742,0.922441826755276,-0.573205501167138,-0.238823727670572,0.335462656084092,-0.251682914984874,0.366261661761008,0.950640891203754,0.337847382557305,0.394865707663622,-0.504995032755182,0.745052274829639,0.553134842452992,-0.719838863569597,-0.494436020009386,0.114159622682471,0.0196906424480852,0.952026366074609,0.559827049659717,-0.514104343457224,-0.822640869987,0.606892460559296,0.406388939054361,0.851304922408892,-0.195032373244809,-0.489651643595605,0.479858095039798,-0.0969710724491491,0.0635506408441028,-0.644009162227235,0.899886260160615,0.094982872525175,-0.720241764899084,0.0277104526009278,-0.502843391707855,0.68959108932998,0.709317033125448,0.182990064114833,-0.318026343933904,0.980027947390266,0.311920690530752,-0.548528210648887,-0.568863939831194,0.47279350945555,0.070536314121833,-0.906572569325831,0.11738528246304,0.883639790573432,0.403294234545597,0.9328112876011,0.740737091771984,0.0969861602247983,0.429594188767194,0.68375365907301,0.400620469300303,-0.702133665552483,-0.77985102275523,-0.307862157743703,0.588500554273811,-0.989663890024354,-0.451413077809487,-0.967118659447661,0.353885347324409,0.675957500679162,0.559778277501881,0.193890869487618,-0.431123943894158,0.772234661832189,0.673294015054821,0.896703988284504,0.810853277921476,0.535625220872186,0.177770175039979,0.526979239154744,-0.372366827054944,0.442522624744575,0.81441358446444,-0.911861292863277,-0.287787133860533,-0.541358712911013,-0.76361532469119,-0.183402982085715,-0.850021527874526,0.786494844305322,-0.132010253054147,0.0556872035039635,0.935303085243854,0.655098516724881,-0.023336884638614,-0.360905032666014,0.662379490122156,-0.838482954819062,-0.590169355458173,-0.391260617902741,0.402754929605613,0.113536372883659,0.308914977407678,-0.456432719818711,-0.656457045666206,-0.538315412101589,-0.847511015981394,0.717070035290671,0.758920455594903,0.394677170246335,-0.477658308480248,0.268317677844893,-0.384528920477775,-0.0962086184268518,-0.678113863212813,-0.531747185616503,-0.914288421742275,-0.44212019220935,-0.0774864493809176,-0.312586532039943,0.621563044718374,-0.732636279652483,-0.826452020872591,0.825036486847186,0.882492534884407,-0.566439855632654,-0.0385561432163534,0.101989429784346,0.251686064201787,0.112299202528691,0.0559253307417995,0.829852811379009,-0.968118441197623,-0.611921258518806,0.103989379636513,0.461697840072734,0.0832515681892728,0.884064714094253,0.971907440372463,0.607619729821616,0.442936786295637,-0.742270766004908,0.658052655479579,-0.855205275423012,0.318805850509543,-0.116235716910489,-0.933786033616285,-0.703922413468134,0.249319445305364,0.915109476331212,0.353220476205052,0.878819924162728,0.489474156647488,-0.194749112359281,-0.278596237812044,0.853320508447298,-0.183695483601677,-0.886204576758746,-0.815909987554515,0.41056782648257,0.807189267233816,0.610552342200525,-0.0425466920124991,-0.423029721844346,-0.0608579815357065,0.366331475680733,0.556185469100711,1.0469217375898,0.434557851616761,-0.132626832727474,0.0744230972611584,-0.251160815149109,-0.0308466629704676,0.359223502103804,0.614470958749553,0.411355916805102,0.828116075876405,-0.297893587241271,0.323957437706621,0.702832932165117,0.379995631138991,0.512660926460125,0.02338015149447,-0.864975426588151,0.0813997566802206,-0.49212731760447,-0.00212474917902673,0.922648384813043,-0.634579449790317,0.928708649016672,0.650394741093233,-0.88666883196524,0.546249595071517,-0.417643535280817,-0.941962830486882,-0.254134466840918,0.26512816603114,-0.279814335997784,0.0165793080526032,0.906394543169134,0.430552644055238,0.744952057581351,-0.146945263451314,-0.0635205897857706,-0.687937342160972,-0.714018043377257,-0.058232064946001,0.884167471476292,-0.0465527380035859,-0.378523845506711,-0.460981120995875,0.880512388091985,-0.245715267190493,0.78093576950814,0.823682641058659,-0.213795247967119,-0.454066470465948,0.0807985432328331,0.222739430560365,0.129255698623728,-0.782688642515619,0.183295132099798,0.00913750821836024,-0.461029897335999,0.947663490919353,-0.574011700079823,-0.500095015601377,0.90224968299961,0.48614474127961,0.0233125961975609,-0.0897770374514302,-0.382945797886244,0.42655768586151,0.816239636192212,-0.110774049825072,0.548919480172734,0.136128126260834,-0.78891386588713,-0.189150076175907,-0.328043248826456,-0.481805674254889,-0.0680292470825337,0.151588484824709,0.708734177912681,-0.942638380464904,0.46824784761788,-0.537134097672685,0.561818977506934,0.356436088753944,-0.674813833582081,-0.499931805221732,0.950752725977906,0.54375616867634,0.69573425716067,-0.26070431398229,0.353530327785737,-0.136650441838561,0.307887474674295,0.35822361434551,0.894975823995929,0.0128939326514979,-0.113505995417453,-0.807157034005831,-0.104274289274987,0.634037736796709,-0.174146608207732,0.2000192723154,-0.826643616347783,-0.765365752409843,0.982950299789115,0.307759442586663,0.272355504674443,0.733307103604614,-0.447653808288228,0.33196317020022,-0.850637645599598,-0.890263413593062,0.733924257535959,0.776137978770842,0.962767269530266,0.796408143544564,-0.744391390755006,-0.689872783165637,0.626916411238979,0.0401650592357843,0.584421338204099,0.216792936479247,0.534293592035822,0.882553563015368,0.446294852018988,0.463447310672245,-0.508418888683813,-0.690883730215377,0.505938576883009,0.51214415572583,0.391810769262049,-0.519643649448888,0.836983662515402,-0.0545190536810077,0.183210808279104,0.27361012887568,0.433803596582009,-0.812426317555684,0.89313880312714,-0.764733774564755,-0.43687217201823,-0.080249054782006,0.624058273327161,-0.644899945534957,-0.991202724381333,0.877182540010813,-0.22345922215546,-0.626796589325325,0.613996830218591,0.581706148322147,0.531104597566379,0.607418663965643,0.369085876033689,0.304751986822174,-0.124251028477539,0.0167021515823506,-0.0336478729961607,0.232533700538496,0.401248261035086,0.0473071941188297,-0.401266880538136,-0.238555603106553,-0.263173260778063,-0.438555325737789,-0.21644442064579,-0.793298839788503,-0.685148739776717,0.714677657714065,0.133197717342129,-0.732426266054846,0.236634898260082,-0.0823152209707835,0.710034564864931,0.794609119640569,-0.348820984611956,0.934249650077713,0.416143546659502,-0.783073329872371,-0.274480425070276,-0.133191991282436,0.908306724585559,0.551048445032957,0.110781471076636,0.275662206956163,-0.855966003196112,0.35776363206352,-0.939547731223203,0.137124003644302,1.03905121692291,-0.48062967889887,-0.355460897433839,1.02913594484096,0.259708573151367,-0.504463395101641,0.226596423168794,-0.211635005489885,-0.929920357815919,0.864150417938712,-0.529847176982631,-0.931003022297466,-0.621898917541423,-0.487876861251434,-0.233322573656807,0.871806647523234,-0.930578952143638,-0.279482367144239,-0.609953887877527,-0.932492453116542,0.68060685623279,0.859576039830687,0.161625525029054,-0.270520813454241,0.756999453268766,0.251576166405645,-0.0555715561906733,0.791636501108088,-0.705416498524751,0.567423818485294,0.830123400772965,0.561435372568732,0.635574937303878,0.143871662666399,0.786626994526641,-0.945012241178252,-0.597666685310339,0.812050840203277,0.290357097122443,-0.0840830704609901,0.216624046775631,-0.00567435502846214,0.200204139214845,-0.722037284088606,-0.390218978680666,-0.947354260721157,0.666069636339577,-0.0266836027387154,0.0251051317391791,-0.578190034166739,-0.635220557149788,0.862589434247731,0.864899840492948,0.152713462535533,0.239593875623536,0.274465709773932,-0.426939668193437,0.855270646976721,-0.959880540938678,-0.706788202235741,0.0811000552641939,-0.741428851973471,-0.924225610340741,-0.372250868309088,0.841766520272629,0.409493997674649,0.277592943422617,-0.827238139077142,-0.539191112194092,-0.357582324690111,-0.181231363759145,-0.786893247515595,0.43234509802154,0.668061909265494,0.41311757851855,0.489359239353705,0.473020719104798,-0.97526476521868,0.167285286200317,0.391492726899816,-0.987987285984355,0.0429259618601934,0.674622198968909,-0.884745510051452,-0.236888301152604,0.039627737327367,0.655829388488761,0.852051419429015,0.0784732892166424,-0.0613394069416231,0.023576509918338,0.883275363666467,-0.864696667499018,-0.675219755114463,0.547541331823556,0.442684429671027,0.428486158039986,0.370565189183391,-0.274245083259004,-0.932105915766752,0.796173467010295,-0.997746280984438,0.836751577660052,-0.311737215272895,-0.547033551128764,-0.269174547887656,0.160626342954086,-0.114689143978411,0.149330937755808,0.0878028636018577,0.260827720304301,0.778458214598136,0.0833747858395473,0.952792529619657,-0.215239189871169,-0.339893546098359,0.00542232445849744,0.542470174744556,0.174506927543241,0.377486802464428,-0.730929090442578,0.970468829207138,0.678116507741876,-0.930857664786979,-0.85633462120226,-0.831587018937044,-0.358762840834662,-0.676548159380691,-0.895686820161094,0.963350530183314,0.391031174006893,0.421879715093524,-0.530123915711581,0.571399804897981,0.596205747799832,-0.661974546194872,-0.23527797205527,-0.254487359127704,0.595450736106648,-0.279268011807041,0.112029769124363,-0.184287402660226,0.936981135357857,0.39595817625377,0.509750966681169,-0.712943482148766,0.660499993242525,-0.371162685974639,0.0824638119857091,-0.869527033184632,-0.464467076486105,-0.28755630082047,-0.893361163377278,-0.112144375311896,0.124235398293946,0.938942537843378,-0.818829918943903,-0.96388212983297,-0.537645074900716,-0.871379837768361,0.00809601948465403,-0.532711395088996,0.970230230174993,0.211269672922814,-0.0426093955330678,0.600071449478366,-0.261872420829766,0.303258798728605,-0.854618173597565,-0.749960875329439,-0.644095548435436,-0.400842947516093,0.644472738566701,0.375642092688493,0.893402744390002,0.462214932881398,-0.918990739155439,0.889658056433364,0.888114439177068,-0.81963243291839,-0.727106055239881,-0.268776383139445,-0.733038770217602,0.00435843247251477,0.432202351750937,0.24880970694563,-0.783473254756226,-0.26635763956555,-0.804062612270607,0.627770703353715,0.998125334609063,0.277501014293812,-0.436977730218154,0.712095918342763,0.850742644255093,-0.859832925801499,0.460897446837,0.598452392848087,-0.851006064560933,-0.0639109398268935,0.359461917605948,-0.850184972783217,0.90419327961384,-0.756734189969615,0.386034995748163,0.607146029244141,0.0583179032562571,0.110558386473315,0.843046837790751,0.942484518259669,-0.937262523344058,-0.402040688716838,0.968562037749122,-0.416709672142895,-0.845208744145763,-0.225784121032092,-0.290503053510979,0.243350613307534,-0.156189578646699,0.12449386759861,-0.0520626077046843,0.401830194349883,0.845397901965019,-0.417797957074452,0.101234037722296,0.338091224758067,0.614630448824905,0.422612982796862,0.545473680465459,0.69929231876214,-0.46616117333007,-0.635412547674679,-0.31371098791727,0.850609818711933,-0.230955895263064,0.0177786586467371,-0.191204642516442,-0.4492713029011,0.464364906244373,0.467249860021858,-0.0612048431655559,-0.24739477085136,0.680653832180397,-0.678316303777128,-0.236845340994774,0.207321540975232,-0.59575643419375,-0.0825081704548751,0.512337901376626,0.591652128909093,0.376257246365702,-0.261691496335506,0.0801103055010997,-0.423337376019562,0.954945396791774,-0.111633892895245,-0.483461326934205,0.352886940985935,-0.060608604251234,0.491324705187767,-0.490884509310981,0.525242720423938,0.425001906935097,0.21340410197433,-0.369667038969168,-0.780059740192449,-0.552296983176822,0.73717267917929,-0.607735679927884,-0.959091011470633,0.723345853384345,-0.777048265082434,0.505319949871344,0.448087370798544,-0.142901498345362,-0.269562493127445,-0.68668855364194,0.639650966208563,0.115751821628483,0.826948484833602,0.533903599788723,0.614931207468119,0.27858647009245,0.289292998618075,0.944269656661884,-0.891666131099421,-0.536670239360612,-0.340829593105876,-0.51516643192782,-0.105893572063104,-0.644966799666461,0.89379093688501,-0.308661232325422,-0.823071439216619,0.85251445852593,-0.479981224563046,-0.904530798103752,-0.806273674011143,-0.0840084010276304,0.158148572051715,-0.71249791352712,-0.0646519801623948,0.0723248562880701,0.719434094470185,-0.522676971470918,-0.309743314755169,-0.0985738457623722,0.747486332217125,-0.440655427490163,-0.351445253744157,0.39319105460805,0.148130380514257,0.675611753258389,0.156444989364184,0.716528944864816,0.0165921928124812,0.565515994986506,0.973876263484203,0.0952523730915304,-0.0780045615475551
