-0.867670041901065,-0.368973486383208,-0.163470374847004,-0.714610026036382,-0.227081523130954,0.648781673368872,-0.373003127018557,-0.718153352811905,-1.03463342383523,0.175824247617416,1.10300196129714,0.372164682932601,0.813591669419814,-0.148075323174821,-0.736021387441039,-0.548346233244109,0.79051651035172,0.12765025390448,-0.906124340510513,0.521066088807338,0.207696266347356,-0.191291017715319,0.701135404500388,0.971997835218293,0.920161751201812,0.616254134257173,-0.0304120755618523,-0.517603654980475,-0.0555158167469039,-0.152318655850558,0.878718357570631,-0.958953267833589,-0.982092904892186,-0.582476443056595,-0.00142933286102582,-0.878163555913105,-0.586469089338346,-1.00786689059883,-0.0940938214652029,0.493615513593525,0.513425476875914,-0.0295199641984082,0.698962218138875,0.368735342439088,-0.792345730556449,-0.767274249951784,-0.24419904339469,-0.350297987137806,0.0387834750010549,-0.803307204845475,0.847654050599258,-0.815063882033642,-0.130297048881907,-1.02998948689306,-0.594479656281035,0.628634227609348,0.426078935888016,0.314998852384626,-0.122168438395378,0.0803456898079953,-0.392402763839456,-0.0415381127670473,0.885259013559549,0.908792330667885
