0.0485768570189331,0.486084413936281,-0.159121258472109,0.887843847903292,0.416658909669249,0.0701580452674246,0.993191886590965,-0.563665462924837,-0.334314465233756,0.177935237648669,0.552866954088328,0.753828128692969,-0.328677525730142,0.491720093565401,-0.781298293111794,0.89749060435459,-0.553639820116426,-0.494007367455997,0.444478611879557,0.570206992035313,-0.878164866440506,0.934506412744491,0.0478945472291359,0.770598676612705,-0.0220979986597052,0.842457687216871,-0.357972717600348,-0.660381248513246,0.759983853815903,-0.104495548127151,0.703043863918692,-0.697038159344868,-0.881994786259976,-0.313042430206529,-0.305891132274813,-0.881744390387203,-0.512157760055005,0.894263511402351,-0.84822826044496,0.147941410985255,-0.0647479638666297,-0.883071327945398,-0.782135758598723,-0.842635623106091,-0.257175006426378,0.283565294814142,0.292385020564021,0.407289846713803,0.993023194088333,-0.853615173441295,-0.0640223031077918,-0.921641199386065,0.312313932899344,0.407995341406288,-0.773502485932727,0.167270800586004,0.838666358349333,0.87319583791249,-0.0912907126762226,0.972002652410119,0.68199061408565,-0.221253853784898,0.758803569721602,0.205878995060893,-0.924179379099138,-0.186428999932413,0.622327490104421,-0.278125502422919,-0.0812246042963891,1.03248587405061,-0.676212681766725,-0.991160087114348,0.215271165769942,0.710619648080108,0.13005610817723,-0.643167190302061,0.926055795000926,0.260524736771391,-0.609467970629667,0.365584862175275,-0.801443773490545,-0.820776172186551,-0.0880089240644268,-0.845476541447882,0.54913021632495,-0.479510632414964,0.778533609807773,-0.54354098058138,0.0675214180734824,-0.401243076686454,0.00729495234092005,-0.445162810381795,-0.756996011175254,-0.417804463695617,-0.865386757088412,0.147332456786844,0.0334684659895621,-1.03115473853199,0.681787160004872,-0.17454654131722,-0.54307703184385,-0.119647655399819,-0.707487492453244,0.06909861321379,0.983642389253107,-0.835560541994721,0.164722983256149,0.825767579762027,0.749899502681092,-0.410365668111123,0.292420496192996,-0.636149513083012,0.406792772648251,-0.150371286002524,0.0463881601616169,-0.75129073881345,-0.377908929917681,0.0558919716271524,0.130599161320454,0.130560649214304,-0.409221060369869,-0.0761620308051309,0.669617422406902,0.0290471825766745,0.640945468994957,-0.891489564017945,-0.528643324255292,0.54600546387768,-0.883353860078894,0.365891016528166,0.673606871074464,-0.264283668473039,-0.954302251499319,-0.285886038448814,0.101888265380449,-0.142342916084281,0.454952269251787,-0.432895795860317,0.794293211293834,0.748155247255554,0.899849008660176,0.263631561283705,-0.596848827449322,0.700154928275688,0.400250371964739,-0.973177840993139,-0.179343677680545,0.265112113144146,-0.130344077878848,0.288803175061202,-0.485164202572175,-0.704739833901468,-0.993558431345722,-1.03464315918175,-0.329881107005823,-0.236807038911262,0.71792138552992,0.248625785837828,0.386453407732339,0.311297210353235,0.574560462040716,-0.341966538068282,0.97113478426369,0.937645920985036,0.833055452225557,-0.13175252202368,-0.361556586695014,0.194500186669174,0.403907532577395,-0.723809066474766,0.815046346633815,0.893097052412886,0.484781025961006,-0.258523594836466,0.422414992215597,0.56816461751945,0.69916645379926,0.0788256833192145,-0.607524906426401,-0.461728962723311,0.0772824492568378,0.291339180138822,0.198073372214429,0.374707257730693,0.601380380307005,0.207369863525194,0.931655169125777,-0.602388443157809,0.770378834592404,-0.170869911843713,-0.190750769087634,-0.119888375268923,0.316464613444648,0.0128916250082103,-0.967843402949332,0.307374794876302,-0.080684865559097,-0.462678742545188,0.924377903858355,-0.986350097960133,-0.685960091327474,0.0658777193424067,0.699936117389315,-0.66166223513836,-0.830368082448017,-0.576060491737929,-0.584681491245803,-0.208144637727109,0.0611523956338815,-0.887551297673907,0.585686423009024,-0.00695839902201234,-0.26615060930792,0.242463793880615,-0.121883868531861,0.402206279242693,-0.887566657885518,-0.615987522948728,0.794593224197848,0.119998490738633,-0.524391550531252,0.109843961523096,0.922967751834227,-0.5213808265517,-0.973768722543788,-0.124141393749253,-0.937030657911811,0.092211148170859,0.208212650813756,-0.245596169746432,0.689838781057394,0.478556344905067,0.117152187389832,-0.480613433111334,-0.714511872232544,-0.896230671478525,-0.413813200799591,-0.208293102658261,0.142678975867156,0.969075120526082,-0.45164983355357,0.996667092304872,0.192012532141193,-0.03337796803521,0.946643604365916,0.904067282682917,-0.117640434660414,-0.334730735059885,-0.00635016460205029,0.151304858431738,0.926968133481812,0.934830168772705,0.966660093824806,-0.122726846591794,0.660461848433458,0.0257479756131511,0.152199369064397,-0.0744510860656494,-0.0611293035592147,-0.739787803712662,-0.227062846841332,-0.0275283273731203,-0.575752497996249,-0.320081178760365,-0.29168651695811,0.855444701272377,0.294304840190589,-0.831666333170116,-1.00154453617498,0.877711608656158,0.844000220561542,-0.887802969596752,-0.183526079425727,-0.111516015735134,0.314926628989518,-0.603178930990396,0.582460200392166,0.155440872602831,0.18676508303242,-0.692750797143373,-0.138209312057747,-0.347659380596443,0.428188533343278,0.829916636404686,-0.0648036076722808,0.0597373202080798,-0.59194159580307,0.924211685995798,0.214529653452538,0.853369522721731,-0.230440958740588,-0.968846731400354,-0.127239154493216,0.504322788630035,-0.663128833146259,0.595071627082368,-0.458351447278569,-0.432980717030739,-0.89918381078673,0.0308353562941035,-0.552662634993223,0.677713519983531,0.85985778884205,0.387889634346842,0.216931880290419,0.172904540109791,0.107549305924393,-0.0992452406083311,-0.107090091681511,0.441304114375009,-0.673888396560848,-0.61520413406515,-0.947099570845663,0.767830379755046,-0.469020164099013,-0.594981948427602,0.661141029798589,-0.783476407604865,0.310204498361644,0.934663525282166,-0.969754404801747,0.0886494417193491,0.360718847800106,0.42633892784131,0.137814831568263,0.776749503857066,0.843650870468648,0.266746225567595,0.808594760163422,0.4200665572215,-0.895798105157138,-0.70425168558232,-0.105814122309911,-0.921335584322952,-0.708351120277731,0.301263340951553,0.267413001756728,0.0266829757744053,0.471988352387,-0.376618459984315,-0.296485190681269,0.346666264820338,-0.966113838904912,-0.143143377112471,-0.219550877199162,0.40842145593764,-0.135304523503552,-0.240906609218925,0.24450031938733,-0.917967204179468,-0.272924909388554,-0.161234038773195,0.420953462308217,-0.304254472928756,0.900111642170426,-0.24726373489038,-0.974320958864193,-0.15965663216673,0.229533112116941,-0.813948185065829,-0.547563785247776,0.727250009920654,-0.185803716412433,-0.400828921570137,0.104032702302051,0.214876624639691,0.770113887841805,0.315858595107662,-0.0290562884665529,-0.628176776499269,-0.679673207655767,-0.835760370451267,0.776953061337121,0.349052173116007,-0.0491699699069851,0.210202895637273,-0.576348599507437,0.756302563921827,0.0648334274853532,0.0605962262240988,-0.802982330646277,0.861516174647424,-0.737408172478899,-0.636978910464659,0.21610826294808,-0.818902446209032,-0.60966908945329,-0.87709486549614,0.706247394714175,0.625766002785496,0.555853591287326,-0.0670471720272756,0.380422258682816,-0.478322122070981,0.398063908501583,0.748643541785817,0.267602082375219,-0.174632027007803,-0.0769869855437963,-0.973388747300562,-0.889520929720123,-0.805609627457941,0.362318481121289,0.534922291349946,-0.604205044804931,-0.889110847263661,0.11720734596862,0.179548042173588,0.859812253772792,-0.809183557511182,-0.525325469080831,0.821341704804802,0.966570285642995,0.311749410736493,-0.14541496723514,0.687111834081427,-0.248723338158303,-0.464326362248808,-0.755266092591416,0.990203792878082,-0.355380581500235,0.228211151175247,-0.369348660423133,0.211631550180342,0.0498818320166672,-0.112122673005683,-0.764526146039424,0.713156837729159,-0.15799704773246,-0.907170978283162,0.143649154847966,-0.784972160662373,-0.684704037382265,0.0543458149150587,0.568501203914656,0.494907422551385,0.807253537561716,-0.562372292540322,-0.20531342983359,-0.713917414634835,-0.538765636487881,-0.272389006303197,-0.526480833538475,0.165804426513089,0.0602267604497632,-0.337527875456613,-0.537793599680138,-0.119217889127573,-0.858342925466687,-0.100309257587442,0.21208130375976,-0.630118345970832,0.911057348675918,-0.204790698381619,0.779109815895096,0.443974416684051,0.932303153884211,0.777266479526257,-0.472546038086985,-0.354911888920999,0.547020833940558,0.375659199873369,-0.72549640235734,-0.375403943504693,-1.02854147464723,-0.543034996091345,-0.572542769568308,0.908333604902818,-0.943244550303595,0.714742400151853,0.527755705480871,-0.388832607287414,-0.293288681680983,-0.170112297197822,0.614630228144149,0.293576663895406,-0.682573521266366,0.665624980507743,0.765125976090274,-0.711934365510039,-0.728780912224225,0.368936242370199,-0.818102108293503,-0.238913029469343,-0.444437088708991,-0.0606652179821862,0.901150993016313,0.0464471553411332,0.398667369309484,0.578129432167375,-0.750439552072772,-0.381268844391291,0.807635482936156,0.468750977364759,0.745672530950877,-0.784741912758483,-0.358751815222701,-0.712681097542102,-0.14017576382127,-0.585472973899468,-0.708276908366112,0.633962718804912,-0.0847416733988869,0.909617139162129,0.82941091533755,-0.33584104474646,-0.0668023367865,0.811906475547862,-0.634718766201989,0.44944094694728,-0.369172155431792,0.441324870296254,-0.251836164052151,0.473950759589972,-0.853954870620426,0.342759712609878,-0.104221751471596,0.0405300562616602,0.6485739540089,0.982467846400818,0.002907505047701,0.231354464686329,-0.168082195208401,-0.136762385784548,-0.346458008516577,0.323333433761705,0.323847629309987,0.0587542602224988,-0.0935127619106869,-0.0255056344506037,0.0153022587450702,0.913920221320131,0.998948067371192,-0.462634084409658,0.555678474804923,0.819391835296076,-0.596796042924418,1.03741939880308,0.599717727403257,0.0595235875850239,0.388781432116037,-0.722752523599276,-0.725130135955371,0.64679938488788,0.123689670294996,0.750330576337408,-0.755352795862242,-0.851899886897083,-0.638690070803895,-0.608261454854027,0.158491215836054,0.61232256001455,-0.918845790770703,-0.589823606623592,0.0494972160215424,0.0723640671484755,0.974646684679024,0.93746313658336,-0.473678973223398,-0.436935198255376,-0.338087765070996,0.331386809309456,-0.489816982281108,-0.0201291835777417,-0.288032943973402,-0.915757701799069,-0.211274844537333,0.230062252269591,0.315186855641272,-0.596327267907023,0.571426657114196,-0.466575389423959,-0.0448032137048994,-0.752484570320687,-0.0876530931694295,0.936295388087462,-0.490989743237679,-0.0824121637933428,0.337249112975903,-0.177003308321169,-0.358380610793351,0.739406446060545,0.0319445923674996,0.93433657856889,1.00914298917128,-0.778718516672424,0.238197701428721,0.594235790112115,0.628962277176958,-0.0526706508406305,-0.519933145544381,-0.782301233429988,-0.51516513197998,0.55611493213024,-0.277520775935456,-0.662526970024068,-0.0567272920319931,-0.452693580926053,0.0624767838424836,0.793965712230923,-0.113106918324048,0.671627919434282,-0.978877804561523,-0.919929926684275,0.339364151531312,0.703534901889906,-0.376079327866474,0.498942168480235,-0.460127809616067,-0.211352163945765,0.760025585641197,-0.0484024699660915,-0.661291932642121,0.916073678477708,0.624277109941216,0.235090308345192,-0.807758496505727,0.591893961584029,0.416110464927592,-0.264269301773816,-0.681884233352172,-0.593068692529977,-0.283886422311894,-0.300905005977138,-0.475072279612776,-0.3557726759799,-0.510124663043435,-0.94560401840293,-0.854240791273293,-0.845471154764871,0.845424025806107,0.202455795078598,0.341221762302807,0.528495767888253,0.366723688552625,0.184508946408413,-0.0537986140250205,-0.456102267279804,0.208447334024882,-0.235572933575642,-0.61036297742254,-0.966927591431797,0.864472330078969,0.234732373935005,0.5194111161804,-0.117806107302869,-0.182725893783305,0.768304305468594,0.256736401842199,-0.885938294755235,0.326495256605111,1.067274007054,-0.685188370616925,0.300002476279353,-0.152098866565017,-0.288102677181189,1.0225861263371,0.0232354758781932,0.645183799335795,-0.220777697740177,0.583708403508105,-0.606741101386075,-0.464992511781518,0.18657068442158,-0.540463973951975,0.0252208447067985,0.211885508826888,-0.837021646126458,-0.482207269278722,0.435814554161844,-0.0464613519146405,0.0149093760032847,0.966239554684971,0.191505037777792,0.751233571240387,0.773150813800583,0.0377181397559325,-0.959665980619014,-0.471476898667629,0.656322986278647,-0.293758505036849,-0.372608402001942,0.634645734547776,-0.0941857609163982,-0.905719162381723,0.908257450581374,-0.700174953674387,-0.322137705099559,-0.54311829060808,0.874282441599089,0.800703619262544,0.863171492445442,-0.233447314692592,-0.454237539808959,0.779869660262394,-0.545470531338889,-0.106421601832368,-0.287352556207578,-0.18069413591974,-0.576800968071684,-0.475247900198002,0.917998382498448,-0.345067648294832,-0.994990106677874,0.963013280889417,-0.76317247757524,-0.399412441334886,-0.909663390312351,0.15366596866669,-0.276979807184769,0.250851124629137,0.403121079937324,0.773825019065881,-0.688862940326562,-0.956942705612016,0.978069493333691,0.871317688759789,-0.274843415166757,0.503385725914725,-0.953890080769356,0.742020050477124,0.460487249313227,0.369398011873115,0.189261917876654,0.324485331118236,0.0905846503268195,0.159428774822811,0.826236621918308,-0.913774405508566,-0.383106173676903,0.463023647180128,-0.138367115235131,0.484328060662752,-0.743997564285838,0.993488951247708,0.100129974388767,0.464357805804779,0.000586545423054988,0.142501368954064,-0.871181256440425,0.839049819759426,0.323489734689956,-0.581093940749217,0.339710894900311,0.579058221776641,-0.829981208866292,0.0433558156033741,0.235244070249348,0.482156613884837,0.146760137530942,-0.756125757439676,-0.31367489761505,0.0906753200127606,-0.247336377360091,0.383650129531268,0.909330041390709,0.979142162135185,0.516972869909109,0.0876307876993996,-0.821373114797687,0.896141722832992,0.327332845150678,0.678191657192608,0.933104918607692,-0.654380837791276,0.833032641576505,0.681046845037767,-0.428516526652914,0.0105760729827788,0.360002116393798,-0.491612605323878,0.361439179788437,-0.755621384705898,-0.905137661134278,0.0962309621143078,0.343210483746415,0.350036091081766,-0.838391973765467,-0.278090044214238,0.601007102927016,0.211108155744377,-0.595754401839125,0.861964175506494,-0.73365817422512,-0.268066399941625,-1.05214928246628,0.801289613998984,0.00120973426183431,0.938223535002763,0.142665766218152,0.245629761478918,-0.422638105840971,0.717325496874589,-0.728278486703978,0.335103341005859,-0.137363975116666,-0.459663639726332,-0.6261411281738,0.47518399391388,-0.260211333528072,0.474987001494196,0.824666263219649,0.154172407829751,0.00420048095942067,0.279284429376047,-0.53518239368975,-0.815315349921629,0.842388452611868,-0.763406053599261,-0.668997645280113,0.608920786322803,0.422127246108156,0.786117676095547,0.318281250644972,0.0547183085319419,0.759940582102628,-0.36583854913333,0.355382611690745,0.291381709920374,-0.692136699561338,0.901297980256012,-0.0409610665419093,-0.569368530960473,0.0202280548398734,0.786614507601663,0.600461793147194,-0.32546154783212,0.886462997004155,0.350276337786018,0.0572518577500582,-0.750230175256856,0.249757895988929,-0.774044587189986,0.693618701526872,0.0979223763374081,0.531381915439509,0.442368362023951,-0.625209019709815,0.340095248950072,0.0985426119115263,-0.91956264312303,-0.472033574574847,0.0347650616814203,-0.45678210667977,-0.0754755308610985,-0.0167297297499287,0.304770378718025,-0.260828281247328,-0.266241745909045,-0.12816220734281,0.634687364195316,0.910713549750428,0.385310351564145,0.5279613816715,0.541514577369881,-0.762339440496314,0.711220742801417,0.351541969027645,0.987233999408457,0.709630768362304,0.738104890703058,0.913237165569884,-0.26667697254023,-0.23848377423465,0.81135901009376,-0.0864943304993526,0.630897502933972,0.686241269599486,0.211008493613433,0.774937661775568,-0.775548600171389,0.670786833707544,-0.595234909551961,-0.136478193857938,1.00345963242176,0.208296072628788,-0.648568904644135,0.946169863568295,0.104111719880457,-0.0949042936198817,0.384609399393364,0.0396446160862009,0.483976883853621,0.438736306693372,0.295417394520422,-0.805184611964906,0.171964577371763,-0.446338226222003,-0.423577056737469,-0.100183103714932,-0.879950607216121,-0.895896836671328,0.919334655859317,0.734120515478131,0.643048487460116,0.807457284444043,-0.248736783362159,0.441747433730538,0.898608837477273,-1.02040960410699,-0.0984729987629823,-0.457921226550292,0.294907831605273,-0.147131780659529,0.746958516743632,-0.259506310222148,0.44721362521653,-0.0532897119671828,-0.462572256748712,0.36674792339125,-0.34439825437156,0.742532303565829,0.451238192884951,0.197117214373837,0.366518735504532,0.730962802860307,-1.01906091133633,-0.877952184091909,0.782570470542235,-0.840168038791488,-0.251793598588073,-0.848317101988954,0.377737863554516,0.806734033788061,-0.403228743009572,0.135392282340681,-0.202153917456259,-0.198391811953409,0.745159725910189,0.646171686812141,0.873013671607768,-0.300739322699076,0.714019334500598,-0.884289184409572,-0.852699078596494,0.69766278628145,0.731869072398707,0.27069093106102,0.167298655319549,-0.163519265304784,-0.847536348916067,-0.270436610995954,0.881848649033333,0.59151752394976,-0.0996258517659357,0.887994545435194,-0.619465488706642,-0.590493518165398,-0.728734149928344,0.173849186305529,-0.51508090320594,0.144669080802348,0.271340920340075,0.0448911544142164,0.75383817006233,0.0924895046423156,0.92021787567701,0.43160772785502,0.573423312451063,0.845540505059303,0.748143567751749,-0.56594431554321,0.338549326302827,-0.860865947493597,-0.815668974872893,0.869448384976005,0.22931319989781,0.407595039732066,0.924659621427353,0.620649582951138,0.366123527608436,-0.299983946646463,0.5718847778111,0.0877301240451702,-0.523404449019086,-0.878210303012738,0.381309929485212,0.846572724201322,-0.706263889184398,0.45398268631373,-0.0797569137836696,-0.462322311248203,0.562512955717757,0.105275908933954,0.35625126965673,0.465272164647178,-0.326330869968283,-0.737437627569574,-0.831595576444657,0.570223822795411,0.0367803678168785,0.573743053215175,0.829904228528643,0.609976920237889,-0.766444330105444,0.925915410697167,-0.966355223284646,-0.82068400365295,0.806170254411254,0.284081356982789,-0.363484936037315,0.305905489208255,0.26821465206914,-0.654924148058222,0.434326278296154,0.364487140253469,-0.639765116490406,-0.805989058302251,-0.628512527859854,0.765510279969117,-0.462560776150958,0.865791883474821,-0.405445926706631,0.581030184972292,-0.546914604733451,0.654723130480912,0.945112667616421,-0.529339790382447,0.90983954477973,-0.635117926356297,0.479147350628722,-0.583845189346808,0.33553228529382,0.0421599908052874,0.604018952322642,-0.194532157818734,0.986645360777637,-0.146710675314992,0.393777029969344,-0.915178601362914,0.0409626011017593,0.320634274478297,-0.341486135085036,-0.0145545107626846,0.727182762228659,-0.258973500024976,-0.0381042142455719,0.595880555812376,-0.897946103061128,0.0117463338255382,0.251764173842459,0.224180902447578,0.0254821483842549,0.784571098498462,-0.162138951745453,-0.245551814031486,-0.769248920170074,0.849426379320589,0.843770209148504,-0.00372517106881126,-0.485900651632999,-0.0194009117994035,0.740563673682393,-0.12757221043108,0.341275834087388,0.0118349678420813,0.222624743746537,-0.129251198469149,-0.753400811741004,0.0105307956011611,-0.229373242102825,0.393310561252467,0.676554512008687,0.168596446031964,-0.702538508927765,-0.908716379315094,0.705504113231934,0.172423928178193,0.338828598259264,0.386301778960743,-0.871623765024907,-0.0661459172048234,-0.28166291246528,-0.428075470706085,-0.885974045165667,0.751246716215088,-0.367045372557616,-0.630260770706406,-0.780496106759624,-0.134507764465369,-0.218412527784833,0.946039366002587,-0.748481991212895,0.650921199510998,-0.347786457198092,0.0938519930939841,-0.388446318466499,-0.984207895852273,0.429684352316208,-0.738011176762304,-0.760254542165568,0.816986056551539,0.0092334792335176,-0.644200609072244,0.74129946779029,-0.158695701278926,-0.435205514728051,-0.239685671158254,-0.496521055132909,0.571423496744341,0.476162173560448,-0.0847859182267285,0.603797027603763,-0.0847015722138612,-0.824601028069098,0.773050531026639,-0.531207124764596,-0.512255592010702,-0.956063528463311,0.365233274796119,-0.154161037329324,0.55698116142166,-0.701816103167116,-0.807102396791093,0.169281051524467,-0.300809405985136,0.505823929936756,0.845308194966733,-0.836807261680891,-0.151955612270391,0.498844797129675,-0.577706602262716,-0.884237732449394,0.596091685333918,0.588075993038482,0.127477054363649,0.522809644365979,0.0170878445808644,0.376811761919697,0.061077780616927,-1.08424727952289,0.372109600232418,0.380373754920105,0.615838414188877,0.625167939779903,0.710273730499431,-0.848251980514433,-0.778987285052253,-0.826894251155186,0.484106173267802,0.587313690060525,-0.635580887579599,0.621262481294674,-0.95027649157535,-0.0897749806295078,-0.266437275466767,-0.217641460273912,-0.764162449592664,0.0423891871206209,-0.114804236120802,0.418568886830425,-0.15293674705711,0.375569995240271,0.0584030947960179,-0.904776653278575,-0.0666893397537043,0.911364422718104,0.36075803883412,0.692920272740536,0.638257438378388,0.497099723191228,0.63950307347389,0.357623115068524,-0.880496095384221,-0.587778707629853,0.566613691323367,-0.279429710897731,0.425838407039467,0.553110195154651,-0.164090970826473,-0.982447951710287,0.720347442237309,0.943284279796701,-0.0790838540620489,0.608615831776315,-0.154717194735996,-0.0560491712322644,-0.609962784270782,-0.431195525950625,-0.536872631783013,-0.202330963117539,-0.918200742855863,-0.629265538666516,-0.708101976130923,-0.811121672595314,-0.425514279299321,-0.840695703793414,0.433633217395969,-0.666427579118582,0.171536879048312,0.69232711237624,-0.507567848602516,-0.192537760948018,0.426268292737919,0.59538446459358,-0.523603314045765,0.232998942739696,0.189894387358416,0.734201128624558,0.469860571319209,-0.110769756448254,0.691601867314756,-0.191460946808104,0.613617619796478,-0.770528401272274,-0.348878807549207,0.311512483292209,0.559358996821804,0.348402315950138,-0.410548372307551,-0.0114501534453966,0.277571954452695,-0.0815892554488547,0.247496716434183,-0.466725065478864,-0.114732524827492,-0.22087786147302,0.800244192186229,0.793463029540321,-0.794796097003052,-0.945837870183245,0.329857980692432,-0.760118903255945,-0.189877250300286,0.362265151726246,0.00711222471014241,0.0497572984728147,0.536309267207723,0.689052590068468,0.815611935039319,-0.0173606346484967,0.697676668971951,-0.681333042269793,-0.487647445316739,0.362656967728891,0.982151490083648,-0.928288632537498,-0.82086412674312,-0.932685409964524,0.374253764529816,0.205041323931989,-0.991060055446227,-0.82580075104859,0.781189864510281,-0.427255490506885,0.926671330660876,0.426363474539316,0.542109867869853,-0.0374299434443588,0.965268913699401,-0.55180951122437,0.965342046690202,0.520637786454075,-0.0252179304031382,0.257054102415948,0.60736934752996,0.299398610658502,-0.612831922564405,-0.0771540101335915,-0.360515502011818,-0.934160841308013,-0.370763499889129,0.886388960015505,-0.506865522461986,0.167376290999681,0.820427096256317,-0.589857872409939,-0.715768471297758,0.357052403811736,-0.961331864078238,0.342674795592736,0.722652252688744,-0.639066213535976,-0.664349571367695,0.376750825568776,-0.133155521340567,0.995437552593582,-0.164244009333725,0.693933621181954,-0.108441574898075,-0.915055928261766,-0.435414928519633,-0.0500260439471159,-0.207967665364747,-0.605851777675117,0.671027445117862,0.617894811044285,-0.179929203212321,-0.609002121989728,-0.772151430637981,-0.0974453773631289,0.837760268609061,0.50056014208818,0.979915236028119,-0.971875393378148,0.00212268479081396,-0.0724445036913166,0.906132499642268,0.368442867450423,0.831272480009841,-0.247108538801407,0.887565459384125,0.205136743986052,-0.649671263778238,-0.7867359695412,1.00007011478897,-0.524573205230014,0.566815515359683,-0.520435285939032,0.650980133135091,0.256674447865597,-0.280455539887156,-0.964446916995898,0.215384719338675,0.841324079144154,0.270984684234438,0.627532669270439,0.284891531792279,0.266646874189654,0.218470488759394,-0.914301002305883,0.105489205023251,-0.760263911222504,0.0341601398041898,0.291345729650374,0.852082190384909,-0.743647933927882,0.199312652158723,-0.635591177235412,-0.817386247512356,0.579441976987082,0.440106503293181,0.375957641966172,-0.519960675720276,-0.000150362164943236,-0.169202040334054,0.667058173651389,0.401684395740499,-0.292944983875836,0.255158915601553,-0.474631752608738,0.268360560901353,-0.306987454843464,-0.835840627506194,0.0629059011541202,0.292779084477641,-0.173512717566059,0.195811066208449,-0.131831524727003,-0.705102777890591,-0.295508076190127,0.853898171527938,-0.733063283656965,0.98049996974453,-0.61601911746688,-0.255346162417893,-0.211784068825787,-0.880107868618603,-0.499419204325288,-0.000926176695472457,-0.803395437956234,0.629587349718791,-0.116195063733164,0.303258527599879,-0.551287901322808,0.834727727161199,0.637840595855358,-0.787952671841246,-0.665174656006273,-0.558605552501365,0.981358006170797,0.429969490645069,-0.459834305658772,-0.216840079686992,0.227740408425563,0.184440241893872,-0.570119617230473,-0.327656581031509,0.629610914603135,0.879203141741255,-0.85008808610252,-0.483221294734545,-0.911061061193374,-0.0293258064081388,-0.394889071298358,-0.208728996905018,-0.417342871692221,-0.88238802717691,-0.803093187493256,0.120645102381739,-0.189985893735607,-0.483431097903423,-0.299690344958832,0.298527660253277,-0.669983814949513,-0.566571669227311,-0.40956387194363,0.339899199587543,0.6388311088174,-0.40713418831173,-0.669617757495707,0.651940467922341,-0.0574863586864032,0.52563981699737,0.797975541717239,0.233046548623895,0.567812506967848,0.665037260834537,0.592454280636137,0.353603207801511,0.0723881130876365,-0.114241789991084,-0.378009401507284,-0.0542571212634282,-0.106363882337773,0.160889778669986,-0.480872455531583,-0.781329177649062,0.839181825577462,-0.777724532448416,0.99016812861728,0.87273826672553,0.0901001586971351,0.680762875861216,0.227746968854017,-0.0996799871397694,-0.885459904779756,-0.378985576323294,-0.995358949767198,0.495378913802334,0.917821147774742,0.850428183920403,0.643582872122553,-0.80149163448432,-0.290749199418973,-0.473596827710531,-0.671320912635367,0.383169116028243,-0.892308945797359,-0.886722531256981,-0.83865575294232,-0.512649358077412,0.4023036066828,0.708049010458472,-0.621978224778576,0.895189120521627,-0.951938991536301,-1.01444801140803,0.383477500169241,-0.178242612368259,0.446106264173508,-0.286534560160931,-0.19167125135519,0.179321011581829,-0.56812834489628,0.277315517263335,0.854683100163275,0.977799564832178,0.99323750756583,-0.740596975477116,0.955503660789314,0.575419229688507,0.165652000522781,-0.0255929107811943,0.394009785454756,-0.896747005580312,0.27176377484717,1.00556084583442,-0.375230299384458,-0.840074184965727,0.519958568656751,-0.422029383413098,-0.13475099947881,0.963403634044518,-0.872415132632282,0.0285327309807736,0.834354227828947,0.765085326531042,-0.856559467499564,-0.00900690151074124,-0.65097317077347,0.209969295859899,0.831101093640872,0.442714698996694,-0.805637855201755,-0.895795384235589,-0.414124227818085,0.562220766950934,0.381118476923165,0.840394983001248,-0.493208904293998,-1.01045750607102,0.461774458263367,-0.397021740568368,-0.227677740074062,-0.376191503112678,0.0741662549867674,0.0907163337529201,0.435719930638788,-0.367996729780144,0.294617776306371,0.14280978170848,-0.13948706640579,-0.354566059080185,0.405383618041424,0.75104614647355,-0.422698353460419,0.024136566062619,-0.999720903618429,-0.322145362708418,-0.401628659558583,-0.0725223708405996,-0.105126373365136,-0.320909513857955,-0.516025288608323,0.705016931733212,0.686093180584557,0.895186829094747,-0.604475150150085,-0.123192545857952,0.857866886895036,-0.999884057391618,-0.106678682936657,-0.172523214541912,0.885604968035196,0.39866621429723,0.851701778713382,0.191135507727334,0.528134303119443,-0.349920962015326,0.464934320099566,-0.631298490530664,0.912090383463948,0.468736123011567,-0.133671387522949,0.510541525664534,-0.667186092836815,-0.804214374716966,-0.662205841973164,-0.1586916930937,-0.61205688076973,0.392626606666134,0.208718993272075,-0.958515327305859,0.4200862834033,-0.588855334604702,-0.678154639160128,-0.0281806795182316,-0.246585663096519,-0.310535203842419,0.152021629411206,-0.552624535894167,0.404760560341679,-0.575312318119587,0.73095870468809,0.435453256218382,-1.06555585097528,-0.204079786860119,-0.921696154917673,-0.450627953781651,-0.407434884743355,-0.304249161957829,-0.774302592864108,0.899496799207043,0.45857863623065,0.385017625145518,-0.0138083418511036,0.601504326378652,0.0252521009348121,-0.482019614299847,-0.00138317318076128,-0.8306529449076,-0.721021163594171,0.0587781787415052,-0.998753636935237,-0.0222712749468415,-0.885866140226892,0.228915107779386,0.369490779657873,0.708434812788915,-0.290943518710689,-0.791077116262494,-0.00289681311152827,-0.000796989489628766,0.0889481318381067,0.637716907023861,0.330194986285122,0.905580450963805,0.0166297066682046,0.950072675673171,0.889672760502215,-0.28128460880384,0.531482735181158,0.213833459793365,0.490331831474671,0.0180322327123428,0.555615041648266,-0.792588171814406,0.158107122568196,-0.800015903074006,-0.497931618795047,0.504002026271641,-0.596279128874512,-0.424275091564175,-0.926861166378595,0.291302157475676,0.014669601004296,0.0874061249133184,0.154264179859659,0.368705372947145,-0.27986049266331,0.678250166103118,-0.985494695947893,0.639166748350122,0.188026451762299,0.864079544051258,-0.403108644145075,0.046297161942571,-0.897958082249487,-0.366390007717089,-0.807869543278009,-0.590285889277697,0.188642651458188,0.519329260616412,0.00770035816821935,-0.840941941954691,0.586555853586298,-0.343254743292822,-0.697627855272928,-0.283269945786982,-0.749814185339284,-0.828965866989958,-0.0773855886443833,0.640069496099049,-0.486936381432438,-0.939738466263,-0.940642821186015,-0.995915147289043,0.255610288522248,-0.523983269709995,0.596862934638054,-0.386324094402857,0.350311559439631,-0.84968061473107,0.126991373431751,0.924926726627972,-0.908311810982666,-0.667805071354411,0.202068119324552,-0.334730371924758,-0.565470084839292,-0.450167544685299,-0.361540656045493,0.398666728145107,-0.866338246316281,0.0166765901761514,-0.853568429709241,-0.134670649577329,0.383817011944191,0.470568749756254,-0.437855429313485,0.151023581472263,0.985379219572703,-0.280230970223965,0.665931943818329,-0.809711443562743,1.01079051143195,0.403422490682059,0.90494689334312,0.964427902010033,-0.287346731981346,-0.41146526847599,0.521857971849604,-0.0346800773012443,0.723323759155575,-0.46190432933882,-0.677491875458745,-0.976763771617056,0.201910449916322,0.386555287480203,1.02577152965683,0.670318125113702,-0.420230524058135,-0.255908506372232,-0.429149485851528,-0.645749223629998,-0.349014932926709,-0.623743324600641,0.0549620045380796,-0.955481007407144,-0.679546264557434,0.114174665354413,-0.863527831254676,0.116580993304729,0.72594080600473,0.372990040309138,1.01870313169739,-0.25008453038989,-0.169349326254263,0.52009468552402,-0.14262885098615,-0.502760960645977,-0.630908168466477,-0.0940994556133062,-0.625863204863365,0.895649046026839,0.0696008847686081,-0.0325163312481933,-0.625287806490877,0.452856505447766,0.338962931682261,-0.0227997723790751,0.522795690483724,-0.428311071977284,0.868723233637607,-0.407410102425944,0.746365371690214,0.628966243611948,-0.0409623584085302,-0.349389900147474,-0.107098425876583,0.75781541743392,-0.370808881801787,-0.646567171880506,0.303592287903739,0.620753680241311,0.0322410883250883,-0.893009113928022,-0.984866028174257,-0.533787740169645,-0.582083924590661,-0.474359537350626,-0.778784703552472,-0.517214248048457,-0.208130878646704,0.553559438747006,0.10292967442902,-0.058375861623343,-0.712266715916569,-0.3995851664624,-0.871789485953526,0.57725335961089,-0.354432930742203,-0.0560037965972082,0.38780198617613,-0.6390910009249,-0.784864634505329,0.429812304802252,-0.69094690663486,0.0342966221873557,0.0491177207936375,-0.171982695551161,-0.749607283687302,0.0895292376969019,-0.803178448066454,0.90974752023364,0.795431242477985,-0.558207470483698,-0.822927292321307,0.373979692016825,0.293026850674136,0.0856771704447513,-0.470324339127652,-0.994974210540095,0.16082835030734,0.265094550366898,0.152793039304574,0.125062697385907,0.287255132925188,-0.00728336676050487,-0.824726922782413,0.0468861725614045,-0.454011611913073,0.90014790005299,-0.856517926541324,-0.617242334119372,0.577707483375104,-0.811549323583707,-0.322409920129527,0.260069283621732,-0.638624514969489,0.416878853505765,-0.0480402077281452,0.604368926933731,-0.79335108932556,0.27635600697011,-0.874076597795094,0.59410217023991,-0.301140319587395,0.41682683775058,-0.646415741019401,0.827549417790627,-0.280576207277322,0.815891088952603,-0.470348544067497,-0.559343173638172,-0.153867118207501,0.20983048199602,-0.629035854705063,-0.847629251270812,0.316793054886197,0.52144666856431,0.278286414735144,0.272692895065318,-0.0550940726476694,0.552969561149613,-0.883733303525266,-0.974748147838988,-0.935791478838198,-0.753047012586098,0.100770218796958,0.451811276488302,-0.776926241957962,0.794899159214394,0.974218927188604,0.478577181607185,-0.784261342919639,0.338603044910456,0.620796280560776,0.535953124720396,0.881717921136146,0.892675181684616,-0.577327863129016,0.378714394452526,0.850815408080667,-0.641490035745537,-0.194051976183232,0.558165154423929,0.235170302838405,0.691333644147578,0.802564073473929,-0.355404946525186,0.165283065150022,-0.836476730032197,0.457135956520905,0.653873335987808,0.760605397365441,0.859765144433024,-0.413242316250355,-0.70738303137659,-0.467037892007446,0.518318372188952,0.0214257574057413,0.401461225187952,-0.46806458905286,-0.866057561661849,0.813409980131212,-0.745351477566609,0.358627279159897,0.0709629747420015,0.905864761221459,-0.249871302725251,0.667561839344591,-0.763978632739288,-0.391124242593804,-0.468547222131697,-0.420830154592146,-0.556055757362274,0.166627685990778,0.295487527778728,0.951210282728588,-0.727768568988349,0.866698221840691,0.856529370813879,1.02312164226326,-0.0351276143011736,0.0668335936901623,0.716914257787709,0.378144625364695,-0.755654550561877,0.46143621073221,0.567048842761557,0.300019447929411,-0.442788879297015,0.621375225671642,-0.384859712016944,0.697443992167609,0.985499534584228,-0.146400188973923,0.948774306338887,0.757447315876333,-0.137122098400813,0.85539398069815,-0.92163078526156,0.449857097328096,-0.259016625475175,-0.739687334417488,-0.423486939053772,0.290008536303985,-0.24297078270602,-0.741371751996816,-0.773137039832568,0.362855311980438,-0.77751868100544,0.349657935405336,0.0028173595344228,-0.279245654734365,-0.688574025141648,-0.0426645069914942,-0.276705270037919,-0.723632979167192,0.0930210876161935,-0.91440592613772,0.702480436485848,-0.0568248150099404,-0.560317049785914,0.297070965235659,-0.969352034276616,-0.0450121713408316,-0.308902343782194,-0.683209670048632,0.0142116564049232,-0.593873981345344,-0.952886189245928,-0.465015606183058,0.681153356706305,-0.429381587581365,0.452708851751334,0.406414811020597,-0.370416030873656,0.441476732895242,-0.109098229397728,0.592368953946352,0.296420285071869,-0.0600343811329825,-0.546408879294137,0.876265276889893,-0.139874746351267,-0.183333391291064,-0.349270857665043,-0.21071338148208,0.0283025154047397,-0.775424120402729,-0.603035629854237,-0.123425644659569,-0.459583779566372,0.132673058096439,-0.816456636061589,-0.00383733163726063,-0.791757629320174,-0.132975011832034,0.0202715988899678,-0.326160576428169,0.250369732577904,-0.182813901805267,0.274020491276783,0.224008435982312,0.662226756220247,0.976419761595456,-0.11752906731513,0.96839183067486,0.0493436617782369,0.0605548292292269,0.458722822778386,-0.90740263627331,-0.902831306114352,-0.159109263697063,-0.446983425575834,-0.655910655187228,-0.90898929509497,-0.500156986344258,0.252616705848575,-0.705194076370186,0.598561302367793,-0.566264446489809,0.229380870474604,-0.41026420645514,-0.464016115806212,-0.482887553067289,0.133496781132029,0.0399066802440006,-0.410341244770985,-0.625293249470733,-0.273225780093896,0.484006497631569,0.0427676092260174,0.185721714849355,-0.163618654783974,0.325169445540162,-0.0949651757167372,0.468610143332877,-0.619779620400758,0.752557694536055,-0.259895471108601,0.0717594350061281,-0.635481262284675,0.550388577515194,0.435761384207568,0.692478289381464,-0.203053564067843,0.225199630517676,-0.0789329642893679,-0.405907969061184,-0.551592641205669,0.629344024781252,-0.792240012694245,-0.81053861403946,0.268239418264618,0.537252830668339,0.899195467859788,0.792937247988907,0.15781469199237,0.264129446274009,-0.521176606046173,-0.0766493748309038,-0.349911008017619,0.639433876799581,-0.303396022144826,-0.427756275593729,0.183652280062303,-0.557724413726295,0.619994915262744,-0.874027224382622,-0.780728283994085,-0.714490215418716,0.333692273180981,-0.769045381168342,-0.852215951201016,-0.74888223510415,-0.0289308718774322,-0.605437668269151,0.375340662952342,0.827498918849271,-0.338242020070517,0.765310250677788,0.748613861324062,-0.805714991077105,-0.034320134675397,-0.978399064206355,-0.0567131642633194,-0.0349119218475786,-0.973166948382675,-0.766550038125731,0.953312320557137,0.219628869733784,-0.856630152938355,0.567219946022908,0.173870856144186,-0.35995882950758,-0.720635619033561,0.365397388006211,-0.476893904205792,0.429673802976741,0.890395577873272,-0.574768914975685,0.54313776509643,0.0545653049375685,-0.355936399621977,0.68804060366802,0.185653254119795,-0.825384326653813,0.544072550059711,-0.508058214424226,-0.214593229365279,-0.346307253223337,-0.997790407341716,-0.804836612645024,-0.876108438229363,-0.767930777952287,-0.366622132305388,-1.00332279742079,0.490295050309443,-0.145986537513503,-0.576239152100969,0.370167314615044,0.42921178801946,-0.692154422305004,-0.743867633350465,1.04621301764669,-0.633430366593957,-0.521331978047805,0.0614423019289339,-0.859696187006885,-0.389598412895986,-0.078613164961039,-0.229693563498589,0.154394579057267,-0.235606224685847,-0.252823023737445,-0.8847791905947,0.619835127292768,-0.713233198392917,0.222265005526917,-0.799225947441146,-0.290849237241205,0.894435855088804,0.586724267199046,-0.205209239436647,-0.987222274025475,-0.591480857555322,-0.495913967221495,0.669348605958592,-0.793201739200381,-0.226336582992884,0.889890056922305,0.721939828000496,-0.0399442153002993,0.213628301212775,-0.777870295036857,0.390956450424984,-0.419703946697413,-0.226483133597919,-0.90547166925676,-0.526131793604642,0.497966570145225,0.427359139784252,0.339026285713687,-0.332422300091524,-0.0468163553965929,-0.470973157974803,0.212351696349672,-0.55961177056817,0.114761062465804,-0.478393519619309,-0.919802154157546,-0.839482293813537,0.671561106684723,-0.2395783282511,-0.0273801721787445,0.770735145355223,0.953037518155122,0.615943931847453,0.0501810448858099,0.681885661227203,0.267735476334686,0.100979687069351,-0.00524617549037365,-0.156429731735517,0.994469765588279,0.566674231841941,0.4204828507612,-0.387255084299812,-0.43327800063568,0.150505748939469,-0.724671801016055,0.510810704835366,-0.976275641818177,-0.956288302404928,-0.305398165775598,0.724659942206345,-0.171691147857522,0.469078556458758,-0.55634255133933,0.356557720622209,0.836917971555903,0.612175323172495,0.227476844340378,0.11739405643144,-0.254318624001902,0.505142937290702,-0.272807886747589,-0.844246062011922,-0.255485108006081,0.470518436687992,0.699692432086853,-0.431412604995432,0.312160420935711,0.919793643000399,0.178076096015946,-0.990584017178129,-0.376591090966067,-0.17230358943725,-0.29265059270155,0.93378254548189,0.692421888239534,-0.368021144116843,-0.261488603750684,-0.615950888720965,0.192831060222383,-0.0420409824993959,-0.646034711132753,-0.908944375039888,-0.222204601542642,-0.964903302216814,0.358018507909515,0.224983227455895,-0.0338205355723675,0.180265929271943,0.378700675794619,-0.924657449002924,-0.553117431632444,-0.595936547166043,0.340206395641952,-0.173902827403395,-0.781702046428573,0.365312587060143,0.289809861632435,0.551313442055628,0.80152325482633,0.314245989691759,-0.217047501025787,-0.19725502378559,-0.579047355044579,-0.206470132377656,-0.14314541310464,-0.245753894524526,0.435830880276541,-0.228095819530407,-0.752335164518589,-0.828063005798659,0.434527512328754,0.0208668845750495,0.562119139083913,0.0776361499964871,0.251503642622002,0.567229050143696,-0.74291152080112,0.262919256763118,0.437622208311003,0.109447800375984,-0.0405684388236995,-0.0466542554769104,-0.696893948356025,-0.128829468873874,-0.437685466526117,0.463018149589979,-0.732949434328143,-0.508483740251753,-0.436992917027778,0.446726414498826,-0.704107624211594,0.662868870021038,-0.389159138721606,0.283843125846991,0.767480549898674,-0.281005196599545,0.385366302773054,0.328647051188039,0.213195423347321,-0.0919067174171614,0.970149648248501,0.252849369975228,-0.980531230502266,-0.841379520479035,-0.54366885299058,0.796130731512271,0.320857034189569,-0.393730601216846,-0.452741626808618,0.579121162685553,-0.346571502659804,0.464696052628665,0.28616707780938,0.0522898807027341,-0.459446658490535,-0.070641314752844,0.992888171367801,0.971547470431057,0.350126117913209,0.839077438223884,0.940687086487001,0.738145544058185,-0.919948596793814,0.578314793451092,0.950904088162552,-0.56059291273226,-0.758234925371294,-0.680902342402282,-0.261186569782806,0.402198913246566,0.781776803620957,0.716900019019775,-0.380885453371925,0.395931269411296,0.640682635648369,0.224221444229646,-0.397464222053956,0.396159578088498,0.350447558753998,-0.501897167913474,-0.436520828954463,0.630544168407014,-0.237156825405305,-0.273637790946192,-0.568812705164019,-0.393438758914638,0.39357614803725,-0.196301845112913,0.173152181355285,0.569454175578676,0.995937715631569,-0.575002345752549,0.618288913537713,0.381113805225193,0.706522820652307,0.983624891515162,0.286796668630639,0.9228794553412,-0.150954544095893,0.491544160483045,0.971359210010156,-0.684730678704734,-0.741471362722093,0.557897026163185,0.442416297991299,-0.560927003078784,-0.551089683027112,0.141298377995355,-0.939259191750289,-0.0189872807359488,-0.536562622194187,-0.795956523378534,0.822552432782879,0.146019530188703,-0.791302579623054,0.332066063341423,-0.662550269201181,0.983243349399862,0.200991400337765,0.063141973140735,0.82246806587425,-0.697669759731301,-0.076726279403562,0.0930447566747103,-0.558222597926521,-0.410070015344988,0.520924201584937,-0.544395759598099,-0.183314453189643,0.810433573926244,0.0641522029080169,-0.735808466987069,0.141061778348194,0.8208205335436,-0.100340567700852,-0.346379343574246,-0.703886894246097,0.795090178389817,-0.835416081697124,0.523551728375921,0.661274695413144,0.104392386981686,-0.18040035069182,0.022927823931624,-0.262976156001564,0.85244127491298,-0.425271242527421,-4.22869675184515e-05,-0.189742466482803,-0.675979122974163,0.051239151600458,-0.579877539922325,0.264726809189306,0.44366268313885,-0.695840413154939,-0.931705535932911,-0.693801095485582,-0.930277150283813,-0.591377489307103,0.135674755421222,0.336952533547547,-0.574942137155782,0.979767569954662,-0.617394186588391,0.232917311447054,-0.906573950709879,-0.252178968969748,0.0398339657067815,-0.890125888252015,-0.959028657447605,-0.909202786787422,-0.391057078260758,-0.589427680962686,-0.297659449711256,-0.411579506832413,0.498975024227266,0.983905980561233,-0.262866998370253,0.730922950387418,-0.558597890204618,-0.889386578998871,0.297978378616926,-0.89982047719326,0.297838052756761,0.286337031911865,0.279729260922638,0.0944472530151426,-0.614287198573046,0.569454304547331,-0.759509100383751,-0.650470408129918,0.143351620663781,-0.470501523053581,-0.403972424174907,-0.522749070412033,-0.261810482616908,-0.562427703946955,-0.375995853955178,-0.584868735295563,-0.259098717487162,0.218652629383178,0.266560054205893,-0.560573529693906,-0.628451467950737,0.659476624537134,0.507392311218749,-0.356956378239983,-0.822706660444992,-0.825053430981353,0.309770408605335,-0.101567320207076,0.485146223718829,0.503706350523974,-0.508578753264039,0.736371283681275,-0.269294699997816,0.13690723604535,-0.446849237668691,-0.441339817423184,-0.132026390637955,0.661031682452371,0.41622984081752,-0.859851751168758,0.997244343397898,0.531583368083854,-0.435508414571969,-0.493420639970056,0.882434258299661,0.164581301769031,-0.831187648563497,0.835845224680128,0.324902386575544,-0.0821784683996513,0.027344244165252,0.608963408192826,0.434407142798637,0.26348748832855,0.718218314821053,0.282780468908145,-0.460608315671147,-0.554284224072312,-0.259578474405705,-0.214145401619114,0.132901831604604,0.241514507644087,0.356795443367791,-0.213377846138675,0.816047263357558,0.160614240220752,0.163158167628816,0.981690810437216,0.950870209898851,0.137785666968371,0.526731109535172,-0.502949548570316,-0.0188702877400357,-0.869390608321977,-0.71822436119778,0.685201987120518,0.707720285042861,0.961825378781288,-0.302789183772277,-0.262500793214067,-0.376361829323703,1.01031451850036,-0.664712029542315,0.973517308838228,-0.757274179583872,-0.569378055868235,0.313614769811594,-0.448445911943642,-0.364688922268615,-0.197979715324036,0.134692371786334,-0.782912764257844,-0.755667183628712,-0.852297060681002,-0.642213745558584,-0.625039378461723,0.251205638465882,-0.950060850917431,-0.0413745792416107,-0.00931081567812519,-0.34703599529216,-0.156932921756917,-0.658282212901612,-0.937392047075126,0.431486188438195,0.0383645884376285,-0.460241889682854,-0.173841569301432,-0.664344381748629,-0.510384312678755,0.520373451737258,0.666865444514159,-0.0449072809323301,-0.447862242746538,0.504894828230236,0.467446798719081,-0.869052678721668,0.977348783005867,-0.939050769800768,0.552889283829333,0.945069217444662,-0.14843026535264,-0.378446310717297,0.142302289520396,-0.704538874429633,-0.549676023878828,-0.0296086963495093,-0.328570825696064,0.0382846804181289,-0.788436174711349,-0.918775072524074,-0.834607269380298,0.449061673950932,0.415281353475028,-0.613352991777813,0.810422777057323,0.791740537522538,0.167347613917606,0.20683728408189,0.454913560578155,0.530946456113251,0.282793535104139,-0.201552674917741,-0.867500200361526,-0.860768447836665,-0.426921171844579,0.387641737838201,-0.389639033054627,-0.268957526239634,0.163868803336371,-0.575603497918256,0.0615035430355759,-0.875683448554605,0.579992679089771,-0.261844374751291,-0.523186752140608,0.210862586397206,0.192833111612554,-0.4015988891707,-0.0548644837001666,0.139770536090492,0.734695660964378,-0.779592637283416,-0.0318549830701926,0.0447114152090658,0.455014596022781,0.665888446384156,-0.977049547372717,-0.556901746920602,-0.497021033846933,0.20318793052367,0.914050002753018,0.786182434337558,0.194642051957197,-0.334448515713407,-0.205021078965147,0.227184786830365,-0.240416500788412,-0.229815435891872,-1.01583125204684,0.294918564893134,0.886440176996755,0.998587054064888,-0.375701224253228,0.750260475642723,0.392818461167352,-0.819578472285441,-0.907934273865625,0.757942300899778,0.926401613904671,0.937716305708624,-0.73654934297484,0.410359232416839,0.945531417967025,-0.274980832874686,0.0240197282438548,-0.357653437941492,-0.695930685482,0.662078642110852,0.4879541506335,0.191436215698621,0.151125363215838,-0.502007147689991,-0.875711917426526,-0.122190243521393,0.0720396652924509,0.298417597683409,-0.133891210291554,-0.179753345077995,-0.910243898791213,-0.675475190571866,0.566567353866181,-0.704229233178797,0.810522248023734,0.151631565669738,0.766081928532104,-0.895839039236052,-0.0689920709411506,-0.767922899911763,0.768704607573947,0.869391617648013,0.664910001402942,-0.336247717484374,-0.457534422790192,-0.895009549834248,0.775611035603302,1.0063620965249,-0.271280061773833,0.282125250934932,-0.910956193570881,-0.415921178686371,0.435642584997547,0.876689693654946,0.129514420765011,0.666282818631051,0.795102745999727,-0.460822037223621,-0.937549800598157,0.445335395873196,-0.905832105444214,0.0989763228386596,-0.902234471372906,0.752238477109717,0.0357166617171616,0.436350085249304,-0.721709630214363,-0.50724848161483,-0.512104676137728,0.557462786713368,0.896059342049059,-0.0537463580743178,0.208339266736598,-0.132554215249186,-0.0486432138052327,-0.670313020094141,-0.411193382292129,0.205099677966546,0.620816459917153,0.861165508352934,0.17778348505164,0.740522384990716,-0.406895500953844,-0.120769583239558,-0.0550570559611024,0.0126774355839692,0.0438262727838925,0.984712088617087,0.738433393472515,-0.745940103924693,-0.528596417100271,-0.0545054132288685,-0.756076479427464,-0.593302355892199,-0.0453409224791595,0.52048710840131,0.389270329326676,-0.795436410819183,-0.241006222789187,-0.128385276994002,-0.517050553719977,0.194307560502785,0.80608996392768,0.0472319975127817,0.830237600803139,0.651442752933501,-0.480711342366708,0.879427662163816,-0.506927316579304,0.0590220336157331,-0.844491348674989,-0.538799570063856,-0.0709671783922199,0.756512474459733,0.913607625498184,-0.210416391434373,0.835530054556093,-0.89015765834897,-0.377636051601735,0.731607245069722,0.72006019377554,0.17198387571484,-0.522838266131869,0.125540511695827,0.920713772585035,0.191791072895806,0.870430016371571,0.124656496844758,-0.637110032775963,0.349183152238235,-0.0398565059976624,-0.776884548023664,0.809656676460266,0.574744456648956,0.10068797035556,0.487720284725568,0.835146303213647,0.341181521572058,0.0234768591830829,-0.722798432668997,-0.52138152745318,0.906543064278646,0.769586063057714,0.425750292495024,-0.511599949916803,-0.508903472561195,0.1969518634357,0.265663301353878,0.321147725707559,0.858208435488377,0.557995896391033,-0.389528711060838,-0.746393690136786,0.689651949596393,0.765460396355507,-0.852787751106212,-0.458943571221283,-0.853456677635539,-0.597656779097378,-0.0458328181162018,0.0519512272445917,-0.512997137572467,-0.603395950641991,0.494043991191921,0.119325517631214,-0.913425927829493,-0.813032222560604,-0.800712522991667,0.707347596195873,0.774142203591787,0.0360393980827119,0.719792945368578,0.00495096539689222,0.0979610791098789,0.00161861360724504,0.753289108353375,-0.567399083449613,-0.363124325533751,0.335593019842404,-0.215573004984313,0.0960794399051952,0.371824834638453,-0.0285872284723321,0.490381483033818,0.754420997641699,0.641252004043052,-1.02223239665676,-0.0900304842413687,0.0226236827883338,-0.56278784135699,-0.419246515323986,-0.667489991237631,-0.643163684271696,-0.154598179517603,-0.484150280543533,0.734030973028779,-0.497752417577441,-0.714269225525752,0.629552618791813,-0.697896570781922,-0.464128569787418,-0.132806848431584,0.776836390668519,0.5919899255739,0.20681054354035,0.207060438612668,0.237670907096386,0.58709271628149,0.762318891467083,0.797581580663134,-0.66901559706972,-0.501992225927247,-0.932943225205268,-0.323148277759167,0.484812911404572,-0.949639678768461,-0.254341418071526,0.50038243845855,-0.0446881920343836,-0.812009964538715,-0.821938042892105,0.335683390044339,-0.848700995071084,0.360739422813618,-0.662009862420453,0.600728463146945,-0.631128992343723,0.331290509459782,-0.190097343049708,-0.042249279845753,0.10883130758788,0.264334739075676,-0.464516663291248,-0.498472575942404,-0.518507519364839,-0.90675695172166,0.59943178136533,0.645862362343528,0.485955274853958,-0.0540030010000731,0.140457276632107,-0.270118874471693,0.56341863263905,0.725923309257956,0.239190367211518,0.56339623254457,-0.992967254734351,0.603990442223278,-0.755150019442456,0.095669703978323,0.159168962799038,0.626922579115162,0.22562017473565,0.0491172942886541,0.0636640920175962,0.993074354922645,-0.67025823386643,0.139013695897143,-0.142903960485051,-0.835271640414009,-0.398370974057435,0.743327920737388,-0.73779802478745,0.242886243893198,-0.0751348255053952,0.932298888685983,0.971067894181133,0.665153094993884,-0.00340042012116171,0.712606548101078,0.758014226260274,0.0140949223489811,0.0615860279625932,-0.670699965940887,0.315966091312254,-0.589687473894266,0.887600324914134,0.98548012965718,0.813456181287755,0.0128532116943429,-0.336363178067419,0.658743851860942,-0.823439010070034,-0.813389408850899,0.246322847709446,-0.724385017015626,0.961340371463418,-0.840575992836357,0.149210137482163,0.294694501372193,-0.0518900155069014,0.714670427573818,-0.236075139649541,-0.872501141958772,-0.626891774720394,-0.217420999153483,0.52179765603412,-0.614440351969614,-0.107599816040194,-0.603978454488433,-0.420303898808091,0.751396442749631,0.181765133293318,-0.577726311944164,-0.031655616026224,0.41517659428341,-0.457576119589338,0.487656654598308,0.066462576553654,-0.751005507320938,-0.737887757239624,0.0137667907655873,-0.921355478693302,-0.553251366855422,-0.302672219997524,-0.676773012336852,0.516850139397452,0.673418030628948,-0.788494425987961,-0.311479969841611,-0.972866585393724,0.239221084084883,-0.567165727645051,-0.742098595326213,0.721465374870541,-0.630541408291642,-0.807654025195332,-0.014129783892213,0.460853292236896,0.74022612021492,-0.215746026858357,0.10691168286869,-0.510803824550978,0.76417987568284,-0.917974865884433,0.204562933514604,-0.532657118391846,0.715599247970234,0.503237788976297,-0.33550077041875,0.122721436120533,-0.824241952756686,0.179726752141052,-0.274733544178171,-0.88326556355637,-0.170852047782857,-0.0137142585431416,-0.759628368263672,-0.672541232891481,0.650607265034721,0.550959397967681,-0.206280992855752,0.640799242222651,0.589586893573211,0.455012715536619,0.0886775807976831,-0.935636384479181,-0.148809759516345,0.580310477299377,-0.097186700778378,0.165851966564797,0.0303947669907392,0.231213314278248,0.375810851078853,-0.504486498950733,0.0657745515792465,-0.116055728922585,0.256913389105346,0.956071463780515,-0.578381821783091,0.419516629913331,-0.0765744859064973,0.481755497856881,0.34431463496696,-0.648525717757385,-0.0283686843059428,0.749714224799964,-0.0376850251307361,-0.104461110522902,0.335311702147946,0.215410543492175,0.974592695945332,-0.311045722748611,0.712046020527378,0.554808591439967,-0.621209576479561,-0.307553162132292,-0.799832843247033,0.968727255501154,-0.822088194139719,-0.252959683536502,0.62420111608376,-0.8400027985243,-0.429473466421371,0.424200644800886,0.213573881620037,0.974768836390017,0.458440913415132,0.437060088083067,0.33678296425322,0.192451533582534,-0.551611484827539,-0.638967494810088,-0.906135217939721,0.23745818364525,-0.0186287679219505,0.215628913693132,0.786056620122819,0.743288737475072,0.848498678354782,-0.198403652617053,-0.803828005999556,0.420595702835145,0.866554435505067,-0.64172146655548,0.177559000734912,0.906117830375076,0.273606481921531,0.762852730839788,-0.952938388196799,-0.832251105339975,0.478184008390858,0.641483171391377,-0.443518866135283,-0.67264726666059,-0.787720446340526,0.952859673228383,-0.922145303909205,0.765389747072464,0.915558189122898,-0.298249673284303,-0.461656477754971,0.915246304248274,0.763598620155375,-0.154804924427001,0.290978012340086,-0.868395991421475,-0.160549707733852,-0.113170459627333,-0.75822758309078,-0.207236510839636,0.149997378117538,0.130221368715628,-0.392339647569474,-0.521807156103658,-0.138742949103778,0.0681476322633258,0.167206248816486,0.252338407828799,0.430554398791021,-0.00449036449238437,-0.445547018841651,-0.272524382932249,-0.388807860606521,0.0285993619352306,-0.600506360875916,-0.850168964332281,0.578013435025443,0.0231401224172266,0.103828155450055,-0.230352963930575,0.998574073753305,0.433292570818475,-0.463351040194523,-1.02569879421339,0.321126973575268,-0.0678467794730098,0.832282468398512,-0.821845414493591,0.902039932694595,-0.821146457877547,0.0777861652288713,-0.416558220454479,-0.701261706744565,-0.898030565031301,-0.81859959591268,0.473477225319165,-0.885600347458487,-0.639760813745283,-0.358307796690507,-0.699008420456755,-0.933891972268072,-0.386968263880473,-0.740955423966029,0.823386872071094,0.58180186543323,-0.754532073681961,0.686335196750891,0.0375731985611195,-0.293504270562809,-0.079126036417175,-0.534728506600344,0.155528262239967,0.675568854948773,-0.775520648543019,0.548234609414052,0.457740229174646,-0.694618398371931,0.19724661161805,-0.825034992214393,-0.423094661013571,-0.358082159797928,-0.949026519267236,-0.245469121052593,-0.720099055526517,-0.547003046931969,0.821250586990368,0.495719150105858,0.0055312105587054,0.911424684126945,0.331390961537462,-0.675199273047425,-0.620195684709421,-0.622008317907109,-0.879615026566314,0.888690588555922,-0.805808491205896,0.893377883809915,-1.00985618870615,0.21239839781248,0.924996067879315,0.386218179383702,0.842858450130786,-0.00618013758669759,0.216040434776595,0.609354158732492,-0.00794336471716141,-0.94379477459191,-0.884229419138161,0.778151163300268,-0.35819203787375,-0.238560955690913,-0.753157426211136,0.515974309103485,-0.678409032472978,-0.290932552907603,-0.535056132894061,-0.0521323535232919,0.295740346778771,0.0560208293221273,0.789339561237167,-0.479567448382411,0.232821353858227,0.450616767470757,-0.585228172052377,-0.226348561598952,0.64297119255352,0.228303760324695,0.0214658085350694,0.0878922579704184,-0.0132727585136596,0.674760442555004,-0.0344387923588429,0.165832051632201,0.880005673953611,-0.35286366033591,-0.748486001648158,0.223591910485817,0.266977864027921,-0.293181696376068,-0.628601829767184,-0.648432845072928,0.519861509245534,0.411010143627762,0.156335479204909,-0.372128026310888,0.221411185937177,-0.191973870709954,0.313628070327332,0.206605914997534,0.496144558814392,-0.912309786857982,-0.096221383238718,0.923184762767804,-0.221671050622382,0.00111067346335338,-0.1290044699003,-0.119017434154186,0.849596729820717,-0.400944546405431,0.119230380083795,-0.858910464555811,0.845532905466905,-0.755881378525624,-0.247316412832954,0.841931960447994,0.914520425895319,0.426424637499327,-0.0298127064331056,-0.302638574793704,0.836310591835089,0.194347060361382,-0.43501200778584,0.190088320367758,0.119607488318819,-0.028227363040324,-0.076837377861559,0.0259225700114347,-0.060777421891741,0.128654213503041,0.354368970395635,-0.0726779038384815,-0.282482855302087,-0.660394483765674,0.867086754982663,-0.558723221611383,-0.472718274629604,-0.5212337285605,0.569538001739143,0.125597775594575,0.897149944585794,-0.235493801955691,-0.891001699399631,0.250760384946534,-0.0652194600473041,0.4672806346616,0.778433581211162,0.725738496712359,-0.337239421139109,-0.403846474152628,-0.546556247804593,-0.964075485373646,0.794157328772469,0.493801846665714,-0.445894324340367,0.385333723120262,-0.79085849312714,0.925652591525782,-0.417498499664916,-0.406197949769027,-0.00111762563576196,0.757873046708479,0.92859428480339,-0.547389956603226,1.00681301051379,0.351897952152642,-0.424184690244278,0.845177953633484,-0.939397532438331,-0.812510075624603,-0.663342216034038,0.0479366436535615,0.114294551954759,0.983013731078813,-0.193488535768303,-0.345686203320217,-0.687846159756446,-0.69045413511286,-0.300351137990547,0.436990424076749,-0.471543320422358,-0.691473673935925,0.479037434744461,0.778086867115381,0.981444191607338,0.0833194762596964,0.289746572874998,0.134745510647872,0.847708232098777,-0.856390693364659,-0.28794692041108,-0.711224826312419,-0.135162418724417,0.264537127660003,-0.964122589172155,-0.00833947148883397,-0.193584376702422,-0.109750185982885,-0.727613803397584,-0.435528076278255,-0.0755394067569927,-0.463390819375008,-0.0407601776502624,-0.576619276998498,0.32623314314704,0.288777610672567,0.922921722063976,-0.462853706597902,-0.838209458571182,-0.411604912820036,0.880797515732023,0.106072296620245,0.125257037822422,0.517970784361236,0.196867875498433,0.408725837659037,-0.564276422941222,-0.089752630284988,-0.431413427591288,0.850856232529715,0.537382152299271,1.00886104806346,-0.876895073181496,0.110675789458686,0.289265685137933,0.149658785322372,-0.645597074277762,-0.00882127156181744,0.954237307497356,-0.986471853803245,-0.0477664054247267,0.166129206224413,-0.0210267194836424,0.782492466462404,-0.545074370646271,-0.356294672854823,-0.892016136942191,0.0994075740535875,0.671866942362755,0.522857043529455,-0.0486513568386292,-0.0550667361275226,-0.446498541402373,0.135470747766115,0.597808105271549,0.0257534019077286,0.990992487986158,0.358458558354891,-0.140745357539757,0.115255782727286,-0.514898488827105,-0.342809852706207,0.674267868692996,0.539863403665721,0.874789219651366,0.791932628584447,0.832105445605667,0.713491704952906,0.957515059981052,-0.0532985781693979,0.878969145321648,0.989968007635132,-0.665180636526529,0.835269016807685,-0.233484427860957,0.830523582690112,-0.930460664558521,0.506946874730153,-0.649602440086394,-0.622415925345131,-0.715418902479812,0.583721204930813,-0.789686356669401,0.578942320863308,-0.564842299980833,-0.245552458199212,-0.767145622233114,-0.989755705680578,0.836790481401168,-0.231710607444913,-0.496243586369134,-0.0477689412733833,-0.342236702702986,-0.386485272348644,-0.629424874797777,-0.0357086713487255,-0.00866247785000368,-0.409702857188232,0.618434428701692,0.447331183818381,-0.655623749317493,-0.382592641479898,0.376292952254469,-0.295536677134427,-0.72807972776226,-0.677842999730493,0.403196109386467,0.925523715575736,0.698224324251162,-0.288607436874254,0.20809406196256,0.72622674485613,0.641903280272856,0.710985947939635,-0.0468042543060722,0.386500730060446,-0.631610619269462,-0.679923754797779,0.925062441852918,-0.790595322414605,0.950907753988766,-0.50677260132986,0.75648023362417,-0.362170831732782,-0.41143908175911,-0.382824538017961,0.382359336420363,0.331519973616854,0.435942226890931,-0.790719312220439,0.400958041648387,-0.790666164903485,0.686694581890319,0.294873118895234,0.0365108380055001,0.355130698494028,0.839137528529005,0.611114403182303,0.682313571643386,-0.282409676469822,-0.374670403765371,-0.0348331649604518,0.0134323331253471,0.0848557469257403,-0.469901042516033,-0.519969175416802,0.426943495309003,0.563989312365811,0.665913381968221,0.355709751487015,-0.874053010454575,-0.427364288385871,0.296927724698407,0.101106034247761,0.409537995975628,0.814987570086014,-0.192650729829996,0.741735129948947,-0.845215488201598,0.411945310186185,-0.398501658769805,0.467603957987233,-0.859046030986903,0.326922385691926,0.1222123672316,0.463896006489299,-0.280198450439329,0.0599029372421444,0.890389109482068,-0.750895129618874,-0.224728173634496,-0.698915233563833,0.16633302442416,0.0865051939842439,-0.307880528829131,-0.415900963132273,0.117957146906045,0.622301283659419,-0.2890693234208,0.377339214181373,0.817435351452591,-0.77249319175461,-0.825045730400399,0.25002882990461,-0.755687419553313,0.384210639568821,-0.802777699182774,-0.0166600302381622,-0.118912008142923,0.801617429419437,0.02605886833795,0.318178428435029,-0.582558217978921,0.0628463235574315,0.0360100115950277,0.108595978062652,-0.752967788122842,0.762052640453639,-0.736780215662336,-0.663006637154175,-0.231744118842639,0.0196512549381328,0.680833559565219,0.897586053262825,0.521008639401665,0.125151340100592,0.0833536878430311,-0.0558376653490928,-0.228258832424078,-0.837202424178913,0.163699461414375,0.18571534606722,-0.582069165050883,0.221362055565248,-0.2725777820517,-0.327315920986109,-0.212946314243052,0.254952786046845,-0.117073489369733,-0.568772324629852,-0.493939313817463,0.584664087446491,-0.798050558838696,-0.878525891502013,-0.295552271705038,-0.812715216369202,0.0220892665320114,0.662709194959355,-0.503979401072994,0.114416029791108,-0.829441092018699,-0.919317854953361,0.886300147779085,-0.0899860385132857,0.893738319465787,0.620601049528647,-0.0743698519861688,0.668839075488432,-0.55326857350554,0.881005720793833,-0.472209452047186,0.826337189381477,-0.32835874842826,0.508242657524483,-0.307481268237804,-0.564945305994915,-0.995011323626595,0.999371245494589,-0.168072212187129,0.302151734615045,0.464567305358994,0.482077520899592,-0.450925047325804,-0.704607436765311,-0.497723155420098,0.0974919982049662,0.902330994314857,-0.185767700592025,-0.822069499402295,-0.444621482052643,-0.329268963438002,0.127669814362783,0.23391143646296,0.786501720500472,-0.653557402788768,0.606205778229236,-0.850069141045757,-0.929445322507822,0.31902532938597,-0.391451931766224,0.298221518832372,-0.117420364580646,0.147860064270793,-0.322533159840422,-0.470352504686427,0.789361372662109,0.217142716306427,-0.167262098672845,0.921733740794197,-0.423831075561976,0.785084834125677,-0.23858758461212,0.847499201105967,0.172328676138189,-0.298430894762142,-0.407245421272016,-0.320016654843736,0.269915428636537,-0.713808248424402,0.559227579563643,-0.43834269342977,-0.408104512134452,-0.210034633974783,-0.365635322344245,-0.532057905016021,-0.527152683554022,-0.245375845754303,-0.847683322585375,0.601132552235034,-0.544599720244386,-0.614516115886084,-0.47985929575248,-0.841625038199481,0.504418192446283,-0.557041630825844,0.243304992433317,-0.832690324867597,0.579752519531824,-0.957689190465656,-0.706434053210005,0.216466697676185,-0.581066558466741,0.335328771740467,-0.453447518000099,-0.213057324363401,0.158724180998083,-0.484163791829776,0.0705109374133111,-0.470394334113565,-0.175292549758747,-0.47276637346009,-0.456222556052895,0.202163136326601,0.465824671262017,-0.163172308296244,0.767290800527633,0.459383151587409,-0.321783535289179,0.553802320064908,-0.50836336545977,0.465791172980996,0.564479962755215,-0.353489784809456,0.112939434739641,-0.0605900542790015,-0.0688001130504933,-0.864260939154397,-0.417679983142069,-0.726136461983386,0.0900391175768936,0.189190074775553,-0.102557060091355,0.676248881901628,-0.530266991275208,-0.6047168776078,-0.761632720256346,0.695222277040476,-0.832558837784862,0.72229485699604,-0.887068263103885,1.06011247538446,-0.0287036779945392,-0.219895109803487,-0.175595502954769,-0.441897491844431,-0.178822401074828,0.861352543018535,0.852804804945945,-0.867612492140366,-0.188616427109813,0.0655942843226751,-0.452003663722783,-0.47637541733515,-0.281852210956087,0.596620965776516,-0.659630928025768,-0.942771353921784,-0.00162348232059626,-0.476194412383636,-0.119187185772562,0.68184276037083,-0.988321153470871,0.706496918799312,-0.283132126184427,0.0573067603625381,0.642613597884666,0.877656072831176,-0.674758215783145,0.923026850439762,0.657684116893323,0.14210283943882,-0.340021923091717,0.493889989606875,0.722886603044402,-0.0856232274707234,-0.0486769851164837,-0.928499675594231,0.734385569632277,-0.0518595745047244,0.00507258456607915,0.516140535072582,0.721309857853312,-0.694970854258213,0.117529461574195,0.931434221545575,0.417145148202565,0.430133317986931,0.359541039342359,0.183360962304988,-0.121648876920455,-0.709971773506746,-0.291672437813089,-0.568424634986891,-0.613484081469696,0.460544575022204,-0.627193004277878,-0.150234367088825,0.668448024562943,0.709978661777944,0.816591488643605,0.515247576402186,-0.842735605716238,0.834831590881538,0.438951553309512,0.259715771085677,0.0848935692283478,0.923944048122133,-0.746247443662042,0.798856053762392,-0.932678564650922,-0.116168846938039,-0.922918816180637,0.393738706286043,0.293570226560904,0.0900450567948507,0.369355249457012,-0.533382679610103,-0.695256529990224,-0.653933218094059,0.0760122958671867,-0.842011037530056,0.865393363575021,-0.711735811103316,-0.00819102939429871,0.659465887917598,-0.376439288297559,-0.92934077311211,-0.503019410610503,-0.210256624706616,0.831957902464592,0.694464137990117,0.563134650812309,-0.758392711083444,-0.0771639412155596,-0.362285703467632,0.210903754623599,0.723376261172252,0.107196322087077,0.214121120044768,0.362325484674511,-0.495509066949841,0.0389350470443076,-0.712249371754823,0.197615056904395,0.0295781606866331,-0.848275176510138,-0.853223255265525,-0.6006434402744,-0.613207379271675,-0.129625924124593,0.00911003832289548,-0.971967368988669,0.306236648051023,-0.7695335329456,0.946704272181501,0.918149144455165,-0.16153859423662,-0.576529584356217,0.00381082533716996,0.851461945072706,-0.667157542185453,-0.869481232965151,-0.593945938127964,-0.476266379589623,-0.918233525900141,0.770435092579741,-0.309555691181067,0.264190128669807,0.84973288105197,-0.97008231312171,-0.243771138676286,0.801311934055448,0.767167827976283,0.670359079304111,-0.0851232173992201,-0.477449930878667,0.3172627433064,-0.635757258063095,-0.575021490698289,-0.722966920918275,0.999567857122521,0.635669173266674,0.347794649750108,0.160744037855797,0.187062898659934,-0.12900492516865,0.118019952341858,-0.358610342637938,-0.551838239612392,0.702096125164457,0.79825942513277,-0.233984626212045,-0.258665390942461,0.0344215350393583,-0.573793898438742,0.876418400936509,-0.523645117112302,0.204455838222281,0.604782552871291,-0.189495583857436,-0.565696965585334,-0.389894510944144,-0.268261785684166,0.562985068689446,-0.403733619293182,0.771629063094894,-0.613066864192957,0.150702093856726,-0.79798158703373,0.0500305021546578,0.903656427001253,-0.5813040766344,0.649031671301259,0.110600297527499,-0.0606623843769094,-0.092340576967572,0.637195024202259,-0.807961918831936,0.468611624623255,-0.661236597699778,-0.622600948170913,-0.427454900686337,-0.56696888490996,-1.0160975278818,0.327684640855344,-0.0171212455869478,-0.167389870926101,-0.289184692015648,0.0125556774354165,-0.908673608225835,0.115919092601408,0.140638207483387,-0.0543996764032146,-0.08621659656176,-0.102801935850428,-0.605915721508317,-0.0525642700488679,-0.244115857339971,0.898957621197058,-0.544501241034174,-0.423413486484477,-0.44027327042205,-0.461552375404676,0.382933143452042,-0.523404865337708,0.221321857661851,0.38024738229951,-0.152832053091817,-0.923889948058689,-0.00231982432015795,-0.51483991860171,0.219610195223002,-0.358960386414968,-0.543574975038481,-0.821057597508009,-0.864475712922631,-0.491715473430053,0.220059466169523,-0.472322779502372,0.70523938494501,0.761168576012868,-0.0725927971888242,0.236338133793827,0.27299674598131,-0.435979848598371,0.0129479125424412,0.303682962334512,-0.983377608092392,0.0493155768929818,0.613170199805389,-0.357141446348177,-0.844605231729498,0.390912425658788,0.53699071845397,-0.892651145959122,0.884356673793628,0.230906778416592,-0.047871567610076,-0.945227451442624,0.609680562875135,0.880204736625235,-0.689171525802016,0.864320271238594,-0.414934525939895,-0.521758312920787,-0.471403374110448,-0.546080707632474,0.624165845974056,0.0170966453872602,0.316473883402822,-0.708774293957771,0.669233823852115,-0.159493422124636,-0.887969307899708,-0.921305292213701,0.798340027805284,-0.707721455590776,0.614094352519767,-0.521588838100441,-0.0695893349686651,0.57639627926054,0.794259559528092,0.512589125338653,0.764818017304152,-0.554982390638288,-0.217528178667751,-0.75695914850984,-0.0784586293757796,-0.219671829233983,0.563638232028488,-0.791668534370803,-0.607681618158726,0.674751653132405,-0.977105071473276,0.745351943488358,0.173086508129125,-0.791057710566989,0.453797021256787,0.431983593120673,-0.861106395816504,0.05942551950122,-0.624725000087637,-0.601853503450211,0.380777027053966,-0.360288491802992,0.72995046906907,0.147767309254544,-0.602450009457,0.263896887254702,-0.200314120102631,-0.971767398480162,-0.292444921991104,-0.248263680780185,0.441823109497734,-0.904544019901079,0.837559274392636,0.847829757698892,0.112584266386883,-0.144245370885742,0.834136894500147,0.975550918864049,-0.788943090855482,0.404557523605233,-0.682606797418577,-0.671634621704709,0.276118615336484,-0.542823504874836,0.0632539972804957,-0.299649318739,0.0107778507784855,-0.0363623293446525,0.891522823818444,-0.859227147880725,0.757244496953058,0.109903256397934,-0.644101775173427,0.726944598189886,0.355403682703766,0.610188825458177,0.542578087778605,-0.149615184145537,-0.897632114917142,0.262284632128694,-0.866719030936263,0.150620120802156,-0.693657468877325,0.422058045903402,-0.2479079955561,-0.566515603303636,0.885424819473031,-0.829697817323444,-0.782815181586379,0.729358625202316,0.516239009466146,-0.811283104054998,0.197525809089096,0.400176652140805,-0.0395326163124268,0.817383540389256,-0.814323619381383,-0.391862734850893,0.196000470686472,0.946582257600577,0.507387557729764,0.292342286430688,-0.549785996563448,-0.169646673396588,0.139413559647917,-0.0487914979875018,-0.325363052866109,0.566046017880467,0.65805978336564,0.774685651978156,-0.00521726555954288,0.39921580808119,-0.530048389268248,-0.908212028035926,-0.498285646899838,-0.177295865449958,-0.465622507016888,-0.735317279900795,-0.00310388191755568,0.564410314718976,0.928417734530006,-0.266686477867393,-0.704414510735005,0.542628662857885,-0.798031082391317,0.199470103791695,0.207314280054547,-0.52155584800057,-0.376139988493649,0.823842575408451,-0.0168977710218725,0.691166320546883,0.135601531929418,-0.371235652925216,-0.88909518671031,-0.719632051182968,0.441040129080025,0.506721008597289,0.272860825187387,0.161952837535026,0.450434246787496,0.440825365673196,-0.478614544026126,0.799146465429946,0.571890533163591,0.895544341110987,0.603485067950948,-0.0143821174780148,0.329114117413228,0.431734898900455,0.248809734126653,-0.669374983996682,-0.431970113676114,-0.195864650922712,0.536414845020853,0.175034530497323,-0.923851132035166,-0.896679046202771,-0.732469088813987,0.761344380415666,-0.60096750524256,0.756973073164539,0.568288878221309,0.406058516371891,-0.82270806643128,-0.146003609175851,0.512840297303629,0.0750160874920882,0.828158682941278,-0.950753470266873,-0.240014571280257,-0.762766580858292,0.41977105740224,0.736530552028393,0.94644465657095,-0.423372709931489,-0.965477904488955,-0.959240422755909,-0.887572857556894,-0.577546918932312,-0.866596115909672,0.841978661246398,0.456712537707722,-0.168520406717085,-0.000677664057858918,0.44457183866208,-0.989501510261539,-0.972678212881142,0.497597609358153,-0.243507781330844,-0.742077496059757,-0.522462503904142,0.192558981555003,0.602797593792179,0.188622842679112,-0.265901805091487,0.156149000276526,-0.914912463452638,0.0358910946953408,-0.990580365857234,-0.299259904508776,-0.423454343887015,0.669146264901963,-0.639121451664501,0.609256329408627,0.480137073915534,0.449680086592602,0.92884731701835,0.54520866385798,0.240729934821732,0.0140547905086156,-0.366191379464429,-0.866310834138535,-0.713712471008342,-0.0786900234276584,-0.698769060456404,-0.358183164742319,-0.689957383749282,0.605623843179184,0.716191312698344,-0.306983372000308,-0.737643601839043,-0.132570436465769,0.825941826471281,-0.0396273740586223,-0.659201152733343,-0.0854570105543466,0.8386221698458,0.081962498938029,0.710390554094397,-0.508471620739108,-0.886804731213421,0.239788395098328,-0.384832504201385,-0.526017137600077,-0.270438680384011,0.322893008511715,-0.902630820655872,-0.0204545542687415,-0.934395788112605,-0.916160048141289,0.0153204409175032,0.350401712351072,0.0270155020345151,0.468802958974066,0.868366661458821,0.910230549999963,0.293408395325283,0.82775626958226,-0.0457119048892276,0.0965922527732585,-0.406996589691168,0.730534674081461,0.00523367323212757,-0.175989318590942,0.27013144806409,-0.868233931526123,0.000223145159158613,0.719268092498792,0.651730912235052,0.643707486127387,0.441792189752485,-0.589783497967477,0.669681177483775,0.682237337701376,-0.58410827350345,0.366913016584232,0.830079625523991,-0.271507931077383,-0.826439090186004,-0.0741175496154242,0.391124677404233,0.842231342775087,-0.558359732288654,-0.456458828813745,-0.455649186185989,-0.602018378127008,-0.180463874577285,-0.822971784206147,-0.73419583657944,0.754090577602092,-0.273781030235061,0.773759780413206,-0.341089919102187,0.576650216019483,0.864849253375687,-0.878413478050978,0.439475003612493,0.98146207927553,-0.343535617051702,-0.164343602029027
