0.784208692553159,-0.0702547268679595,-0.869168228046743,-0.474146037953409,-0.0788343887340905,-0.262432441397343,-0.396675618114871,0.128682423664836,-0.835358202016728,-0.314722185806042,1.01959930614071,-0.296576753571952,-0.0435996134554967,0.0567121649891181,0.726049122103574,-0.0372931588891428,0.917098678701062,0.882578160206534,0.369262658320988,-0.596148223205741,-0.965967486358593,0.828718742145059,-0.0322729518576659,-0.561064308310759,-0.551334318367758,0.594111478119039,-0.158862694072495,0.55214816050878,-0.524313614150482,0.622565597985158,-0.0917148436551176,-0.750805505130212,0.658553852206616,0.153835977414421,0.754158483573316,-0.687226314085762,0.834729195739316,0.296693895988281,-0.808462157504459,-0.650186703265708,-0.125093659321026,0.0678832364519882,0.608827272112487,-0.499019133892806,0.0167317186319588,-0.556328155819649,0.634302592478649,0.737260359468934,0.166790529637783,0.94670217009438,-0.200540944833945,0.750069047646395,-0.968750201252462,-0.397967882555056,-0.289487862204424,-0.809825910316794,-0.710105088285897,-0.751382992787445,0.849837285528302,0.524609860025497,0.677662984890681,0.446443356005856,0.425726974916377,0.901232141878557
