0.926723638332712,0.695770696481918,0.732776211410339,-0.419698870811331,0.0922719141997602,0.0434813803652822,-0.535138365747072,-0.262763012530783,0.287729941552966,-0.442684307116277,0.548678326053525,-0.712433123262607,0.158722441804841,0.870051947058233,-0.869893701009888,0.101159703644755,0.72222298416979,-0.514027943108647,-0.458606998716158,0.344438583229018,-0.675051734368839,-0.331681903580848,-0.538845918943318,0.540885750468155,-0.138917098202526,-0.244307504347309,0.286457867697996,0.437288139194783,0.819874299025099,-0.394441539258341,-0.247181175470785,0.792428748215347,0.425816598878955,0.860897934473937,-0.304364454641806,0.217786096673844,-0.0538902440183813,-0.914823818310921,-0.597859440413696,-0.437276156066361,-0.62323656611117,0.0876624938292856,-0.0627370347318078,-0.292807255342886,-0.59273788560461,-0.247365824738255,-0.893086288048957,-0.997832347062292,-0.583427585580193,0.381765280293008,-0.156075661098739,0.952889729065206,0.994865592787422,-0.85778294851267,-0.00139820887799723,0.942523401238869,0.110048783037532,-0.311190261794835,-0.30660723298237,-0.121319848498677,-0.214676055135686,0.497259775202368,-0.423323978349704,0.724765851282108
