-0.501192264025186,0.249562759746894,-0.162849970965496,0.982722641538761,0.268257017477697,-0.636141535759454,-0.143338751496458,0.402909588010415,-0.788723537603901,-0.328099659215679,-0.218942041944751,0.669534072180795,0.58480785180034,0.158477996339582,0.532911634610757,0.245840471277364,-0.238998778428604,-0.733219194205588,0.630256650931417,-0.276045801903613,-0.566464223511988,0.183820104985549,-0.577647642614462,1.02983658347807,0.844235610214647,-0.10150214435734,-0.750631874493832,0.597949700350197,0.0650364247632135,0.531364974465968,-0.80904091939437,0.310707617687039,-0.164752516228648,0.809158533561742,0.651138639313778,-0.707054607200274,-0.486215423147938,0.594604854733866,-0.087955424000741,0.310497091405923,0.751753277401864,-0.380840008459082,0.678636393634414,0.86964798865037,0.620949689977761,-0.768085750477672,0.108404595791238,-0.417597574229581,0.875171508518262,0.424696011691661,0.39851727714725,0.888372215852563,0.113476844731021,-0.70037235601236,0.192096048084532,0.735103428534772,0.655511884574793,0.174855284850255,0.575111486080222,0.0371233952591313,-0.667744466687964,0.420467257152787,0.474148553551313,-0.311321748475911,-0.100665381321653,0.697206237731895,-0.255019114424889,0.923783495230158,-0.663789209996834,-0.00139207527042033,0.606664485573765,-0.444503459024578,-0.860426547610167,0.685579679959819,0.289464819506959,0.926880972901846,-0.587791447378806,0.125856874305875,-0.861956867422754,0.663793322162167,0.360332454518235,-0.28418529983296,-0.676009756600568,0.636479883720237,-0.987623376806406,-0.00820620631329264,-0.561824496243715,-0.570960762868978,-0.865280624367208,-1.01229513764087,0.481386978754046,0.279210986975097,0.0691820103113704,0.670452057672723,-0.528814686641148,0.595302314931649,0.461869099281753,-0.997168828074959,0.811517458263775,-0.200982649029484,-0.899438879662129,-0.16378391154999,-0.279846991076764,0.241162882993178,0.141375509749069,0.812132059405011,0.684270640839339,-0.566564268785297,-0.378967193917577,-0.734085629317133,-0.288909373478178,-0.850642628573492,0.503664989345394,0.988344440944489,0.340047075138683,-0.362662971169017,-0.328650299076231,0.675498638966977,-0.603836696874734,-0.466492316627079,-0.227284232447608,0.260610308507946,-0.297720149095187,-0.851847010979028,0.609663453408848,-0.994966562200334,-0.629931714081511,0.131592386033391,-0.586334184170041,1.05224437452637,0.223086410348502,-0.893951287511725,0.751251250162759,-0.302389139430156,0.0214535254960813,0.0408416330814874,0.828722902186198,0.440790919332855,0.231639268413671,-0.962464891407355,-0.000199882963124921,0.0306261634124368,0.549999004991834,-0.618258032838075,-0.110439092298136,0.556363901930106,-0.896810053364558,-0.355114363299681,-0.0393288945087272,0.397305088771542,-0.858409972902493,0.881493308384501,-0.778705800894652,-0.286192961955905,-0.248180440362295,-0.47054557104527,0.269244243533472,0.465483395346844,-0.551962786124196,-0.196808003164081,0.841770448965764,-0.871114152984271,0.742590147756032,-0.89576426408925,0.618386893480098,-0.0286959877613255,-0.990959943589462,0.737143061807056,-0.78161450367333,-0.418086416304682,0.700340458430664,-0.776975072567936,0.349858828603596,-0.46093035554035,-0.645381120221563,0.395994835285269,-0.201310591230218,-0.202151853111184,-0.0688430449964219,-0.0275335072844316,0.0940550056953748,0.0467935380509606,-0.744943704406857,0.524943594019478,-0.907568122615383,-0.554276934452738,-0.47133176244626,0.729217491184388,-0.0148670337647938,-0.168568417277333,0.752670077754023,0.0276803610295222,0.00197802077806419,-0.0452612142047431,0.285067965059028,-0.541923507121689,0.345013345126455,-0.13030326842438,0.0436806277179797,0.0825284595930737,0.126145797058241,0.0897391980314743,0.620065205876073,-0.17725670587941,0.244216922038569,-0.283976066313932,-0.0184091766938254,0.714071551469834,-0.854763719352863,0.358330486591047,-0.549018902333924,-0.799324959946646,-0.684022544517852,0.169131209532672,0.473371935973349,0.265576227952594,-0.705378779071661,-0.36917008584188,0.239244742920397,0.911677273411507,0.389284448515261,-0.243235814987961,-0.370757716845696,-0.694835678560939,0.418783752318985,-0.943307755023432,-0.16007897946184,0.369701314972565,0.710117889473004,-0.131527007334144,-0.507895248047761,0.818217376103742,-0.534264139756031,0.233317312875693,-0.110720938904068,0.628959174299587,0.565847095610553,0.060012889841887,0.62807976022926,0.147288192859482,0.917862661569901,0.68624059307365,-0.250630733182708,0.742384665647955,-0.535342862288359,-0.993289691907056,0.408131015930275,-0.725275401788223,0.59168006681382,0.286792533351647,0.272462463064373,-0.0762024372086427,0.922941146073038,-0.08126852265157,0.487967083877651,-0.0472479163195273,-0.173029062844596,-0.556035511881578,-0.0475889630409812,0.235836752352306,0.147291886280905,0.642215267340175,0.607406237372107,-0.332432653627472,0.0480847975941999,0.475950016405768,-0.748655323507187,0.174516844814356,-0.0813147337620107,-0.390946047854766,0.859275393638195,-0.946403871052081,0.118577738801008,0.706400915935153,-0.706089795742312,-0.48410387821361,-0.161053127668829,-0.896958304054848,-0.420541842078779,0.85980942992521,-0.788966504227115,0.138221897907871,0.0493206811139745,0.0971985213739195,0.7725760527229,-0.15740237714601,0.836552261835135,-0.165614111338915,0.464805136958724,0.966622065928138,-0.112912101636693,0.195136665096904,-0.849352703128494,0.989567732037406,0.820654870499205,-0.768627148585297,0.207096911525529,0.898545533028524,0.868566499696176,0.405485725548154,-0.116647430392072,0.239570614711681,-0.85319686415299,0.0965061336660727,0.375233548133992,-0.288804748258213,-0.0867497000625338,-0.199192352905156,-0.962797215891958,0.314675791658419,-0.257934501253383,0.451550507919121,-0.61647055205406,-0.800833443366224,-0.862529980396795,-0.022751992613617,-0.698663506218575,-0.217678880110068,0.627189851322242,-0.915282167161807,-0.587861847669628,-0.459505011771298,-0.555512108052683,0.136214964294479,0.619639887268537,0.164629384586798,-0.525580030433003,-0.470757859331442,0.0738384142540205,0.0995672714843282,-0.657672521194408,-0.895495288085407,0.0557393478417226,0.390528734277711,-0.781847480170064,0.905852003993318,-0.413096035436964,0.307813403561608,-0.71254550244981,0.74304851952119,0.418812257337554,0.474367180027459,-0.144058238110855,-0.618261712006832,-0.362931429027752,0.528345315582502,-0.635679196036093,-0.230782540365861,0.889669365540978,0.977896054404577,-0.239632760603287,-0.984379256574289,-0.548742789034245,0.218392339098433,-0.387971242977603,0.622546610650785,-0.74281515090079,0.436413341990726,0.412224737179903,0.289803225689234,0.356055698933826,0.76529661881155,-0.910365403986678,-1.08989484183209,-0.907586192110845,-0.131540388899061,0.56326979047509,0.939351615433755,-0.127993374800204,-0.861907453791759,0.884108675475355,0.778979757477408,0.0277597711207407,-0.0629208499456744,0.328053729248381,0.789830691380262,-0.0571033436730153,0.394053987238764,-0.695240337011761,0.606080414055957,0.0766351346531336,-0.757104658610029,0.155213424188101,0.339208958542623,-0.0912969240326937,-0.356236051523943,0.110386825852949,0.121779797830698,0.614302262389341,-0.581664728241177,-0.252031435972854,0.546106171385773,-0.097763100911585,-0.451796570069077,0.60409292516623,0.757240033047257,-1.00685206563734,-0.173482447293299,-0.826303625437361,0.95095578221371,-0.375754873485656,0.321398292293866,0.0131721940683857,0.932619968976455,-0.532180033559215,0.522766431628491,0.200722127671513,-0.832199504149262,-0.934215217074576,-0.580746537150156,-0.168557686383888,0.988792370758084,0.770961695369921,0.127976149337605,0.10095585696506,-0.157517332315821,-0.6527989832541,0.528318497375405,0.46506842855892,-0.56213159589028,0.042727386915944,-0.564270409132822,0.927847906339515,-0.657439879324069,-0.339179832036,-0.630145930317141,0.185650788332623,0.0314002818080358,-0.465214608021956,-0.589573831621797,0.33793599056059,-0.353765005760464,-0.886247240865467,-0.910764597594967,0.898824214945959,-0.199145214441739,-0.1209379431804,-1.00430755758664,-0.977366441981354,-0.429132534049063,1.13682012958733,-0.188692375060341,-0.582192530580575,0.144988140803933,0.628474532289967,-0.795129786048383,0.774220717486032,-0.0288444399749887,0.476151854553679,-0.228130199082038,-0.0437036968481226,0.888330570533479,-0.612849599148189,0.274014349576513,0.0709043155027124,-0.374676141325516,0.592682906081131,-0.131616438762698,-0.446037168276049,1.01722922686947,0.453234540388668,-0.473898416211321,0.613807053127071,0.284009685582718,0.651238198353274,0.549249948162517,0.390385668967776,-0.335742009659834,-0.640538569158628,-0.698511026368526,0.889500235565634,-0.47102258267696,0.651298665455633,-0.663865261095692,0.835637543186132,-0.915127915852985,0.39687055550038,-0.497998583976676,-0.533136749857467,0.826549553051636,-0.371326714659607,-0.487443770380594,0.0440105307846904,0.162376346150714,-0.874165187072732,-0.828134970073441,0.984413224063301,0.163705384543183,0.639536997297304,-0.286225980898478,0.360231488841189,0.189007000047815,0.688982953788232,0.98945082162769,0.027318423000399,0.354873659620373,0.577818771586165,0.268089090962293,0.349868308661943,-0.285334368379871,-0.724378894350266,0.28428622952377,0.655872784587232,-0.182088337311375,-0.784992315177386,-0.747596382291132,-0.913222237170887,-0.0618122314297547,0.646736400208665,-0.389796099856712,0.397741874605997,0.314560869152094,0.453207019552161,-0.570200019696245,-0.433082383788661,0.243215852676776,-0.0564857325942341,-0.0281559635510139,-0.506817247672395,0.845515042614071,0.62100455348072,-0.323947716615785,0.170749324428998,0.565755635058379,-0.607891000540976,0.135484825007428,-0.316471807291101,-0.817096441337177,0.00208992590757028,0.359465996009061,0.0664459879335606,0.0496690655854874,-0.258047594302977,-0.0371110900336029,0.375877132809689,0.647242811062456,-0.708625420873409,0.185202466791797,-0.468601590517696,0.271852932710109,0.758404824959424,-0.0613174191118325,-0.157729207901105,0.874830738593617,-1.1054956832826,0.329246325484454,0.242457364810123,-0.406123241030113,-0.367473247512096,-0.616473584185348,0.219866219784496,0.729111929120156,0.744694284416119,-0.374536162038777,-0.561112998626951,-0.321873229326522,-0.0876205575204491,0.017683812792649,0.64455160113427,-0.0169643366678001,0.1257503607998,-0.595495816776423,0.127189974119593,0.118681571934468,-0.411543597059192,-0.493704737966559,0.520074513182474,-0.938096410429658,-0.706186150659504,-0.939976734701748,0.181525294971256,-0.516753704214237,0.275008012486789,-0.476722012673455,-0.512632374483142,-0.876446991792852,0.799712694799835,-0.963694362452813,-0.631895916342358,0.0182261997127473,-0.548016858472055,-0.650322553651192,0.173711947544085,-1.27153959256626,0.45797430709016,-0.039339035077761,-0.620748192319894,0.880743911042862,0.209016773993409,-0.545236589112191,-0.934836014919637,-0.308671110692867,0.668158944842701,-0.221239975714365,0.659330522960714,0.887644045644758,0.122706847331814,0.176356980453114,0.0593420114437214,0.884425693546016,0.532817589581083,0.440237036459493,0.0860123173791933,-0.687887479721367,0.312519661090408,-0.731531335786599,-0.934309184109859,0.38277914649283,0.0244818693299123,0.864118352916201,-0.182518857445083,0.573127760762597,-0.219893264083695,-0.118531043299346,0.845254512965716,-0.459150311974975,-0.806426963468369,0.932041941239297,0.588207072517998,0.771904497759572,0.397838585564577,-0.806345665373801,-0.121153409969054,-0.946109922484604,0.0314270097950097,0.299973777335181,-0.623158043133029,0.835856839923833,-0.566749286507695,0.235233598279267,0.363380015370707,0.762198265195296,0.272138832604592,0.131182241459623,-0.900518110924532,0.246638688210217,-0.207053242567809,0.0139577027486727,-0.451877221320134,0.534758227344273,0.829746954577458,0.490498001638886,0.72076288107067,-0.671313477098217,0.63126576203208,-0.76522429787968,-0.487300829236316,-0.3206724108824,-0.969704375570616,-0.207555870306309,-0.8102907899923,-0.280177911320123,0.154136255488555,-0.0162559519166953,-0.197102756234382,-0.710269689267423,0.411868513241173,0.694416738856733,-0.78785732500088,0.870113910226829,-0.236610132280047,1.12909973457776,0.229376279545142,0.526615307745207,0.379546892345939,0.45247052325455,-0.968114443582947,-0.720628228918209,-0.152707170516803,0.438945952226457,-0.481655970128019,-0.339896479438506,0.808340444562643,-0.0443293083731753,-0.472203172405817,0.759104500111736,0.324191224605045,-0.106239943826479,0.897667933586537,0.594462409342217,0.812731769206837,-0.401403708738151,-0.00850065288536531,-0.577687098920307,0.202343064012109,-0.596968507754022,-0.380022069258617,-0.760141232216813,-0.595927853680611,-0.780384085610167,-0.399052261102186,0.722184622176381,0.358778934232297,0.447553281193988,-0.748080550863769,0.433418794772546,0.0798887021975971,0.737467058006359,0.347777708680088,0.000165760046947062,0.578814062117887,-0.435310611478274,0.511772353060466,-0.0734095835024521,0.530171345765772,-0.598574760983928,-0.295740361562142,0.445608018536713,-0.335072399574896,-0.754442447408797,-0.88214871928933,-0.560968715725299,0.332901126134847,0.484722903785937,0.211768279910549,0.49612957255723,0.375501242554323,-0.320452224066332,0.582232462292359,-0.517689310434231,0.161339910474402,-0.177687697174803,-0.00833718882121136,0.884572942147473,-0.0714631920429853,-0.605287482312301,-0.165006131737323,0.9380246702466,0.743721219923047,-0.592574420894896,0.449431112901285,0.287252398417191,0.780084680048485,0.782888920777771,-0.678236744908526,0.467763158684608,-0.445179967200274,0.0470166927359871,-0.0627705141119273,0.93125751426505,0.138257666312994,0.742717065794365,0.345365372237637,-0.235872168716869,-0.801063454933602,-0.0719173953222469,0.806945985563008,0.612067573933612,-0.466910946954527,-0.375716128129151,-0.619937768961382,-0.246671689386592,0.881277007783115,0.141569709942997,-0.886628548949714,0.837509987575607,-0.35929119365526,-0.0579025365792776,-0.317410971258857,-0.35396078567529,-0.41659523482408,-1.0900884359456,0.155395624292552,0.970032940463075,-0.418140671506004,0.693664605396378,0.167164560008614,-0.457228718281373,-0.966713865266725,0.603977782942692,-0.741552635853604,-0.541300773592501,-0.684829289814712,-0.135035318572305,0.465265875647568,0.145748277289815,-0.49137954465148,-0.340057740670793,-0.822570230907067,0.776968449185737,-0.245574346630353,0.765232902062423,0.383342514390782,0.917636397539454,0.676449614603261,-0.415528983292453,-0.764879811274562,0.534816244193245,0.849969866214563,-1.02844374280986,0.80823811363701,0.721829253209984,-0.214825789380517,0.0109994037422043,0.18972258764118,-0.479276074672255,-0.14241657204742,0.175854555516862,0.031197282840476,-0.0478907303334388,0.646849231006289,-0.265838525026973,0.39938700082793,-0.508724260094955,0.60701283756401,0.580375885191005,-0.0918105632035693,0.795220922606325,-0.0773718022480004,0.90521514007791,-0.388754373796599,-0.600396078945161,0.395293673956428,-0.428810091569015,0.940698569043721,0.275160608794135,-0.346512396820562,-0.605303174755161,-0.801450255410369,-0.889241502162833,-0.818902812939423,-0.725006724122646,0.170571824386436,-0.673985028476969,-0.819561835069328,-0.0553012708158445,0.682978263056041,-0.418261994191158,0.0568956260170043,0.0404130142643468,0.705838804123904,0.562293359600949
