0.288657805861522,-0.657140711060698,0.68948314849212,0.35491673387286,-0.419308806174725,0.4298375074309,0.611798652612191,-0.48523713728741,-0.560489258834439,-0.473185085294499,0.423186765178575,0.66452956449668,-0.754099754356722,0.413025515989103,-0.681430332000367,0.416427732476142,-0.924102701934079,0.793929001611243,-0.524563048504619,0.0962901818270257,0.593961390299973,0.814169997033827,0.742603971397361,0.194883347074503,-0.378985410894274,-0.905885602734834,-0.179720620143667,-0.763705122308448,-0.627437067715517,0.66624905358033,-0.993489180426042,-0.896796100172075,0.540909555120161,-0.40723962734018,0.234559630803649,-0.755397903603988,0.707684953200894,0.817980714646046,-0.380156372832476,-0.180691205414246,0.328495533759491,-0.751115168110124,0.960046250569602,-0.39246963184066,0.0911144321618704,-0.973884683368927,0.685525516963176,-0.222721513814113,0.0419527860529196,-0.769951685951878,0.622013598280904,0.726261155774959,0.684886077565177,0.235750566916225,-0.361042300323032,0.981864313373987,0.154543970690877,0.379158990312469,0.982062750415922,0.115951910593595,-0.182214956331223,-0.977834230050809,0.96352676724462,0.152038993127446,-0.371692197416737,0.472613486636014,-0.61008469269155,-0.423923673397964,-0.349643901693494,0.375219595108469,0.529968440816052,0.268874351988939,-0.799306640576453,0.335967435402839,-0.322053997633547,0.588464711436884,-0.23776792484575,-0.451918931124627,0.749991340747982,0.974587960895205,0.929146278869254,0.44441712367307,0.12780142790273,0.0785359480572984,0.0465877891662173,-0.198235290061412,-0.681883799666435,0.719144282653167,-0.997733871140782,0.139065457751971,0.60182681008063,-0.922785013780959,-0.251883793059488,0.324230055541467,-0.219735337227674,0.154171124316861,-0.403386588662043,0.474765867517914,0.85033050537616,0.955920881012536,-0.948693468412487,0.822578061198034,-0.199017072598159,0.287168217972446,0.636245478836035,0.0440064439358681,-0.979461385389505,0.997418289465019,0.607581229040065,0.417407982364945,0.293528811654397,0.0565420394692371,-0.287667564908214,0.427316448736151,0.906233812913397,0.565787313650849,0.740535593849066,0.994112099344569,0.810847919884472,0.0750761276965826,0.872679913362399,0.781071812669431,0.145981605385872,0.0703443677283675,0.0544867172511402,0.415785608948789,-0.987310437285151,-0.977941147186518,0.46684479072855,-0.227785593314191,0.130281007469261,-0.241326070793119,0.970641606340573,-0.113115142010441,-0.674716294849042,0.0969658594014988,-0.239567455101877,-0.412716936789627,0.505157416728787,-0.295022433386873,-0.786015648513121,-0.349009565455278,0.517790870044946,-0.804042214083094,-0.349231894080134,0.574202045869271,-0.314291546420431,-0.421012075017829,0.885041161981289,0.137478648839967,-0.535331435000709,-0.583503499888539,-0.34717260535978,0.771887666124096,0.439914755774572,-0.00834560657382806,-0.898842016980342,-0.841829828640196,-0.102082310756382,0.0916119452231168,-0.938819639305001,0.397374862354725,0.469906513705308,0.860519969353732,0.261186841496968,-0.217752290497413,-0.495473567185441,0.0204587325447998,0.826323127112411,0.286814238922223,0.929899828999367,0.324314203087307,0.546581887005017,-0.189460793331361,-0.315047713651227,-0.394796995868986,0.631658224047471,0.123742149050405,-0.58819215084514,-0.198032689287454,-0.492025522903437,-0.203740981498401,0.431178171228498,-0.116648755381856,0.244625544758183,-0.599214719429077,-0.842456549634693,0.102350525935191,-0.907920606368502,-0.106035462821097,-0.148920837244546,-0.0015590931820109,-0.84890376412604,0.522432955448246,-0.513272364601874,0.105037078978632,-0.711268660439736,-0.244034933177105,-0.544933176503102,-0.0302330755585263,-0.0274804002489574,-0.0561164364278046,0.945575049018809,0.549163496498884,-0.653201919869033,0.0179589954504308,0.362562276611181,-0.82909523221725,-0.760881198854582,0.0343740876873643,0.312314309110232,-0.286063241778956,-0.808187096787337,0.265389081301541,0.0272621725614121,-0.623993146609776,0.543730498968223,-0.374619159755858,-0.811771630532063,0.809264916204407,0.331880106402629,-0.337348943336466,-0.0498691706233372,-0.657116395662862,0.736997239449405,0.724038354567156,0.868075152572351,0.640228164765448,0.61064528272201,-0.865608538683866,0.0308832237897092,-0.528167453676369,-0.998008750196885,-0.237175574427045,-0.818109747076437,0.043320244989928,0.033911276676694,0.787717417189815,-0.135855516849872,0.0918429734422423,0.179437870435698,0.970953441370632,-0.797612000240418,-0.969163324134485,-0.639623333636053,0.811236931513175,0.998489203871862,-0.510713023837555,0.806666960358796,0.430417975826624,0.790921080975652,-0.535455871277126,0.266473159540782,0.159272318714619,0.222424017768896,0.915663727672344,0.200418811496287,0.0824656119216296,0.738119649212103,-0.140043047294028,-0.956002784946634,-0.157959965817023,0.119431464588185,0.449625912191015,0.291656057064717,-0.424160935294013,-0.479644012477759,0.320574432764596,-0.993430062872149,-0.712195482518474,0.462811766136617,0.185261104175063,-0.53383828451233,-0.140842710791422,-0.114788323940526,0.53918627358902,0.969103421749935,0.442650192919414,0.680758764499722,-0.760793861965921,-0.617528151808671,0.483961960868394,-0.194945265843703,-0.150027084880981,-0.0212396042118949,0.713088344161232,0.412286518123772,-0.900394188805007,-0.0533490200719349,0.684283956958229,0.896240799069935,0.779649714257658,0.883610761977158,-0.668972441995974,-0.615911003233762,-0.13498845842124,-0.185219629208364,-0.40017040426132,-0.811272707879988,-0.533191376742346,0.460823630531477,0.445606997103127,-0.783602561553025,-0.193729908152075,0.948194358691984,0.790595318464304,0.991217242682138,-0.203683729650306,-0.783155168450559,0.881561899284628,-0.239153763577537,-0.614652193899102,-0.0883101738168093,-0.771118312399088,-0.309236333410529,0.749436067089309,-0.590204837420023,-0.923266693597258,-0.217788286558171,-0.974800934745489,-0.371441578136347,-0.166918571178195,-0.770911673946467,0.935773866222193,0.127460677530346,0.401784115561374,0.384919950181481,-0.884093633041001,0.527773045587418,0.975925892673248,-0.386754752543064,-0.850703813726772,0.169581054005105,0.889546228597054,0.93585133573651,-0.821981981140631,-0.331017605656807,-0.085043880628404,0.77925111977019,-0.170713117340358,0.856875028597436,-0.936869452732878,-0.929875215159993,-0.678550355770955,-0.7682464345981,-0.69590413796742,-0.237183706247813,-0.117015288419107,0.437953875775408,0.645475439045788,-0.704226712060835,0.890333570690505,0.360201755526779,0.0608999206393208,0.834711680678011,-0.110485503747647,0.350157603600099,-0.14074876564382,0.319524655101561,-0.639522125090141,0.947736554945365,-0.24066123204907,0.656548419663389,0.729572409219385,0.772519397394546,0.12681231809596,0.475911379230187,-0.939751989171321,-0.841324445681356,0.0412717422029085,-0.328805134109721,-0.401999754565462,-0.378760880871358,-0.552487422207304,-0.672554566857047,-0.746738557106758,0.110274805413302,-0.0335191169275411,0.278314309715311,-0.720218942294257,-0.78543885222694,-0.803613482443538,0.925571060483602,-0.949273923202214,-0.589180173366083,0.319474054628451,-0.230149096197006,0.813643572671463,-0.435194590357548,0.774707018877803,-0.778061381561807,0.686766442849782,-0.339803746001123,0.14311077156249,0.277226720520518,0.744220155451035,-0.0184934598506887,-0.652691255489494,-0.38062192621187,-0.130689374120682,0.187347666748699,0.217735498456447,-0.120328155906435,-0.386269219370014,0.147763440247656,0.545712773558107,0.0956895302629036,0.534420695594726,0.929646424164986,0.552959718684156,-0.478542844488552,0.876703542334706,-0.397191876613908,0.661222192565111,0.419558279276972,0.424988069548943,-0.851232683021345,0.429519928431154,-0.291589456122808,0.445318930942018,-0.434557284493528,0.614297546778144,-0.728290668945594,0.518755799788529,0.199787349406737,0.0758411064316267,0.199615645070199,0.416108831366193,0.278580422561085,0.729568319010842,-0.760594589230414,-0.00823543301147867,0.849537531431115,-0.501543425999007,0.66103259127878,-0.0720769400524149,-0.555823263113321,-0.806520358433826,0.205005866511349,0.0858851427794885,0.431281193860835,-0.95997973628065,0.414118378344333,0.184408168090121,0.115319521151669,0.978893059754728,-0.598942358044758,-0.294839944648268,0.273519235446503,-0.724658369164175,0.479015133289449,0.535906465236503,-0.974452412511473,0.603571530365493,0.905500936505839,-0.0740360252132033,0.48448353159305,-0.39412771431269,-0.899093141653367,0.758522765885217,0.232701518975963,-0.990080258776526,0.917622225932135,0.289137651478834,-0.0281136141222271,-0.601506844242296,-0.226997802202762,0.221771909133466,0.322643759513137,0.706582218266569,-0.0433061919934376,0.107406435920223,-0.963590920004644,0.953174960781297,-0.925120927911639,-0.639256970205044,-0.125024612537444,-0.487612852141459,0.325204389560371,0.0418737001659013,0.441175475611625,-0.760868273519858,-0.616586082128516,0.876944597235167,0.927750160816149,0.260198802627162,-0.923475080498522,-0.756725663366546,-0.408686760129631,0.363398364712386,0.289333991616348,-0.638540334883916,-0.183672687564588,0.564696082919611,-0.775416650715316,-0.172387227642632,0.552321189729461,-0.0798263726999861,-0.217231036904842,-0.906944115375698,-0.821376755141967,-0.824972878097494,-0.653269151313599,0.251042680827879,0.329522739741632,-0.719914779595703,0.425130981701493,0.940901161308073,-0.689934974591368,-0.815837053230734,-0.570655563234652,-0.847536058140238,0.406701637593353,0.879514426186367,-0.129009817919518,-0.0903748796924224,0.600212284008267,0.938437937797054,0.635924479962996,-0.422114492142026,0.57853269720656,0.988085421779491,0.471221032940023,-0.589726698740462,0.42853568563696,-0.630825285176009,-0.371546744895075,-0.608677263543699,-0.830209991617525,-0.607883731462475,-0.572077393133698,-0.369749510322305,0.872607689680086,-0.263768086173689,-0.506758618355538,0.551439213213691,-0.215581451004101,-0.327061897776403,-0.156272755506181,0.36279967316955,-0.576034181332213,0.724139854814695,0.381048294020806,-0.647672527932422,-0.825229848653383,-0.798091080690277,1.06600834204056,0.234265673463834,-0.45781684658764,-0.471413236338409,0.49871206223786,-0.332209937132186,0.317792294906617,0.541220579528833,0.975492359259604,-0.331796239155077,-0.0155997820999607,-0.586436166676224,0.551156672441576,-0.235615952575838,-0.529693318963723,-0.178286117183472,-0.938845567364606,0.645849135003734,0.748750155923688,0.891847465392468,-0.186617985003093,-0.34479767963496,0.76542637291376,0.998516207144597,-0.611168629084877,0.838428583215806,0.966171717003724,0.543736059751389,0.611971067739286,0.124191189259302,0.336093873634876,0.224585591700188,0.652282872826294,0.808033170674958,0.628475661793887,0.743796489490168,0.909025335953982,-0.226671979404391,0.228921781286457,-0.584454460911231,0.160334911315152,-0.628578551088886,0.39541424938831,0.451632057146983,0.124057324822277,-0.865273183308866,-0.892197736049131,-0.0487203546304284,-0.43249329649373,0.702629388909815,0.317452868113898,0.93602416368703,0.441524056505953,-0.361833895327707,0.949556745566536,0.0953796816098585,0.0763219986046015,0.631635843469028,-0.147389566968566,0.989836314899902,-0.68255422734344,0.180808038657799,0.134853240257149,-0.424763480516149,0.776970860141312,0.0396196756657843,-0.292452498415625,-0.465831281406083,-0.737066480333044,0.131410187445089,0.954607419132654,-0.876554872002069,0.510318096512453,-0.400211010738189,-0.886379133412259,-0.028183596928202,0.958398834090451,0.204452900796504,0.638888956636347,-0.162963999026423,0.699756826117344,-0.71366462815955,0.109626530013042,0.918646480274618,0.751820882324042,-0.412746438034075,-0.266995822542242,-0.0464446590114455,-0.307981751643971,-0.245978771796417,-0.385970731797502,-0.861210174523803,-0.114319742679469,0.117243267767733,0.587999891716455,0.0136403203116356,-0.492121579054604,-0.20394026009921,-0.157729957935146,-0.32230841925735,-0.0710431236507842,-0.845125984102797,0.479743765364503,-0.574366679944884,-0.705447365504054,-0.346928059538837,0.0462728699714493,-0.308404121094489,0.0913867466126833,0.0435818126517391,-0.897745015166956,-0.840598541648878,-0.654523361130904,0.250751702434343,0.903362127117361,0.733294694942729,-0.398836307396107,-0.668888821645549,0.804201689658484,-0.492554108808613,0.341338002078566,-0.390928534100556,-0.584121525702399,-0.719635068313314,-0.157965604037806,-0.283397777635798,-0.51692129246545,0.819926107798319,-0.532328603116534,0.00841318942408598,0.174764708343253,-0.17530856893427,-0.454624109272338,-0.353068983128963,-0.451334978445107,-0.554193520012307,-0.286486633378514,0.596261862941082,0.127561685240829,-0.721530971325272,0.245355602683152,0.530901594292364,-0.0941643080548962,0.187858852034649,0.661892514428268,-0.70539658187851,0.139012613008689,0.103690251025212,-0.557888853633013,0.451738438663016,-0.141010402538882,0.63769513140756,0.823656977331441,0.167766163916749,0.358388298793044,1.06254037290103,-0.543127251018415,0.328268547730183,-0.240120103184181,0.262933287391116,0.303036258114349,-0.80643287965596,0.226525833646457,-0.11718672406656,0.357090589066192,-0.421048056191765,0.535491391972595,-0.829196161904246,0.239181499766137,-0.111151361029404,-0.00359339500636825,0.711962811088731,0.450849336304904,-0.896870461313255,0.254263651430104,0.456250983807471,-0.861119123231839,0.854971493159432,0.528059408289774,-0.535036981369972,-0.212067922714499,0.648059218697712,0.446315184575955,-0.326429312441,0.605812092785362,0.21024523495562,-0.854551163078046,0.410520405938015,-1.00382260112678,0.827189226662579,-0.541930999038417,0.181229047849503,0.183397796112344,0.340478090497368,-0.587453314721068,1.11146633822338,0.393818131069692,-0.515635829104725,-0.685283892067466,0.0694162513326602,0.826655223013432,0.676033450813727,0.386695249628685,0.702314335322629,0.475480522825343,0.322038587098628,-0.3395401902184,-0.0375905673728725,-0.886498790471907,-0.527709822803244,0.4933589099931,-0.867011950039975,0.151284317553439,0.862543983722533,0.778194279410187,-0.335796341407084,-0.779723043146137,-0.665544379712404,0.571841037365745,0.315063980449406,0.00191376561338188,0.318998490173956,0.820054707200434,0.790620159342946,-0.758410693703159,-0.820316759502513,-0.435277461271132,0.0388239881453433,-0.29444481490754,0.237620922387856,0.738342816674504,-0.977625768652464,0.93345746277005,0.681574816729459,-0.814052629419241,0.770124122104587,0.0131809289440517,0.840363723324727,-0.605891348267972,0.432237372416652,0.349554146974072,0.361743994870268,-0.926174164432583,0.624568845755359,-0.335299882214389,-0.909961713194159,-0.846878630792763,0.229374205892791,-0.200873084562616,0.921885943278412,0.962766245138956,-0.336825758317287,-0.823701481952502,0.526934079201984,-0.195961279917278,-1.00969467505961,0.666552457910457,-0.403139882875995,-0.168337679204881,-0.679142927257082,-0.67528650844058,0.202556358379428,0.136825799528039,-0.643362886815578,0.409356535169684,-0.560288924935639,-0.516409028407712,-0.228048436105171,0.645473796423461,0.651581917178336,-0.190457441173582,-0.0451333912623768,-0.086168555475845,-0.766808095847382,0.473803006006733,0.0613667910593503,0.464518314661141,-0.478448063908971,-0.458273689374195,0.278907482447018,0.723344849035993,-0.0342398139542182,-0.635462269260864,0.493866749174854,0.0881106510313196,-0.094140506989554,-0.828014638985885,0.182507252533674,0.351012898672069,0.536047709648154,0.647678484916179,0.00309500608093338,-0.370579780633853,0.478967069882677,-0.803957553280669,-0.586944797776795,0.852132715624908,0.0400076867023933,-0.504682063444026,-0.162515206943042,-0.195862021920645,-0.566311863848136,0.272931302503395,-0.44512481082244,0.397645228245115,-0.385644543349857,0.558026490759322,0.640427818118217,-0.198013230751308,0.239317472960901,-0.555592063918991,-0.493655779077063,0.212828312516272,0.076587796990503,0.136529534890785,-0.55270536201846,-0.610448062760415,0.0343875829040998,-0.49643306521354,0.203997767289024,-0.863063130110469,0.263761419339091,-0.724765439579622,-0.0961053748278451,-0.445685997241079,-0.505661957316276,0.706784185783765,0.180529593827653,0.107696275374618,-0.59300036623679,0.68612959206741,0.212161039393221,0.560404133598804,-0.664365672509582,-0.793822687928894,0.0696396371325216,0.659611190467789,0.0739095362371551,0.491216736929522,-0.710984281816941,-0.708231821145417,0.86064178403528,0.304025388458052,0.776269177758753,0.0508327970123082,-0.187871487793431,0.654013318768086,-0.420873924207481,-0.661835189594784,-0.069751950903084,0.217650993831495,-0.956220891442276,0.793313632346728,-0.782724809320769,-0.103432469688069,-0.677463982920521,0.689605689932198,0.198854121369466,-0.321010544547002,-0.424798440954755,0.0109737690507348,-0.0365116094328379,0.715115131264544,-0.386451876840503,0.967542564607689,0.0649478546437381,-0.0130693069330574,0.451240733087905,-0.632258887748362,0.772483517771653,0.360856549734445,-0.759653146990106,0.326759209267428,0.621666997312564,0.157067693757299,0.138084013463112,-0.481910676266709,0.760021639297523,0.498208419484794,-0.498528936952922,-0.694550995751069,0.0882684104717455,0.661066034477045,-0.538997334299434,-0.81673348652435,-0.54759241178518,0.980013468381929,-0.912550899143414,0.951355636689099,-0.195284085227845,-0.184727077561471,0.478221410246167,-0.506917997445958,-0.513652441811888,0.241697476170656,0.770099586718424,-0.52317037356175,-0.33132166189872,0.187259317987144,-0.853261248378952,0.437412767063275,-0.243818836465883,0.839771951351981,0.254752995993874,0.0194241852896953,0.360759022766518,-0.84199921538939,-0.870760161741512,-0.695931880611771,0.157252827837447,0.00230345161551182,-0.676916240534878,-0.65050559697858,-0.65952833107808,-0.253488877053118,-0.317269405218976,-0.0873060677696007,0.809698786935854,-0.268920244767763,-0.843772751377742,0.353034063702388,0.907508464334952,-0.104133239860277,-0.737064309795435,0.557030748351373,-0.316092259193249,-0.288286449638826,-0.621166421817532,-0.662139219060691,-0.0893877598788988,0.808932387716314,-0.317087386592875,0.76301382062192,0.759401647775087,0.918208046684644,-0.00471064708180396,-0.948804401927148,0.712880715379881,-1.02932721051329,0.516024360996107,-0.473942932432505,0.848516712500179,-0.00747918012954324,-0.311583095062081,0.402451978015155,0.757025929093074,0.32589521933779,0.202920984211759,0.0120025934941484,-0.784461860013141,0.325321706491995,-0.654208062611235,0.66927611190628,0.0740930972874801,0.389798775029641,0.480878311426625,0.0689338686641164,0.179202595919374,-0.128169855265113,-0.302194638312205,-0.621045064186149,0.564778215194292,0.305171337768058,-0.133465847163972,0.2274428139702,-1.01556288379069,0.676684598877544,0.14121483832503,0.889803734073646,0.832326501313933,0.421765668811248,0.559864795569037,0.0758517049303234,0.881167238173168,0.365749400856495,0.351684059340551,-0.647278989009434,-0.135692800950365,0.97791504729368,-0.0948874600645074,-0.358404112173109,0.758129211133871,0.614737654202726,0.227298678741079,0.00946879619113824,-0.595733087165725,0.858615605835454,-0.966061445302473,-0.632947256691702,0.979127954161826,0.554450721987601,-0.573450562113885,0.695825585936271,0.868658984692281,-0.786218516476641,-0.727229906573071,0.112995537420699,0.680459686409246,-0.0719858979741458,0.00830585062660916,0.990277899477161,-0.683464431175838,-0.450410191796612,-0.248611420195559,-0.910685501145905,-0.76321461839715,-0.0321457044041909,-0.37357469659076,-0.486443005566532,-0.932583505874527,-0.967265184647847,-0.339936125866278,-0.0202962847514563,0.560990411103819,-0.397614759554564,0.594599716113584,0.753676162751517,-0.329924148559484,0.322204394437407,0.851698321174337,0.778543546814008,0.197518763475629,-0.761842770937223,-0.723199928074592,-0.310898629329945,-0.854161192696608,-0.0107547138905277,-0.846158840983729,0.427812681247294,0.473544575275439,-0.135680337044657,-0.106214102190738,0.140808360147821,-0.423263595278823,0.336275373957981,-0.78648343564666,-0.78022562241514,-0.510922030026317,-0.282769392937081,-0.807853509902926,-0.642747836435566,-0.512459656736359,0.770012243805726,0.37391910477729,-0.090873301463696,0.197131581955913,-0.923856400365333,-0.571256846729996,-0.226855951419885,0.400021576171676,0.0630441844440772,0.892384230710558,0.907792652654023,0.305202237143436,0.0476482347258681,-0.651294023706873,-0.93489534995259,-0.92873121965446,0.762580238323813,-0.577169573148545,-0.827552782828799,-0.655700708482754,-0.303054067439569,0.479600163890246,0.682827446789689,0.340075030274164,0.4111612369468,-0.442238073667473,0.0878470336636537,0.446341972683199,0.860086717369734,0.245597882927191,-0.165934490821101,-0.880967055417572,0.909657336372659,-0.291675807584233,-0.74256343627622,0.355003874244651,-0.639904469812961,-0.453200525358628,-0.285791556814034,-0.247350811342751,-0.131326400633856,0.475548067155349,0.721751640492737,0.0486539376432764,0.887926796674325,0.414038262887745,-0.0492758189410756,-0.271847546000846,0.265740324347485,0.247108766476984,0.763790169165541,0.43339995940312,-0.308199964922079,0.679381008524645,0.054492949646075,0.537972091766679,-0.19681802473525,0.690727932848324,0.379705771186134,-0.0227534350384732,0.471015379727812,-0.833709193667284,-0.705449971223972,0.40866234368118,0.407479007562218,0.547970886046322,-0.514816291109113,0.116980411082443,0.404826684379289,-0.851403627817482,0.601049466830213,0.617190464599763,-0.0574192594871029,-0.283579038344633,0.906058071312194,-0.578089887147417,-0.7613237443424,0.089419610971465,-0.729349328226333,0.477640940241571,0.885000848904033,-0.589777189120867,-0.41886218716649,-0.462175978013687,-0.0505289040292943,-0.585333536740657,-0.423573570191682,-0.750099702290064,-0.121527793284311,0.210630545087642,-0.846087687549569,-0.29853349518633,-0.624113456775825,0.680457164326263,0.119232337804496,0.736413960212089,-0.288841479675765,0.901278010595178,0.575486301414345,0.782289225247814,-0.638203982867479,-0.273892284361186,0.49798285178213,0.650506859712803,0.89851917256647,-0.658810736531949,0.746016636109588,0.56964698956315,0.410336446406289,-0.0083778442172977,-0.572369288996326,0.413198506252544,-0.764427296549902,-0.38253459588663,-0.107167171013385,-0.822248365228688,-0.335365315153089,-0.0694730751443421,-0.394047477233338,-0.661399814181894,0.187904562279285,0.908819443877149,0.591593880545795,0.302077490781945,-0.611802120653051,-0.373851046496504,0.170750545433112,-0.804186561400396,0.939841992677333,-0.55828234118039,-0.0708990001458842,0.396499237369921,-0.210416765725223,-0.489127201836247,-0.474120313428876,-0.371083853176827,0.947988265907957,0.16817392542022,-0.654764050305763,-0.905297545475229,-0.358358532626449,-0.327802380281986,-0.0679001987772217,0.106625127764203,0.728378532641867,-0.526286449794428,0.097095583673624,0.0512351852002315,-0.633798472171842,-0.627142894615675,0.981063488308464,0.740581783294626,0.294020715641848,0.124680286380801,-0.795542301310388,0.232198235687024,-0.521048355668206,0.104751722433335,0.746899625724473,0.673615856976683,-0.0782046178026212,-0.673002653629488,-0.166403356124,0.352172837555528,-0.310993004274217,-0.706276313564091,-0.128408513719903,-0.597046741896023,0.726797026529813,-0.44398716091239,0.388045663329277,-0.335139501804319,0.308516885045069,-0.113964385307729,0.468598126126068,0.0191246387698494,0.421120316923905,-0.0745399645445616,-0.104743680327274,0.091142418736705,-0.808283931585546,-0.969546152519234,0.196824679581794,0.528620133000998,-0.646789170883972,-0.584964258942075,0.798954576543967,0.0789579082414907,0.613796083990427,-0.055621020324609,-0.896502524066326,0.0816220610076935,0.257600294580115,0.108430963721118,-0.475462541868694,-0.64879204835777,-0.135061192861711,-0.184952709653069,0.877184743590362,-0.939830469568298,0.528752595878433,0.316124923745311,0.343426584492025,-0.922728527822764,-0.520067048690666,0.777329285506581,-0.481699140077062,0.657152699143448,-0.205095654301656,-0.169335637566184,-0.56261879972516,0.036278572076281,-0.664917816590019,-0.299833456926293,-1.00327552591337,-0.466803241022369,-0.0585503446929919,0.293581126761406,-0.138104333780114,0.76221656500887,0.48861981990922,0.914647979653035,0.313631679550848,-0.777787665048524,0.491720709785984,-0.718208954148726,-0.101309005116757,0.905404830689327,0.762844285215595,-0.14987479572355,0.252197497738007,0.0267798212817377,-0.311710577386352,-0.98832671406948,0.667909634068646,-0.104318813384145,0.876583918091428,0.172857958138533,-0.481277971030704,-0.864413784848757,-0.838540162186015,0.280573586147581,0.553238606128404,-0.601312097898244,-0.220374614663688,0.304593513903628,0.836794480005537,0.50155904607503,-0.203808723120934,-0.159854447458971,-0.598143602534847,-0.459369757848535,-0.709430987800649,-0.627675098785466,-0.346975688264204,0.333994748114791,-0.378691653684841,0.197323014179944,-0.396993503937284,-0.0722866545537807,0.823701455585856,-0.894036829396958,-0.497223000757989,-0.566663805732033,-0.471159000150476,0.651920062821437,-0.365922091068325,-0.556850730181125,-0.710104628350994,-0.311127217561636,-0.18203169067012,-0.352132547579842,-0.444711176474286,-0.392799608794387,-0.154597049354863,0.66212380960617,0.401668481325041,0.490020414466193,-0.577413238007674,-0.732048582999459,-0.367122531603455,0.630653416800795,-0.0586981713904511,-0.571797942073263,0.213781188513933,0.579597612455095,0.431620832417028,0.522207729225376,0.504235389474297,-0.0402659101712449,-0.432759200764395,0.803925174883177,0.980677026830051,0.413252933249441,0.310280250347132,0.492051578851099,-0.00551566817476141,0.0470961917159223,-0.325221028956317,0.851040093424981,-0.0419840915725077,0.100415139304379,-0.988988713278565,-0.389363151553118,0.0975265684197477,-0.569859561682405,0.254976317252351,0.963450693694011,0.74002966568942,0.749133548970775,0.466625478961027,0.363359476537763,0.470825077881303,0.0408774355118462,-0.194251896173781,0.431678687604982,-0.322288631662842,-0.782836208873581,0.942082294576492,0.26500352240662,0.0369438881982059,-0.868165062355184,0.844293315411728,-0.0218676156326544,0.118195098071221,-0.925840473134637,-0.754102027936092,-0.0967537687654285,-0.671994470115011,-0.225791670484894,-0.576048814754344,-0.299647988863824,0.729303350489586,0.374331278585751,0.432696203551294,-0.937750237708877,0.17153934260303,0.0698565127657716,0.85641079823751,0.819587502757914,0.496092695863876,-0.518422272965663,0.397236555213959,-0.666552658386349,-0.286584551599936,-0.837643473124632,-0.572060815593406,-0.486106013800879,-0.498313680832937,0.193463403897791,-0.84394175452123,-0.828141086459042,-0.601210558442532,0.462312770787112,0.476951432682284,-0.0616462736422777,0.685351209406704,-0.576468472189632,0.904202931952093,-0.973062574068693,-0.736121638957853,0.310040651492965,0.740398188519784,0.919780164658198,0.93226846155497,0.0961129825949611,-0.772989158187257,0.597307634808089,0.545488706655802,0.544019715055621,0.408769176560089,0.550846268063016,-0.985600825693797,0.624664418727758,-0.851087464106128,0.854736465331598,-0.711456966822122,0.450357628619461,-0.690205669385518,-0.834052095506225,-0.228955379166153,-0.113430463286929,-0.787987358018236,-0.413542927506448,0.440663406936064,-0.359922932467478,-0.235690069742416,-0.748983154430357,0.953803645828293,0.271895385771023,0.610566009378945,0.312964653138991,0.647818769698868,0.776764091187141,-0.374624171892186,0.430109717330856,-0.350123430993504,-0.434304732981359,-0.51199935956034,0.666659780235551,0.0617527401362452,-0.227497932405524,-0.235701394165218,0.636879430667213,0.408877570684476,0.200782574374036,-0.37245680270343,-0.669456914833177,-0.854010368770998,-0.687602791283725,0.55779976055593,-0.886637487227221,0.730003161050263,-0.689291963288577,-0.285320489286941,-0.988250118384736,0.740225312264773,-1.06782323285548,0.607678770063279,-0.414213005670832,-0.997487276514064,-0.43722169368885,0.284462827886908,-0.55484526151069,-0.775197804953289,-0.830872713167848,0.130838413621666,0.765462180281231,-0.72452011672783,0.458937884412123,-0.624232051655478,-0.659628208675835,-0.6683745981981,0.602359566495217,-0.15362970579422,0.723000181234564,-0.367960076066024,-0.466393939264709,-0.483478300843713,0.810963101332589,0.651961780183773,0.119016247236476,-0.930706783574299,0.0310659446774256,0.949476738258985,0.286048134986867,0.692577971752584,-0.585317415992063,-0.243025537200393,-0.841716542992995,0.870002055864683,0.953370897328574,0.473557993206009,0.0961776055500034,0.543170806542422,0.435949832296853,-0.393733727850259,-0.450032646228763,-0.647746032422351,0.343287379142891,-0.676613845169003,-0.425092254550722,-0.115626603120029,0.185578629244213,-0.799511021159388,0.479062980989457,-0.740837222287628,0.559380152590851,0.661816639716293,0.949271693685245,-0.452750093659207,0.988046863268984,0.947929938308323,0.46796538899036,0.344444276276181,0.498024646546097,0.292461395856492,0.909365158222566,-0.69529067102226,-0.684387937320897,0.792065615288515,-0.550031754001366,0.716892666526052,0.74730907190497,-0.929483040247041,-0.256835578399619,-0.925781099718191,-0.527595514502958,-0.133940187429994,0.974768636111909,-0.64537906230656,0.520084025490373,0.0692573911123036,0.208722222162422,-0.681262114592677,0.513850767741458,0.779192818962267,0.691739408606617,-0.396059536713661,-0.344239078702735,-0.689883608118862,-0.823422354515853,-0.777751154311938,0.663748112776446,0.314920210405856,0.444980411954608,0.279976877904106,-0.0757813984801137,-0.602096426885407,-0.808350842297317,-0.351387632102642,-0.48703064347118,-0.5890886808223,-0.138564481041343,0.557692782201047,-0.261713274089484,-0.625314511314104,0.446335132603625,0.653309205200149,0.968702089969316,0.621993201967175,0.100620601298325,-0.981857206345005,-0.775011798269946,-0.916238053906263,-0.864486745209597,-0.677937681176226,0.331786455092584,0.676961293861117,0.425942790020876,0.18038793335645,0.879679928956803,0.514736837137541,-0.42374714155326,-0.0110294301597526,-0.386303671502082,-0.729777108717389,0.888529978050802,0.520738002502327,-0.878147294484005,-0.119052492914825,0.563353462983997,0.833887798436603,0.7094541947201,-0.7028841409496,0.451413456266942,-0.599003901527111,0.944339273383618,0.807207442343966,-0.930761652034788,0.570207252932347,0.246069011786236,0.113967508587132,0.788916689277283,0.0688587629720064,0.371513100882903,0.892617001995302,0.463179947152953,-0.325210842944367,-0.378933439622128,-0.588116807079145,0.21491758840625,0.644759498548824,0.250346277932722,-0.191657270439659,-0.282210913629601,0.867487467389866,-0.699590126700231,-0.355412789405936,-0.596804236966156,0.678348302869763,-0.0697518416042071,0.919579991250527,-1.04091446124223,-0.720320856587754,0.836504337793572,-0.620827505573424,-0.103731182579955,-0.129867410418506,0.5298235388764,-0.618664533463691,0.428756583632023,-0.639029471334338,0.261319082647715,0.129908810887529,-0.784098030884145,0.292666782653903,0.898218709710278,0.0570282608637995,-0.0763694288290637,-0.685834588176006,0.375846418443057,-0.238936052847624,0.177789639567802,-0.612158744353384,0.00596434246487721,-0.617929336589575,-0.31068061533875,0.986180162300298,-0.166598728829938,0.387042529446359,-0.603131784113665,0.01117290899427,0.485117153102231,-0.445204750595791,-0.664279556567135,0.810418184139067,0.632565316134849,-0.324858998517658,0.777297708898651,0.48991280218978,-0.710648174737016,-0.460021912067789,-0.520127437473037,0.976731047626209,0.890223189133489,0.0779212775827428,0.756009241278637,-0.570907815399445,0.828944335394062,0.788763682642296,-0.75602351774019,0.290262704748598,0.00248283010614703,0.806104579726243,0.624481986127413,-0.704012061838113,-0.866033803337747,-0.733673739271815,0.343362874101958,0.477503058250946,-0.208574273805531,0.105216381435868,-0.369898302560051,-0.180572325086726,0.789630851657898,0.203354831651973,0.645504564183335,0.150107363724509,-0.467806307352438,0.622606914951163,-0.590972460666757,0.705393556671779,-0.556265624846532,0.909548176955658,0.235280952125214,-0.601785971658265,0.0677836470217275,0.628747041794786,0.296711172528205,0.480034057216091,-0.904280128378398,-0.545504775121005,-0.901532910100301,-0.78441592476946,-0.222817999640779,-0.949152591274768,-0.353392544025229,0.852858034032396,0.21449037040265,-0.850990617829817,0.398052904624282,-0.732355653318018,0.300796893798613,0.415567094950464,0.549575204242791,0.293908730318174,0.839395565790802,0.767499797093479,0.548857064579165,-0.182214381369159,-0.225040995812725,-0.361220737260254,-0.510610396963944,0.513687636146849,0.856957427845141,-0.152364351482922,0.645821731591734,-0.750968863048957,0.506919067285573,-0.395731049667051,-0.24711099929683,0.96419243222106,0.412901963451725,0.946070109724682,0.227806494081451,-0.543435918574578,-0.535358648990857,-0.279381221103917,-0.824117690912862,-0.661115191360243,0.541822481777639,-0.090046647393511,-0.128056539639437,-0.985578966818715,-0.160516636505224,0.452446648424975,0.567108535459393,0.369147385064601,0.747410986858513,-0.187872497032305,0.0211191279198551,0.825324459692214,0.0480456119028159,0.431122314536192,0.318007209567113,0.119480205434247,0.364056655069279,0.548070435320896,-0.567771933583932,0.856235273005507,-0.55093719335983,0.193950418645821,0.10291164506694,0.282546247600643,0.454610873159028,-0.279382101869795,-0.0567100907525133,0.977337563523057,-0.147527479433362,0.406710088936092,-0.473725249788962,-0.868616157477255,-0.962337334406338,1.01319404117938,-0.0844340579354312,0.328211942084333,0.588472529984099,0.000537733077594331,0.653946756582214,-0.312857987578382,-0.0783792354254913,-0.528702150217678,-0.217620510069666,-0.25816799344878,0.0567943660365289,0.903916002888391,-0.578949446029893,-0.71637673488816,0.0460028699497851,0.960466350364111,-0.623759448440445,0.627003376987835,-0.0814125644228052,0.397187991075877,0.00640374712554748,0.316036914022003,0.785712201143888,-0.0713016382952803,0.55131893365801,-0.62537327488077,-0.399953801004817,-0.45933388893989,-0.0370475240049621,0.947023479203251,-0.88241400680157,-0.83251022598193,-0.366143880797012,0.533728509508426,0.349661977737446,-0.137652676931245,-0.756533072523438,0.734478958654478,-0.879416738395147,0.452673202057051,-0.837502560913235,-0.472770150221687,0.869037690343151,0.7198637111821,0.822875096762712,0.961888687611264,0.296212662899767,-0.424026551560743,-0.0979354540728439,-0.847580825137305,0.098078810592592,-0.590648726358153,0.0570047200758748,0.7195113872706,-0.0786170021751897,-0.613063333671115,-0.821743272068009,-0.180063754028501,-0.551463798609624,0.823063780729033,-0.893658042700951,0.00596213918101463,0.49336994894606,-0.255912259456604,0.143548371285624,-0.373981479993645,-0.41386721277735,-0.866294113535513,-0.307715648129359,0.974420864916094,-0.730492765036313,0.270756545058909,-0.012162888323366,0.158905165730242,0.213117906572934,-0.42920059780609,-0.61644163838102,-0.134783376840263,-0.143444053603191,0.464125430600756,0.0602800697147659,-0.619113174541629,-0.112652207043445,-0.437999600165812,0.839816914144058,0.927370835473656,0.607630607346947,0.653251463029268,-0.531055627668141,0.154906439472034,0.0399433741796835,0.644899384494173,0.402748331365229,0.151789145661703,-0.0452348362192507,-0.24917878363734,0.755404261623093,-0.622918177865065,-0.134008012768369,-0.16209672491701,0.635644685683096,0.313191263444153,-0.28070672340988,-0.189692758141078,-0.331643664121449,-0.108533338353793,0.136207592651008,0.133160599600905,0.806162096993096,0.321927675528545,-0.453263946966299,0.991336370385413,0.177860657769197,0.787335062378592,-0.541577629500121,-0.126652311899154,0.856017465898395,0.258258766715896,0.71986189511466,-0.277729473156107,0.0747197546493118,0.0354081077981926,0.497140832586299,0.214771174203422,-0.0129916307474704,-0.744345209605683,0.044667013683772,0.20922804951539,0.704709583016092,-0.965625879403874,0.569391838068778,0.38587422309828,0.553279266991739,-0.467269210027243,-0.089593193731879,0.597968378400055,-0.151102614222044,-0.859166814597044,0.493718171957714,0.877865491363585,-1.00785970173188,-0.965023433272448,-0.810209574598246,-0.177958079208349,-0.0580695362691415,-0.656816730244791,0.123727203127038,0.922974843603588,-0.288110268372929,0.00940458035424176,0.93876943789188,0.939268507157885,-0.559531267487063,0.752986968663824,-0.551029290237491,-0.0496588185666023,0.779755179299476,0.811508827356016,0.316270482303617,0.791034551580106,0.436682480204361,-0.593783750151101,0.961062762135023,-0.535861749482307,-0.868509042448899,-0.285654556371218,-0.319194736020403,-0.36540004585878,-0.500541941907089,-0.818426120151749,-0.861782827345875,-0.531625277120666,0.508932356284427,0.614233174209362,0.598104156595277,0.217147291867087,0.890022119960919,0.177661638830285,0.641003698130742,0.159981436318521,0.783556273129692,0.496135919762084,0.577403551149202,-0.316908623379662,0.526732532821147,-0.179389673642733,0.48434691962458,-0.633996715404422,-0.585234320309673,-0.765086323559591,-0.183319271457361,0.141639865798854,0.721385650076312,-0.868882007899183,0.469908758333037,0.0640703205602295,-0.0583779481965918,-0.0367275982377273,-0.46576276226825,0.471140677201903,0.22918877338981,0.968568059248795,-0.748953877519086,0.225052591265582,0.533313827361726,-0.263566783426713,-1.00154780466064,-0.774579888454855,-0.933906578997259,0.497877433577407,0.845119833070454,-0.904497289478425,-0.731951314282455,-0.677685751307304,0.765204950991315,-0.195159688332827,0.11250572031291,0.648444685707822,0.190080235555594,-0.894298785146008,0.431552547742403,0.465972664843757,0.203694295834451,-0.942434549290279,-0.25041061652128,-0.201893525377781,0.0436842573553044,-0.472036054806144,0.267281656714872,-0.477618668768295,-0.779457527724694,0.32316553235891,0.769089867874555,0.884429113276685,0.245681889822026,0.842092046268404,-0.159849010625006,0.303470131509451,0.115049012860632,-0.578991213838111,-0.214516434137046,0.68014112757235,-0.526083795229338,0.53135357534042,-0.847087594016113,-0.42233746132444,-0.754253139476167,-0.216889453387693,0.602850182484199,-0.57532692497465,-0.825728389008593,-0.955025237667246,-0.313327828348527,0.173905822628111,0.751857958751927,0.607867796192764,-0.932297251030998,0.239533529978527,0.818526535012245,0.0315231090009429,-0.650134289825126,0.26923758745895,0.382705111244746,0.899679483336391,0.478442018256676,-0.155635851559746,0.490520622137775,-0.259408916808844,0.842462494701316,-0.00510493319948605,-0.203001149770797,0.592390515583859,1.10819723901271,-0.223603961964143,0.922315715451339,-0.83370526206162,-0.181393335709622,-0.643394670569857,0.00120301163904112,-0.843601842578791,-0.947452729215002,0.0884438908909229,-0.163271015482046,-0.532980235524299,-0.758158833869932,-0.971380460720062,0.52655627479845,0.282317213169467,-0.483415644754044,-0.235569366565643,-0.387292133490409,0.687149549174287,-0.246740640148841,0.421460733289509,0.442755525444212,-0.848238914389792,-0.254448174354042,0.425577099222946,0.0574246705468891,0.185060010281196,-0.530163927846693,-0.00389731708923208,-0.22293982458185,-0.366009396043352,-0.314016527164896,-0.80952122855604,-0.76426427705122,-0.876475017789022,-0.279102326597795,0.382377486346173,0.449069023816737,-0.448991776953599,0.657998503652876,-0.0764640880220064,-0.0616534477434496,-0.679931213148419,-0.615205036320637,0.042156961866165,-0.355649279767426,0.20073856364111,0.928051232062754,0.857494035052549,0.446083931608559,0.608811737818497,-0.663600659040027,-0.000479560744135465,0.420445617357672,0.44582039385157,-0.861101458181344,0.390070973651936,-0.937150927440407,-0.611630386115241,0.0815300265196962,-0.897262976397013,0.033360446792672,-0.497690836602186,0.1144118188282,-0.0400067635038093,0.4206532631792,-0.0886286601141529,-0.549521009881001,0.781392859162531,0.405820594592261,0.402947813010167,0.250318852174046,-0.864388252078855,-0.171826168758306,-0.767972727541199,-0.728475774061544,-0.688182435286329,0.759673161517217,-0.588120625147849,-0.471850003641914,-0.00512278751034281,0.719369169512771,-0.320155433508846,0.502005228534455,-0.0498441513858878,0.727895690223588,0.822274099452388,-0.299001395985635,0.186580373380644,0.660205022917076,-0.828997986801951,-0.866416920287971,1.04470976076169,0.310399480628423,0.479691041095294,-0.285777038009226,0.0435709784767496,-0.207824094291055,0.644080711989304,-0.227383073404182,0.859166731192366,-0.192934708420174,0.19380504329354,-0.372531396504986,-0.475018378155947,0.773969577700812,0.0341701270547378,0.157720513192823,0.0850643400154215,0.541135516685435,-0.00771056763643376,0.453306649814784,0.734901452061184,0.731467082696722,0.786073383209557,0.470671559146573,0.955007900458523,0.398794096885949,0.0323467569022014,0.453115791290677,0.580125801343676,-0.316071714344275,-0.752926371205183,0.106206403295502,-0.484722290015017,-0.280618251819421,-0.937218339767633,-0.89890440120261,-0.595789174040883,0.57742502421348,0.346183633271685,-0.817454062057968,-0.583642721761801,0.073269015405108,0.223435627579742,-0.969518189347043,-0.386283905054661,-0.439967441077596,0.596093437173851,0.115099528160559,-0.00756670556230813,-0.19507678797313,0.133323364624524,-0.782147559589062,-0.00955329030625543,-0.744832079028674,-0.216339801813524,-0.368518215410687,-0.441298254921189,-0.355650936093719,0.876217752169725,0.0899165189366718,0.72870695959924,-0.265628514678743,-0.122502445635803,0.500511562334423,-0.198204734338992,0.0562234259184209,-0.626997079109799,-0.325568382734375,-0.150607202545688,0.149257272553971,-0.709970186482173,-0.414432234001337,0.819670970421427,0.53296094215683,-0.8689930780474,0.990531726514938,0.275930329975606,0.972592347471049,0.888823117268319,-0.728268231147771,0.446637971059691,0.949380916637875,-0.802289493729416,-0.177579072638598,-0.559624089272323,0.22180616755262,-0.920192345242799,-0.850808944991496,0.842808902130456,0.29600437312262,0.245444038575786,0.334878283372477,0.904501792781338,-0.472440604854208,-0.313297090941507,0.304395212925902,-0.870100482460192,-0.33145275811442,-0.142379923683334,-0.0938318374053072,0.40983732355044,-0.612787639162616,0.645010458574107,0.195739199430288,0.124711484496383,-0.149452888192669,-0.392521596158696,-0.745149674592795,0.125127108002877,0.499712814467097,-0.10477920700749,0.776516430921,-0.400039537847453,0.201403953896039,-0.642809882290024,-0.902109977740902,-0.957999983303883,-0.459082366760826,-0.257442710188765,0.755239927791788,-0.659300441409837,0.350766338591138,0.573241999333524,-0.682108858849802,0.354036601084291,-0.307388281517241,0.297541523445022,0.420716625226884,-0.0271366576435017,0.151535446415818,-0.65833031892613,-0.298334121620814,-0.12617983120681,0.191369078046872,0.912308142303212,0.447887078437692,0.495760373945118,0.32795429542793,-0.982537857883168,0.0887768897560393,-0.70012506576812,-0.0145687674088502,-0.949292490727805,-0.699901271952188,0.840853722444899,-0.0874306050781513,-0.0373444863395589,-0.754118691294178,-0.50986515456729,0.874306153116416,0.550208429368301,-0.0064334391616887,-0.307335765678347,0.644075133075988,-0.664405500429981,-0.599530041427276,-0.0785863533310682,0.925750030910972,0.909708367860301,0.739976975206561,-0.39733505745927,0.662060501943952,-0.475660431568308,-0.0141071849140051,-0.893401382831426,-0.222052444734173,0.774573977650973,0.226463731130356,0.457637410323763,0.364542777884852,0.136674232897203,0.646344346390845,-0.127265514766469,0.794909552482216,-0.372842168172503,0.44146614966466,-0.541418108478957,-0.665523891929784,-0.672888286257258,0.076049904478394,0.488035866426644,-0.651582768158404,0.470472127108984,0.301619755165737,0.630686387437649,0.885089245209671,-0.781919353925532,0.473577263028266,0.225053127955403,-0.363850532581215,0.580886276815146,-0.884581570561733,-0.372105980086802,-0.921983002224558,-0.044749491738714,0.350404734451848,-0.570598715296805,0.747473821306251,-0.287404417598761,0.330560174864693,0.274289722123507,-0.73181420233462,-0.573327720711258,-0.741929988947382,0.607537484781147,-0.85494401736084,-0.924761615192872,0.573926466873763,-1.00900600975652,-0.886988355080617,0.401675550402387,-0.0737531735265554,0.399879601565244,-0.78787420686164,0.730909050172276,0.636947625912081,0.330341807046161,0.232492235382225,0.993586460517885,-0.945867484316776,0.564451756817509,0.334437449546539,0.805111920086127,0.414425552159288,-0.862034700809765,-0.143617554294263,0.808165429084815,-0.663738550313325,-0.81125215162245,0.0079870142416555,-0.112568895891645,0.66504946633194,-0.926137153930186,-0.823442521465723,0.987337211279479,-0.927103719370381,-0.547483683027566,0.836411059460123,0.598750246898526,-0.808656662336239,-0.424587445791153,0.469602792580469,0.859194517505307,0.973281058687611,-0.583343998131984,0.27596851461609,-0.820581969896753,-0.606462030767568,-0.33683429090328,0.500630586924105,-0.644359737345799,0.285655514559724,-0.627181894798162,0.271016227948487,0.511826817808576,-0.507953146362462,-0.822507123223188,0.669266752078876,0.0737301061294239,-0.843725842291171,-0.0504453840524684,0.554222720416266,-0.889381125046051,0.103524947636229,-0.15871748181885,-0.698034681335168,0.989035245143921,0.722023822105585,0.683334972790594,0.694742943522571,0.599904274920171,-0.0682423341934769,-0.0128303304457556,-0.654545185846268,-0.735499608307414,0.695943128725315,-0.0394748737844071,0.843505346374324,-0.749381670558976,0.285126443209536,-0.691277449899391,0.98287040860727,-0.502622179121565,0.703895678822405,0.568851487784584,0.795795621903753,0.684169678350631,-0.615099699221096,0.883424544833137,-0.593746496578463,-0.0140424007133432,-0.801818043163418,-0.818752767563998,-0.60806801375162,0.110888261871277,0.580984521521714,0.041705601286949,-0.30999681757052,-0.46652456051452,0.0897138897355501,-0.802649400103291,0.154025402719333,-0.682221870547416,-0.632978061209477,-0.688611844133323,-0.997627663249726,-0.700031555970532,0.767486134058342,0.0619109859734528,0.648847981703606,-0.933240505461275,0.684753508144894,-0.369884177812244,0.506969576946999,-0.292777452721526,-0.97927865329466,0.865365449064915,0.937567804117119,0.281181535768964,-0.181733153487848,0.637179065135643,-0.653312226750748,0.432416785139187,-0.743630604315626,-0.463094590834562,0.153471992443582,-0.100987241648638,0.851999010597922,0.0269773558652628,-0.386674830225131,0.064044702205706,-0.928982906855941,0.403352029399748,0.372102866980456,-0.144865778576946,-0.402872758937534,-0.0381061088183679,0.920582186632342,-0.82487680459217,0.0229355642664518,-0.745969506788192,0.803428375241586,0.785969352768818,-0.716449542163785,-0.54633413545592,0.513587449550756,-0.475316177298623,0.221420961107939,-0.753968679360829,-0.224663801116386,-0.712121807926326,-0.586969852629485,-0.764101938378838,-0.461619588251133,0.26372539006357,0.480280378005077,-0.535430000723784,0.90211438455153,-0.62424304388167,-0.611320918358773,-0.142127458699558,-0.276886887437575,0.307297717268537,-0.857658515775367,0.117035460083855,-0.97212102635509,-0.542917251456193,-0.258275627146098,0.60874571124294,-0.287002431955959,-0.598753403297094,0.200285108172612,-0.116005983000248,0.491334015568056,0.138777041775835,0.646482321691677,-0.828553170456794,0.499226036462759,-0.369822613340481,-0.0060033001845096,0.292679544665162,0.450122286105871,0.835597575966709,-0.987460739354541,0.525891068821245,0.165677146741899,-0.346263886022896,-0.369505976371261,0.356887642130689,-0.700075002442844,-0.316331322217448,0.946740323369324,-0.281461090787853,0.742799531834799,0.188699594540741,0.274722548201374,-0.379869947663906,-0.721525018627906,0.263310888090783,0.599210977690297,-0.0475373131135375,-0.187666411108645,-0.586860623298113,-0.554593487614696,-0.512756980970419,0.512417126432263,0.745071238951914,-0.634288443555707,0.774193826332922,-0.356840068722372,-0.777355458806537,-0.447950800945453,-0.408124306255988,0.441278045594204,-0.794001945506435,-0.34137977322109,0.721944958983085,0.0459416691916101,-0.257852418451689,-0.497470337846124,0.204734772465796,0.31660877726271,-0.940455676479229,-0.713289246229459,0.999240347565757,-0.743674310583396,-0.00379633659292566,0.170865692073473,-0.758115055547731,-0.952368138522827,0.899093746940181,0.262584890892756,0.304215335398568,0.397806604577973,-0.333269708000738,0.49366907850615,0.297673829077466,0.880634727167266,-0.966221714046527,-0.192871571684056,0.868488582806823,0.841825079789824,0.479478430510804,-0.618370359332035,0.946133401131786,0.43123392697243,-0.380680152227667,0.612268292094617,-0.351704695463654,0.55069938558143,0.770960386415281,-1.00555297002223,-0.761352865627897,-0.572876491753557,-0.333036899216786,-0.880671556599571,0.564230341135122,-0.837576053666893,-0.670882628214719,0.541031913996349,-0.594233234793285,-0.714201081883415,0.513544364210315,-0.643551424625239,0.868363160013221,-0.581676151277016,-0.435208581426221,0.957431081721771,-0.0521083113006016,-0.458834407590797,-0.921248572103941,0.495423212671016,-0.508973675569161,0.820813817704799,-0.0416800333839151,0.45920905613197,-0.883844099657495,-0.955449583186268,-0.199486133525122,1.00405701513,0.882909381042282,0.435294081512461,0.853637019503869,-0.482219040480246,-0.210802389531688,-0.519129318188315,0.554537722936856,-0.867844778126031,-0.0183372834147812,-0.827207283707912,0.256357810131518,-0.366669441602531,-0.81764971925656,0.837904306006408,-0.722948901433947,0.979680512466868,0.694887408025349,0.371398824341057,0.865152707104049,0.14415044982038,-0.41900528763532,0.203552163272613,-0.0424231263954752,-0.526425292208489,0.672167214199918,-0.444689823785807,0.747673076301703,-0.782885539671556,-0.730774574745719,0.400061668757994,-0.893191677448185,-1.06031186527433,-0.0998839264461578,0.385516989666698,0.598503744566949,-0.612964091133772,0.780174686405794,0.0266872814974397,0.150507786328066,-0.379431726367462,0.0705403576603964,0.905199319435179,0.423709422939442,-0.686685170056267,0.713056760955867,0.733205096315379,-0.0256669592724967,0.613574843920758,-0.545046173585589,-0.132180727485028,0.0260724230210546,-0.0250632095606962,0.56552154067222,0.0845326911083665,0.658028129058753,-0.0789283078552715,-0.303259492997856,-0.0623426527269222,-0.180718820676353,-0.638580383232304,-0.189116047967223,0.862033662034132,0.197776262376944,0.536527906093923,-0.763989225253255,0.745880954101248,-0.699575159394152,-0.953151318488126,0.762108195662385,0.510345009187353,0.59540067731678,0.92110783597211,0.0199817104052444,-0.780043797783006,-0.878880381213412,-0.745858710393276,0.227395935656689,-0.888745990667499,-0.530911314223883,-0.0374501748353797,-0.0587355524360839,0.253836887870739,0.926728861124336,-0.9655314410145,-0.75287308799853,0.781311087901993,-0.281662850710071,0.0515262031582678,0.932100902185676,0.616447864917737,-0.408453791725167,0.340691262957507,0.684604760657992,0.707995636145019,-0.870448669169752,0.196437766139451,0.91592282824346,0.354753125993763,-0.0959835649891738,0.617006042002936,-0.687820984082977,-0.438414356580837,0.392001507148794,-0.179767102251912,-0.211225237257071,0.806202046679762,0.433047694437414,0.0232020030890652,-0.421152562271851,-0.253562071440445,0.741519660143783,0.685531270807626,-0.80367207536731,-0.531308855435313,0.457399323442463,-0.116553551712586,0.709182896901975,-0.806676186350343,0.572026076744711,0.333149060436795,0.354990768215565,-0.32395443462364,-0.0396114716193158,-0.931403660477503,-0.946337761975512,0.243586302109507,-0.914346093737533,-0.801029580601875,-0.690960827704069,0.294682772016971,0.435021832834617,0.667415866243499,0.0405804097790721,0.929135577012044,0.211557791885234,-0.270770619978373,0.742837806329883,0.454180937530992,0.128463500448391,-0.868821260634705,0.925847144065554,-0.98778062900036,0.986906331324051,-0.249536033584105,0.588249371241734,0.577218224635919,0.655563102254814,0.664451769691129,0.797747894091778,0.624860702056859,0.83661216853117,-0.995402158821771,-0.410435465918724,-0.552745117503055,0.910252582503809,-0.0514510402846864,0.758670309572022,0.427691151702635,-0.218296508128487,0.900000138615255,0.0264463581777428,-0.709933625076082,-0.165705100231259,0.747472897344331,-0.378162616924199,0.404279054614752,0.203042774669911,0.34396411714659,-0.275544776816647,-0.057992763219769,0.121124902822754,-0.302453619089292,0.00343328983902754,0.894055606409129,-0.528936044500902,0.381324103811323,0.184583287323896,0.0537490132686922,-0.441729052113125,0.361509599028126,0.280942599055367,-0.40960473706134,0.349909430139571,0.774716122976298,0.821367081142924,0.801069363222329,-0.96345140320617,0.460018572187574,0.618782033725107,-0.567625450164821,-0.696384462674054,0.893421311657611,0.58878078849186,-0.553061881343582,0.495420054125366,-0.80963279940119,-0.830038592818362,-0.269830721435765,0.845256804954471,-0.623057046312395,0.636527476261659,-0.472806823999433,-0.978231868754548,0.310872083043467,-0.792825873155736,0.259739552685153,0.639110636496524,0.372125262343891,-0.408728597793498,0.418414879341896,0.329546297663718,0.836372750680301,0.802472332738225,-0.360432418061475,-0.34872616292756,0.525884755933531,0.792504418996162,0.357331753755155,-0.395331171632402,-0.959510563895891,-0.648785616564892,0.959177015056226,-0.171164364362425,0.642672297902525,-0.253469396304187,0.416955660370605,-0.714251330220093,0.245921744632672,-0.715054450710719,0.0110356064812163,0.71947947170498,-0.996226359205427,0.24510756226189,-0.850143907594606,0.878702647382439,0.654271188769048,0.573364911522956,0.529572081020111,0.356805938997336,0.591016974225152,0.667696103167299,0.0250688905551593,-0.497688025172792,-0.980424909799858,-0.242412176685527,0.117390865188416,-0.116712632568335,0.140189678294697,-0.813237877363296,-0.220809966311609,0.917200239288169,-0.470346037429503,0.367235519983818,-0.691037400898475,-0.369463979055462,-0.837716454225789,-0.629994386049745,-0.0976245678685367,0.428692844850252,0.768979546629638,-0.854631638145436,-0.258304025663102,-0.347820790008312,0.841490145337556,-0.764711403532428,0.463035073924635,0.906889224578124,-0.876416177438306,0.203867737935296,0.141520670166597,-0.897270653236895,0.763514575057853,0.425008438585351,0.554772137257409,0.188821158451743,0.745724167948565,0.105023296831792,0.295713667538282,-0.0742218088099081,-0.667197191522014,0.893674150205288,-0.54098742997457,-0.624051330763036,0.707857000933903,-0.28677339478087,0.747666513646735,-0.345827622323785,-0.100646200064062,0.00401474195562063,0.0774066109239265,0.0224187620609835,-0.867525964695263,0.195533791556174,0.231000809406853,-0.225028135465916,0.0897268583329498,-0.174427451306549,-0.983378868819254,0.275109669162991,0.4665883985371,0.576991706189831,-0.0761533257061884,-0.456860066023124,-0.536454768885108,0.770511599093591,0.309179961910581,-0.944487188377921,-0.232938581627132,0.759648657339536,-0.229152164962127,0.713189576357266,0.692958374760885,-0.162655080345294,-0.0254236651811461,0.839227746226489,0.817809428397174,-0.160787346971432,0.362185284901257,-0.669772123539002,-0.995893511147338,0.172634279193097,0.5976952732089,0.690725759454694,-0.80241153588263,-0.0796290097842722,0.403389099769817,-0.183748166931395,-0.632266521023623,0.362355074815358,-0.0508208835451436,0.739713653363532,-0.424750041252079,0.201382469808211,-0.158156844091946,0.564803919161665,0.108255813658272,-0.963005292066238,-0.335270032615117,0.505497581835035,0.356052201612107,-0.0930556487168581,-0.893088247194066,0.599331737705663,0.594561506137707,0.472198772355737,0.556114848057885,-0.837101744178286,0.651542704223832,0.0939558477834546,-0.27062950770558,0.242248662106832,-0.287233718270258,-0.715019043207338,-0.862557270670835,0.347193281902116,0.845584100368298,0.816367004979909,-0.187914378235718,0.528117999555336,0.0590446543352663,0.91354257138108,0.463345753178725,0.842785751032016,0.579059711626892,0.172758412736998,-0.746584704124723,0.0584761977825737,-0.0396813491980058,-0.524779941040819,-0.475315649926376,0.214340759890695,0.524323088047022,-0.775662136176069,0.371618384122687,-0.901137906524805,0.421060668012519,-0.497663469222591,-0.923992516095318,0.268313808978985,0.0115485471009913,-0.981922554878333,0.70962614927941,-0.255640300412943,-0.490352156395522,0.548589768598144,-0.00751717595792831,0.529538554759354,-0.0476396802569802,-0.9042903053954,0.0727155745532784,-0.893177887014843,-0.26106254294742,-0.661756438306764,-0.7134015742949,-0.0327104948339317,0.334180630312058,-0.544023985102241,-0.611446110759817,0.378055055967089,0.136537780481849,0.541481873451004,-0.248315185295901,-0.98366641764002,-0.805262545793817,-0.850436757135972,0.49927233316493,0.592820902305556,-0.0502068413493914,-0.333854598060108,0.444050434166622,-0.777504896549195,-0.14139209009578,0.643299147862446,0.928409045494871,-0.199551088730981,-0.00427863119828457,-0.884202545847548,-0.8423290741226,0.517836958892867,-0.617248350849976,0.294504675713462,0.475606910379152,-0.569780346058119,-0.365175169481196,-0.405663350205382,-0.159642526026463,-0.771403489381045,-0.301601977082404,0.617760517010916,-0.71407172888612,-0.719455878404138,0.519280152928048,0.70319135059042,0.684744936014422,0.308044246748344,0.646146921238444,0.633504995622385,-0.560652816863119,-0.0698273982521021,0.19226852715478,-0.342078800321647,-0.299722290315971,0.189875815602512,0.786276816127414,-0.662977865027532,0.249567039232843,0.752374235110495,0.022640818745833,0.517019234307115,0.0199417100751103,0.103990534005626,-0.292275147790618,-0.89540798277871,0.532738513605046,0.371518713751518,0.622643686900613,0.690123580399389,0.965749581986592,-0.452496083178602,-0.964211296169496,-0.823754767821526,-0.233156251269289,-0.962184091079791,0.502357144700376,-0.271961447670837,-0.010193117324316,0.764577198679194,-0.165286906529917,-0.537845852544975,-0.87940320224373,0.795115769549622,0.544896647346459,-0.473845453853756,0.437320583179273,-0.587588559707838,0.400753750620859,-0.903732532321326,0.739943193035759,0.633147552915953,0.550099608857027,0.373804413070308,0.559084112432356,-0.101690819460863,0.759214149215913,0.843600381179118,0.167081705799234,-0.284545187625733,0.128152157380591,0.421259532291085,-0.15014536616127,-0.588907693633046,0.0647988360231836,0.754110341671532,0.12580269619183,0.917468796977588,-0.451732925807563,-0.253205406665056,-0.778006652773038,-0.78970195694581,-0.693578375606174,0.275652939250347,-0.337294691871135,-0.831529013597385,0.889167611081841,-0.378504400229815,0.649225266421681,-0.431377014522218,0.550592534339308,-0.811633071599045,-0.248732117605912,0.519100588262818,-0.182542242494608,-0.198981802534924,-0.702769592477725,0.622203091580559,-0.225695208238406,-0.48952565596431,0.711143467950846,0.815074022199736,-0.139445596940801,-0.0363038037322923,0.735012822364501,0.59059433929796,0.107923698481746,0.447324260986848,0.603130245598882,-0.350127984719628,0.819842810918052,0.712026693709037,0.0192432302766667,-0.62187978469282,0.217244678891029,-0.282091216658012,0.678332768679556,-0.0607163119430747,-0.0919721631348275,-0.812973799258496,-0.34491684003184,-0.953279284319869,-0.0344186321105525,0.323108200646855,-0.605786122665081,-0.674596053373979,0.48064385677733,0.935434158293715,0.198862921423988,0.217864138415709,0.652671155641321,0.482294974600745,-0.32949954377549,0.62865936380792,-0.215863076669032,0.818129813969495,0.700899374808008,-0.198334443215446,-0.171971810864882,-0.686776341241584,-0.893281399360602,0.0513110114859079,-0.766709392807107,0.731368908844546,-0.691850681258368,-0.255923620981939,-0.45909645781826,-0.349139083425704,0.209313620715117,-0.316925779818457,-0.60552274727079,-0.00307526241965794,-0.383387732032616,0.740324304429392,0.303401742162611,0.918102661383893,-0.24444536871912,0.630760385697735,-0.660148286828832,-0.699382113752512,0.480912168953166,0.215737818844615,0.463868784020085,0.615892799767211,-0.598612221361209,-0.641639753844588,-0.520567494347329,-0.135663938271312,0.717169160881209,0.511048565652467,-0.228893132352224,0.436636359324776,-0.317844929810266,-0.761773193889868,-0.463469224856432,-0.397924588109025,0.660244765143622,-0.0088997205820791,0.0757724968406333,0.0458240520700152,-0.574249603099182,0.420788749357273,0.0929901100308554,-0.683977045225882,-0.957395702918085,-0.719258301357843,0.983425209598662,0.0903610806010237,0.0951719602542138,0.00515827835337198,-0.333579598455162,0.941767450873315,0.344826880123486,-0.778937996480548,0.431148814606853,0.794226716331163,0.971479653287113,0.66074920870064,0.532375429694214,-0.700578557899031,-0.894763608440451,0.068391002403641,0.516695152541622,-0.759129819653614,-0.302304730339159,0.48093018119665,0.128848317934213,-0.561514880290469,0.154991241717332,-0.269886835216206,0.758390872915886,-0.754504460010431,-0.8418672204053,0.89701952713843,0.192075768344292,-0.177302366238824,0.992618611122379,0.701122961722245,0.32000036751204,0.658583503500297,-0.43887381923022,-0.755925494308266,-0.372657475394685,-0.284681497193329,-0.64549038710409,0.883324540530727,-0.0866745990072964,0.922129136285711,0.805792281721182,0.850495394697486,0.339390712187862,0.744269458523856,0.431694794894989,-0.199884991674353,-0.717918129795963,0.0106793345700314,-0.295690113796581,0.149886096799998,0.454039427833685,-0.0907403448305671,0.957819782581607,0.551453589668774,-0.589405266938985,-0.366322566774972,-0.584953132299137,0.730796944218103,0.563981197805554,-0.559509378021053,-0.411902523535349,0.755557021713488,-0.292892567353192,0.863447460420585,0.610994321205759,0.712319576619901,0.0449297759899984,-0.37835133269445,0.684145407766669,-0.978707483720116,0.517842219956137,-0.293789177360186,0.183308600114932,-0.0172824214035404,-0.806362376095569,-0.902020440100582,-0.0387285926083691,0.901803374154838,0.577074731572641,0.197421867726337,0.726914808641517,0.983306345831483,-0.751344469347782,-0.34623407420609,0.556047870247964,0.158775626571482,0.120052729664738,0.509750719787328,-0.407696611411923,-0.422533659516048,0.760621407062823,0.897638530503438,0.0275147016772861,-0.709972682944466,-0.966396431464105,-0.725040228934918,-0.289357456017288,-0.737395543807218,0.805146796016207,0.946964960513894,-0.57864132424502,-0.821181346070175,0.959530192910126,-0.591254978684825,-0.301300735879903,0.209679039570308,0.0966684227737233,-0.729538724207433,0.252731227275737,-0.811901235223484,0.277548786264034,-0.00681685345052242,-0.234349401656044,0.0770540876951811,-0.40500616195862,-0.71575758380996,0.313741124196257,-0.96246902199769,0.237745713332818,-0.726185553491052,0.954385960414462,-0.806943376133533,0.71058120908036,0.309222892632692,-0.717652563523995,0.702119793204108,0.487170576070544,-0.361381362247675,-0.751070399141765,-0.383959429155635,-0.186283700790802,-0.641324625622506,0.486950443979614,-0.743444177756444,0.908575313100525,0.204505079654057,0.807975216606226,-0.866458360197243,-0.875392611871305,-0.265546844183248,-0.236749665585445,0.319664471298681,0.19374320762235,0.184600685324244,-0.251487819192623,0.0843785804085017,-0.0617527347757965,0.699262432055205,-0.351839275202977,0.0977001884059983,0.894558048295087,0.853912662376555,0.294565163773679,-0.887369999060722,-0.726440380531461,0.968058772267684,-0.325104906164497,-0.20849203483495,0.390629713262479,-0.0511861101794444,0.0593589897249377,-0.891859698431238,0.557525602539475,-0.612100828199438,0.156209475763611,-0.54154969839793,-0.00590395568478372,-0.840399656090192,0.806065160364739,0.274186850769347,0.591158185773025,-0.780120096438718,-0.801235050705542,-0.143563920061598,0.342731077035867,-0.0628724528198765,0.34607968842753,-0.306962229708716,0.553150486270909,-0.536810829746599,-0.331099784518742,-0.721988436354627,0.438572308349924,0.529681014215668,0.0523757131552945,0.316581470542125,0.828549973548271,0.396908813605873,-0.486071129162658,-0.81288969744726,0.146551261803391,0.109037155185168,0.189334695711532,-0.676947077637109,0.963048013013336,-0.336682537598336,-0.107430539447501,0.37407865859114,0.352564474395603,-0.435063877967978,-0.703289937139882,-0.907981424975991,0.740598446838379,-0.288262400369798,0.84642414829213,0.124222588777098,0.472782813868266,0.00359367846001937,-0.720578468245405,-0.776556564569161,0.762823565930416,0.503901947113266,-0.470716020720191,-0.494186045137437,0.729257081137087,-0.980770326779256,-0.401286281756965,0.14843363973141,0.888390772543735,0.137571032537728,0.057584194046958,-0.103666532169602,-0.381005682595273,0.0964224049723486,-0.758892546840911,0.943962501281127,-0.856233853825042,0.813353208724904,0.363392845559886,-0.219695591919997,-0.386051573670997,0.9679033293947,-0.12045399413849,-0.682087639014436,0.869669291179625,-0.704514468824296,0.824293060205895,0.861337589298859,0.742194453669803,-0.400887477712432,0.981772293579738,-0.415732997922553,-0.442218937923838,-0.0216073796795623,-0.244253594055758,0.732923514729035,-0.852701477276914,0.504995607947446,-0.884608868135813,-0.544197794131508,0.909787290530693,0.799291802490322,0.242280884941946,0.961260109644161,0.928727348350122,-0.821882646975824,-0.917680701996908,-0.90360525278926,0.337008110704827,0.65270746605168,-0.350537621392807,-0.0630213142489626,-0.806997660741431,-0.699016721433728,0.432561412106955,0.13588906584113,0.509042482689751,0.766641025965417,0.107077077510061,0.882788932677503,-0.0874410951973324,0.749941192175134,-0.307724219087145,-0.510558831367896,-0.833039210895954,0.529134615503773,-0.285635259133509,-0.49325705937002,0.654916439461548,-0.383961086794079,-0.444963539230467,0.516714860385147,0.877707315721536,0.431561984534078,-0.679635585407228,0.30106679698524,-0.318727001887457,-0.413954368445585,0.354071739905787,-0.14996029900568,0.765623096409797,-0.10759798127547,0.485324780099229,-0.981403143450182,0.831987580859075,-0.939404247100806,0.561117501317155,-0.643708683794385,0.3787908672117,-0.629547632586151,-0.526552191829931,-0.637815101442433,0.0705281186177167,-0.301387693736583,-0.662362762986501,0.21851294610676,0.100206472683505,-0.522601356780153,0.685465118879593,-0.644245588983583,-0.174660252505822,-0.388589479565655,0.268863147576142,0.0070594080556005,0.222003486795807,0.919591417517915,-0.222435693278569,-0.744791189229541,0.633977674924351,-0.271188932516174,-0.49507128493023,0.579064996011397,-0.447386215003249,-0.640874591013921,-0.427141309436975,0.954289735548126,0.282812381577181,-0.188642341358011,0.499015218175877,-0.468025208582087,-0.0125779349326209,0.353191261026937,0.689507194753488,0.667560889909139,-0.0698416952634271,0.393447406504078,0.315450260627457,0.672259344971222,0.0977065767190214,-0.93987360435731,0.575060228268745,-0.560642948841725,0.875964314267046,-0.875277243075917,0.795608749476039,-0.595484111468668,0.976039684711935,-0.284119978829471,1.01295448635208,-0.755110584656477,0.305854593655249,0.530775711434524,0.148226966416388,-0.55958193275369,-0.496076113301051,-0.10815562541102,0.313030653104653,-0.32420343648001,-0.811420517937046,-0.115858984119337,0.3478723215893,-0.43985010580013,-0.771069887622982,-0.0294156057610939,-0.566690188248091,0.340006812057525,0.911794736683673,0.689784899007477,-0.857797309046976,0.144744182338579,-0.330397692793844,-0.0134109439035505,-0.231238936769252,0.897412641716696,0.328649330778534,-0.198826882317343,0.866949314422243,0.523798695016102,0.665380145944373,-0.96918429962442,0.0119078347253898,-0.927132995183895,-0.139902721622559,-0.162463722590004,0.378498474368834,-0.078715330564692,-0.563635926701029,-0.462713211716692,0.753803176837932,-0.54505910888942,0.0527920887568976,0.780451731000261,0.712425223817446,0.928421359680244,-0.68831787998258,-0.21677182467301,0.99723258069743,-0.617436094085754,-0.166313558023824,-0.525485728541649,-0.348457751101112,-0.791794531503189,-0.787918535705586,-0.635202708908162,-0.886492496936824,0.785399479502779,-0.342353249313701,0.320817111317933,0.108444211205669,0.838115325987785,-0.171127971399931,-0.131336322740695,0.456307782363432,-0.169067937079758,0.389070749898794,-0.464260359017749,-0.862865151406692,-0.426052323599051,0.936365607468873,0.662503289208095,-0.937969865886058,-0.0502414921300556,-0.765300128761006,-0.543554504013159,0.628843336664601,-0.288920443780547,0.73781551399851,-0.63052494715902,0.156829436770135,-0.900291892009336,0.372195223373865,0.558068888336194,0.985190751381586,-0.328741021644899,-0.504858873942385,0.523578366606527,0.738472092641283,0.474964331273227,0.000454501815837777,0.0896462651985339,-0.376865482181477,0.0147882560080198,-0.912553686699609,-0.240569521334484,0.707021352013431,0.641395795864663,0.337089267666943,-0.475744167024115,1.00240772536658,-0.0277898152422071,0.209792226064707,0.656924153436005,-0.555692351598002,0.674651646250363,-0.744305166768359,0.378988327679385,0.944961479323475,-0.243561310474388,-0.977953508160771,0.202679353368639,0.270108584308318,-0.996311995819126,0.161007845179948,-0.656881606060118,-0.773192973685668,-0.763811103551559,0.521887614870873,0.53471016712828,-0.910103553761314,-0.932074934771971,-0.629148960062354,-0.0630112118361121,-0.00534817499649715,0.570626930481666,-0.248886372731347,-0.29952072326039,0.430150787718336,-0.642561960220664,-0.607346150997203,-0.4643980165075,0.966109119208686,-0.821825790419165,0.693456058905671,-0.230291824191369,-0.436837334167974,0.558729730528821,-0.560623054261246,0.990713685156726,-0.10982013140635,-0.581351421975851,0.828286369199569,-0.790371946052618,-0.017567072691497,-0.866632797181124,-0.285106847255829,-0.551373355168409,0.568814653807456,-0.222204493465993,-0.67141547214905,0.371504469207141,-0.921563714070322,0.078935166630308,-0.256457092249234,0.505932852401039,-0.465382042771987,-0.792630694166377,-0.259788996296511,0.395028126864829,0.158354253212189,0.801661180307732,-0.851210794605755,-0.0813017062054863,-0.229857871213712,-0.0109821504092666,0.882154308349322,-0.00171725189842947,0.360235644733672,0.690623671375166,-0.387856298730862,0.306617987691355,0.0303672588314208,0.0216591135525721,0.390566375217408,-0.00112961114365899,0.256968941492533,0.715876730695877,0.269399264441582,-0.128922241456831,-0.480107290417319,0.580526264971261,-0.679487041374261,0.496719465086873,0.544635505769606,-0.802939980516326,-0.59977033092359,-0.337765362254044,0.0760433945689075,0.839776364337929,-0.266637811816005,0.656408556167472,-0.532308101052444,0.859573466739034,0.838652905363447,0.834119661459107,0.449252515065823,0.650197565316279,-0.0673336377310984,0.221468506780177,-0.2921191284886,-0.937070212407251,-0.144594183483287,-0.0462455140384621,0.653992679099732,-0.113039023196633,-0.529864433333814,-0.0353771027636647,0.695065372711714,0.236746313923907,0.791717229605031,0.473499585751093,-0.253027634754887,0.289454746764709,-0.812396730602156,0.622790625974122,-0.867194169486868,0.604264460563346,0.900498725576716,0.178194403014231,-0.54070962958426,0.0820389781168956,-0.308858755515156,-0.743742925915718,-0.695659042385094,0.861338002914883,0.557874775233694,0.575674482003727,0.0149121491262984,-0.716270061261261,0.336195879033445,0.509306988329621,0.398025013603613,0.844541635816234,0.234455807868952,-0.163375692356331,-0.687894331959688,-0.07829085373622,0.606482247656536,0.740618167058539,0.808714168807727,0.78511014931873,0.333652183449407,0.421718486680471,0.49488920734603,-0.508263011272963,0.0248534718842522,0.971252924075566,-0.166108286938609,-0.384028256293506,0.60215390495859,-0.595698107320602,-0.636970323031507,-0.608583257745263,0.162443165332331,-0.692131686398881,0.575393280568867,0.137049141185976,0.555112368371209,0.284064746856706,0.62781698483835,0.21012983866371,0.489233562721207,0.876415668103226,0.483511838186586,-0.16454184832116,-0.923963877928426,0.388446204868176,-0.637951065304558,0.247361536623946,-0.317287171578412,-0.143055874578264,-0.0233363553068256,-0.164103358080671,-0.40276729924174,-0.543032901781865,-0.439820731652465,0.640117750263853,0.795870404530642,0.550132506764058,0.897418809747978,-0.643913387468486,0.802866360809634,-0.247186946052885,-0.26400172329875,0.196891379541699,-1.02502683463028,-0.116231427775878,-0.196409438166964,0.781324743839628,-0.357477311466139,-0.20916988925292,0.751736385327269,-0.867287092380189,-0.533128545492668,0.507429416612631,0.222078331928596,0.564215391950382,-0.718178114746651,0.40668635467198,-0.774382548453602,0.779503970360531,0.122654317013517,0.294351250150777,-0.112644144568085,0.0111155999952613,0.361576696642084,-0.256016786292133,0.403161150621949,-0.567777093500454,0.865711629101794,0.407531724798327,-1.11487893614933,-0.22323160759485,0.489177071907549,-0.0196615630559416,0.0686800548550798,-0.446157463806414,0.277070744215803,0.371058511602507,0.204482170939083,-0.101907853354177,0.696297345453401,0.161745967678625,-0.270850313904396,-0.645816561770446,0.757656030493862,0.938647214103887,0.367373857056679,0.00126953744872371,0.822551420790816,-0.808571117133297,-0.520983528569669,-0.831187612478781,-0.851231115825067,0.10977035240312,-0.848117420988467,-0.31008901092309,0.0838648612442423,-0.347102706924582,0.241379005054729,-0.100389108712239,0.452947910721546,0.199571831583426,0.280487079437883,0.868276498392551,-0.343385236272693,0.903536272714643,0.534721594785185,0.903499930860038,-0.58816276373418,0.185031258124328,0.615282746335557,0.833864099032867,-0.151137824262921,-0.878303909030169,0.48273816755518,0.839382743790889,0.0792385803565391,0.636237305999534,-0.349428662088449,0.960815463146842,-0.352133949078954,-0.655006219255351,-0.616731642496639,-0.761556958328425,0.801140977710703,-0.657454627966496,-0.27106415796191,0.502167100229777,-0.398150108890263,-0.0654086753253247,-0.890073557950725,-0.678326408380353,0.290749568340846,-0.349466664074569,0.690280868691821,0.416355416110283,0.944632825841553,0.166652104478003,-0.167956763904643,-0.241244592578244,-0.595385829020797,-0.12048107141842,-0.406921683798982,0.560417141290458,-0.249119114406489,1.00281587095,-0.0381789741203226,-0.0547648549446769,-0.588797330175346,0.122431684239216,-0.0157235362483632,0.392855530034145,0.0402322030993665,0.267321850071995,0.947969790166785,0.524163592099397,-0.839466060036732,0.425512593051328,-0.944877773791931,-0.500821059445015,0.442213898364329,0.733920664920056,-0.516357899349195,-0.734967277259664,0.591138730952617,0.350231804958578,0.542445849388779,-0.320624835272718,0.0562976965125977,0.0766008809508226,0.587809277239499,0.708566133253964,0.396113044183169,-0.859181087832903,-0.381857551744901,-0.323232642025311,-0.605826412808649,0.547270404923769,0.471575223327646,-0.117370828636807,-0.755835546076422,0.400280747517743,0.948709255241672,-0.354850386911738,0.58420642694261,-0.824746963048703,0.302340360149351,0.819802698235079,-0.854027256768595,-0.189232034502837,0.690937002254681,-0.0549961290607213,0.851931974306517,0.382516794506957,-0.606155650506452,0.0831703691356886,-0.611845193791055,-0.47065315674963,0.925734305058479,-0.490885855839301,-0.876971062239345,-0.34531083655382,0.431097215349804,-0.90078767065099,0.0796575862881259,0.172011842726333,-0.774084954386196,0.896031553675417,0.408737489267944,-0.108575837513308,0.313064407323128,-0.22624584017447,-0.669455146499432,0.107313140886806,0.765998021386942,-0.229580985402671,0.526608910659391,-0.536548680069422,0.705694600664647,-0.0472650723003829,0.290503811201121,-0.509360485964259,0.412631725456419,0.238709865718336,0.880768983144185,-0.659463982067394,0.333930439821892,0.122933938655024,0.165807237360448,-0.837050494544848,-0.470177018220092,0.214024311307484,-0.174708149481297,0.0939590239092987,0.531055989319628,-0.573369590579386,0.221442490801046,0.106116361293597,0.294728021998483,-0.127679185759316,0.558751475222046,-0.771194233366419,-0.352934646200666
