0.587804053263087,0.078430636542735,0.1445500756813,-0.276930697771788,0.497019757097749,0.47026455173409,-0.0478868052617775,0.342659335176157,-0.374376259474752,-0.024592127460865,0.0773808138215441,0.144495160280687,0.263360246204705,0.258495691483765,0.601063440188477,-0.900721850191297,-0.301329738772409,-0.472411437095354,-0.33471288475435,0.392812089154015,-0.184450559734797,0.0417108450065484,0.890149578132409,-0.0752614840388516,-0.203099345538423,-0.145929753755614,0.114546041263393,0.086303063192883,0.495257838894151,0.222967981714478,-0.659661754580511,-0.159102272111826,-0.758893933447852,-0.857437866310419,-0.26054957938477,-0.547634057436483,-0.294147963546604,-0.428473780724004,-0.237912568387882,-0.225024448761673,-0.0730417658202859,-0.0437097843041942,-0.444297919893712,-0.724514375741398,-0.0303817346093232,0.0962105116872309,-0.10152973026973,-0.179740277504115,-0.167183038221453,-0.194888398090235,-0.0353738380722291,0.0523310686278486,-0.700277655752737,0.403252098692387,0.216226321689274,0.465903238460221,0.513969427488366,0.303658745557782,-0.119511740150052,-0.328650735840098,-0.274761425312719,-0.523251635211076,0.265804458460642,0.301176584442877,-0.130168213207783,0.168297453861769,-0.0152863718190722,-0.412907221865921,0.442308777491124,0.448777372715517,-0.0471843990515274,0.0545504016479003,-0.798874235943808,-0.794937501829466,-0.289249773823475,0.272609653939213,0.448173755507169,-1.00065744075284,-0.0336777690572269,-0.199954646491955,-0.221300987501686,-0.330094485898024,0.890476647872224,0.334629682149837,-0.154864234953444,-0.10957962323597,0.00225306177740728,0.234521030651626,0.184683251117368,-0.0260977298954194,-0.403259761669061,0.570927047311487,-0.403036959934746,0.873306767884494,-0.758548038301006,0.716269365032207,0.427958918806841,0.550452705554667,-0.632147215692531,-0.188533336517174,0.0132756591380275,-0.315794416598893,-0.0252188135040409,-0.139036460757267,0.148880315539386,0.311776401025895,-0.509396566040393,0.0999884183530642,0.355547191718181,0.535808601951019,-0.165696095683799,-0.436396669248241,0.387529458880935,-0.125804328139905,-0.512091755145573,0.743051780776324,0.144579798729666,0.10082860973969,0.164906837034867,0.355038381529541,-0.0153994014215706,-0.0109574136554026,-0.102429479478606,-0.211185671086478,-0.340707878992005,-0.242480507799513,-0.152860353726349,0.362596998654013
